tree
version=v4
num_class=1
num_tree_per_iteration=1
label_index=0
max_feature_idx=241
objective=binary sigmoid:1
feature_names=click_item_num_3d click_brand_num_3d click_seller_num_3d click_cate1_num_3d click_cate2_num_3d click_cnt_days_3d click_item_num_7d click_brand_num_7d click_seller_num_7d click_cate1_num_7d click_cate2_num_7d click_cnt_days_7d click_item_num_15d click_brand_num_15d click_seller_num_15d click_cate1_num_15d click_cate2_num_15d click_cnt_days_15d click_item_num_30d click_brand_num_30d click_seller_num_30d click_cate1_num_30d click_cate2_num_30d click_cnt_days_30d click_item_num_60d click_brand_num_60d click_seller_num_60d click_cate1_num_60d click_cate2_num_60d click_cnt_days_60d click_item_num_90d click_brand_num_90d click_seller_num_90d click_cate1_num_90d click_cate2_num_90d click_cnt_days_90d clt_item_num_3d clt_brand_num_3d clt_seller_num_3d clt_cate1_num_3d clt_cate2_num_3d clt_item_num_7d clt_brand_num_7d clt_seller_num_7d clt_cate1_num_7d clt_cate2_num_7d clt_item_num_15d clt_brand_num_15d clt_seller_num_15d clt_cate1_num_15d clt_cate2_num_15d clt_item_num_30d clt_brand_num_30d clt_seller_num_30d clt_cate1_num_30d clt_cate2_num_30d clt_item_num_60d clt_brand_num_60d clt_seller_num_60d clt_cate1_num_60d clt_cate2_num_60d clt_item_num_90d clt_brand_num_90d clt_seller_num_90d clt_cate1_num_90d clt_cate2_num_90d cart_item_num_3d cart_brand_num_3d cart_seller_num_3d cart_cate1_num_3d cart_cate2_num_3d cart_item_num_7d cart_brand_num_7d cart_seller_num_7d cart_cate1_num_7d cart_cate2_num_7d cart_item_num_15d cart_brand_num_15d cart_seller_num_15d cart_cate1_num_15d cart_cate2_num_15d cart_item_num_30d cart_brand_num_30d cart_seller_num_30d cart_cate1_num_30d cart_cate2_num_30d cart_item_num_60d cart_brand_num_60d cart_seller_num_60d cart_cate1_num_60d cart_cate2_num_60d cart_item_num_90d cart_brand_num_90d cart_seller_num_90d cart_cate1_num_90d cart_cate2_num_90d pay_item_num_3d pay_brand_num_3d pay_seller_num_3d pay_cate1_num_3d pay_cate2_num_3d pay_item_num_7d pay_brand_num_7d pay_seller_num_7d pay_cate1_num_7d pay_cate2_num_7d pay_item_num_15d pay_brand_num_15d pay_seller_num_15d pay_cate1_num_15d pay_cate2_num_15d pay_item_num_30d pay_brand_num_30d pay_seller_num_30d pay_cate1_num_30d pay_cate2_num_30d pay_item_num_60d pay_brand_num_60d pay_seller_num_60d pay_cate1_num_60d pay_cate2_num_60d pay_item_num_90d pay_brand_num_90d pay_seller_num_90d pay_cate1_num_90d pay_cate2_num_90d brand_click_num brand_collect_num brand_cart_num brand_alipay_num cb_clk_item_90d cb_clk_item_60d cb_clk_item_30d cb_clk_item_15d cb_clk_item_7d cb_clk_item_3d cb_clk_item_1d cb_clk_num_90d cb_clk_num_60d cb_clk_num_30d cb_clk_num_15d cb_clk_num_7d cb_clk_num_3d cb_clk_num_1d cb_clk_day_90d cb_clk_day_60d cb_clk_day_30d cb_clk_day_15d cb_clk_day_7d cb_clk_day_3d cb_clk_day_1d cb_clt_item_90d cb_clt_item_60d cb_clt_item_30d cb_clt_item_15d cb_clt_item_7d cb_clt_item_3d cb_clt_item_1d cb_cart_item_90d cb_cart_item_60d cb_cart_item_30d cb_cart_item_15d cb_cart_item_7d cb_cart_item_3d cb_cart_item_1d cb_cart_num_90d cb_cart_num_60d cb_cart_num_30d cb_cart_num_15d cb_cart_num_7d cb_cart_num_3d cb_cart_num_1d cb_pay_item_90d cb_pay_item_60d cb_pay_item_30d cb_pay_item_15d cb_pay_item_7d cb_pay_item_3d cb_pay_item_1d cb_pay_num_90d cb_pay_num_60d cb_pay_num_30d cb_pay_num_15d cb_pay_num_7d cb_pay_num_3d cb_pay_num_1d c2_clk_item_90d c2_clk_item_60d c2_clk_item_30d c2_clk_item_15d c2_clk_item_7d c2_clk_item_3d c2_clk_item_1d c2_clk_num_90d c2_clk_num_60d c2_clk_num_30d c2_clk_num_15d c2_clk_num_7d c2_clk_num_3d c2_clk_num_1d c2_clk_day_90d c2_clk_day_60d c2_clk_day_30d c2_clk_day_15d c2_clk_day_7d c2_clk_day_3d c2_clk_day_1d c2_clt_item_90d c2_clt_item_60d c2_clt_item_30d c2_clt_item_15d c2_clt_item_7d c2_clt_item_3d c2_clt_item_1d c2_cart_item_90d c2_cart_item_60d c2_cart_item_30d c2_cart_item_15d c2_cart_item_7d c2_cart_item_3d c2_cart_item_1d c2_cart_num_90d c2_cart_num_60d c2_cart_num_30d c2_cart_num_15d c2_cart_num_7d c2_cart_num_3d c2_cart_num_1d c2_pay_item_90d c2_pay_item_60d c2_pay_item_30d c2_pay_item_15d c2_pay_item_7d c2_pay_item_3d c2_pay_item_1d c2_pay_num_90d c2_pay_num_60d c2_pay_num_30d c2_pay_num_15d c2_pay_num_7d c2_pay_num_3d c2_pay_num_1d
feature_infos=[0:5437] [0:2322] [0:2462] [0:84] [0:1159] [0:4] [0:9917] [0:3886] [0:4214] [0:86] [0:1561] [0:8] [0:20316] [0:6744] [0:7563] [0:87] [0:2134] [0:16] [0:52810] [0:14230] [0:16844] [0:87] [0:3127] [0:31] [0:84690] [0:19755] [0:23632] [0:87] [0:3712] [0:61] [1:114303] [0:23490] [1:28170] [1:87] [1:4009] [1:91] [0:47] [0:21] [0:21] [0:13] [0:34] [0:113] [0:79] [0:79] [0:17] [0:44] [0:163] [0:100] [0:100] [0:22] [0:51] [0:211] [0:101] [0:101] [0:28] [0:61] [0:425] [0:139] [0:159] [0:33] [0:93] [0:531] [0:189] [0:213] [0:37] [0:107] [0:40] [0:20] [0:21] [0:7] [0:12] [0:59] [0:46] [0:47] [0:25] [0:46] [0:113] [0:52] [0:53] [0:30] [0:54] [0:183] [0:72] [0:73] [0:37] [0:74] [0:279] [0:147] [0:148] [0:43] [0:114] [0:364] [0:216] [0:216] [0:54] [0:177] [0:45] [0:7] [0:32] [0:7] [0:23] [0:79] [0:18] [0:50] [0:10] [0:40] [0:136] [0:34] [0:79] [0:15] [0:60] [0:234] [0:43] [0:120] [0:18] [0:79] [0:625] [0:54] [0:215] [0:21] [0:127] [0:828] [0:70] [0:243] [0:27] [0:145] [92036:182899] [1359:5313] [1508:1597] [716:776] [0:920] [0:781] [0:779] [0:531] [0:330] [0:115] [0:24] [0:1647] [0:1425] [0:1310] [0:711] [0:451] [0:138] [0:43] [0:91] [0:61] [0:31] [0:16] [0:8] [0:4] [0:2] [0:11] [0:11] [0:5] [0:5] [0:3] none none [0:47] [0:15] [0:11] [0:11] [0:8] none none [0:56] [0:23] [0:16] [0:16] [0:9] none none [0:57] [0:28] [0:14] [0:11] [0:8] [0:8] none [0:67] [0:30] [0:18] [0:15] [0:8] [0:8] none [0:89] [0:68] [0:66] [0:40] [0:35] [0:13] [0:13] [0:170] [0:132] [0:132] [0:79] [0:69] [0:34] [0:34] [0:47] [0:25] [0:14] [0:10] [0:7] [0:4] [0:2] [0:4] [0:4] [0:4] [0:2] none none none [0:8] [0:7] [0:4] [0:3] [0:3] [0:3] none [0:10] [0:8] [0:5] [0:4] [0:3] [0:3] none [0:6] [0:5] [0:5] [0:3] [0:3] [0:3] none [0:8] [0:6] [0:6] [0:4] [0:4] [0:3] none
tree_sizes=3336 3348 3355 3373 3370 3369 3396 3390 3388 3379 3386 3394 3379 3401 3394 3408 3394 3383 3408 3400 3390

Tree=0
num_leaves=31
num_cat=0
split_feature=186 24 131 27 123 31 113 33 130 31 25 89 130 138 11 94 62 61 31 78 72 24 34 128 128 24 121 127 31 27
split_gain=9319.47 1407.06 915.792 802.848 650.978 488.226 409.352 349.277 268.212 266.785 247.77 264.93 234.345 227.42 217.386 206.769 200.537 199.269 233.932 171.208 156.71 167.58 136.655 131.326 130.962 127.167 125.277 126.814 120.942 165.43
threshold=1.0000000180025095e-35 61.500000000000007 1.0000000180025095e-35 12.500000000000002 2.5000000000000004 15.500000000000002 2.5000000000000004 9.5000000000000018 1.5000000000000002 134.50000000000003 55.500000000000007 3.5000000000000004 1.0000000180025095e-35 15.500000000000002 7.5000000000000009 1.5000000000000002 3.5000000000000004 1.0000000180025095e-35 10.500000000000002 3.5000000000000004 3.5000000000000004 246.50000000000003 40.500000000000007 1564.0000000000002 1521.5000000000002 6.5000000000000009 1.0000000180025095e-35 5188.5000000000009 40.500000000000007 16.500000000000004
decision_type=2 2 2 2 2 2 2 2 2 2 2 2 2 2 2 2 2 2 2 2 2 2 2 2 2 2 2 2 2 2
left_child=1 2 4 8 5 15 10 19 -3 -2 11 12 -5 20 -11 17 25 24 23 -7 22 -22 -12 -19 -1 -9 27 -27 -6 -30
right_child=9 3 -4 6 28 7 -8 16 -10 14 13 -13 -14 -15 -16 -17 -18 18 -20 -21 21 -23 -24 -25 -26 26 -28 -29 29 -31
leaf_value=-2.0543159608980224 -1.2717218530486598 -2.3275154250643624 -1.594159866481629 -2.1677781312491429 -1.448080115735662 -2.1727469453936119 -1.5795150995815352 -1.40425586056742 -1.7754094321183831 -1.4896701932797698 -1.8519404567749902 -1.6117209119457256 -1.7505695116814701 -1.40425586056742 -2.4106227745064204 -1.5960856090089708 -2.1926566664616653 -2.2579709013336786 -2.4106227745064204 -1.40425586056742 -1.40425586056742 -2.4106227745064204 -2.2674005505419261 -1.7262397919706438 -1.7773952971288831 -2.0336246366263149 -1.8231286446029435 -1.7431743792971002 -2.4106227745064204 -1.3754536345451731
leaf_weight=19.607086554169655 269.02434614300728 132.0968334376812 108.79093280434608 36.987342998385429 34.216304898262024 113.27983362972736 22.81578740477562 4.9585284292697898 9.4269410669803602 9.7531385421752912 8.9319078028202039 22.486311614513397 21.168408453464508 3.9668227434158316 3.4767069518566123 34.307279422879219 27.472705721855164 6.5378810614347485 13.161819174885748 2.9751170575618735 4.9585284292697898 2.4833621084690094 69.683304935693741 16.041044235229492 132.3910686224699 92.654814869165421 81.541155070066452 17.943316027522087 3.3111494779586783 2.8923383206129074
leaf_count=174 493 1497 515 366 117 1126 105 15 60 37 63 110 130 12 42 163 278 70 159 9 15 30 752 95 845 805 554 109 40 8
internal_value=-1.80326 -1.94073 -1.86121 -2.10973 -1.90937 -1.93721 -1.97733 -2.01238 -2.29074 -1.29328 -2.03052 -1.90321 -2.01592 -2.14455 -1.73169 -1.82182 -1.93955 -1.86307 -2.07554 -2.15308 -2.17868 -1.74008 -2.2202 -1.88021 -1.81312 -1.90427 -1.91717 -1.9865 -1.52173 -1.92798
internal_weight=1329.34 1047.09 712.082 335.006 603.291 562.872 193.482 340.825 141.524 282.254 170.666 80.6421 58.1558 90.0239 13.2298 222.046 224.571 187.739 35.7407 116.255 86.0571 7.44189 78.6152 22.5789 151.998 197.098 192.139 110.598 40.4198 6.20349
internal_count=8794 8222 5082 3140 4567 4402 1583 2896 1557 572 1478 606 496 872 79 1506 1761 1343 324 1135 860 45 815 165 1019 1483 1468 914 165 48
is_linear=0
shrinkage=1


Tree=1
num_leaves=31
num_cat=0
split_feature=193 30 121 33 130 30 121 31 30 123 33 6 21 30 87 31 32 35 126 35 126 30 21 32 17 67 138 30 16 116
split_gain=1408.15 517.844 284.615 246.117 235.142 196.885 175.555 156.977 152.805 181.867 134.538 126.04 175.27 123.883 125.524 113.083 105.323 122.411 100.943 97.3117 97.7525 95.7172 94.08 93.424 93.2218 92.4673 91.7107 89.6849 87.1046 78.2583
threshold=1.0000000180025095e-35 121.50000000000001 1.0000000180025095e-35 17.500000000000004 1.5000000000000002 21.500000000000004 4.5000000000000009 138.50000000000003 42.500000000000007 2.5000000000000004 9.5000000000000018 7.5000000000000009 6.5000000000000009 71.500000000000014 1.0000000180025095e-35 36.500000000000007 137.50000000000003 51.500000000000007 175892.50000000003 14.500000000000002 175892.50000000003 140.50000000000003 5.5000000000000009 60.500000000000007 10.500000000000002 3.5000000000000004 5.5000000000000009 27.500000000000004 10.500000000000002 4.5000000000000009
decision_type=2 2 2 2 2 2 2 2 2 2 2 2 2 2 2 2 2 2 2 2 2 2 2 2 2 2 2 2 2 2
left_child=1 2 5 26 8 22 7 16 -4 11 19 12 28 -12 15 18 17 21 -15 20 27 -5 -1 -16 -21 -13 -3 -7 29 -10
right_child=-2 3 4 6 -6 10 -8 -9 9 -11 13 25 -14 14 23 -17 -18 -19 -20 24 -22 -23 -24 -25 -26 -27 -28 -29 -30 -31
leaf_value=0.27557500689174241 0.41913894051083922 -0.002503502417515519 0.36359440869486304 -0.035016572729498353 0.48468417585489254 0.063751856787221547 0.35234218484244501 -0.1111930293257658 0.056016538350343148 0.37423727897933273 0.264600517168606 0.0027985179856591545 0.37926163115690736 -0.11225032409253705 0.09629218812045845 -0.11310894717486297 0.46177152196313431 -0.11197960146805314 0.52824658752592935 0.017324533044396708 -0.11369806635014064 0.27543549907203152 0.49719971645647032 0.42049959737509507 0.60509799985275525 0.59849262767814282 0.40782539480989888 0.34557815072746539 0.54851495354021551 0.46320234133142563
leaf_weight=206.07452395558357 576.65750469267368 127.76315052807331 172.08755947649479 12.666888333857058 75.986016497015953 16.764297895133495 50.886656939983368 22.019367836415768 52.605527721345425 68.524402976036072 194.03239607065916 42.862103752791882 48.402497567236423 4.084988094866274 18.933757722377777 28.678063780069351 12.084223717451094 14.971458867192267 6.1879856362938881 84.412493981420994 8.4374624639749509 45.983356073498726 21.116817280650139 16.752295553684235 2.7874503731727591 2.774478316307067 5.6895475685596457 34.589309051632881 4.5171607434749594 5.185285009443759
leaf_count=989 572 1304 652 115 147 130 199 252 410 203 1027 382 214 43 144 293 51 163 15 778 84 269 57 68 14 2 17 162 16 22
internal_value=0.28752 0.23361 0.264639 0.115068 0.323521 0.221319 0.19927 0.126963 0.292671 0.238396 0.180404 0.178859 0.236505 0.222486 0.113 -0.0111295 0.18815 0.143238 0.273557 0.103488 0.201748 0.208386 0.296174 0.248487 0.0361134 0.0390138 0.0149902 0.253576 0.125607 0.0925513
internal_weight=1984.52 1407.86 1115.8 292.065 472.945 642.852 158.612 107.725 396.959 224.871 415.661 156.347 110.71 268.669 74.6371 38.951 85.7059 73.6217 10.273 146.991 59.7911 58.6502 227.191 35.6861 87.1999 45.6366 133.453 51.3536 62.308 57.7908
internal_count=8794 8222 5852 2370 2048 3804 1049 850 1901 1249 2758 1046 662 1590 563 351 598 547 58 1168 376 384 1046 212 792 384 1321 292 448 432
is_linear=0
shrinkage=0.1


Tree=2
num_leaves=31
num_cat=0
split_feature=186 24 15 144 121 61 30 28 128 89 30 84 17 14 38 121 35 145 86 12 33 16 108 0 129 32 31 62 60 18
split_gain=796.222 275.762 236.246 182.117 131.257 121.146 112.829 114.53 99.8851 106.288 92.3208 86.4738 84.8507 125.87 75.9418 75.0307 74.4167 86.3352 92.969 87.7868 73.5517 82.1298 98.3596 72.6233 71.5419 70.5971 83.1526 74.2358 80.7119 113.918
threshold=1.0000000180025095e-35 73.500000000000014 5.5000000000000009 1.5000000000000002 4.5000000000000009 1.5000000000000002 349.50000000000006 30.500000000000004 1532.5000000000002 1.5000000000000002 59.500000000000007 1.5000000000000002 10.500000000000002 8.5000000000000018 1.0000000180025095e-35 1.0000000180025095e-35 35.500000000000007 1.5000000000000002 22.500000000000004 35.500000000000007 9.5000000000000018 9.5000000000000018 1.5000000000000002 4.5000000000000009 734.50000000000011 52.500000000000007 55.500000000000007 4.5000000000000009 2.5000000000000004 5.5000000000000009
decision_type=2 2 2 2 2 2 2 2 2 2 2 2 2 2 2 2 2 2 2 2 2 2 2 2 2 2 2 2 2 2
left_child=1 3 -3 5 6 10 7 -4 -7 14 15 20 13 -13 25 23 -9 18 19 24 -12 -22 -23 -1 -18 27 -27 28 -10 -30
right_child=-2 2 4 -5 -6 8 -8 16 9 -11 11 12 -14 -15 -16 -17 17 -19 -20 -21 21 22 -24 -25 -26 26 -28 -29 29 -31
leaf_value=0.2036480491190088 0.30333586205583812 -0.0072460964111641631 -0.069583993428287166 0.3049602117047559 0.27134519445793709 -0.020836367785882173 -0.11153226431055673 0.30104672877607452 0.07021908358918294 0.26154275189219017 -0.067344969803139546 0.32685089645425758 0.58212538251316437 -0.11817506974758402 -0.1158099753194783 0.26013399143683136 -0.11384768663673826 0.28812042424168921 0.3872955099645774 -0.11366811435697684 0.17341987723699537 -0.11782780741040298 0.46608463867309047 0.044229715725933053 0.2466402203278491 0.42787816328592082 0.018415406009051071 -0.1148478144277072 0.57672536281014064 0.080675502297097357
leaf_weight=442.76117672771215 707.87709373235703 131.48832062631845 21.801015838980675 142.62294567376375 73.108752273023129 41.252766996622086 20.13999754935503 35.521024234592915 57.953068308532238 59.446763761341572 21.976111724972725 22.139508068561558 7.1072416231036177 8.9146480709314329 14.494016282260416 261.09998293966055 7.7019070237875011 24.27874418348074 7.803217075765132 25.975759960711002 94.849354669451714 20.297453343868259 3.3627828359603873 30.547417022287846 19.302787303924561 14.509014517068865 7.5354313477873793 15.000628061592577 8.5935696586966532 10.036559276282786
leaf_count=1933 572 1267 208 281 245 320 233 145 366 209 221 66 9 76 133 764 80 102 17 269 465 170 2 198 119 37 66 143 11 67
internal_value=0.214603 0.176573 0.100141 0.198418 0.160065 0.18511 0.110008 0.141344 0.120046 0.15103 0.201416 0.136944 0.270434 0.199098 0.0997544 0.217099 0.179479 0.128714 0.0650427 0.0175798 0.100683 0.131842 -0.0348375 0.193359 0.143827 0.127251 0.287912 0.0885796 0.128426 0.30949
internal_weight=2359.5 1651.62 367.122 1284.5 235.633 1141.88 162.524 142.384 228.822 187.569 913.056 178.647 38.1614 31.0542 128.122 734.409 120.583 85.0624 60.7837 52.9805 140.486 118.51 23.6602 473.309 27.0047 113.628 22.0444 91.5838 76.5832 18.6301
internal_count=8794 8222 2685 5537 1418 5256 1173 940 1352 1032 3904 1009 151 142 823 2895 732 587 485 468 858 637 172 2131 199 690 103 587 444 78
is_linear=0
shrinkage=0.1


Tree=3
num_leaves=31
num_cat=0
split_feature=186 18 15 130 117 24 84 20 19 35 33 34 6 34 129 94 31 127 31 127 28 31 122 63 129 0 25 31 81 25
split_gain=580.552 182.5 132.544 106.391 97.1767 118.306 110.255 68.3533 80.7517 61.9282 137.452 65.9086 58.7894 57.7436 60.2967 56.1592 60.2764 61.3616 55.7974 69.7038 54.5864 55.9936 51.8423 105.91 58.0311 57.2409 50.3649 67.6205 50.1772 47.7108
threshold=1.0000000180025095e-35 65.500000000000014 7.5000000000000009 1.0000000180025095e-35 4.5000000000000009 53.500000000000007 1.5000000000000002 40.500000000000007 40.500000000000007 8.5000000000000018 5.5000000000000009 9.5000000000000018 4.5000000000000009 57.500000000000007 740.50000000000011 5.5000000000000009 144.50000000000003 2888.5000000000005 27.500000000000004 1385.5000000000002 33.500000000000007 37.500000000000007 1.0000000180025095e-35 3.5000000000000004 718.50000000000011 8.5000000000000018 69.500000000000014 93.500000000000014 1.0000000180025095e-35 26.500000000000004
decision_type=2 2 2 2 2 2 2 2 2 2 2 2 2 2 2 2 2 2 2 2 2 2 2 2 2 2 2 2 2 2
left_child=1 3 -3 4 5 9 13 -4 -9 -1 11 -11 -8 18 -15 16 17 -10 19 -7 26 -22 23 24 -12 -24 -20 -28 29 -5
right_child=-2 2 7 28 -6 6 12 8 15 10 22 -13 -14 14 -16 -17 -18 -19 20 -21 21 -23 25 -25 -26 -27 27 -29 -30 -31
leaf_value=0.1965074641381741 0.24455242504703334 -0.04322616977744248 -0.062518436824662932 0.19413396850490172 0.31282675073539984 0.37532016340591634 -0.034262559912401978 0.33759847232556539 0.2341898324818025 0.094574131435672934 -0.053391173613235837 -0.091465950295562592 0.21526354352003607 -0.11373173738591454 0.27699951286035968 0.21229134848565276 -0.11324246936389092 -0.045250337269099619 -0.099776498882709008 -0.01754507724865852 0.34932972770460557 0.011920814672753806 0.18775325616746574 -0.074190629253104531 0.14727562302546432 -0.12357619664007163 0.53004419138173708 -0.1101268304463031 0.24209015921231272 0.093881141410523145
leaf_weight=209.42180451005697 785.20256295800209 84.657260470092297 17.325613632798195 196.78519457578659 30.99443331360817 8.0606618151068705 11.369624800980089 19.097059406340122 19.389549404382706 40.925148829817772 15.022904112935064 35.614271588623524 55.693747758865356 5.3507282659411457 15.08092901855707 31.937972344458103 16.580913383513689 13.213082831352947 73.732000440359116 10.270348951220511 6.2228052690625217 23.464168131351471 285.10739397257566 24.845342449843884 354.11687449365854 6.0305371433496466 3.0876034498214713 3.5438150987029076 153.47263974696398 62.56233961135149
leaf_count=656 572 852 139 472 40 34 81 34 77 191 106 279 237 56 64 105 190 109 763 92 9 192 903 230 1604 45 11 43 323 285
internal_value=0.172606 0.141786 0.0521756 0.152897 0.138027 0.133462 0.0665028 0.120886 0.152592 0.148348 0.135106 0.00800852 0.17296 0.0185272 0.174673 0.109039 0.0419912 0.120939 -0.00632308 0.155209 -0.0332293 0.0826464 0.149305 0.125658 0.139109 0.181304 -0.0760349 0.187938 0.196769 0.16995
internal_weight=2618.18 1832.98 202.201 1630.78 1217.96 1186.96 215.876 117.544 100.219 971.084 761.662 76.5394 67.0634 148.813 20.4317 81.1215 49.1835 32.6026 128.381 18.331 110.05 29.687 685.123 393.985 369.14 291.138 80.3634 6.63142 412.82 259.348
internal_count=8794 8222 1506 6716 5636 5596 1582 654 515 4014 3358 470 318 1264 120 481 376 186 1144 126 1018 201 2888 1940 1710 948 817 54 1080 757
is_linear=0
shrinkage=0.1


Tree=4
num_leaves=31
num_cat=0
split_feature=193 30 27 137 101 54 12 11 0 9 88 134 35 33 79 25 25 27 88 126 12 18 120 29 30 119 19 28 6 14
split_gain=474.131 140.314 142.918 100.812 77.3481 115.955 58.7669 62.0898 56.8474 53.8786 46.4732 44.8277 50.5232 76.689 49.4489 49.6941 65.2536 68.1554 63.586 62.1119 56.5618 51.8876 47.2738 51.7784 45.2201 69.886 44.5383 67.332 68.3432 67.1857
threshold=1.0000000180025095e-35 170.50000000000003 11.500000000000002 7.5000000000000009 1.0000000180025095e-35 2.5000000000000004 22.500000000000004 6.5000000000000009 20.500000000000004 2.5000000000000004 20.500000000000004 1.0000000180025095e-35 8.5000000000000018 5.5000000000000009 2.5000000000000004 31.500000000000004 65.500000000000014 9.5000000000000018 4.5000000000000009 99651.500000000015 27.500000000000004 26.500000000000004 1.5000000000000002 7.5000000000000009 108.50000000000001 1.5000000000000002 11.500000000000002 13.500000000000002 12.500000000000002 7.5000000000000009
decision_type=2 2 2 2 2 2 2 2 2 2 2 2 2 2 2 2 2 2 2 2 2 2 2 2 2 2 2 2 2 2
left_child=1 3 -3 4 5 8 -4 9 11 -8 -9 12 -1 22 15 18 17 -17 26 -18 21 -19 23 -14 -23 -26 -15 28 -28 -29
right_child=-2 2 6 -5 -6 -7 7 10 -10 -11 -12 -13 13 14 -16 16 19 20 -20 -21 -22 24 -24 -25 25 -27 27 29 -30 -31
leaf_value=0.15799200813529504 0.20805611910346611 -0.1108897407787066 -0.073721475992908542 0.24104070575816017 0.18768454406765184 -0.065260402605621728 -0.1147979975800883 -0.058972560004359666 -0.11592195296136049 0.16279164981833685 0.20211743121426343 0.19929799097724585 0.08686914408398555 0.11163527603586187 0.2533491865753778 -0.11389275553423715 0.30832149785779572 -0.019581923970495435 -0.070513974983443681 -0.0086040375613555091 -0.1158758083578906 0.19287661928556132 0.34077443641836314 -0.073476146217967969 -0.11660997784619663 0.26016642808325863 -0.075999536099177811 0.23902766576883547 0.27941712269250396 0.12475126052440655
leaf_weight=249.36245108395815 827.93239519000053 47.542368248105049 20.569327168166637 74.651996321976185 163.1718535348773 34.781143009662628 7.4911732375621787 30.859028827399015 10.189307674765585 104.96080385893583 8.7506817132234556 69.817944698035717 37.196811214089394 619.84387770295143 25.457354918122292 25.3484708070755 18.481140784919265 28.44547626376152 16.848159678280354 9.2935220152139646 14.66948292404413 49.431133799254894 4.2874431759119025 43.915379554033279 13.696352981030943 7.6852493584156027 20.622862175107006 104.25685995817184 7.3344141542911521 101.56789604574442
leaf_count=690 572 577 157 95 403 279 75 262 101 451 21 126 167 2389 50 267 68 179 103 79 140 179 12 354 127 21 140 258 25 427
internal_value=0.144555 0.117874 0.0426357 0.127338 0.122273 0.115216 0.0849164 0.106375 0.119464 0.1443 -0.00129187 0.121098 0.117192 0.108333 0.115657 0.112279 0.0623207 0.0344105 0.121866 0.202277 0.0674074 0.094495 0.0171614 5.57537e-05 0.14032 0.0188158 0.125663 0.162857 0.0172418 0.182636
internal_weight=2798.46 1970.53 220.173 1750.36 1675.7 1512.53 172.631 152.062 1477.75 112.452 39.6097 1467.56 1397.74 1148.38 1062.98 1037.52 167.051 139.276 870.474 27.7747 113.928 99.2582 85.3996 81.1122 70.8127 21.3816 853.626 233.782 27.9573 205.825
internal_count=8794 8222 1543 6679 6584 6181 966 809 5902 526 283 5801 5675 4985 4452 4402 1060 913 3342 147 646 506 533 521 327 148 3239 850 165 685
is_linear=0
shrinkage=0.1


Tree=5
num_leaves=31
num_cat=0
split_feature=186 30 21 144 123 30 79 54 4 11 33 9 28 24 24 87 90 30 94 81 12 126 19 201 23 21 26 30 87 26
split_gain=412.009 98.5231 93.297 77.8031 65.6856 86.3847 69.4639 68.2713 61.0356 52.9906 52.1592 49.4309 47.3227 70.7318 43.5276 45.7311 41.1794 40.9868 40.8871 49.2827 67.7085 44.6709 39.2798 64.5648 61.0634 36.9619 74.1338 58.247 56.9657 51.1827
threshold=1.0000000180025095e-35 170.50000000000003 8.5000000000000018 1.5000000000000002 2.5000000000000004 42.500000000000007 2.5000000000000004 2.5000000000000004 2.5000000000000004 6.5000000000000009 19.500000000000004 2.5000000000000004 16.500000000000004 21.500000000000004 230.50000000000003 20.500000000000004 3.5000000000000004 315.50000000000006 1.5000000000000002 1.0000000180025095e-35 11.500000000000002 163120.50000000003 43.500000000000007 1.5000000000000002 21.500000000000004 4.5000000000000009 29.500000000000004 109.50000000000001 1.0000000180025095e-35 22.500000000000004
decision_type=2 2 2 2 2 2 2 2 2 2 2 2 2 2 2 2 2 2 2 2 2 2 2 2 2 2 2 2 2 2
left_child=1 3 10 4 5 11 7 25 -4 -10 -3 16 13 -13 15 17 18 -11 19 20 -1 -21 -2 24 -24 26 27 28 29 -7
right_child=22 2 8 -5 -6 6 -8 -9 9 14 -12 12 -14 -15 -16 -17 -18 -19 -20 21 -22 -23 23 -25 -26 -27 -28 -29 -30 -31
leaf_value=0.10812914686776703 0.19010462816597204 -0.11096783324778292 -0.077017379768877264 0.16256057325483864 0.15773773246820624 0.02759360580220982 0.21993756264530662 -0.1147699521445019 0.14011344830247066 -0.11519421639913417 0.1218963550334709 0.16431104870493266 0.23726166235360613 -0.067342229127922801 -0.12332207821688848 0.31843821766157782 -0.13821679023599062 0.22586263055166006 0.15961724193932864 -0.1311247745956676 -0.12582609927043129 0.079834124212161156 0.11793018698251655 0.18619886816860121 -0.16246442954655277 0.081802966295047672 -0.11448171036950963 0.19777875627342656 -0.060122714833648706 0.19979491530129553
leaf_weight=517.09850703179836 760.27564936876297 50.437240023165941 22.047250289469957 226.42918344587088 175.74712376669049 58.377318184822798 27.492368087172508 22.185961782932281 100.71470031142235 10.337422158569099 11.8856133967638 69.064209572970867 57.835047319531441 16.289458654820919 16.093486979603767 6.3896632716059676 7.0124021843075743 5.345812775194644 115.46587062627077 17.686797931790352 12.673409104347227 23.209233246743679 19.77541010081768 53.812256261706352 12.790108531713484 381.75923134386539 30.742228671908379 24.274254351854324 46.142747066915035 24.506037689745426
leaf_count=1713 445 633 180 395 359 318 55 223 401 111 53 171 94 96 148 5 38 12 263 107 85 85 26 41 60 1858 318 99 302 100
internal_value=0.124046 0.100081 0.0373212 0.107638 0.0999976 0.093008 0.0645734 0.0573091 0.0775507 0.102088 -0.0665582 0.113934 0.167423 0.120101 0.00174601 0.0929339 0.102884 0.00105897 0.105348 0.0943675 0.102532 -0.0114018 0.182844 0.118942 0.00780519 0.0640566 0.0272453 0.0556667 0.0289305 0.0785082
internal_weight=2923.9 2077.24 223.251 1853.99 1627.56 1451.82 615.48 587.988 160.928 138.881 62.3229 836.335 143.189 85.3537 38.1664 22.0729 693.146 15.6832 686.134 570.668 529.772 40.896 846.653 86.3778 32.5655 565.802 184.043 153.3 129.026 82.8834
internal_count=8794 8222 1543 6679 6284 5925 3273 3218 857 677 686 2652 361 267 276 128 2291 123 2253 1990 1798 192 572 127 86 2995 1137 819 720 418
is_linear=0
shrinkage=0.1


Tree=6
num_leaves=31
num_cat=0
split_feature=187 130 18 80 121 129 61 117 121 23 86 12 84 33 32 81 13 54 31 121 34 33 6 44 11 35 24 34 31 128
split_gain=372.644 82.9169 114.804 79.1336 66.9069 63.7573 55.3472 45.4961 40.2217 53.5382 47.0697 40.0702 45.8001 40.472 39.1591 38.7459 35.0054 51.6056 36.2897 61.1757 43.5855 45.8149 41.9116 54.7017 53.2598 54.1532 39.4628 54.3072 39.4177 44.6612
threshold=1.0000000180025095e-35 1.0000000180025095e-35 61.500000000000007 9.5000000000000018 4.5000000000000009 742.50000000000011 19.500000000000004 4.5000000000000009 1.0000000180025095e-35 18.500000000000004 1.0000000180025095e-35 28.500000000000004 1.5000000000000002 42.500000000000007 101.50000000000001 6.5000000000000009 13.500000000000002 1.5000000000000002 15.500000000000002 1.0000000180025095e-35 20.500000000000004 6.5000000000000009 9.5000000000000018 1.5000000000000002 2.5000000000000004 36.500000000000007 67.500000000000014 26.500000000000004 64.500000000000014 1546.0000000000002
decision_type=2 2 2 2 2 2 2 2 2 2 2 2 2 2 2 2 2 2 2 2 2 2 2 2 2 2 2 2 2 2
left_child=1 2 6 4 -4 15 7 11 9 10 -3 14 13 -13 16 -6 18 -18 20 26 21 -1 24 -24 25 28 27 -20 29 -21
right_child=-2 8 3 -5 5 -7 -8 -9 -10 -11 -12 12 -14 -15 -16 -17 17 -19 19 22 -22 -23 23 -25 -26 -27 -28 -29 -30 -31
leaf_value=0.082311130325870396 0.16730651391846177 0.069636549446069798 -0.081819846635292071 0.19211254215649409 0.2382152123735698 -0.12803366845983571 -0.11922914371137903 0.19843580298652436 0.14115654128126143 -0.075409541364681365 0.15641791026291199 -0.11546118927234937 0.091168364178503936 0.3439674789363576 -0.11359040291662713 -0.018505590143480046 0.18467300520116459 -0.11821956301378383 0.018588707923505643 0.14046179272518716 -0.13938834806725234 0.14218889172031568 -0.063258754737887612 0.23941643560149412 0.16557231611891055 -0.1234581981564401 -0.11324892085904198 0.10716785777499137 0.24503482090710432 0.044217369079919536
leaf_weight=307.63675207644701 790.10245272517204 169.3978648558259 91.953316073864698 17.288981568068266 18.692292630672458 10.967522650957106 13.310162518173454 34.883481569588184 342.59471617639065 18.23653669282794 99.045113831758499 28.078771904110912 29.515320055186749 2.0579571723937979 9.7188550457358343 8.5763970986008626 62.472151976078749 6.1815464943647376 222.13745955750346 77.553827911615372 7.2680053114891043 218.57284142449498 30.134637549519539 7.4464853554964057 109.25805418938398 12.277517676353453 16.308783732354641 100.54072900861502 15.699859593063591 127.44880641996861
leaf_count=944 514 481 1013 35 60 82 128 34 678 142 185 289 105 1 108 51 215 58 1237 212 40 502 199 14 279 97 179 402 39 471
internal_value=0.108345 0.0873154 0.0751289 -0.00889832 -0.0355923 0.0755793 0.0837436 0.0856392 0.11803 0.0903919 0.101656 0.082809 0.00262733 -0.084088 0.0864035 0.157473 0.087875 0.157401 0.0840634 0.069398 0.103823 0.107183 0.0969585 -0.00328539 0.107966 0.0809514 0.0385178 0.0461884 0.0923225 0.0806273
internal_weight=3005.36 2215.25 1585.98 147.479 130.19 38.2362 1438.5 1425.19 629.274 286.68 268.443 1390.31 59.652 30.1367 1330.66 27.2687 1320.94 68.6537 1252.28 718.806 533.478 526.21 379.819 37.5811 342.238 232.98 338.987 322.678 220.702 205.003
internal_count=8794 8280 6794 1241 1206 193 5553 5425 1486 808 666 5391 395 290 4996 111 4888 273 4615 3129 1486 1446 1311 213 1098 819 1818 1639 722 683
is_linear=0
shrinkage=0.1


Tree=7
num_leaves=31
num_cat=0
split_feature=193 30 27 130 11 6 61 126 111 128 95 81 18 33 28 31 91 123 18 18 26 12 86 16 81 30 126 21 30 83
split_gain=347.394 77.1825 74.5609 70.5599 54.1096 61.2098 41.3784 51.9791 44.0294 41.3656 36.4183 41.6818 33.1204 46.2004 45.5736 40.6157 66.1303 32.6677 67.6328 54.143 65.5302 57.405 39.8016 34.1047 44.9971 67.3314 34.2077 31.4917 32.3213 51.785
threshold=1.5000000000000002 181.50000000000003 11.500000000000002 1.0000000180025095e-35 7.5000000000000009 17.500000000000004 1.5000000000000002 93975.500000000015 1.0000000180025095e-35 1584.5000000000002 11.500000000000002 5.5000000000000009 1.0000000180025095e-35 1.5000000000000002 2.5000000000000004 10.500000000000002 1.0000000180025095e-35 2.5000000000000004 32.500000000000007 26.500000000000004 35.500000000000007 11.500000000000002 4.5000000000000009 11.500000000000002 1.5000000000000002 43.500000000000007 163120.50000000003 8.5000000000000018 354.50000000000006 5.5000000000000009
decision_type=2 2 2 2 2 2 2 2 2 2 2 2 2 2 2 2 2 2 2 2 2 2 2 2 2 2 2 2 2 2
left_child=1 3 -3 6 5 10 12 8 -8 -9 -4 -12 14 -14 15 16 -1 18 19 20 22 -21 -15 -20 25 -25 -26 -7 -29 -30
right_child=-2 2 4 -5 -6 27 7 9 -10 -11 11 -13 13 17 -16 -17 -18 -19 23 21 -22 -23 -24 24 26 -27 -28 28 29 -31
leaf_value=-0.14569865983701277 0.16306056110526354 -0.11072884729626381 -0.10145525070294821 0.1109644204982005 -0.12438524332750218 -0.11657298262595271 -0.11942900586460706 0.079261023616452014 0.073523359234190719 -0.014481660112842338 0.19345948133509613 -0.12973559829156614 0.21955757544226723 0.085022470152987931 -0.13921045749619915 0.22759777074685103 0.21106779571584761 0.13143989077705492 -0.061643552970044091 -0.040118732080557058 -0.12059053693274131 0.20689940740667276 -0.05008533560785218 0.31179300011617772 0.1971251353416745 -0.11550240027657599 -0.02866608962867255 0.14781320624016106 -0.12275708033404552 0.13058924299086735
leaf_weight=13.666004195809364 612.82795998454094 35.315532561391592 29.041534323245287 691.50131008401513 16.611063819378614 6.253372471779584 33.446323808282614 209.52694478258491 18.294932693243027 60.711609203368425 11.45815545320511 6.1226945593953124 24.733273852616549 800.69386234879494 15.835726171731947 10.671095989644526 8.382381409406662 117.03001314401627 48.379497118294239 11.15494457259774 16.390280574560165 60.069327883422375 22.414549946784973 4.4213019758462933 22.864157695323229 22.22687753289938 9.4967429488897306 81.884661633521318 13.232925768941639 20.671936508268118
leaf_count=64 340 518 238 1238 157 62 287 962 79 372 21 40 39 2465 86 15 12 205 397 65 134 138 110 4 56 221 61 233 123 52
internal_value=0.0957427 0.0788525 0.0224355 0.0844536 0.0478179 0.0647774 0.0724749 0.0406198 -0.0512039 0.0582009 -0.0326894 0.0809038 0.0809626 0.0843498 4.84241e-05 0.0674476 -0.0100628 0.0814038 0.0756523 0.0845028 0.0774007 0.168212 0.0813433 0.000594615 0.0516215 -0.0446082 0.130864 0.102011 0.113816 0.0317092
internal_weight=3055.33 2442.5 220.592 2221.91 185.276 168.665 1530.41 321.98 51.7413 270.239 46.6224 17.5809 1208.43 1159.87 48.5552 32.7195 22.0484 1135.14 1018.11 910.723 839.499 71.2243 823.108 107.389 59.0091 26.6482 32.3609 122.043 115.79 33.9049
internal_count=8794 8454 1444 7010 926 769 5772 1700 366 1334 299 61 4072 3895 177 91 76 3856 3651 2912 2709 203 2575 739 342 225 117 470 408 175
is_linear=0
shrinkage=0.1


Tree=8
num_leaves=31
num_cat=0
split_feature=186 144 37 31 33 30 73 19 1 31 116 26 24 94 54 8 1 119 35 33 92 12 87 14 30 32 29 41 62 107
split_gain=319.033 53.0929 57.7764 45.9271 62.0771 51.4443 51.4374 39.0322 39.8238 35.9194 50.746 35.5174 37.8799 37.2695 38.3193 35.2226 33.7766 35.3341 38.4238 42.3917 41.8537 33.5368 33.4248 42.6595 31.804 33.1234 34.353 30.2444 35.8821 29.8991
threshold=1.0000000180025095e-35 1.5000000000000002 1.5000000000000002 29.500000000000004 17.500000000000004 225.50000000000003 2.5000000000000004 42.500000000000007 13.500000000000002 97.500000000000014 1.0000000180025095e-35 25.500000000000004 56.500000000000007 1.5000000000000002 1.5000000000000002 5.5000000000000009 15.500000000000002 2.5000000000000004 47.500000000000007 27.500000000000004 15.500000000000002 23.500000000000004 1.0000000180025095e-35 8.5000000000000018 10.500000000000002 21.500000000000004 14.500000000000002 1.0000000180025095e-35 4.5000000000000009 1.0000000180025095e-35
decision_type=2 2 2 2 2 2 2 2 2 2 2 2 2 2 2 2 2 2 2 2 2 2 2 2 2 2 2 2 2 2
left_child=1 2 3 11 5 6 29 -3 -9 -2 21 12 13 14 22 -15 17 18 19 27 -20 -11 -1 24 -24 -26 -27 28 -6 -5
right_child=9 7 -4 4 16 -7 -8 8 -10 10 -12 -13 -14 15 -16 -17 -18 -19 20 -21 -22 -23 23 -25 25 26 -28 -29 -30 -31
leaf_value=0.072965640549046015 0.14588385882943708 0.1174045537739527 -0.088794979964812712 0.0081536871293544488 0.081102443871552313 -0.11136826371950077 0.18085805853542691 -0.12447797317854754 0.10720401462394731 0.097299594462747954 0.13307196867157842 0.14538741006435471 -0.068348617262893319 0.11273028048584273 -0.12446666585766542 -0.067071400627894392 -0.12390254741656162 0.1426604190052867 -0.086842957703665874 -0.12644869436567938 0.12695574011892594 -0.12257417725272045 0.10408074037283704 0.14798330501724469 -0.095880198581658152 0.09235506323630116 -0.13724158797987093 -0.055463349028969648 0.1954924286826355 0.081898091444902607
leaf_weight=693.33331937342882 734.00231370329857 267.65251717716455 25.755549870431423 339.53583075478673 131.16847555711865 28.244467929005623 20.930603362619877 14.19160631299019 15.547077182680367 11.850644499063494 54.571823239326477 66.475316848605871 19.406815059483051 255.59887470304966 10.867331922054289 11.38027662783861 8.134920306503771 74.070961128920317 30.058411341160536 9.20168938487768 13.167444281280039 16.73079340159893 19.177635028958321 20.200861483812332 45.027616441249847 25.786755971610546 8.7206549867987615 12.638590186834334 34.670443702489138 65.60205577686429
leaf_count=2048 445 422 248 1969 441 400 62 115 66 13 47 178 170 524 80 51 74 110 288 68 31 67 40 55 225 84 49 81 78 265
internal_value=0.0852584 0.0659453 0.0599975 0.0619694 0.0429395 0.0193283 0.0279923 0.105329 -0.00335702 0.138827 0.0765367 0.074388 0.0701341 0.0725995 0.0620688 0.105066 0.0771987 0.0825628 0.0632844 0.0828615 -0.0217157 -0.0314085 0.0645646 0.0155815 -0.0115136 -0.0393859 0.0343318 0.0936528 0.105017 0.0200948
internal_weight=3083.7 2266.55 1969.15 1943.4 767.424 454.313 426.068 297.391 29.7387 817.156 83.1533 1175.98 1109.5 1090.09 823.114 266.979 313.111 304.976 230.905 187.679 43.2259 28.5814 812.247 118.914 98.7127 79.535 34.5074 178.478 165.839 405.138
internal_count=8794 8222 7619 7371 3867 2696 2296 603 181 572 127 3504 3326 3156 2581 575 1171 1097 987 668 319 80 2501 453 398 358 133 600 519 2234
is_linear=0
shrinkage=0.1


Tree=9
num_leaves=31
num_cat=0
split_feature=193 133 35 24 28 127 128 116 62 16 33 31 24 12 35 28 34 116 111 89 29 20 35 95 18 18 19 107 25 76
split_gain=302.265 55.3079 51.4848 45.7133 63.8604 63.8669 46.0288 55.4878 36.9608 36.7751 34.9948 38.4962 44.0162 33.9912 33.8793 46.4734 32.7567 33.0135 28.8428 28.493 42.364 40.9723 33.0715 28.2071 47.893 35.9176 27.9574 27.1079 36.2566 34.601
threshold=1.5000000000000002 1.0000000180025095e-35 62.500000000000007 73.500000000000014 29.500000000000004 5188.5000000000009 1513.0000000000002 1.5000000000000002 11.500000000000002 7.5000000000000009 17.500000000000004 34.500000000000007 30.500000000000004 4.5000000000000009 37.500000000000007 35.500000000000007 42.500000000000007 1.0000000180025095e-35 10.500000000000002 1.5000000000000002 19.500000000000004 18.500000000000004 40.500000000000007 6.5000000000000009 46.500000000000007 44.500000000000007 17.500000000000004 1.0000000180025095e-35 26.500000000000004 1.0000000180025095e-35
decision_type=2 2 2 2 2 2 2 2 2 2 2 2 2 2 2 2 2 2 2 2 2 2 2 2 2 2 2 2 2 2
left_child=1 3 -3 8 6 9 7 -5 10 -6 11 -1 -13 26 16 -16 -11 -18 -7 20 -12 -22 -23 24 25 -17 -8 28 29 -14
right_child=-2 2 -4 4 5 18 13 -9 -10 14 19 12 27 -15 15 23 17 -19 -20 -21 21 22 -24 -25 -26 -27 -28 -29 -30 -31
leaf_value=0.064778413396077525 0.14175531982875691 0.1086182175052653 -0.078536919431272667 -0.11568659046778505 -0.074368544912941939 -0.12689432198496756 -0.11630467183250977 0.33112972513412664 -0.1217624944622092 0.18023786120947044 0.11243829469686235 -0.099460635131368144 0.10508076319701508 -0.10260181417163275 -0.11991070291514327 -0.015036304702886775 -0.13106158992496572 0.10180732526237571 0.21420860695282254 0.14300793559323161 -0.14290178605692511 -0.06805040585428157 0.14712194363301553 0.099573681849607187 -0.043504558226525991 0.25260018871059442 0.17710647223840831 0.11195910955793825 -0.020705857444521344 -0.13706546504912526
leaf_weight=1339.074199218303 577.12337775528431 312.40703283622861 15.424278199672697 4.8336960524320585 18.381618145853281 26.026236645877365 5.1480421796441069 6.5394380986690521 10.813024859875439 46.441305071115494 83.235034242272377 27.184981133788824 53.694761380553246 68.032366946339607 15.283676333725451 8.6474274247884768 7.6231253221631041 30.229474451392889 2.7399185523390761 93.10198849439621 15.011588752269743 12.014058843255045 17.617685243487358 89.161825802177191 45.77208711579442 11.935286365449427 8.7962491400539857 38.148772992193699 94.780592694878578 6.6297079473733893
leaf_count=3812 340 447 99 61 152 241 58 18 98 101 170 162 173 814 168 54 65 88 4 128 87 62 31 260 389 10 25 95 540 42
internal_value=0.076488 0.0615093 0.0998127 0.0557674 0.0250016 0.0473307 -0.0472942 0.141228 0.0625617 0.0622394 0.0636811 0.0584038 0.0196805 -0.0734491 0.0720832 0.0464814 0.123959 0.0549099 -0.094405 0.100925 0.0702856 -0.00830575 0.0598813 0.0628338 0.013466 0.140158 0.0687831 0.03644 0.0178658 0.0784687
internal_weight=3091.85 2514.73 327.831 2186.9 395.592 302.242 93.3498 11.3731 1791.31 273.476 1780.49 1559.51 220.439 81.9767 255.094 170.8 84.2939 37.8526 28.7662 220.98 127.878 44.6433 29.6317 155.517 66.3548 20.5827 13.9443 193.254 155.105 60.3245
internal_count=8794 8454 546 7908 2508 1532 976 79 5400 1287 5302 4824 1012 897 1135 881 254 153 245 478 350 180 93 713 453 64 83 850 755 215
is_linear=0
shrinkage=0.1


Tree=10
num_leaves=31
num_cat=0
split_feature=187 144 38 19 21 35 13 64 12 24 13 194 23 25 19 1 24 18 91 89 108 35 15 47 12 87 24 21 30 91
split_gain=280.395 41.7742 44.0567 32.4077 43.0603 59.1863 46.6826 42.9064 32.2421 37.2692 31.2563 50.9065 34.774 31.2148 31.0246 34.627 30.8992 54.7443 35.3838 30.6254 29.8592 34.5038 46.8892 37.5425 29.1316 43.3639 41.2664 35.2425 29.5337 59.019
threshold=1.0000000180025095e-35 1.5000000000000002 1.5000000000000002 3.5000000000000004 3.5000000000000004 14.500000000000002 1.0000000180025095e-35 4.5000000000000009 1.0000000180025095e-35 4.5000000000000009 23.500000000000004 2.5000000000000004 21.500000000000004 5.5000000000000009 42.500000000000007 13.500000000000002 24.500000000000004 10.500000000000002 2.5000000000000004 4.5000000000000009 2.5000000000000004 48.500000000000007 16.500000000000004 4.5000000000000009 4.5000000000000009 1.5000000000000002 17.500000000000004 1.5000000000000002 6.5000000000000009 1.0000000180025095e-35
decision_type=2 2 2 2 2 2 2 2 2 2 2 2 2 2 2 2 2 2 2 2 2 2 2 2 2 2 2 2 2 2
left_child=1 2 3 8 5 24 -6 16 9 -1 -2 12 -12 -11 -3 -16 -7 18 -18 -19 21 -8 23 -23 26 27 28 -26 -5 -30
right_child=10 14 -4 4 6 7 20 -9 -10 13 11 -13 -14 -15 15 -17 17 19 -20 -21 -22 22 -24 -25 25 -27 -28 -29 29 -31
leaf_value=0.085883824828810823 0.13146783135257706 0.095125949058262799 -0.08695306655660659 0.21500542280420923 -0.1390524375883592 -0.13275617450246852 0.052029180749854756 0.22146215694005558 0.087569124619119282 -0.089211313854020854 0.055079432981542331 0.12308951072076346 -0.17205137364395484 0.031164597669014069 -0.12714116768829078 0.087613902719398451 0.15967417740172143 -0.092578790675178046 -0.12962557471885414 0.27615682122137297 0.12639139196380209 -0.077750528543309647 0.16462708786352498 0.13170724011391355 0.10953132988587684 0.17501619218082881 0.19418090858564352 -0.140335241322293 -0.10780129474891281 0.12654540518341248
leaf_weight=84.828649930655956 630.83493228256702 300.37490051239729 24.226730290800333 7.9706092178821555 13.121569879353045 37.631364643573761 1095.6487563475966 5.7733070664107791 351.70812890306115 30.108016341924667 15.192378282546999 51.695026263594627 12.116651073098181 75.713019765913486 13.902367245405914 16.323867101222277 20.062425099313263 55.154151886701584 5.3565058559179297 2.3483379147946826 49.832454171031713 59.123239237815142 12.278742514550684 10.005285404622553 7.6203145310282734 9.0273782312870008 25.407200269401073 21.774441931396723 22.238870717585087 20.796216294169426
leaf_count=184 394 453 250 7 80 228 3987 27 829 124 21 41 58 253 119 67 64 497 39 3 63 585 40 47 18 17 42 121 96 40
internal_value=0.068886 0.0524244 0.0470993 0.0487042 0.0410463 0.00238335 0.0485656 -0.0448499 0.0696178 0.0365015 0.124042 0.0647463 -0.0456955 -0.00308455 0.0854083 -0.0111613 -0.0576036 -0.023498 0.0987103 -0.07752 0.0505722 0.0473623 -0.0154492 -0.0474348 0.054343 -0.0166862 0.0900581 -0.0755597 0.038192 0.00544408
internal_weight=3088.2 2378.36 2047.76 2023.53 1481.17 241.161 1240.01 126.326 542.358 190.65 709.839 79.0041 27.309 105.821 330.601 30.2262 120.553 82.9214 25.4189 57.5025 1226.89 1177.06 81.4073 69.1285 114.835 38.4221 76.4129 29.3948 51.0057 43.0351
internal_count=8794 8280 7641 7391 6001 1199 4802 858 1390 561 514 120 79 377 639 186 831 603 103 500 4722 4659 672 632 341 156 185 139 143 136
is_linear=0
shrinkage=0.1


Tree=11
num_leaves=31
num_cat=0
split_feature=187 121 30 89 9 2 35 87 124 13 128 82 33 31 126 8 116 94 63 87 19 116 33 94 15 20 14 92 112 144
split_gain=261.935 40.1828 41.1121 55.388 50.7265 39.377 41.7679 37.6347 33.9216 73.0539 50.279 39.2309 33.5934 33.2997 31.5462 30.0199 29.3049 28.3733 28.1953 34.6719 28.1486 34.9046 36.9388 27.0618 36.8886 30.1656 49.177 29.0817 58.9244 26.1917
threshold=1.0000000180025095e-35 1.0000000180025095e-35 75.500000000000014 1.5000000000000002 3.5000000000000004 1.5000000000000002 26.500000000000004 1.0000000180025095e-35 2.5000000000000004 13.500000000000002 1513.0000000000002 9.5000000000000018 20.500000000000004 55.500000000000007 93975.500000000015 12.500000000000002 3.5000000000000004 4.5000000000000009 3.5000000000000004 1.5000000000000002 39.500000000000007 1.0000000180025095e-35 21.500000000000004 1.5000000000000002 1.5000000000000002 5.5000000000000009 7.5000000000000009 2.5000000000000004 1.0000000180025095e-35 11.500000000000002
decision_type=2 2 2 2 2 2 2 2 2 2 2 2 2 2 2 2 2 2 2 2 2 2 2 2 2 2 2 2 2 2
left_child=1 2 15 5 17 6 -4 -3 9 10 -9 12 -11 -8 16 18 -10 -5 -1 -20 -2 22 -22 24 -12 -26 -27 -25 -29 -15
right_child=20 7 3 4 -6 -7 13 8 14 11 23 -13 -14 29 -16 -17 -18 -19 19 -21 21 -23 -24 27 25 26 -28 28 -30 -31
leaf_value=0.043515632253584784 0.12501259033939408 0.085915782915039762 -0.1312475863188661 -0.12862912489144157 0.11908247298688523 -0.088108978897810053 0.1029083475595666 0.14579817278732207 0.055376815121311401 -0.1255409867802991 -0.14433505145735456 0.11418882187374856 0.0066851700494301065 -0.12070576026172933 0.092374068762813566 0.14414914539353577 -0.15586854771050077 0.09792436599606151 -0.095493968026637122 0.11204936255582283 0.11852396937372248 0.11040397018945347 -0.10611590924730474 0.090240109826431769 0.126682218054818 -0.116435296925534 0.061231598518502073 -0.038318470941531707 0.08345751656056398 0.23011284625039463
leaf_weight=952.84333665668964 589.10040277242661 380.92480132728815 15.506698019802569 16.682702731341127 53.544608518481255 78.989952549338341 40.205056522041559 49.163006514310837 18.54504177719355 48.422362960875034 16.215041968971491 12.998894080519674 31.853615272790194 13.782947301864626 208.56006729975343 28.470125917345285 10.16734793037176 8.2675705999135953 30.510772097855806 10.933910764753817 11.801791787147524 58.323253303766251 19.275296419858932 125.14427526295185 20.268990803509951 26.840667199343443 37.132433965802193 75.427581876516342 83.969792976975441 2.5167233720421782
leaf_count=2818 381 983 137 148 159 773 139 89 46 487 101 40 184 151 417 66 57 36 229 33 9 52 72 267 42 144 118 372 242 2
internal_value=0.062223 0.0467014 0.0343197 -0.00393085 0.0642072 -0.039351 0.014132 0.0602355 0.0474434 0.033317 0.0505672 -0.0469764 -0.0730735 0.0540288 0.078845 0.0429027 -0.0194273 -0.0535579 0.0400036 -0.04074 0.117078 0.0647928 -0.020807 0.0384065 -0.00621361 0.0203722 -0.0133106 0.0541596 0.0258326 -0.0665382
internal_weight=3076.39 2397.89 1252.25 229.496 78.4949 151.001 72.0114 1145.63 764.709 527.437 434.162 93.2749 80.276 56.5047 237.272 1022.76 28.7124 24.9503 994.288 41.4447 678.501 89.4003 31.0771 384.999 100.457 84.2421 63.9731 284.542 159.397 16.2997
internal_count=8794 8280 4691 1545 343 1202 429 3589 2606 2086 1375 711 671 292 520 3146 103 184 3080 262 514 133 81 1286 405 304 262 881 614 153
is_linear=0
shrinkage=0.1


Tree=12
num_leaves=31
num_cat=0
split_feature=193 133 35 38 137 24 27 89 13 20 20 16 23 21 93 11 129 119 27 34 34 129 35 4 24 28 28 28 25 32
split_gain=253.125 41.528 33.1435 29.8858 28.5997 30.8089 41.9582 31.4456 37.0351 41.571 33.3352 50.2777 34.0555 35.8822 33.09 32.8641 71.038 38.2503 35.04 33.1498 48.4146 33.8584 39.2751 39.7279 30.7375 29.7002 29.2462 29.0912 33.4828 29.215
threshold=1.5000000000000002 1.0000000180025095e-35 62.500000000000007 1.5000000000000002 7.5000000000000009 69.500000000000014 13.500000000000002 1.5000000000000002 2.5000000000000004 13.500000000000002 7.5000000000000009 2.5000000000000004 6.5000000000000009 5.5000000000000009 2.5000000000000004 2.5000000000000004 742.50000000000011 1.5000000000000002 13.500000000000002 5.5000000000000009 10.500000000000002 737.50000000000011 25.500000000000004 7.5000000000000009 17.500000000000004 33.500000000000007 22.500000000000004 14.500000000000002 12.500000000000002 60.500000000000007
decision_type=2 2 2 2 2 2 2 2 2 2 2 2 2 2 2 2 2 2 2 2 2 2 2 2 2 2 2 2 2 2
left_child=1 3 -3 4 5 7 -7 8 9 10 12 -12 13 27 15 16 18 25 -10 -17 -21 -22 -23 26 -16 -18 -24 28 -1 -29
right_child=-2 2 -4 -5 -6 6 -8 -9 14 -11 11 -13 -14 -15 24 19 17 -19 -20 20 21 22 23 -25 -26 -27 -28 29 -30 -31
leaf_value=0.048526687171360924 0.12122053301193569 0.084601948108160879 -0.070665217462203708 -0.067693631274716656 0.1113380875395055 -0.029875746700779124 0.038445610901596233 0.070129020974867493 0.046732974508132137 0.17494576362785311 -0.12650241235162088 0.079657503736154295 -0.1411567141509997 0.1775341148005547 0.088600370143094187 0.2295773344805109 -0.087519486098534258 0.11520042806121825 -0.11211582849362188 -0.14822314624108793 0.0081513871149767325 0.1129369479781254 0.033124492212055538 0.21013606176087118 -0.13894233393098174 0.13552842681544955 -0.13710173052378913 -0.10264617907470784 0.12348474160138934 0.11029916627343761
leaf_weight=518.83042450249195 503.19724032282829 301.87842123955488 14.403962466865776 26.037286467850208 54.911212857812643 145.00801582634449 236.47758935764432 361.25733228027821 223.33040715754032 26.845527291297913 25.960565254092216 21.73234985396266 8.8155029788613302 23.682731606066227 7.9925699904561069 9.93262170255184 104.93262005597353 11.706766724586485 14.807302389293907 12.55986352264881 105.14430949836969 115.52292648330331 26.996368251740932 8.1577736511826497 23.079398069530725 6.3299620598554602 16.119347620755434 22.44969812035561 67.324365317821503 9.035869110375641
leaf_count=1289 340 447 99 258 69 1419 1015 830 713 54 132 47 52 25 19 7 495 14 72 65 402 258 107 13 149 10 106 107 164 17
internal_value=0.0564006 0.0436158 0.0775309 0.0388163 0.0400718 0.0382551 0.0124757 0.0438033 0.0370645 0.0528327 0.048135 -0.032561 0.0540547 0.056738 0.0204221 0.0252016 0.00498364 -0.0567388 0.0368558 0.0499978 0.0437282 0.0525937 0.080609 0.00777191 -0.0804121 -0.0748298 -0.0305167 0.0521063 0.0571362 -0.0415342
internal_weight=3054.46 2551.26 316.282 2234.98 2208.94 2154.03 381.486 1772.55 1411.29 724.677 697.832 47.6929 650.139 641.323 686.612 655.54 361.107 122.969 238.138 294.433 284.501 271.941 166.796 51.2735 31.072 111.263 43.1157 617.64 586.155 31.4856
internal_count=8794 8454 546 7908 7650 7581 2434 5147 4317 1887 1833 179 1654 1602 2430 2262 1304 519 785 958 951 886 484 226 168 505 213 1577 1453 124
is_linear=0
shrinkage=0.1


Tree=13
num_leaves=31
num_cat=0
split_feature=193 24 101 134 0 35 30 33 27 13 93 17 29 61 24 31 126 31 46 35 35 31 30 35 91 27 117 93 61 82
split_gain=234.685 37.212 47.0304 27.0509 30.0792 29.7666 21.756 35.0146 37.2565 51.4914 37.1984 30.7169 28.8225 28.3868 30.9514 45.8737 26.5737 28.2405 24.0404 23.6604 46.0614 27.0618 27.6986 30.4209 22.6766 23.9082 21.0593 24.918 20.8363 20.7641
threshold=1.5000000000000002 248.50000000000003 1.0000000180025095e-35 1.0000000180025095e-35 26.500000000000004 43.500000000000007 21.500000000000004 9.5000000000000018 6.5000000000000009 1.0000000180025095e-35 2.5000000000000004 4.5000000000000009 8.5000000000000018 7.5000000000000009 16.500000000000004 13.500000000000002 175892.50000000003 19.500000000000004 1.0000000180025095e-35 41.500000000000007 28.500000000000004 34.500000000000007 26.500000000000004 8.5000000000000018 1.5000000000000002 8.5000000000000018 2.5000000000000004 22.500000000000004 8.5000000000000018 1.0000000180025095e-35
decision_type=2 2 2 2 2 2 2 2 2 2 2 2 2 2 2 2 2 2 2 2 2 2 2 2 2 2 2 2 2 2
left_child=1 2 3 4 6 -5 11 13 10 -10 -9 24 -11 14 15 -8 19 -18 -17 20 21 22 23 -16 25 -1 -3 -28 -7 -19
right_child=-2 26 -4 5 -6 28 7 8 9 12 -12 -13 -14 -15 16 18 17 29 -20 -21 -22 -23 -24 -25 -26 -27 27 -29 -30 -31
leaf_value=0.040426320466184287 0.11559792415697578 -0.094717043407923987 0.08018800985795016 0.091016352492058555 -0.12357869811040056 -0.10990324708607813 0.055786628536050424 0.11192514131358784 -0.11071440412476137 -0.099708983143330959 -0.051983675586795092 -0.089888531812694183 0.036444999350742441 -0.1191566985977553 0.14134132315634651 -0.12943347426422455 -0.14263021328885658 -0.059651486096585993 0.13435436294260306 0.1681866763405766 -0.12349078552791837 -0.083299595505309076 0.067772380509072819 -0.11510740645145884 0.10164581409826468 0.14442895799281794 0.071163772710232262 -0.14489014060914621 0.085109001177181787 0.078894408667554997
leaf_weight=421.61244956403971 476.30396370589733 31.519291177392006 273.26527941413224 147.2456386461854 12.188992049545048 13.669725287705662 26.398496061563492 102.60983059555292 25.169215355068445 15.809682205319403 16.005588058382273 15.042106613516806 938.92636780999601 18.411176051944494 6.2830456346273449 43.78063103556633 17.77904561907053 22.471850614994764 3.7508644983172408 13.075200136750935 18.029780067503452 15.649013470858334 167.98037186637521 17.535121895372868 87.20750480890274 23.326232574880123 23.448640760034326 6.911570329219102 9.1439126878976804 20.858193829655647
leaf_count=995 340 402 575 182 149 75 65 223 137 70 67 61 3326 206 11 236 105 145 14 72 179 141 539 87 133 28 78 43 16 94
internal_value=0.0511538 0.0391407 0.0410419 0.0362232 0.0330437 0.0745484 0.0339806 0.02772 0.0368758 0.0304685 0.0898078 0.0510343 0.0341904 0.00206245 0.00803632 -0.0499128 0.022333 -0.0365038 -0.108617 0.037405 0.0298211 0.0431459 0.0534627 -0.0474582 0.0550178 0.0458787 -0.0374621 0.0219786 -0.0317406 0.00704166
internal_weight=3031.41 2555.1 2493.23 2219.96 2049.9 170.059 2037.71 1490.52 1098.52 979.905 118.615 547.188 954.736 392.003 373.592 73.93 299.662 61.1091 47.5315 238.553 225.477 207.448 191.799 23.8182 532.146 444.939 61.8795 30.3602 22.8136 43.33
internal_count=8794 8454 7931 7356 7083 273 6934 5717 3823 3533 290 1217 3396 1894 1688 315 1373 344 250 1029 957 778 637 98 1156 1023 523 121 91 239
is_linear=0
shrinkage=0.1


Tree=14
num_leaves=31
num_cat=0
split_feature=187 124 30 126 19 106 17 196 137 30 84 16 31 12 6 33 30 8 9 59 41 17 13 23 28 2 31 123 137 12
split_gain=216.256 31.8846 31.8242 28.9875 28.4587 31.3371 35.6637 30.0512 28.3987 28.5003 32.7124 27.6659 37.9577 35.6037 25.2512 33.4915 26.2639 30.8341 28.189 27.3547 30.3441 25.1884 27.6237 25.2388 25.879 25.1293 25.3995 24.4957 33.4597 29.5156
threshold=1.0000000180025095e-35 3.5000000000000004 477.50000000000006 93975.500000000015 39.500000000000007 1.0000000180025095e-35 10.500000000000002 2.5000000000000004 8.5000000000000018 52.500000000000007 1.5000000000000002 8.5000000000000018 34.500000000000007 17.500000000000004 9.5000000000000018 36.500000000000007 80.500000000000014 6.5000000000000009 3.5000000000000004 5.5000000000000009 1.5000000000000002 7.5000000000000009 6.5000000000000009 18.500000000000004 33.500000000000007 5.5000000000000009 32.500000000000007 1.5000000000000002 3.5000000000000004 4.5000000000000009
decision_type=2 2 2 2 2 2 2 2 2 2 2 2 2 2 2 2 2 2 2 2 2 2 2 2 2 2 2 2 2 2
left_child=1 2 8 -3 -2 6 -6 -8 9 11 14 12 13 25 21 16 17 -16 -19 -18 -21 27 -23 24 -24 26 -1 28 29 -11
right_child=4 3 -4 -5 5 -7 7 -9 -10 10 -12 -13 -14 -15 15 -17 19 18 -20 20 -22 22 23 -25 -26 -27 -28 -29 -30 -31
leaf_value=0.036693249912875925 0.10964829041278723 -0.058688848181674691 -0.11355321787543836 0.091107282153947394 0.089239769244460795 0.1159217325122784 -0.16059362898498375 0.080109342877868375 0.089216793749453918 0.038873884294802159 0.046966390680435635 0.083104236140832788 -0.10393524595086366 -0.13978872143341575 -0.13359101020582881 0.1184726758847528 -0.081040864697501241 0.12271957544721929 -0.025901690985860717 0.19230485192447003 -0.1255722866781149 0.2021796669194553 -0.017113301676844769 -0.12799196284791756 0.13699947935370482 -0.14370115325118202 0.13609337778334338 0.052266422269799752 -0.18438056479272943 -0.027800193072710058
leaf_weight=1102.3759587071836 506.51722596585751 14.234928168356417 15.292018687352536 139.68416172266006 20.168815806508064 35.536825209856033 17.584391795098785 7.3567933887243262 81.311183460056782 111.22877890989184 235.53569335490465 125.34225229173899 19.709029346704483 11.403451923280953 11.42189150303602 14.817801155149935 109.11295164003968 25.440912466496229 25.607497453689575 8.0251418314874154 4.7986664026975623 13.381297145038841 19.316074252128601 7.5488091483712187 24.996357027441263 7.5779268816113463 26.3208017796278 90.040559072047472 10.313329845666884 164.72305547818542
leaf_count=2859 381 57 233 221 20 26 78 9 116 452 856 253 105 67 76 63 1081 66 121 15 54 16 107 63 53 42 52 277 49 926
internal_value=0.0464226 0.0332112 0.0302191 0.0772537 0.100864 0.04569 -0.00963717 -0.0895945 0.0311961 0.0290211 0.0150986 0.0384588 0.0336652 0.0360282 0.00338466 -0.0261687 -0.0377912 0.0149344 0.0481664 -0.0648034 0.0733553 0.016719 0.07408 0.0410275 0.0698207 0.0377927 0.0390112 0.00677397 -0.00753503 -0.000925662
internal_weight=3006.72 2419.56 2265.64 153.919 587.164 80.6468 45.11 24.9412 2250.35 2169.04 876.309 1292.73 1167.39 1147.68 640.773 199.225 184.407 62.4703 51.0484 121.937 12.8238 441.548 65.2425 51.8612 44.3124 1136.27 1128.7 376.306 286.265 275.952
internal_count=8794 8280 8002 278 514 133 107 87 7769 7653 4275 3378 3125 3020 3419 1476 1413 263 187 1150 69 1943 239 223 160 2953 2911 1704 1427 1378
is_linear=0
shrinkage=0.1


Tree=15
num_leaves=31
num_cat=0
split_feature=193 130 38 29 101 7 80 18 47 121 81 62 12 25 12 31 13 123 13 17 123 2 25 31 21 15 71 63 62 18
split_gain=204.581 34.0423 31.6562 29.7052 26.8261 23.5665 28.0849 30.4393 42.3113 31.7919 27.1727 24.242 24.0378 23.0064 34.21 27.018 24.7284 21.0074 26.9633 32.3965 32.0272 39.7157 29.8507 29.3686 29.0619 35.7842 33.5028 30.0189 28.3757 24.1593
threshold=1.5000000000000002 1.0000000180025095e-35 1.5000000000000002 51.500000000000007 1.0000000180025095e-35 30.500000000000004 9.5000000000000018 61.500000000000007 2.5000000000000004 4.5000000000000009 6.5000000000000009 12.500000000000002 55.500000000000007 65.500000000000014 28.500000000000004 76.500000000000014 13.500000000000002 3.5000000000000004 6.5000000000000009 7.5000000000000009 1.5000000000000002 1.5000000000000002 36.500000000000007 69.500000000000014 6.5000000000000009 7.5000000000000009 1.0000000180025095e-35 2.5000000000000004 1.0000000180025095e-35 1.0000000180025095e-35
decision_type=2 2 2 2 2 2 2 2 2 2 2 2 2 2 2 2 2 2 2 2 2 2 2 2 2 2 2 2 2 2
left_child=1 2 5 4 -3 6 7 11 9 -9 -11 13 -10 14 15 16 17 18 19 22 21 -20 23 29 26 27 -23 -26 -22 -1
right_child=-2 3 -4 -5 -6 -7 -8 8 12 10 -12 -13 -14 -15 -16 -17 -18 -19 20 -21 28 24 -24 -25 25 -27 -28 -29 -30 -31
leaf_value=-0.032302900485206613 0.10651985206091366 0.04366824501161997 -0.11592803313091263 -0.12452750505681168 0.097027594781046569 -0.12323012585577556 0.14343744463620664 -0.11318673463119687 -0.11681577054493592 0.089250547282503381 -0.13252585901029978 -0.11875555704920918 0.12114851851713866 0.11380707176529258 -0.054723754237667115 -0.1173640397721567 0.085988363007310636 0.084400352308269436 -0.091671221390602936 0.14208153953725819 0.10096322251710224 -0.094684596380624333 -0.122207707731254 0.19606646569446279 0.10280794441120961 -0.14490101138833808 0.10395781530408661 -0.12655228735134469 -0.075930319320511516 0.033081005873780503
leaf_weight=59.717785641551018 424.57809825241566 640.55294407531619 16.019062642008066 9.7088330797851068 110.46702136844397 10.621034966781734 20.191060122102499 49.876174179837108 5.2075657416135099 18.407146232202653 7.8938032984733573 11.156071372330187 22.963897757232189 31.487125227227807 49.058187508955598 12.326106023043392 78.40272143855691 63.90027092397213 60.536814719438553 26.112404510378838 41.673012956976891 38.074883241206408 12.836303113028405 10.696345295757054 52.733767498284578 8.2020685076713544 10.927353717386721 6.3987649343907824 11.59033392369747 1052.7660739850253
leaf_count=202 340 1403 224 102 141 131 21 692 63 62 57 116 87 135 341 135 223 90 350 38 88 237 115 14 131 45 36 50 55 3070
internal_value=0.0422485 0.0315494 0.0240173 0.0492701 0.0515168 0.0252812 0.0261758 0.0248174 -0.0275508 -0.0662746 0.022688 0.0281523 0.0771602 0.0291594 0.0274893 0.0300966 0.0312811 0.0283355 0.0257624 0.0319552 -0.00550992 -0.0259814 0.0294239 0.0311568 0.00820087 0.0508384 -0.0503879 0.0779887 0.0624704 0.0295712
internal_weight=2975.08 2550.5 1789.78 760.729 751.02 1773.76 1763.14 1742.94 104.349 76.1771 26.3009 1638.6 28.1715 1627.44 1595.95 1546.9 1534.57 1456.17 1392.27 1162.13 230.137 176.874 1136.02 1123.18 116.337 67.3346 49.0022 59.1325 53.2633 1112.48
internal_count=8794 8454 6808 1646 1544 6584 6453 6432 961 811 119 5471 150 5355 5220 4879 4744 4521 4431 3439 992 849 3401 3286 499 226 273 181 143 3272
is_linear=0
shrinkage=0.1


Tree=16
num_leaves=31
num_cat=0
split_feature=189 145 31 101 24 108 23 16 19 21 25 90 64 61 26 13 16 4 8 11 95 26 31 24 29 12 24 17 93 19
split_gain=189.147 37.1822 28.2475 22.9813 22.2931 25.9011 27.9572 20.2365 18.942 31.5517 36.2409 34.8963 28.5502 26.505 33.6726 27.3859 38.0936 33.9916 25.4455 29.297 34.0577 31.1469 33.1024 39.1983 35.8374 32.4875 45.7557 32.2971 26.7209 28.4879
threshold=1.0000000180025095e-35 1.5000000000000002 143.50000000000003 1.0000000180025095e-35 248.50000000000003 2.5000000000000004 22.500000000000004 48.500000000000007 3.5000000000000004 5.5000000000000009 29.500000000000004 5.5000000000000009 4.5000000000000009 4.5000000000000009 33.500000000000007 11.500000000000002 6.5000000000000009 4.5000000000000009 4.5000000000000009 2.5000000000000004 1.5000000000000002 7.5000000000000009 11.500000000000002 16.500000000000004 8.5000000000000018 5.5000000000000009 19.500000000000004 2.5000000000000004 2.5000000000000004 5.5000000000000009
decision_type=2 2 2 2 2 2 2 2 2 2 2 2 2 2 2 2 2 2 2 2 2 2 2 2 2 2 2 2 2 2
left_child=1 4 -3 -4 5 6 8 -6 -1 10 12 -12 13 15 -15 16 18 -18 19 21 -21 27 -23 24 -24 28 -27 -10 -25 -30
right_child=-2 2 3 -5 7 -7 -8 -9 9 -11 11 -13 -14 14 -16 -17 17 -19 -20 20 -22 22 23 25 -26 26 -28 -29 29 -31
leaf_value=0.040432824539045752 0.1056077232696756 0.069160049884768746 -0.14721911830769907 0.078131958899559151 -0.081529498777704823 0.098740458586391758 -0.093517104618295474 0.078453023244424769 -0.13431760600436418 0.03232369616426109 -0.11174733827488025 0.059772127041294809 0.14517351352813643 -0.13049891241229727 0.24818625238046732 0.099682235910477632 -0.14306392115991434 0.032121626244054298 -0.071882206004274404 0.11409913297911273 -0.078004071602516309 0.086853464741433295 -0.0011563926516375649 0.064768323332744945 -0.15628828628605806 0.10340945627955521 -0.087532423446511673 0.023815984032707689 0.054369313889203401 -0.16571946793851033
leaf_weight=600.93935973569751 367.30824062973261 289.94649873673916 11.321150066331031 7.5389067605137816 34.811354303732514 47.727448627352715 19.966449372470379 10.230158664286135 28.20186111330986 858.6019144076854 47.209378527477384 15.842450315132735 15.440465115010737 23.06651523150504 2.6142394281923762 33.468623753637075 30.233609735965729 17.479109950363636 31.892616018652916 55.270070172846317 11.078698713332413 62.75386967509985 36.812576554715633 144.7093949764967 25.007272861897945 17.264020353555679 45.961200334131718 23.8282106295228 12.400248020887377 11.186930164694784
leaf_count=1433 310 424 100 13 419 54 195 37 118 3007 555 73 41 203 7 98 184 69 149 110 48 112 115 384 126 32 228 58 32 60
internal_value=0.0384794 0.0288958 0.0614464 -0.0571398 0.024456 0.0258697 0.0242679 -0.0451931 0.0253611 0.019519 0.0036251 -0.0686512 0.010874 0.00749247 -0.0919497 0.0118389 0.00653283 -0.0788863 0.0145815 0.0203933 0.0820224 0.0103743 0.0209341 0.0068321 -0.0639101 0.0257214 -0.0353946 -0.0618972 0.0486812 -0.0500144
internal_weight=2940.11 2572.8 308.807 18.8601 2264 2218.96 2171.23 45.0415 2151.26 1550.32 691.721 63.0518 628.67 613.229 25.6808 587.548 554.08 47.7127 506.367 474.474 66.3488 408.126 356.096 293.342 61.8198 231.522 63.2252 52.0301 168.297 23.5872
internal_count=8794 8484 537 113 7947 7491 7437 456 7242 5809 2802 628 2174 2133 210 1923 1825 253 1572 1423 158 1265 1089 977 241 736 260 176 476 92
is_linear=0
shrinkage=0.1


Tree=17
num_leaves=31
num_cat=0
split_feature=189 145 31 186 101 30 33 17 35 14 92 6 19 131 17 129 32 108 1 69 122 32 72 80 23 15 8 6 62 63
split_gain=172.87 31.8365 23.4513 20.8393 20.0798 19.1196 32.4306 21.5978 28.1568 26.2624 23.7798 24.3904 25.3989 33.4492 24.9476 20.607 20.9709 18.4883 24.9867 18.5996 18.2224 31.6726 24.1148 18.1879 24.9774 33.9651 24.0752 37.3043 35.3969 24.9514
threshold=1.0000000180025095e-35 1.5000000000000002 143.50000000000003 1.5000000000000002 1.0000000180025095e-35 18.500000000000004 5.5000000000000009 3.5000000000000004 10.500000000000002 3.5000000000000004 1.5000000000000002 2.5000000000000004 3.5000000000000004 1.0000000180025095e-35 2.5000000000000004 724.50000000000011 16.500000000000004 2.5000000000000004 13.500000000000002 3.5000000000000004 1.0000000180025095e-35 12.500000000000002 1.5000000000000002 9.5000000000000018 18.500000000000004 16.500000000000004 18.500000000000004 28.500000000000004 12.500000000000002 11.500000000000002
decision_type=2 2 2 2 2 2 2 2 2 2 2 2 2 2 2 2 2 2 2 2 2 2 2 2 2 2 2 2 2 2
left_child=1 3 -3 5 -4 7 15 9 -9 10 11 12 -1 -14 -13 16 -7 18 23 -20 22 -22 -17 24 26 -26 27 28 29 -8
right_child=-2 2 4 -5 -6 6 17 8 -10 -11 -12 14 13 -15 -16 20 -18 -19 19 -21 21 -23 -24 -25 25 -27 -28 -29 -30 -31
leaf_value=0.044584034225597181 0.10142683303100408 0.063525171140694267 -0.14328097359401692 0.09111643555945266 0.071949500868919311 -0.076418009464554099 0.020533300238838002 -0.16231450843987261 0.03753673729249133 0.11056183032358152 0.10921451351611583 -0.17603937002776604 -0.082446073462457525 0.11852260546999145 0.057777850861677284 -0.13056979750851302 0.093175533888920914 0.077782602090939235 -0.11826738521073621 0.16700226715076202 0.10493774834376522 -0.1273584041937931 0.1526143645556679 0.14721326758199332 -0.066319591503423411 0.10944826576603968 0.097896486613747377 -0.1258953019176417 -0.1214741050944695 0.1273491369080105
leaf_weight=279.41938469558954 345.34870060533285 284.39802027493715 10.510875664651396 42.780194967985153 7.3767641261219969 11.870087392628195 1393.2852209173143 11.981745481491091 17.126225903630257 52.51515256613493 38.958373934030533 11.488273188471796 35.409811742603779 10.810272693634031 7.570252299308776 40.299670245498419 18.901216335594654 52.137006625533104 20.389308970421556 2.5741128660738459 12.937839128077032 10.743435844779013 3.2495574727654448 10.949510436505077 65.751765022054315 13.201251814141868 39.418571686372161 17.627704048529267 17.355650689452887 22.217472609132528
leaf_count=579 310 424 100 40 13 53 4754 54 39 77 47 49 128 11 13 311 87 79 276 3 23 97 9 16 608 44 125 185 190 50
internal_value=0.035009 0.0260605 0.0565398 0.0219855 -0.0545211 0.0206522 0.015869 0.0386726 -0.0447282 0.0442383 0.0351599 0.0267901 0.0332254 -0.0354421 -0.0831646 -0.0400253 0.0277545 0.019179 0.0172727 -0.0862897 -0.071048 -0.000447575 -0.109439 0.018778 0.0178817 -0.0369305 0.0207863 0.0186907 0.0204695 0.0222099
internal_weight=2908.6 2563.25 302.286 2260.97 17.8876 2218.19 1752.91 465.279 29.108 436.172 383.656 344.698 325.639 46.2201 19.0585 98.0018 30.7713 1654.91 1602.77 22.9634 67.2305 23.6813 43.5492 1579.81 1568.86 78.953 1489.9 1450.49 1432.86 1415.5
internal_count=8794 8484 537 7947 113 7907 6910 997 93 904 827 780 718 139 62 580 140 6330 6251 279 440 120 320 5972 5956 652 5304 5179 4994 4804
is_linear=0
shrinkage=0.1


Tree=18
num_leaves=31
num_cat=0
split_feature=193 121 27 92 28 12 28 104 128 87 128 106 136 35 23 34 28 12 129 24 33 77 23 55 186 12 10 21 11 10
split_gain=164.606 21.1488 39.4684 28.8913 27.4323 23.2468 42.6754 27.4817 30.4989 28.2956 23.9463 23.4176 22.6891 21.232 24.6628 30.8564 26.6508 29.1838 24.1589 29.0772 28.8328 21.0843 35.9878 22.099 23.187 21.7189 62.0945 43.7133 41.853 28.6194
threshold=1.5000000000000002 1.0000000180025095e-35 26.500000000000004 1.0000000180025095e-35 29.500000000000004 25.500000000000004 36.500000000000007 2.5000000000000004 1521.5000000000002 2.5000000000000004 1584.5000000000002 2.5000000000000004 1.5000000000000002 6.5000000000000009 1.5000000000000002 13.500000000000002 3.5000000000000004 1.0000000180025095e-35 734.50000000000011 3.5000000000000004 6.5000000000000009 1.5000000000000002 18.500000000000004 3.5000000000000004 1.0000000180025095e-35 7.5000000000000009 3.5000000000000004 6.5000000000000009 2.5000000000000004 4.5000000000000009
decision_type=2 2 2 2 2 2 2 2 2 2 2 2 2 2 2 2 2 2 2 2 2 2 2 2 2 2 2 2 2 2
left_child=1 2 12 4 -3 -5 7 8 9 -7 -8 -12 13 18 15 -15 -17 -18 -1 -20 -21 22 23 24 25 -16 -27 -28 -29 -30
right_child=-2 3 -4 5 -6 6 10 -9 -10 -11 11 -13 -14 14 21 16 17 -19 19 20 -22 -23 -24 -25 -26 26 27 28 29 -31
leaf_value=0.080209778859399505 0.095507130136038496 0.043906953690793483 -0.13442388718469836 0.033425042394567769 0.11982615917189875 0.11961652545640088 0.049987390930079353 0.12958197402965069 -0.11975562508738485 -0.15158656257956982 -0.1317222533602363 0.041058320506104695 0.13830891577471929 -0.098046422042505327 0.022352839818767893 0.15269332920510956 -0.15068545102019634 0.071615360882300375 0.059377488406937441 -0.10228047361241724 0.09159030928116367 0.068897680757256705 -0.1136437458759848 -0.12391514550996208 0.071285063195263274 -0.080600640731958481 -0.041389373992347531 -0.13579385371634961 0.15137247560645845 0.040758629564624477
leaf_weight=98.618871599435806 356.50343672931194 199.82238816097379 17.590316412970424 682.12809314951301 62.47555616311729 11.921184841543438 112.24791535176337 6.7207249067723742 53.212494011968374 5.6800840962678185 16.338788015767935 15.088122423738239 15.082343369722365 45.387940000742674 560.59156283922493 11.370856232941149 11.207753829658033 12.483081348240374 50.918097138404846 30.695736076682806 10.226997315883635 65.225265609100461 22.922267477959394 11.621640520170329 67.551812022924423 90.210949579253793 81.672065416350961 11.230947582051156 29.966111719608307 106.59682039730251
leaf_count=164 340 493 164 1829 131 43 411 6 515 59 137 34 9 184 1731 11 66 30 94 116 15 214 258 145 75 537 480 80 52 371
internal_value=0.031912 0.0229038 0.0143896 0.0327732 0.0619898 0.0242897 -0.00388037 -0.0636706 -0.0820116 0.0320969 0.0283856 -0.04877 0.0163524 0.0149574 0.00974309 -0.0436141 0.0268495 -0.0335516 0.0458402 0.00893402 -0.0538302 0.0138407 0.0101851 0.0131435 0.014824 0.0104912 -0.0103095 0.0173243 0.0497699 0.0650307
internal_weight=2873.31 2516.81 1351.17 1165.64 262.298 903.337 221.209 77.5345 70.8138 17.6013 143.675 31.4269 1333.58 1318.5 1128.04 80.4496 35.0617 23.6908 190.46 91.8408 40.9227 1047.59 982.364 959.442 947.82 880.268 319.677 229.466 147.794 136.563
internal_count=8794 8454 4796 3658 624 3034 1205 623 617 102 582 171 4632 4623 4234 291 107 96 389 225 131 3943 3729 3471 3326 3251 1520 983 503 423
is_linear=0
shrinkage=0.1


Tree=19
num_leaves=31
num_cat=0
split_feature=193 130 38 11 27 15 101 31 8 80 82 30 8 6 24 29 31 127 35 25 116 61 126 187 32 21 32 24 24 27
split_gain=149.351 19.2876 23.5664 21.2646 27.1332 24.2092 24.0525 18.3226 18.2415 18.8856 17.7877 33.8733 26.9983 38.3818 23.335 21.1009 30.1659 31.6061 27.7014 25.9099 24.635 25.9362 27.2062 35.1099 20.8809 19.2957 32.5828 19.0384 17.6798 27.5578
threshold=1.5000000000000002 1.0000000180025095e-35 1.5000000000000002 6.5000000000000009 13.500000000000002 22.500000000000004 1.0000000180025095e-35 129.50000000000003 30.500000000000004 9.5000000000000018 1.0000000180025095e-35 22.500000000000004 9.5000000000000018 7.5000000000000009 17.500000000000004 16.500000000000004 35.500000000000007 1400.5000000000002 25.500000000000004 22.500000000000004 1.0000000180025095e-35 1.0000000180025095e-35 92882.000000000015 1.0000000180025095e-35 51.500000000000007 11.500000000000002 111.50000000000001 42.500000000000007 60.500000000000007 13.500000000000002
decision_type=2 2 2 2 2 2 2 2 2 2 2 2 2 2 2 2 2 2 2 2 2 2 2 2 2 2 2 2 2 2
left_child=1 2 8 6 -5 -6 10 -2 9 28 11 -3 13 15 -12 19 -17 -18 -19 20 21 22 -13 -24 -15 -14 -27 -16 -1 -30
right_child=7 3 -4 4 5 -7 -8 -9 -10 -11 14 12 25 24 27 16 17 18 -20 -21 -22 -23 23 -25 -26 26 -28 -29 29 -31
leaf_value=0.02027476497725874 0.098205285582408042 0.072087808159876421 -0.11527281999261346 0.085836843188380405 -0.13723827805503608 0.070619960219251321 0.08658971965552624 0.0065186470092902585 -0.11973103580489136 0.11705218644669427 -0.14042435584988675 0.046625505161341528 0.11949974035364008 -0.20998968575496943 0.1022145538367632 0.088730686589287747 0.052188136140253805 0.10602255524663565 -0.15512510686042552 -0.18475086624390347 0.063884679122711813 0.031081440194544729 -0.19305111351996751 0.056648544525379999 -0.044746557645535673 -0.19984601595187573 0.06753351956885327 0.036990875068739548 -0.03945631463092323 0.022601636267031967
leaf_weight=1447.0425444841385 311.53339423239231 93.046150460839272 13.763041855767367 13.239279011264442 22.693362427875403 7.4404989629983893 90.983801670372486 23.435576826334 9.8329901285469514 18.611191790550947 5.8559685200452796 10.614833131432531 30.612046292051673 13.184422452002766 73.079141885042191 53.664054952561855 29.930523950606585 5.1301803234964636 19.506550345569849 9.4708802439272386 30.202278479933739 28.0096046179533 25.393625795841217 7.2356186658143988 18.208427764475346 6.1006690040230778 18.01823815330863 115.457339823246 136.39116857200861 150.53181991353631
leaf_count=4281 294 129 224 30 177 35 111 46 139 21 19 19 49 65 80 70 62 6 101 46 42 57 110 9 71 33 48 277 1421 722
internal_value=0.0290814 0.02069 0.0150739 0.0344095 -0.0334892 -0.085915 0.0387169 0.0917906 0.0160918 0.0168539 0.0313683 0.0192664 0.00316714 -0.010732 0.0561663 0.00408133 0.0354946 -0.0168603 -0.100746 -0.0265686 -0.0118023 -0.0438838 -0.0924394 -0.13768 -0.114146 0.0667953 -9.78219e-05 0.0622724 0.0157784 -0.00689811
internal_weight=2838.22 2503.25 1776.17 727.077 43.3731 30.1339 683.704 334.969 1762.41 1752.58 592.721 398.328 305.282 250.551 194.392 219.158 108.231 54.5673 24.6367 110.927 101.456 71.2537 43.2441 32.6292 31.3929 54.731 24.1189 188.536 1733.97 286.923
internal_count=8794 8454 6808 1646 242 212 1404 340 6584 6445 1293 917 788 658 376 522 239 169 107 283 237 195 138 119 136 130 81 357 6424 2143
is_linear=0
shrinkage=0.1


Tree=20
num_leaves=31
num_cat=0
split_feature=189 121 30 158 137 86 107 18 33 16 116 86 89 121 32 24 129 144 32 128 92 111 31 24 121 4 10 8 7 31
split_gain=137.994 24.3692 36.372 25.7611 21.2044 17.6902 22.6912 19.1723 20.6898 17.0736 27.6124 16.9843 17.2192 16.3816 16.332 26.1104 28.6351 31.7597 23.5781 49.0198 20.7242 25.581 20.6564 23.0248 19.8018 27.0434 18.0899 25.4681 23.4274 27.6533
threshold=1.0000000180025095e-35 4.5000000000000009 323.50000000000006 1.0000000180025095e-35 7.5000000000000009 8.5000000000000018 1.5000000000000002 64.500000000000014 25.500000000000004 25.500000000000004 2.5000000000000004 15.500000000000002 5.5000000000000009 8.5000000000000018 27.500000000000004 29.500000000000004 737.50000000000011 1.5000000000000002 32.500000000000007 1521.5000000000002 1.0000000180025095e-35 1.0000000180025095e-35 34.500000000000007 17.500000000000004 3.5000000000000004 6.5000000000000009 3.5000000000000004 4.5000000000000009 2.5000000000000004 22.500000000000004
decision_type=2 2 2 2 2 2 2 2 2 2 2 2 2 2 2 2 2 2 2 2 2 2 2 2 2 2 2 2 2 2
left_child=1 2 4 -4 14 -3 11 -8 -9 -2 -11 12 13 -7 26 16 18 -18 19 -16 22 -22 -20 -24 -17 -26 -1 28 29 -28
right_child=9 5 3 -5 -6 6 7 8 -10 10 -12 -13 -14 -15 15 24 17 -19 20 -21 21 -23 23 -25 25 -27 27 -29 -30 -31
leaf_value=0.017142377246848802 0.098619070937237402 0.068015369180439614 -0.13138887263254539 0.12677223494517464 0.061344686539368837 -0.11850684624132213 0.098800183480565906 -0.15502970133143179 0.060689896564748963 -0.11292474305282801 0.11863311889993665 -0.1103343732615763 0.096647074445494446 0.047609251195562335 0.096618019760352961 0.015354143347536341 -0.118129394858372 0.067498921468924333 0.1426363065857342 -0.16552008286300499 -0.10294091663772427 0.13977782211600306 0.095306697821863684 -0.16398017641394308 -0.14222709988488111 0.064772199015203244 -0.082243201465783386 0.01042029501866111 0.10437708239586041 0.17799033453100269
leaf_weight=941.04521115869284 268.8709003329277 163.5452287197113 25.954775315709416 4.5416653156280509 102.89082008600235 13.054733421653511 40.275664642453194 7.3096542451530722 11.349218904972075 10.184625901281835 10.416939377784727 17.588940713554621 13.999292254447935 10.887575566768644 11.354424685239794 783.14762263186276 51.21631845831871 11.239655882120131 23.454698458313942 19.190381146967411 16.026901666074995 5.9558485746383658 8.4154096543788892 5.7750617004930964 18.198397926986221 9.6623571272939426 15.365094974637033 89.028723640367389 90.034936897456646 5.5613576695322982
leaf_count=2451 261 318 441 3 156 74 42 53 18 41 8 115 16 28 23 3528 255 15 37 98 78 7 15 36 114 25 70 296 164 8
internal_value=0.0265113 0.0189888 0.0155202 -0.0929424 0.0170185 0.0469119 0.0167598 0.0599786 -0.0238187 0.0918965 0.00415977 -0.0291083 0.00854642 -0.0429669 0.0148516 0.00526597 -0.0326782 -0.0847235 0.00336977 -0.0680755 0.0399681 -0.0371804 0.0850186 -0.0102147 0.0124069 -0.0704379 0.0229469 0.0502599 0.0822248 -0.0130842
internal_weight=2805.54 2516.07 2238.06 30.4964 2207.56 278.01 114.465 58.9345 18.6589 289.472 20.6016 55.5305 37.9416 23.9423 2104.67 963.637 152.629 62.456 90.1727 30.5448 59.6279 21.9828 37.6452 14.1905 811.008 27.8608 1141.04 199.99 110.961 20.9265
internal_count=8794 8484 7820 444 7376 664 346 113 71 310 49 233 118 102 7220 4231 564 270 294 121 173 85 88 51 3667 139 2989 538 242 78
is_linear=0
shrinkage=0.1


end of trees

feature_importances:
click_brand_num_90d=32
click_item_num_90d=29
click_item_num_60d=27
click_cnt_days_90d=22
click_cate1_num_90d=20
click_item_num_15d=18
click_cate2_num_60d=14
pay_item_num_90d=14
click_item_num_30d=13
click_brand_num_30d=12
click_cate1_num_30d=12
click_brand_num_60d=12
click_cate1_num_60d=12
click_seller_num_90d=12
click_brand_num_15d=10
brand_click_num=10
brand_cart_num=10
click_item_num_7d=9
click_cnt_days_7d=9
click_cate2_num_15d=9
click_cnt_days_15d=9
click_cnt_days_30d=9
click_cate2_num_90d=9
brand_alipay_num=9
c2_clk_num_90d=9
click_seller_num_7d=8
clt_item_num_90d=8
cart_brand_num_60d=8
pay_item_num_60d=8
cb_clk_item_90d=8
click_cate1_num_15d=7
click_cnt_days_60d=7
clt_brand_num_90d=7
cart_cate1_num_60d=7
pay_seller_num_90d=7
c2_clk_item_90d=7
click_seller_num_60d=6
cart_item_num_30d=6
cart_cate1_num_90d=6
pay_item_num_7d=6
cb_clk_day_90d=6
click_seller_num_15d=5
click_seller_num_30d=5
clt_seller_num_3d=5
cart_item_num_60d=5
cart_brand_num_90d=5
brand_collect_num=5
cb_clk_num_90d=5
c2_clk_item_60d=5
click_item_num_3d=4
click_brand_num_3d=4
click_cate2_num_3d=4
click_cate1_num_7d=4
clt_cate1_num_30d=4
clt_seller_num_90d=4
cart_cate2_num_15d=4
cart_cate1_num_30d=4
cart_item_num_90d=4
cart_seller_num_90d=4
pay_seller_num_15d=4
click_seller_num_3d=3
click_cate2_num_7d=3
cart_brand_num_30d=3
cart_cate2_num_90d=3
pay_brand_num_15d=3
pay_item_num_30d=3
pay_brand_num_60d=3
pay_cate1_num_60d=3
cb_clk_day_60d=3
c2_clk_item_15d=3
click_brand_num_7d=2
clt_item_num_7d=2
clt_brand_num_15d=2
clt_cate1_num_90d=2
cart_brand_num_7d=2
cart_cate1_num_15d=2
cart_seller_num_60d=2
cart_cate2_num_60d=2
pay_item_num_15d=2
pay_brand_num_90d=2
pay_cate1_num_90d=2
cb_clk_item_60d=2
cb_clk_item_15d=2
cb_clk_item_7d=2
cb_clk_num_60d=2
clt_brand_num_3d=1
clt_cate1_num_7d=1
clt_item_num_15d=1
clt_cate2_num_30d=1
clt_cate1_num_60d=1
clt_cate2_num_60d=1
cart_brand_num_3d=1
cart_cate1_num_3d=1
cart_item_num_7d=1
cart_seller_num_7d=1
cart_item_num_15d=1
cart_brand_num_15d=1
cart_seller_num_15d=1
cart_seller_num_30d=1
pay_cate1_num_7d=1
pay_brand_num_30d=1
pay_seller_num_30d=1
pay_cate2_num_60d=1
cb_clk_item_1d=1
cb_cart_item_90d=1
c2_clk_num_60d=1
c2_clk_num_15d=1
c2_clk_day_60d=1

parameters:
[boosting: gbdt]
[objective: binary]
[metric: auc]
[tree_learner: serial]
[device_type: cpu]
[data_sample_strategy: bagging]
[data: ]
[valid: ]
[num_iterations: 3]
[learning_rate: 0.1]
[num_leaves: 31]
[num_threads: -1]
[seed: 42]
[deterministic: 0]
[force_col_wise: 0]
[force_row_wise: 0]
[histogram_pool_size: -1]
[max_depth: -1]
[min_data_in_leaf: 20]
[min_sum_hessian_in_leaf: 0.001]
[bagging_fraction: 0.8]
[pos_bagging_fraction: 1]
[neg_bagging_fraction: 1]
[bagging_freq: 5]
[bagging_seed: 400]
[bagging_by_query: 0]
[feature_fraction: 0.9]
[feature_fraction_bynode: 1]
[feature_fraction_seed: 30056]
[extra_trees: 0]
[extra_seed: 12879]
[early_stopping_round: 0]
[early_stopping_min_delta: 0]
[first_metric_only: 0]
[max_delta_step: 0]
[lambda_l1: 0]
[lambda_l2: 0]
[linear_lambda: 0]
[min_gain_to_split: 0]
[drop_rate: 0.1]
[max_drop: 50]
[skip_drop: 0.5]
[xgboost_dart_mode: 0]
[uniform_drop: 0]
[drop_seed: 17869]
[top_rate: 0.2]
[other_rate: 0.1]
[min_data_per_group: 100]
[max_cat_threshold: 32]
[cat_l2: 10]
[cat_smooth: 10]
[max_cat_to_onehot: 4]
[top_k: 20]
[monotone_constraints: ]
[monotone_constraints_method: basic]
[monotone_penalty: 0]
[feature_contri: ]
[forcedsplits_filename: ]
[refit_decay_rate: 0.9]
[cegb_tradeoff: 1]
[cegb_penalty_split: 0]
[cegb_penalty_feature_lazy: ]
[cegb_penalty_feature_coupled: ]
[path_smooth: 0]
[interaction_constraints: ]
[verbosity: -1]
[saved_feature_importance_type: 0]
[use_quantized_grad: 0]
[num_grad_quant_bins: 4]
[quant_train_renew_leaf: 0]
[stochastic_rounding: 1]
[linear_tree: 0]
[max_bin: 255]
[max_bin_by_feature: ]
[min_data_in_bin: 3]
[bin_construct_sample_cnt: 200000]
[data_random_seed: 175]
[is_enable_sparse: 1]
[enable_bundle: 1]
[use_missing: 1]
[zero_as_missing: 0]
[feature_pre_filter: 1]
[pre_partition: 0]
[two_round: 0]
[header: 0]
[label_column: ]
[weight_column: ]
[group_column: ]
[ignore_column: ]
[categorical_feature: ]
[forcedbins_filename: ]
[precise_float_parser: 0]
[parser_config_file: ]
[objective_seed: 16083]
[num_class: 1]
[is_unbalance: 0]
[scale_pos_weight: 9.9802]
[sigmoid: 1]
[boost_from_average: 1]
[reg_sqrt: 0]
[alpha: 0.9]
[fair_c: 1]
[poisson_max_delta_step: 0.7]
[tweedie_variance_power: 1.5]
[lambdarank_truncation_level: 30]
[lambdarank_norm: 1]
[label_gain: ]
[lambdarank_position_bias_regularization: 0]
[eval_at: ]
[multi_error_top_k: 1]
[auc_mu_weights: ]
[num_machines: 1]
[local_listen_port: 12400]
[time_out: 120]
[machine_list_filename: ]
[machines: ]
[gpu_platform_id: -1]
[gpu_device_id: -1]
[gpu_use_dp: 0]
[num_gpu: 1]

end of parameters

pandas_categorical:[]
