tree
version=v4
num_class=1
num_tree_per_iteration=1
label_index=0
max_feature_idx=241
objective=binary sigmoid:1
feature_names=click_item_num_3d click_brand_num_3d click_seller_num_3d click_cate1_num_3d click_cate2_num_3d click_cnt_days_3d click_item_num_7d click_brand_num_7d click_seller_num_7d click_cate1_num_7d click_cate2_num_7d click_cnt_days_7d click_item_num_15d click_brand_num_15d click_seller_num_15d click_cate1_num_15d click_cate2_num_15d click_cnt_days_15d click_item_num_30d click_brand_num_30d click_seller_num_30d click_cate1_num_30d click_cate2_num_30d click_cnt_days_30d click_item_num_60d click_brand_num_60d click_seller_num_60d click_cate1_num_60d click_cate2_num_60d click_cnt_days_60d click_item_num_90d click_brand_num_90d click_seller_num_90d click_cate1_num_90d click_cate2_num_90d click_cnt_days_90d clt_item_num_3d clt_brand_num_3d clt_seller_num_3d clt_cate1_num_3d clt_cate2_num_3d clt_item_num_7d clt_brand_num_7d clt_seller_num_7d clt_cate1_num_7d clt_cate2_num_7d clt_item_num_15d clt_brand_num_15d clt_seller_num_15d clt_cate1_num_15d clt_cate2_num_15d clt_item_num_30d clt_brand_num_30d clt_seller_num_30d clt_cate1_num_30d clt_cate2_num_30d clt_item_num_60d clt_brand_num_60d clt_seller_num_60d clt_cate1_num_60d clt_cate2_num_60d clt_item_num_90d clt_brand_num_90d clt_seller_num_90d clt_cate1_num_90d clt_cate2_num_90d cart_item_num_3d cart_brand_num_3d cart_seller_num_3d cart_cate1_num_3d cart_cate2_num_3d cart_item_num_7d cart_brand_num_7d cart_seller_num_7d cart_cate1_num_7d cart_cate2_num_7d cart_item_num_15d cart_brand_num_15d cart_seller_num_15d cart_cate1_num_15d cart_cate2_num_15d cart_item_num_30d cart_brand_num_30d cart_seller_num_30d cart_cate1_num_30d cart_cate2_num_30d cart_item_num_60d cart_brand_num_60d cart_seller_num_60d cart_cate1_num_60d cart_cate2_num_60d cart_item_num_90d cart_brand_num_90d cart_seller_num_90d cart_cate1_num_90d cart_cate2_num_90d pay_item_num_3d pay_brand_num_3d pay_seller_num_3d pay_cate1_num_3d pay_cate2_num_3d pay_item_num_7d pay_brand_num_7d pay_seller_num_7d pay_cate1_num_7d pay_cate2_num_7d pay_item_num_15d pay_brand_num_15d pay_seller_num_15d pay_cate1_num_15d pay_cate2_num_15d pay_item_num_30d pay_brand_num_30d pay_seller_num_30d pay_cate1_num_30d pay_cate2_num_30d pay_item_num_60d pay_brand_num_60d pay_seller_num_60d pay_cate1_num_60d pay_cate2_num_60d pay_item_num_90d pay_brand_num_90d pay_seller_num_90d pay_cate1_num_90d pay_cate2_num_90d brand_click_num brand_collect_num brand_cart_num brand_alipay_num cb_clk_item_90d cb_clk_item_60d cb_clk_item_30d cb_clk_item_15d cb_clk_item_7d cb_clk_item_3d cb_clk_item_1d cb_clk_num_90d cb_clk_num_60d cb_clk_num_30d cb_clk_num_15d cb_clk_num_7d cb_clk_num_3d cb_clk_num_1d cb_clk_day_90d cb_clk_day_60d cb_clk_day_30d cb_clk_day_15d cb_clk_day_7d cb_clk_day_3d cb_clk_day_1d cb_clt_item_90d cb_clt_item_60d cb_clt_item_30d cb_clt_item_15d cb_clt_item_7d cb_clt_item_3d cb_clt_item_1d cb_cart_item_90d cb_cart_item_60d cb_cart_item_30d cb_cart_item_15d cb_cart_item_7d cb_cart_item_3d cb_cart_item_1d cb_cart_num_90d cb_cart_num_60d cb_cart_num_30d cb_cart_num_15d cb_cart_num_7d cb_cart_num_3d cb_cart_num_1d cb_pay_item_90d cb_pay_item_60d cb_pay_item_30d cb_pay_item_15d cb_pay_item_7d cb_pay_item_3d cb_pay_item_1d cb_pay_num_90d cb_pay_num_60d cb_pay_num_30d cb_pay_num_15d cb_pay_num_7d cb_pay_num_3d cb_pay_num_1d c2_clk_item_90d c2_clk_item_60d c2_clk_item_30d c2_clk_item_15d c2_clk_item_7d c2_clk_item_3d c2_clk_item_1d c2_clk_num_90d c2_clk_num_60d c2_clk_num_30d c2_clk_num_15d c2_clk_num_7d c2_clk_num_3d c2_clk_num_1d c2_clk_day_90d c2_clk_day_60d c2_clk_day_30d c2_clk_day_15d c2_clk_day_7d c2_clk_day_3d c2_clk_day_1d c2_clt_item_90d c2_clt_item_60d c2_clt_item_30d c2_clt_item_15d c2_clt_item_7d c2_clt_item_3d c2_clt_item_1d c2_cart_item_90d c2_cart_item_60d c2_cart_item_30d c2_cart_item_15d c2_cart_item_7d c2_cart_item_3d c2_cart_item_1d c2_cart_num_90d c2_cart_num_60d c2_cart_num_30d c2_cart_num_15d c2_cart_num_7d c2_cart_num_3d c2_cart_num_1d c2_pay_item_90d c2_pay_item_60d c2_pay_item_30d c2_pay_item_15d c2_pay_item_7d c2_pay_item_3d c2_pay_item_1d c2_pay_num_90d c2_pay_num_60d c2_pay_num_30d c2_pay_num_15d c2_pay_num_7d c2_pay_num_3d c2_pay_num_1d
feature_infos=[0:5437] [0:2322] [0:2462] [0:84] [0:1159] [0:4] [0:9917] [0:3886] [0:4214] [0:86] [0:1561] [0:8] [0:20316] [0:6744] [0:7563] [0:87] [0:2134] [0:16] [0:52810] [0:14230] [0:16844] [0:87] [0:3127] [0:31] [0:84690] [0:19755] [0:23632] [0:87] [0:3712] [0:61] [1:114303] [0:23490] [1:28170] [1:87] [1:4009] [1:91] [0:47] [0:21] [0:21] [0:13] [0:34] [0:113] [0:79] [0:79] [0:17] [0:44] [0:163] [0:100] [0:100] [0:22] [0:51] [0:211] [0:101] [0:101] [0:28] [0:61] [0:425] [0:139] [0:159] [0:33] [0:93] [0:531] [0:189] [0:213] [0:37] [0:107] [0:40] [0:20] [0:21] [0:7] [0:12] [0:59] [0:46] [0:47] [0:25] [0:46] [0:113] [0:52] [0:53] [0:30] [0:54] [0:183] [0:72] [0:73] [0:37] [0:74] [0:279] [0:147] [0:148] [0:43] [0:114] [0:364] [0:216] [0:216] [0:54] [0:177] [0:45] [0:7] [0:32] [0:7] [0:23] [0:79] [0:18] [0:50] [0:10] [0:40] [0:136] [0:34] [0:79] [0:15] [0:60] [0:234] [0:43] [0:120] [0:18] [0:79] [0:625] [0:54] [0:215] [0:21] [0:127] [0:828] [0:70] [0:243] [0:27] [0:145] [92036:182899] [1359:5313] [1508:1597] [716:776] [0:920] [0:781] [0:779] [0:531] [0:330] [0:115] [0:24] [0:1647] [0:1425] [0:1310] [0:711] [0:451] [0:138] [0:43] [0:91] [0:61] [0:31] [0:16] [0:8] [0:4] [0:2] [0:11] [0:11] [0:5] [0:5] [0:3] none none [0:47] [0:15] [0:11] [0:11] [0:8] none none [0:56] [0:23] [0:16] [0:16] [0:9] none none [0:57] [0:28] [0:14] [0:11] [0:8] [0:8] none [0:67] [0:30] [0:18] [0:15] [0:8] [0:8] none [0:89] [0:68] [0:66] [0:40] [0:35] [0:13] [0:13] [0:170] [0:132] [0:132] [0:79] [0:69] [0:34] [0:34] [0:47] [0:25] [0:14] [0:10] [0:7] [0:4] [0:2] [0:4] [0:4] [0:4] [0:2] none none none [0:8] [0:7] [0:4] [0:3] [0:3] [0:3] none [0:10] [0:8] [0:5] [0:4] [0:3] [0:3] none [0:6] [0:5] [0:5] [0:3] [0:3] [0:3] none [0:8] [0:6] [0:6] [0:4] [0:4] [0:3] none
tree_sizes=3336 3348 3355

Tree=0
num_leaves=31
num_cat=0
split_feature=186 24 131 27 123 31 113 33 130 31 25 89 130 138 11 94 62 61 31 78 72 24 34 128 128 24 121 127 31 27
split_gain=9319.47 1407.06 915.792 802.848 650.978 488.226 409.352 349.277 268.212 266.785 247.77 264.93 234.345 227.42 217.386 206.769 200.537 199.269 233.932 171.208 156.71 167.58 136.655 131.326 130.962 127.167 125.277 126.814 120.942 165.43
threshold=1.0000000180025095e-35 61.500000000000007 1.0000000180025095e-35 12.500000000000002 2.5000000000000004 15.500000000000002 2.5000000000000004 9.5000000000000018 1.5000000000000002 134.50000000000003 55.500000000000007 3.5000000000000004 1.0000000180025095e-35 15.500000000000002 7.5000000000000009 1.5000000000000002 3.5000000000000004 1.0000000180025095e-35 10.500000000000002 3.5000000000000004 3.5000000000000004 246.50000000000003 40.500000000000007 1564.0000000000002 1521.5000000000002 6.5000000000000009 1.0000000180025095e-35 5188.5000000000009 40.500000000000007 16.500000000000004
decision_type=2 2 2 2 2 2 2 2 2 2 2 2 2 2 2 2 2 2 2 2 2 2 2 2 2 2 2 2 2 2
left_child=1 2 4 8 5 15 10 19 -3 -2 11 12 -5 20 -11 17 25 24 23 -7 22 -22 -12 -19 -1 -9 27 -27 -6 -30
right_child=9 3 -4 6 28 7 -8 16 -10 14 13 -13 -14 -15 -16 -17 -18 18 -20 -21 21 -23 -24 -25 -26 26 -28 -29 29 -31
leaf_value=-2.0543159608980224 -1.2717218530486598 -2.3275154250643624 -1.594159866481629 -2.1677781312491429 -1.448080115735662 -2.1727469453936119 -1.5795150995815352 -1.40425586056742 -1.7754094321183831 -1.4896701932797698 -1.8519404567749902 -1.6117209119457256 -1.7505695116814701 -1.40425586056742 -2.4106227745064204 -1.5960856090089708 -2.1926566664616653 -2.2579709013336786 -2.4106227745064204 -1.40425586056742 -1.40425586056742 -2.4106227745064204 -2.2674005505419261 -1.7262397919706438 -1.7773952971288831 -2.0336246366263149 -1.8231286446029435 -1.7431743792971002 -2.4106227745064204 -1.3754536345451731
leaf_weight=19.607086554169655 269.02434614300728 132.0968334376812 108.79093280434608 36.987342998385429 34.216304898262024 113.27983362972736 22.81578740477562 4.9585284292697898 9.4269410669803602 9.7531385421752912 8.9319078028202039 22.486311614513397 21.168408453464508 3.9668227434158316 3.4767069518566123 34.307279422879219 27.472705721855164 6.5378810614347485 13.161819174885748 2.9751170575618735 4.9585284292697898 2.4833621084690094 69.683304935693741 16.041044235229492 132.3910686224699 92.654814869165421 81.541155070066452 17.943316027522087 3.3111494779586783 2.8923383206129074
leaf_count=174 493 1497 515 366 117 1126 105 15 60 37 63 110 130 12 42 163 278 70 159 9 15 30 752 95 845 805 554 109 40 8
internal_value=-1.80326 -1.94073 -1.86121 -2.10973 -1.90937 -1.93721 -1.97733 -2.01238 -2.29074 -1.29328 -2.03052 -1.90321 -2.01592 -2.14455 -1.73169 -1.82182 -1.93955 -1.86307 -2.07554 -2.15308 -2.17868 -1.74008 -2.2202 -1.88021 -1.81312 -1.90427 -1.91717 -1.9865 -1.52173 -1.92798
internal_weight=1329.34 1047.09 712.082 335.006 603.291 562.872 193.482 340.825 141.524 282.254 170.666 80.6421 58.1558 90.0239 13.2298 222.046 224.571 187.739 35.7407 116.255 86.0571 7.44189 78.6152 22.5789 151.998 197.098 192.139 110.598 40.4198 6.20349
internal_count=8794 8222 5082 3140 4567 4402 1583 2896 1557 572 1478 606 496 872 79 1506 1761 1343 324 1135 860 45 815 165 1019 1483 1468 914 165 48
is_linear=0
shrinkage=1


Tree=1
num_leaves=31
num_cat=0
split_feature=193 30 121 33 130 30 121 31 30 123 33 6 21 30 87 31 32 35 126 35 126 30 21 32 17 67 138 30 16 116
split_gain=1408.15 517.844 284.615 246.117 235.142 196.885 175.555 156.977 152.805 181.867 134.538 126.04 175.27 123.883 125.524 113.083 105.323 122.411 100.943 97.3117 97.7525 95.7172 94.08 93.424 93.2218 92.4673 91.7107 89.6849 87.1046 78.2583
threshold=1.0000000180025095e-35 121.50000000000001 1.0000000180025095e-35 17.500000000000004 1.5000000000000002 21.500000000000004 4.5000000000000009 138.50000000000003 42.500000000000007 2.5000000000000004 9.5000000000000018 7.5000000000000009 6.5000000000000009 71.500000000000014 1.0000000180025095e-35 36.500000000000007 137.50000000000003 51.500000000000007 175892.50000000003 14.500000000000002 175892.50000000003 140.50000000000003 5.5000000000000009 60.500000000000007 10.500000000000002 3.5000000000000004 5.5000000000000009 27.500000000000004 10.500000000000002 4.5000000000000009
decision_type=2 2 2 2 2 2 2 2 2 2 2 2 2 2 2 2 2 2 2 2 2 2 2 2 2 2 2 2 2 2
left_child=1 2 5 26 8 22 7 16 -4 11 19 12 28 -12 15 18 17 21 -15 20 27 -5 -1 -16 -21 -13 -3 -7 29 -10
right_child=-2 3 4 6 -6 10 -8 -9 9 -11 13 25 -14 14 23 -17 -18 -19 -20 24 -22 -23 -24 -25 -26 -27 -28 -29 -30 -31
leaf_value=0.27557500689174241 0.41913894051083922 -0.002503502417515519 0.36359440869486304 -0.035016572729498353 0.48468417585489254 0.063751856787221547 0.35234218484244501 -0.1111930293257658 0.056016538350343148 0.37423727897933273 0.264600517168606 0.0027985179856591545 0.37926163115690736 -0.11225032409253705 0.09629218812045845 -0.11310894717486297 0.46177152196313431 -0.11197960146805314 0.52824658752592935 0.017324533044396708 -0.11369806635014064 0.27543549907203152 0.49719971645647032 0.42049959737509507 0.60509799985275525 0.59849262767814282 0.40782539480989888 0.34557815072746539 0.54851495354021551 0.46320234133142563
leaf_weight=206.07452395558357 576.65750469267368 127.76315052807331 172.08755947649479 12.666888333857058 75.986016497015953 16.764297895133495 50.886656939983368 22.019367836415768 52.605527721345425 68.524402976036072 194.03239607065916 42.862103752791882 48.402497567236423 4.084988094866274 18.933757722377777 28.678063780069351 12.084223717451094 14.971458867192267 6.1879856362938881 84.412493981420994 8.4374624639749509 45.983356073498726 21.116817280650139 16.752295553684235 2.7874503731727591 2.774478316307067 5.6895475685596457 34.589309051632881 4.5171607434749594 5.185285009443759
leaf_count=989 572 1304 652 115 147 130 199 252 410 203 1027 382 214 43 144 293 51 163 15 778 84 269 57 68 14 2 17 162 16 22
internal_value=0.28752 0.23361 0.264639 0.115068 0.323521 0.221319 0.19927 0.126963 0.292671 0.238396 0.180404 0.178859 0.236505 0.222486 0.113 -0.0111295 0.18815 0.143238 0.273557 0.103488 0.201748 0.208386 0.296174 0.248487 0.0361134 0.0390138 0.0149902 0.253576 0.125607 0.0925513
internal_weight=1984.52 1407.86 1115.8 292.065 472.945 642.852 158.612 107.725 396.959 224.871 415.661 156.347 110.71 268.669 74.6371 38.951 85.7059 73.6217 10.273 146.991 59.7911 58.6502 227.191 35.6861 87.1999 45.6366 133.453 51.3536 62.308 57.7908
internal_count=8794 8222 5852 2370 2048 3804 1049 850 1901 1249 2758 1046 662 1590 563 351 598 547 58 1168 376 384 1046 212 792 384 1321 292 448 432
is_linear=0
shrinkage=0.1


Tree=2
num_leaves=31
num_cat=0
split_feature=186 24 15 144 121 61 30 28 128 89 30 84 17 14 38 121 35 145 86 12 33 16 108 0 129 32 31 62 60 18
split_gain=796.222 275.762 236.246 182.117 131.257 121.146 112.829 114.53 99.8851 106.288 92.3208 86.4738 84.8507 125.87 75.9418 75.0307 74.4167 86.3352 92.969 87.7868 73.5517 82.1298 98.3596 72.6233 71.5419 70.5971 83.1526 74.2358 80.7119 113.918
threshold=1.0000000180025095e-35 73.500000000000014 5.5000000000000009 1.5000000000000002 4.5000000000000009 1.5000000000000002 349.50000000000006 30.500000000000004 1532.5000000000002 1.5000000000000002 59.500000000000007 1.5000000000000002 10.500000000000002 8.5000000000000018 1.0000000180025095e-35 1.0000000180025095e-35 35.500000000000007 1.5000000000000002 22.500000000000004 35.500000000000007 9.5000000000000018 9.5000000000000018 1.5000000000000002 4.5000000000000009 734.50000000000011 52.500000000000007 55.500000000000007 4.5000000000000009 2.5000000000000004 5.5000000000000009
decision_type=2 2 2 2 2 2 2 2 2 2 2 2 2 2 2 2 2 2 2 2 2 2 2 2 2 2 2 2 2 2
left_child=1 3 -3 5 6 10 7 -4 -7 14 15 20 13 -13 25 23 -9 18 19 24 -12 -22 -23 -1 -18 27 -27 28 -10 -30
right_child=-2 2 4 -5 -6 8 -8 16 9 -11 11 12 -14 -15 -16 -17 17 -19 -20 -21 21 22 -24 -25 -26 26 -28 -29 29 -31
leaf_value=0.2036480491190088 0.30333586205583812 -0.0072460964111641631 -0.069583993428287166 0.3049602117047559 0.27134519445793709 -0.020836367785882173 -0.11153226431055673 0.30104672877607452 0.07021908358918294 0.26154275189219017 -0.067344969803139546 0.32685089645425758 0.58212538251316437 -0.11817506974758402 -0.1158099753194783 0.26013399143683136 -0.11384768663673826 0.28812042424168921 0.3872955099645774 -0.11366811435697684 0.17341987723699537 -0.11782780741040298 0.46608463867309047 0.044229715725933053 0.2466402203278491 0.42787816328592082 0.018415406009051071 -0.1148478144277072 0.57672536281014064 0.080675502297097357
leaf_weight=442.76117672771215 707.87709373235703 131.48832062631845 21.801015838980675 142.62294567376375 73.108752273023129 41.252766996622086 20.13999754935503 35.521024234592915 57.953068308532238 59.446763761341572 21.976111724972725 22.139508068561558 7.1072416231036177 8.9146480709314329 14.494016282260416 261.09998293966055 7.7019070237875011 24.27874418348074 7.803217075765132 25.975759960711002 94.849354669451714 20.297453343868259 3.3627828359603873 30.547417022287846 19.302787303924561 14.509014517068865 7.5354313477873793 15.000628061592577 8.5935696586966532 10.036559276282786
leaf_count=1933 572 1267 208 281 245 320 233 145 366 209 221 66 9 76 133 764 80 102 17 269 465 170 2 198 119 37 66 143 11 67
internal_value=0.214603 0.176573 0.100141 0.198418 0.160065 0.18511 0.110008 0.141344 0.120046 0.15103 0.201416 0.136944 0.270434 0.199098 0.0997544 0.217099 0.179479 0.128714 0.0650427 0.0175798 0.100683 0.131842 -0.0348375 0.193359 0.143827 0.127251 0.287912 0.0885796 0.128426 0.30949
internal_weight=2359.5 1651.62 367.122 1284.5 235.633 1141.88 162.524 142.384 228.822 187.569 913.056 178.647 38.1614 31.0542 128.122 734.409 120.583 85.0624 60.7837 52.9805 140.486 118.51 23.6602 473.309 27.0047 113.628 22.0444 91.5838 76.5832 18.6301
internal_count=8794 8222 2685 5537 1418 5256 1173 940 1352 1032 3904 1009 151 142 823 2895 732 587 485 468 858 637 172 2131 199 690 103 587 444 78
is_linear=0
shrinkage=0.1


end of trees

feature_importances:
click_item_num_90d=8
click_brand_num_90d=7
pay_item_num_90d=5
click_item_num_60d=4
click_cate1_num_90d=4
click_seller_num_90d=3
click_cnt_days_90d=3
brand_cart_num=3
cb_clk_item_90d=3
click_cate2_num_15d=2
click_cnt_days_15d=2
click_cate1_num_30d=2
click_cate1_num_60d=2
clt_item_num_90d=2
clt_brand_num_90d=2
cart_cate1_num_60d=2
pay_seller_num_90d=2
brand_click_num=2
cb_clk_num_60d=2
c2_clk_item_90d=2
click_item_num_3d=1
click_item_num_7d=1
click_cnt_days_7d=1
click_item_num_15d=1
click_seller_num_15d=1
click_cate1_num_15d=1
click_item_num_30d=1
click_brand_num_60d=1
click_cate2_num_60d=1
click_cate2_num_90d=1
clt_seller_num_3d=1
clt_cate2_num_60d=1
cart_brand_num_3d=1
cart_brand_num_7d=1
cart_seller_num_15d=1
cart_cate1_num_30d=1
cart_item_num_60d=1
cart_brand_num_60d=1
cart_cate1_num_90d=1
pay_seller_num_15d=1
pay_seller_num_30d=1
pay_item_num_60d=1
brand_collect_num=1
brand_alipay_num=1
cb_clk_item_60d=1
cb_clk_day_90d=1
cb_clk_day_60d=1
c2_clk_num_90d=1

parameters:
[boosting: gbdt]
[objective: binary]
[metric: auc]
[tree_learner: serial]
[device_type: cpu]
[data_sample_strategy: bagging]
[data: ]
[valid: ]
[num_iterations: 3]
[learning_rate: 0.1]
[num_leaves: 31]
[num_threads: -1]
[seed: 42]
[deterministic: 0]
[force_col_wise: 0]
[force_row_wise: 0]
[histogram_pool_size: -1]
[max_depth: -1]
[min_data_in_leaf: 20]
[min_sum_hessian_in_leaf: 0.001]
[bagging_fraction: 0.8]
[pos_bagging_fraction: 1]
[neg_bagging_fraction: 1]
[bagging_freq: 5]
[bagging_seed: 400]
[bagging_by_query: 0]
[feature_fraction: 0.9]
[feature_fraction_bynode: 1]
[feature_fraction_seed: 30056]
[extra_trees: 0]
[extra_seed: 12879]
[early_stopping_round: 0]
[early_stopping_min_delta: 0]
[first_metric_only: 0]
[max_delta_step: 0]
[lambda_l1: 0]
[lambda_l2: 0]
[linear_lambda: 0]
[min_gain_to_split: 0]
[drop_rate: 0.1]
[max_drop: 50]
[skip_drop: 0.5]
[xgboost_dart_mode: 0]
[uniform_drop: 0]
[drop_seed: 17869]
[top_rate: 0.2]
[other_rate: 0.1]
[min_data_per_group: 100]
[max_cat_threshold: 32]
[cat_l2: 10]
[cat_smooth: 10]
[max_cat_to_onehot: 4]
[top_k: 20]
[monotone_constraints: ]
[monotone_constraints_method: basic]
[monotone_penalty: 0]
[feature_contri: ]
[forcedsplits_filename: ]
[refit_decay_rate: 0.9]
[cegb_tradeoff: 1]
[cegb_penalty_split: 0]
[cegb_penalty_feature_lazy: ]
[cegb_penalty_feature_coupled: ]
[path_smooth: 0]
[interaction_constraints: ]
[verbosity: -1]
[saved_feature_importance_type: 0]
[use_quantized_grad: 0]
[num_grad_quant_bins: 4]
[quant_train_renew_leaf: 0]
[stochastic_rounding: 1]
[linear_tree: 0]
[max_bin: 255]
[max_bin_by_feature: ]
[min_data_in_bin: 3]
[bin_construct_sample_cnt: 200000]
[data_random_seed: 175]
[is_enable_sparse: 1]
[enable_bundle: 1]
[use_missing: 1]
[zero_as_missing: 0]
[feature_pre_filter: 1]
[pre_partition: 0]
[two_round: 0]
[header: 0]
[label_column: ]
[weight_column: ]
[group_column: ]
[ignore_column: ]
[categorical_feature: ]
[forcedbins_filename: ]
[precise_float_parser: 0]
[parser_config_file: ]
[objective_seed: 16083]
[num_class: 1]
[is_unbalance: 0]
[scale_pos_weight: 9.9802]
[sigmoid: 1]
[boost_from_average: 1]
[reg_sqrt: 0]
[alpha: 0.9]
[fair_c: 1]
[poisson_max_delta_step: 0.7]
[tweedie_variance_power: 1.5]
[lambdarank_truncation_level: 30]
[lambdarank_norm: 1]
[label_gain: ]
[lambdarank_position_bias_regularization: 0]
[eval_at: ]
[multi_error_top_k: 1]
[auc_mu_weights: ]
[num_machines: 1]
[local_listen_port: 12400]
[time_out: 120]
[machine_list_filename: ]
[machines: ]
[gpu_platform_id: -1]
[gpu_device_id: -1]
[gpu_use_dp: 0]
[num_gpu: 1]

end of parameters

pandas_categorical:[]
