tree
version=v4
num_class=1
num_tree_per_iteration=1
label_index=0
max_feature_idx=241
objective=binary sigmoid:1
feature_names=click_item_num_3d click_brand_num_3d click_seller_num_3d click_cate1_num_3d click_cate2_num_3d click_cnt_days_3d click_item_num_7d click_brand_num_7d click_seller_num_7d click_cate1_num_7d click_cate2_num_7d click_cnt_days_7d click_item_num_15d click_brand_num_15d click_seller_num_15d click_cate1_num_15d click_cate2_num_15d click_cnt_days_15d click_item_num_30d click_brand_num_30d click_seller_num_30d click_cate1_num_30d click_cate2_num_30d click_cnt_days_30d click_item_num_60d click_brand_num_60d click_seller_num_60d click_cate1_num_60d click_cate2_num_60d click_cnt_days_60d click_item_num_90d click_brand_num_90d click_seller_num_90d click_cate1_num_90d click_cate2_num_90d click_cnt_days_90d clt_item_num_3d clt_brand_num_3d clt_seller_num_3d clt_cate1_num_3d clt_cate2_num_3d clt_item_num_7d clt_brand_num_7d clt_seller_num_7d clt_cate1_num_7d clt_cate2_num_7d clt_item_num_15d clt_brand_num_15d clt_seller_num_15d clt_cate1_num_15d clt_cate2_num_15d clt_item_num_30d clt_brand_num_30d clt_seller_num_30d clt_cate1_num_30d clt_cate2_num_30d clt_item_num_60d clt_brand_num_60d clt_seller_num_60d clt_cate1_num_60d clt_cate2_num_60d clt_item_num_90d clt_brand_num_90d clt_seller_num_90d clt_cate1_num_90d clt_cate2_num_90d cart_item_num_3d cart_brand_num_3d cart_seller_num_3d cart_cate1_num_3d cart_cate2_num_3d cart_item_num_7d cart_brand_num_7d cart_seller_num_7d cart_cate1_num_7d cart_cate2_num_7d cart_item_num_15d cart_brand_num_15d cart_seller_num_15d cart_cate1_num_15d cart_cate2_num_15d cart_item_num_30d cart_brand_num_30d cart_seller_num_30d cart_cate1_num_30d cart_cate2_num_30d cart_item_num_60d cart_brand_num_60d cart_seller_num_60d cart_cate1_num_60d cart_cate2_num_60d cart_item_num_90d cart_brand_num_90d cart_seller_num_90d cart_cate1_num_90d cart_cate2_num_90d pay_item_num_3d pay_brand_num_3d pay_seller_num_3d pay_cate1_num_3d pay_cate2_num_3d pay_item_num_7d pay_brand_num_7d pay_seller_num_7d pay_cate1_num_7d pay_cate2_num_7d pay_item_num_15d pay_brand_num_15d pay_seller_num_15d pay_cate1_num_15d pay_cate2_num_15d pay_item_num_30d pay_brand_num_30d pay_seller_num_30d pay_cate1_num_30d pay_cate2_num_30d pay_item_num_60d pay_brand_num_60d pay_seller_num_60d pay_cate1_num_60d pay_cate2_num_60d pay_item_num_90d pay_brand_num_90d pay_seller_num_90d pay_cate1_num_90d pay_cate2_num_90d brand_click_num brand_collect_num brand_cart_num brand_alipay_num cb_clk_item_90d cb_clk_item_60d cb_clk_item_30d cb_clk_item_15d cb_clk_item_7d cb_clk_item_3d cb_clk_item_1d cb_clk_num_90d cb_clk_num_60d cb_clk_num_30d cb_clk_num_15d cb_clk_num_7d cb_clk_num_3d cb_clk_num_1d cb_clk_day_90d cb_clk_day_60d cb_clk_day_30d cb_clk_day_15d cb_clk_day_7d cb_clk_day_3d cb_clk_day_1d cb_clt_item_90d cb_clt_item_60d cb_clt_item_30d cb_clt_item_15d cb_clt_item_7d cb_clt_item_3d cb_clt_item_1d cb_cart_item_90d cb_cart_item_60d cb_cart_item_30d cb_cart_item_15d cb_cart_item_7d cb_cart_item_3d cb_cart_item_1d cb_cart_num_90d cb_cart_num_60d cb_cart_num_30d cb_cart_num_15d cb_cart_num_7d cb_cart_num_3d cb_cart_num_1d cb_pay_item_90d cb_pay_item_60d cb_pay_item_30d cb_pay_item_15d cb_pay_item_7d cb_pay_item_3d cb_pay_item_1d cb_pay_num_90d cb_pay_num_60d cb_pay_num_30d cb_pay_num_15d cb_pay_num_7d cb_pay_num_3d cb_pay_num_1d c2_clk_item_90d c2_clk_item_60d c2_clk_item_30d c2_clk_item_15d c2_clk_item_7d c2_clk_item_3d c2_clk_item_1d c2_clk_num_90d c2_clk_num_60d c2_clk_num_30d c2_clk_num_15d c2_clk_num_7d c2_clk_num_3d c2_clk_num_1d c2_clk_day_90d c2_clk_day_60d c2_clk_day_30d c2_clk_day_15d c2_clk_day_7d c2_clk_day_3d c2_clk_day_1d c2_clt_item_90d c2_clt_item_60d c2_clt_item_30d c2_clt_item_15d c2_clt_item_7d c2_clt_item_3d c2_clt_item_1d c2_cart_item_90d c2_cart_item_60d c2_cart_item_30d c2_cart_item_15d c2_cart_item_7d c2_cart_item_3d c2_cart_item_1d c2_cart_num_90d c2_cart_num_60d c2_cart_num_30d c2_cart_num_15d c2_cart_num_7d c2_cart_num_3d c2_cart_num_1d c2_pay_item_90d c2_pay_item_60d c2_pay_item_30d c2_pay_item_15d c2_pay_item_7d c2_pay_item_3d c2_pay_item_1d c2_pay_num_90d c2_pay_num_60d c2_pay_num_30d c2_pay_num_15d c2_pay_num_7d c2_pay_num_3d c2_pay_num_1d
feature_infos=[0:5028] [0:2122] [0:2276] [0:83] [0:1046] [0:4] [0:9586] [0:3702] [0:4006] [0:86] [0:1465] [0:8] [0:17394] [0:6116] [0:6781] [0:87] [0:1994] [0:16] [0:38345] [0:11182] [0:12847] [0:87] [0:2766] [0:31] [0:84690] [0:19814] [0:23730] [0:87] [0:3704] [0:61] [1:110320] [0:23170] [1:27803] [1:87] [1:3988] [1:91] [0:69] [0:32] [0:26] [0:11] [0:29] [0:80] [0:39] [0:39] [0:16] [0:40] [0:157] [0:68] [0:66] [0:21] [0:55] [0:219] [0:104] [0:103] [0:31] [0:73] [0:505] [0:212] [0:210] [0:39] [0:111] [0:626] [0:240] [0:239] [0:44] [0:136] [0:70] [0:37] [0:37] [0:8] [0:18] [0:85] [0:49] [0:49] [0:13] [0:27] [0:194] [0:88] [0:88] [0:19] [0:39] [0:337] [0:148] [0:150] [0:32] [0:71] [0:755] [0:156] [0:165] [0:38] [0:121] [0:1235] [0:192] [0:210] [0:42] [0:161] [0:24] [0:15] [0:15] [0:9] [0:17] [0:27] [0:25] [0:25] [0:13] [0:21] [0:49] [0:39] [0:41] [0:18] [0:38] [0:103] [0:67] [0:78] [0:32] [0:70] [0:223] [0:122] [0:149] [0:38] [0:120] [0:312] [0:177] [0:220] [0:43] [0:169] [104383:166149] [5380:11109] [3379:6577] [399:815] [0:12298] [0:9408] [0:4101] [0:1664] [0:873] [0:465] [0:256] [0:31381] [0:25334] [0:8621] [0:4094] [0:1432] [0:720] [0:339] [0:91] [0:61] [0:31] [0:16] [0:8] [0:4] [0:2] [0:142] [0:142] [0:52] [0:30] [0:30] [0:23] [0:8] [0:260] [0:103] [0:52] [0:36] [0:27] [0:26] [0:22] [0:301] [0:153] [0:80] [0:50] [0:39] [0:33] [0:27] [0:49] [0:18] [0:13] [0:7] [0:6] [0:5] [0:4] [0:49] [0:18] [0:13] [0:7] [0:6] [0:5] [0:4] [0:184] [0:164] [0:142] [0:99] [0:93] [0:65] [0:54] [0:684] [0:444] [0:233] [0:202] [0:177] [0:94] [0:83] [0:57] [0:35] [0:27] [0:15] [0:8] [0:4] [0:2] [0:16] [0:16] [0:16] [0:16] [0:16] [0:16] [0:6] [0:23] [0:20] [0:17] [0:12] [0:11] [0:9] [0:8] [0:34] [0:27] [0:22] [0:22] [0:22] [0:9] [0:9] [0:11] [0:10] [0:8] [0:7] [0:5] [0:4] none [0:11] [0:10] [0:8] [0:7] [0:5] [0:4] none
tree_sizes=3320 3379 3364 3364 3385 3411

Tree=0
num_leaves=31
num_cat=0
split_feature=186 172 193 94 25 144 32 101 32 130 112 27 70 90 91 32 111 147 112 33 52 43 12 32 133 26 126 145 35 22
split_gain=29165.1 1006.37 563.4 428.19 419.104 319.271 304.14 279.108 274.7 260.969 256.19 207.718 204.087 192.95 193.125 191.851 187.029 177.984 174.008 165.415 163.943 161.168 161.009 151.054 147.577 135.428 127.184 126.976 161.931 191.917
threshold=1.0000000180025095e-35 1.0000000180025095e-35 2.5000000000000004 5.5000000000000009 64.500000000000014 29.500000000000004 45.500000000000007 1.5000000000000002 101.50000000000001 25.500000000000004 1.0000000180025095e-35 4.5000000000000009 3.5000000000000004 5.5000000000000009 14.500000000000002 102.50000000000001 1.5000000000000002 4.5000000000000009 4.5000000000000009 8.5000000000000018 9.5000000000000018 1.5000000000000002 21.500000000000004 26.500000000000004 8.5000000000000018 53.500000000000007 112177.00000000001 2.5000000000000004 4.5000000000000009 7.5000000000000009
decision_type=2 2 2 2 2 2 2 2 2 2 2 2 2 2 2 2 2 2 2 2 2 2 2 2 2 2 2 2 2 2
left_child=1 3 4 6 -2 7 9 15 13 10 12 -11 23 -5 -15 19 26 -13 -7 24 -8 -18 -16 27 -3 -22 -12 -1 -29 -30
right_child=2 5 -4 8 -6 18 20 -9 -10 11 16 17 -14 14 22 -17 21 -19 -20 -21 25 -23 -24 -25 -26 -27 -28 28 29 -31
leaf_value=-2.2301788098266391 -1.4459453530527866 -2.4093639412663688 -1.2360014547552172 -2.4093639412663688 -2.1843929471751888 -2.4093639412663688 -2.3366819868739235 -1.3989796974931972 -2.328071503000023 -2.4093639412663688 -1.6057141911715442 -1.7299470223282301 -1.4042563996650563 -1.4419790402317176 -2.4093639412663683 -2.4093639412663688 -2.4093639412663683 -2.4093639412663688 -1.4042563996650563 -1.7233530408801798 -1.5633201940682961 -1.481766045871912 -1.7304515906059996 -2.3244182449166044 -1.6560444850821687 -2.1864772657865306 -1.9984824819303302 -1.3126123497398732 -2.2767694797567479 -1.9134036007525959
leaf_weight=205.81957530230284 57.937523670494556 7.5407020971178991 538.57226148247719 4.3089726269245139 8.861156187951563 13.092647597193716 233.13595005869865 15.78411879390478 12.261307194828985 7.4578372389078131 11.162529475986956 27.87431263178587 2.9750594347715369 15.455351181328295 4.971891492605212 5.9662697911262503 14.584215044975283 4.4747023433446875 1.9833729565143574 43.589025668799877 4.7125296369195011 2.1491026729345313 11.745275303721426 129.07383906841278 3.9694377332925797 13.416031569242476 31.536517314612865 2.7264648601412764 30.069176249206066 28.136366307735443
leaf_count=2152 197 91 814 52 89 158 2661 47 139 90 54 166 9 52 60 72 176 54 6 257 21 8 70 1459 21 135 264 6 327 214
internal_value=-1.80545 -2.16969 -1.26998 -2.20578 -1.5439 -1.85637 -2.22446 -1.77383 -1.91858 -2.17921 -2.20054 -1.93361 -2.22941 -1.78096 -1.69679 -1.87072 -2.00686 -1.82393 -2.27713 -1.81239 -2.31416 -2.29023 -1.93237 -2.23561 -2.14957 -2.02449 -1.8958 -2.19264 -2.06584 -2.10112
internal_weight=1495.34 889.973 605.371 798.047 66.7987 91.9256 749.304 76.8496 48.7428 498.04 458.233 39.8069 398.8 36.4815 32.1725 61.0654 59.4324 32.349 15.076 55.0992 251.265 16.7333 16.7172 395.825 11.5101 18.1286 42.699 266.752 60.932 58.2055
internal_count=9921 8821 1100 8169 286 652 7796 488 373 4979 4669 310 4167 234 182 441 502 220 164 369 2817 184 130 4158 112 156 318 2699 547 541
is_linear=0
shrinkage=1


Tree=1
num_leaves=31
num_cat=0
split_feature=186 125 130 35 35 82 22 31 141 34 30 58 96 89 133 116 189 31 81 126 126 11 29 24 30 155 94 61 153 26
split_gain=5800.2 503.098 312.579 209.643 191.733 226.785 138.456 128.796 123.895 122.808 133.077 106.569 106.028 105.762 103.84 95.6905 94.0375 146.249 133.015 85.9611 90.5628 157.586 109.859 130.369 84.0802 83.1448 79.1734 84.8078 79.9035 77.3815
threshold=1.0000000180025095e-35 2.5000000000000004 6.5000000000000009 31.500000000000004 35.500000000000007 1.5000000000000002 13.500000000000002 15.500000000000002 2.5000000000000004 22.500000000000004 120.50000000000001 3.5000000000000004 1.0000000180025095e-35 2.5000000000000004 1.0000000180025095e-35 2.5000000000000004 1.0000000180025095e-35 80.500000000000014 2.5000000000000004 151142.50000000003 108357.00000000001 3.5000000000000004 7.5000000000000009 5.5000000000000009 17.500000000000004 1.0000000180025095e-35 4.5000000000000009 2.5000000000000004 5.5000000000000009 47.500000000000007
decision_type=2 2 2 2 2 2 2 2 2 2 2 2 2 2 2 2 2 2 2 2 2 2 2 2 2 2 2 2 2 2
left_child=1 4 -3 -4 5 7 -7 19 24 12 -11 29 -10 -5 -15 -16 17 -2 -19 20 22 -22 23 -1 -9 -21 28 -28 -6 -8
right_child=16 2 3 13 26 6 11 8 9 10 -12 -13 -14 14 15 -17 -18 18 -20 25 21 -23 -24 -25 -26 -27 27 -29 -30 -31
leaf_value=-0.11092290495485513 0.39666709681409112 0.018644216027846227 0.46615344058493369 0.046345469736755691 -0.068542404844699575 0.080130499315211129 0.41526096675721036 0.52174572805382502 -0.11168146458809131 0.40036181007034249 -0.11170583295033386 -0.11253228793115673 0.51952133965747971 -0.11243352513192842 -0.11268330933813327 0.37197628458162213 0.43636324958031242 -0.12229320044157609 0.31382410933510652 0.19774922405798517 -0.013398756207941448 0.42061722409425717 -0.11153742069082569 0.42081230522439467 0.00089672942537921305 0.68239560738150795 0.2854344496926195 -0.11244998090078583 0.38243893924944611 0.045009107851047003
leaf_weight=5.8115002959966686 216.78446957468987 45.617884546518326 57.894380353391171 24.914392791688442 142.27383518964052 36.157684952020645 46.848928198218346 3.1314729601144782 17.593164116144184 25.178952276706699 6.3563458621501914 4.9924915283918372 3.1355253979563704 5.7790617346763602 4.4291125163435927 50.775226645171642 1003.5400561466813 10.626533240079882 20.455620348453522 61.121643833816051 81.547276251018047 9.322144150733946 7.878133922815322 22.318419270217419 302.0821131914854 3.7574650049209586 14.91088227927685 8.3607535958290082 4.0402662158012381 6.4180136546492568
leaf_count=66 267 449 156 226 1642 320 188 12 197 129 72 54 9 63 48 200 692 80 61 490 841 45 87 113 3126 10 89 92 28 69
internal_value=0.279153 0.0999421 0.24672 0.319076 0.0657563 0.0906799 0.233844 0.0660689 0.0306019 0.172868 0.297148 0.329244 -0.0162026 0.219947 0.290871 0.333091 0.42274 0.367581 0.164722 0.132187 0.0843093 0.0311262 0.218521 0.310958 0.00624061 0.225817 -0.0288392 0.142487 -0.0560892 0.37065
internal_weight=2254.05 1002.65 189.41 143.792 813.237 643.651 94.4171 549.234 357.478 52.264 31.5353 58.2594 20.7287 85.8978 60.9834 55.2043 1251.41 247.867 31.0822 191.757 126.877 90.8694 36.0081 28.1299 305.214 64.8791 169.586 23.2716 146.314 53.2669
internal_count=9921 8821 1142 693 7679 5828 631 5197 3545 407 201 311 206 537 311 248 1100 408 141 1652 1152 886 266 179 3138 500 1851 181 1670 257
is_linear=0
shrinkage=0.1


Tree=2
num_leaves=31
num_cat=0
split_feature=186 125 32 130 82 32 32 158 0 0 12 30 22 129 21 56 32 33 134 30 86 14 18 21 35 76 153 64 82 131
split_gain=3205.26 301.584 168.087 166.883 148.339 147.229 99.1696 94.08 109.664 88.3578 154.401 84.6313 83.3741 79.1354 75.4919 72.4105 71.3319 69.285 67.5606 92.5499 90.4691 71.9848 65.6754 59.6605 65.9489 59.027 53.3976 73.0285 61.3905 52.9881
threshold=1.0000000180025095e-35 2.5000000000000004 57.500000000000007 6.5000000000000009 1.5000000000000002 26.500000000000004 64.500000000000014 1.0000000180025095e-35 1.0000000180025095e-35 11.500000000000002 24.500000000000004 76.500000000000014 13.500000000000002 452.50000000000006 7.5000000000000009 5.5000000000000009 20.500000000000004 7.5000000000000009 1.0000000180025095e-35 120.50000000000001 6.5000000000000009 5.5000000000000009 47.500000000000007 9.5000000000000018 14.500000000000002 4.5000000000000009 3.5000000000000004 3.5000000000000004 1.5000000000000002 4.5000000000000009
decision_type=2 2 2 2 2 2 2 2 2 2 2 2 2 2 2 2 2 2 2 2 2 2 2 2 2 2 2 2 2 2
left_child=1 2 4 15 5 7 -5 29 17 -4 -11 -7 13 16 -8 -3 -6 25 20 21 -13 -20 -23 -14 -25 -9 27 28 -16 -1
right_child=-2 3 9 6 12 11 14 8 -10 10 -12 18 23 -15 26 -17 -18 -19 19 -21 -22 22 -24 24 -26 -27 -28 -29 -30 -31
leaf_value=0.059507859244696641 0.30694356163577946 -0.054624972069699934 -0.078328286726507726 0.2840233635770823 0.62257322212970856 -0.057740416689699862 -0.11360829235274116 -0.11096720327636785 -0.020060386323437044 0.69314668337914709 0.028332506586678421 -0.059666033150023959 0.2869735870629152 -0.034212487327511268 -0.11256258227989312 0.23640318720800679 0.067864077568783987 0.48533592974243112 0.46770783047649528 -0.11166762736612855 0.48046142406210895 -0.024264824798120942 0.34635791786520392 0.38192571675736176 -0.11784361023849754 0.43417918663448907 0.38912473161188715 -0.11485156244288304 0.26594273121912643 0.16102048566653659
leaf_weight=254.21643825620413 1531.1129727512598 34.970070049166679 123.35188725590706 115.97648989409208 4.0454842522740346 131.4277821034193 10.790463767945765 4.5351166874170321 10.353917174041269 3.7236971780657759 56.490258790552616 38.25068361312151 60.711817376315594 25.246827028691769 5.1495991125702885 11.315737217664717 5.4295303747057915 16.505497679114342 10.242649555206301 9.0783337056636793 3.3746308609843245 10.791460841894152 8.5847374796867353 3.9001928344368926 8.1743268072605115 3.5339329242706299 9.6674280986189824 9.5040882080793363 25.524041652679443 64.458937332034111
leaf_count=2232 1100 380 1463 310 8 1481 111 52 91 19 570 412 211 242 57 69 41 45 40 105 23 94 40 5 73 2 20 93 102 430
internal_value=0.213908 0.0819303 0.0549631 0.185545 0.0781026 0.0576275 0.229841 0.0971177 0.25292 -0.029855 0.0694453 -0.00831749 0.185775 0.0582724 0.126208 0.0165242 0.304705 0.367934 0.0725508 0.16767 -0.015877 0.253288 0.139942 0.246598 0.043587 0.127786 0.178123 0.127352 0.202398 0.080041
internal_weight=2610.44 1079.33 856.428 222.898 672.862 565.354 176.612 353.604 34.9285 183.566 60.214 211.75 107.508 34.7218 60.6356 46.2858 9.47501 24.5745 80.3225 38.6972 41.6253 29.6188 19.3762 72.7863 12.0745 8.06905 49.8452 40.1777 30.6736 318.675
internal_count=9921 8821 7679 1142 5627 5047 693 2852 190 2052 589 2195 580 291 383 449 49 99 714 279 435 174 134 289 78 54 272 252 159 2662
is_linear=0
shrinkage=0.1


Tree=3
num_leaves=31
num_cat=0
split_feature=186 125 32 130 82 32 145 0 12 10 30 26 30 66 58 22 189 31 81 56 12 20 131 137 31 94 31 126 30 117
split_gain=2183.91 204.07 126.066 106.216 96.9006 107.81 79.9191 74.5655 74.369 76.3472 66.2051 61.2136 61.057 59.533 55.9474 59.7096 51.8899 73.9617 76.1586 50.4909 54.7709 109.467 46.6129 68.2684 53.9016 50.8165 50.1793 44.6927 56.8222 94.2298
threshold=1.0000000180025095e-35 2.5000000000000004 57.500000000000007 6.5000000000000009 1.5000000000000002 26.500000000000004 26.500000000000004 9.5000000000000018 24.500000000000004 11.500000000000002 76.500000000000014 22.500000000000004 776.00000000000011 1.0000000180025095e-35 3.5000000000000004 6.5000000000000009 1.0000000180025095e-35 80.500000000000014 2.5000000000000004 5.5000000000000009 2.5000000000000004 12.500000000000002 5.5000000000000009 55.500000000000007 48.500000000000007 2.5000000000000004 31.500000000000004 151142.50000000003 9.5000000000000018 1.0000000180025095e-35
decision_type=2 2 2 2 2 2 2 2 2 2 2 2 2 2 2 2 2 2 2 2 2 2 2 2 2 2 2 2 2 2
left_child=1 2 4 19 5 11 -5 12 9 -9 -7 13 -4 27 15 -6 17 -2 -19 20 21 -3 25 24 26 -12 -24 28 29 -1
right_child=16 3 7 6 14 10 -8 8 -10 -11 22 -13 -14 -15 -16 -17 -18 18 -20 -21 -22 -23 23 -25 -26 -27 -28 -29 -30 -31
leaf_value=0.094615374996374055 0.23029533668932919 -0.11114670264360196 -0.090766400958339932 0.19493349239587721 -0.11394069182983275 -0.054595535487586923 -0.11637641733138189 0.069755983038888775 0.011166028738028359 0.65181532610419202 -0.11101403789734994 0.30698715882255245 0.55258681187257463 0.24765176364689842 -0.11366268713320299 0.1842866002392374 0.25695354382337449 -0.12661858548978064 0.17529628014030429 0.17850167219284885 -0.11101198387768446 0.77234399089446348 -0.11452396149599026 -0.11368851486929749 -0.11139811699103969 0.21382592383064147 0.24922892837215646 0.11344667016239761 0.01635128279859906 0.59784230385973114
leaf_weight=32.57357582449913 294.5907030403614 3.7043847218155852 104.67387279123068 190.6419914290309 7.1701670438051215 125.41822683811188 8.6192334219813329 5.3606859147548658 64.312930844724178 3.8878772854804993 22.993596620857719 11.6030440852046 1.4962373748421658 18.675147041678429 7.6801809333264819 105.4098374247551 1358.6336184293032 11.906100004911421 28.013289630413055 13.354527764022349 27.516155332326889 2.2568177282810211 4.2542618662118903 10.728573322296141 6.0311866179108611 6.0915916115045539 34.930330783128738 121.20066499710083 190.90703335404396 4.2008936107158652
leaf_count=242 267 43 1344 610 74 1481 83 42 655 5 276 40 6 77 79 427 692 80 61 69 329 8 42 116 70 44 166 828 1651 14
internal_value=0.176306 0.0690231 0.0467279 0.149618 0.0656698 0.0489838 0.181467 -0.0280854 0.0492953 0.31444 -0.00841297 0.0808411 -0.0816997 0.0737021 0.147478 0.165293 0.248267 0.212986 0.0852491 0.0141035 -0.051477 0.223329 0.0597061 0.113092 0.166901 -0.0429797 0.209736 0.0643909 0.0382772 0.152101
internal_weight=2828.84 1135.69 889.6 246.093 709.868 589.608 199.261 179.732 73.5615 9.24856 210.448 379.16 106.17 367.557 120.26 112.58 1693.14 334.51 39.9194 46.8319 33.4774 5.9612 85.0295 55.9444 45.2158 29.0852 39.1846 348.882 227.682 36.7745
internal_count=9921 8821 7679 1142 5627 5047 693 2052 702 47 2195 2852 1350 2812 580 501 1100 408 141 449 380 51 714 394 278 320 208 2735 1907 256
is_linear=0
shrinkage=0.1


Tree=4
num_leaves=31
num_cat=0
split_feature=186 125 35 24 26 31 130 122 17 133 16 26 35 22 126 59 22 0 126 134 126 126 94 144 158 193 14 27 0 28
split_gain=1662.67 144.791 89.0794 89.0377 108.67 94.0047 75.9478 73.7414 73.5527 69.9789 67.7932 67.5955 67.5902 64.0531 71.1801 64.021 63.3082 58.2847 60.3601 110.035 55.4865 65.9979 54.127 51.7104 50.0152 49.2901 62.4502 49.175 48.7952 48.6578
threshold=1.0000000180025095e-35 2.5000000000000004 35.500000000000007 72.500000000000014 48.500000000000007 37.500000000000007 8.5000000000000018 1.0000000180025095e-35 5.5000000000000009 1.0000000180025095e-35 4.5000000000000009 11.500000000000002 31.500000000000004 18.500000000000004 132648.00000000003 4.5000000000000009 2.5000000000000004 37.500000000000007 105921.50000000001 2.5000000000000004 151142.50000000003 105921.50000000001 4.5000000000000009 8.5000000000000018 1.0000000180025095e-35 3.5000000000000004 30.500000000000004 28.500000000000004 1.0000000180025095e-35 30.500000000000004
decision_type=2 2 2 2 2 2 2 2 2 2 2 2 2 2 2 2 2 2 2 2 2 2 2 2 2 2 2 2 2 2
left_child=1 2 3 5 10 7 15 8 -1 11 -5 16 -8 -12 -15 27 -9 18 19 -4 21 -11 -20 -14 -24 26 -2 -3 -18 -21
right_child=25 6 17 4 -6 -7 12 9 -10 20 13 -13 23 14 -16 -17 28 -19 22 29 -22 -23 24 -25 -26 -27 -28 -29 -30 -31
leaf_value=0.046837277942053508 0.18603821192445824 -0.066816522239004125 -0.11016431048664017 -0.11601277892762603 -0.039572315735690748 -0.056641676653782107 0.22055828514678413 -0.043008097388243301 -0.091714071277231482 0.29113018823488479 0.26819207283704405 -0.031807499167609998 -0.11936416100821901 0.22475399059796508 -0.11991872047048467 0.21088714867048855 0.28564877821010348 0.1675562882468615 -0.1004794327085155 0.089051870217150914 0.27003887099124307 0.001930585042621166 0.206953024363877 0.12379673143073562 -0.11543548318147723 0.21914813878632905 0.0008871399672588184 0.26531043455597769 0.0014166797998739341 0.5127973630680297
leaf_weight=338.37624747306108 238.91915439069271 41.349831037223339 11.581531159579756 6.8093398362398139 27.492804497480392 86.906644850969315 86.575248941779137 13.447150789201258 43.208372138440609 11.680821865797041 59.334570072591305 46.450864434242249 9.5193431824445707 13.860397897660734 10.553925838321446 14.322227068245409 24.343051604926586 14.109483398497103 106.29125835746527 4.7488269284367544 37.08624842017889 24.321778677403927 12.081542376428844 107.59839162230492 7.9977764487266532 1518.0969059914351 19.720861330628395 4.996657356619834 8.0330416038632375 6.3112097457051277
leaf_count=2809 275 436 151 68 317 931 132 115 430 27 153 408 80 42 94 40 91 107 1395 35 101 186 60 435 84 747 78 19 56 19
internal_value=0.151171 0.0591205 0.0402873 0.05482 0.134558 0.0399693 0.124307 0.0553202 0.0311485 0.111098 0.187423 0.0532015 0.153559 0.212094 0.0757574 0.0260956 0.139375 -0.0267008 -0.0450944 0.105266 0.184191 0.0957596 -0.0720342 0.104033 0.0785427 0.212273 0.171921 -0.0310096 0.215126 0.330855
internal_weight=2956.13 1179.39 915.027 751.905 118.051 633.854 264.362 546.948 381.585 165.363 90.5582 92.2741 203.693 83.7489 24.4143 60.6687 45.8232 163.122 149.012 22.6416 73.0888 36.0026 126.371 117.118 20.0793 1776.74 258.64 46.3465 32.3761 11.06
internal_count=9921 8821 7679 5828 674 5154 1142 4223 3239 984 357 670 647 289 136 495 262 1851 1744 205 314 213 1539 515 144 1100 353 455 147 54
is_linear=0
shrinkage=0.1


Tree=5
num_leaves=31
num_cat=0
split_feature=186 125 32 81 130 137 24 144 30 20 137 145 133 46 135 195 13 20 59 138 61 131 88 56 33 29 35 126 20 23
split_gain=1343.48 108.584 79.9983 87.2664 57.4737 68.6984 55.489 63.4287 64.6316 89.7089 55.037 54.9002 54.2308 51.6499 49.9518 46.4863 77.681 53.7819 46.1448 44.491 52.4579 90.9129 49.6371 43.8686 43.7574 56.1033 76.9447 56.806 56.1443 49.6629
threshold=1.0000000180025095e-35 2.5000000000000004 41.500000000000007 1.0000000180025095e-35 25.500000000000004 48.500000000000007 73.500000000000014 22.500000000000004 618.50000000000011 30.500000000000004 10.500000000000002 26.500000000000004 1.0000000180025095e-35 15.500000000000002 1.5000000000000002 2.5000000000000004 29.500000000000004 47.500000000000007 4.5000000000000009 11.500000000000002 1.0000000180025095e-35 1.0000000180025095e-35 2.5000000000000004 1.5000000000000002 3.5000000000000004 5.5000000000000009 9.5000000000000018 108357.00000000001 9.5000000000000018 4.5000000000000009
decision_type=2 2 2 2 2 2 2 2 2 2 2 2 2 2 2 2 2 2 2 2 2 2 2 2 2 2 2 2 2 2
left_child=1 2 4 13 14 -6 -5 8 9 12 18 -12 -8 -4 19 16 -2 -18 -3 20 24 -22 -23 -16 -1 -26 27 -27 -29 -28
right_child=15 10 3 6 5 -7 7 -9 -10 -11 11 -13 -14 -15 23 -17 17 -19 -20 -21 21 22 -24 -25 25 26 29 28 -30 -31
leaf_value=0.10886297701812649 0.16937716018769669 -0.029158452634511407 -0.079613036915408039 -0.062325153026400661 0.20621072129778428 -0.0017758854347783137 -0.026227783662510967 -0.11136838560365206 0.45071730876920973 -0.022981186085390945 0.1404236736199462 -0.11648914653681504 0.22052401427192023 0.22540663197363348 0.18625015230748679 0.19631999242103093 0.14323089528075347 -0.14534300111289442 0.16898813425596526 -0.067521308631123225 -0.020778892223238865 0.15490893533877204 -0.11701212116401145 -0.12160108536831148 -0.09353468622855704 0.37146176073468262 -0.077003602133386917 -0.034120071202890498 0.40626418506906464 0.035291602195109836
leaf_weight=47.181341096758842 393.52843699604273 45.081890746951103 130.74486835300922 37.997746530920267 48.93771793320775 23.510339003056288 11.159858692437409 15.584313295781611 5.1412807628512374 42.141364976763725 206.97475910186768 8.6659453213214857 44.119215700775385 5.7977250330150119 37.409963633865118 1388.6716779619455 12.214352361857893 13.704785689711569 15.897590115666388 38.695846192538738 52.087631840258837 109.16073702648282 7.1529455706477156 5.2824524939060202 48.017526037991047 10.166677772998812 54.490190349519253 12.303611151874067 3.7857044264674178 142.05147745832801
leaf_count=291 372 454 1751 404 141 156 109 194 7 434 563 83 138 34 139 634 16 78 42 342 457 715 66 45 445 34 529 104 10 1134
internal_value=0.132935 0.051355 0.0350398 -0.00826998 0.0548391 0.138716 0.0427916 0.0765989 0.105161 0.0869242 0.106379 0.130099 0.170709 -0.0666616 0.0441366 0.187508 0.158333 -0.00935301 0.0224991 0.0356791 0.0438893 0.0890175 0.138187 0.148159 0.0199908 0.00450753 0.0256377 0.186423 0.0694993 0.00415832
internal_weight=3017.66 1209.54 932.921 292.686 640.234 72.4481 156.144 118.146 102.562 97.4204 276.62 215.641 55.2791 136.543 567.786 1808.12 419.448 25.9191 60.9795 525.094 486.398 168.401 116.314 42.6924 317.997 270.815 222.798 26.256 16.0893 196.542
internal_count=9921 8821 7679 3071 4608 297 1286 882 688 681 1142 646 247 1785 4311 1100 466 94 496 4127 3785 1238 781 184 2547 2256 1811 148 114 1663
is_linear=0
shrinkage=0.1


end of trees

feature_importances:
click_seller_num_90d=11
brand_click_num=9
click_item_num_90d=8
click_cnt_days_90d=7
click_cate2_num_30d=6
click_brand_num_90d=6
cb_clk_item_90d=6
c2_clk_item_90d=6
click_item_num_3d=5
click_seller_num_60d=5
pay_cate2_num_90d=5
click_item_num_15d=4
click_seller_num_30d=4
cart_brand_num_30d=4
cart_cate1_num_90d=4
cb_clk_item_15d=4
click_item_num_60d=3
click_cate1_num_90d=3
clt_item_num_60d=3
cart_item_num_30d=3
cb_clk_item_60d=3
cb_clk_num_90d=3
cb_clk_day_90d=3
cb_clk_day_60d=3
click_seller_num_15d=2
click_cate1_num_30d=2
click_cate1_num_60d=2
click_cnt_days_60d=2
clt_seller_num_60d=2
clt_cate1_num_60d=2
clt_item_num_90d=2
pay_brand_num_30d=2
cb_clk_item_7d=2
cb_clt_item_30d=2
cb_cart_item_90d=2
c2_clk_item_15d=2
c2_clk_num_90d=2
click_cate2_num_7d=1
click_cnt_days_7d=1
click_brand_num_15d=1
click_cate2_num_15d=1
click_cnt_days_15d=1
click_item_num_30d=1
click_cnt_days_30d=1
click_brand_num_60d=1
click_cate2_num_60d=1
click_cate2_num_90d=1
clt_seller_num_7d=1
clt_item_num_15d=1
clt_brand_num_30d=1
clt_cate1_num_90d=1
cart_item_num_3d=1
cart_cate2_num_3d=1
cart_item_num_15d=1
cart_item_num_60d=1
cart_seller_num_60d=1
cart_cate1_num_60d=1
cart_cate2_num_60d=1
cart_item_num_90d=1
pay_item_num_3d=1
pay_item_num_7d=1
pay_item_num_30d=1
pay_item_num_60d=1
pay_brand_num_60d=1
pay_brand_num_90d=1
brand_alipay_num=1
cb_clk_item_3d=1
cb_clk_num_60d=1
cb_clk_num_7d=1
cb_clk_day_15d=1
cb_clt_item_7d=1
cb_pay_item_90d=1
c2_clk_num_30d=1

parameters:
[boosting: gbdt]
[objective: binary]
[metric: auc]
[tree_learner: serial]
[device_type: cpu]
[data_sample_strategy: bagging]
[data: ]
[valid: ]
[num_iterations: 3]
[learning_rate: 0.1]
[num_leaves: 31]
[num_threads: -1]
[seed: 42]
[deterministic: 0]
[force_col_wise: 0]
[force_row_wise: 0]
[histogram_pool_size: -1]
[max_depth: -1]
[min_data_in_leaf: 20]
[min_sum_hessian_in_leaf: 0.001]
[bagging_fraction: 0.8]
[pos_bagging_fraction: 1]
[neg_bagging_fraction: 1]
[bagging_freq: 5]
[bagging_seed: 400]
[bagging_by_query: 0]
[feature_fraction: 0.9]
[feature_fraction_bynode: 1]
[feature_fraction_seed: 30056]
[extra_trees: 0]
[extra_seed: 12879]
[early_stopping_round: 0]
[early_stopping_min_delta: 0]
[first_metric_only: 0]
[max_delta_step: 0]
[lambda_l1: 0]
[lambda_l2: 0]
[linear_lambda: 0]
[min_gain_to_split: 0]
[drop_rate: 0.1]
[max_drop: 50]
[skip_drop: 0.5]
[xgboost_dart_mode: 0]
[uniform_drop: 0]
[drop_seed: 17869]
[top_rate: 0.2]
[other_rate: 0.1]
[min_data_per_group: 100]
[max_cat_threshold: 32]
[cat_l2: 10]
[cat_smooth: 10]
[max_cat_to_onehot: 4]
[top_k: 20]
[monotone_constraints: ]
[monotone_constraints_method: basic]
[monotone_penalty: 0]
[feature_contri: ]
[forcedsplits_filename: ]
[refit_decay_rate: 0.9]
[cegb_tradeoff: 1]
[cegb_penalty_split: 0]
[cegb_penalty_feature_lazy: ]
[cegb_penalty_feature_coupled: ]
[path_smooth: 0]
[interaction_constraints: ]
[verbosity: -1]
[saved_feature_importance_type: 0]
[use_quantized_grad: 0]
[num_grad_quant_bins: 4]
[quant_train_renew_leaf: 0]
[stochastic_rounding: 1]
[linear_tree: 0]
[max_bin: 255]
[max_bin_by_feature: ]
[min_data_in_bin: 3]
[bin_construct_sample_cnt: 200000]
[data_random_seed: 175]
[is_enable_sparse: 1]
[enable_bundle: 1]
[use_missing: 1]
[zero_as_missing: 0]
[feature_pre_filter: 1]
[pre_partition: 0]
[two_round: 0]
[header: 0]
[label_column: ]
[weight_column: ]
[group_column: ]
[ignore_column: ]
[categorical_feature: ]
[forcedbins_filename: ]
[precise_float_parser: 0]
[parser_config_file: ]
[objective_seed: 16083]
[num_class: 1]
[is_unbalance: 0]
[scale_pos_weight: 9.96752]
[sigmoid: 1]
[boost_from_average: 1]
[reg_sqrt: 0]
[alpha: 0.9]
[fair_c: 1]
[poisson_max_delta_step: 0.7]
[tweedie_variance_power: 1.5]
[lambdarank_truncation_level: 30]
[lambdarank_norm: 1]
[label_gain: ]
[lambdarank_position_bias_regularization: 0]
[eval_at: ]
[multi_error_top_k: 1]
[auc_mu_weights: ]
[num_machines: 1]
[local_listen_port: 12400]
[time_out: 120]
[machine_list_filename: ]
[machines: ]
[gpu_platform_id: -1]
[gpu_device_id: -1]
[gpu_use_dp: 0]
[num_gpu: 1]

end of parameters

pandas_categorical:[]
