tree
version=v4
num_class=1
num_tree_per_iteration=1
label_index=0
max_feature_idx=241
objective=binary sigmoid:1
feature_names=click_item_num_3d click_brand_num_3d click_seller_num_3d click_cate1_num_3d click_cate2_num_3d click_cnt_days_3d click_item_num_7d click_brand_num_7d click_seller_num_7d click_cate1_num_7d click_cate2_num_7d click_cnt_days_7d click_item_num_15d click_brand_num_15d click_seller_num_15d click_cate1_num_15d click_cate2_num_15d click_cnt_days_15d click_item_num_30d click_brand_num_30d click_seller_num_30d click_cate1_num_30d click_cate2_num_30d click_cnt_days_30d click_item_num_60d click_brand_num_60d click_seller_num_60d click_cate1_num_60d click_cate2_num_60d click_cnt_days_60d click_item_num_90d click_brand_num_90d click_seller_num_90d click_cate1_num_90d click_cate2_num_90d click_cnt_days_90d clt_item_num_3d clt_brand_num_3d clt_seller_num_3d clt_cate1_num_3d clt_cate2_num_3d clt_item_num_7d clt_brand_num_7d clt_seller_num_7d clt_cate1_num_7d clt_cate2_num_7d clt_item_num_15d clt_brand_num_15d clt_seller_num_15d clt_cate1_num_15d clt_cate2_num_15d clt_item_num_30d clt_brand_num_30d clt_seller_num_30d clt_cate1_num_30d clt_cate2_num_30d clt_item_num_60d clt_brand_num_60d clt_seller_num_60d clt_cate1_num_60d clt_cate2_num_60d clt_item_num_90d clt_brand_num_90d clt_seller_num_90d clt_cate1_num_90d clt_cate2_num_90d cart_item_num_3d cart_brand_num_3d cart_seller_num_3d cart_cate1_num_3d cart_cate2_num_3d cart_item_num_7d cart_brand_num_7d cart_seller_num_7d cart_cate1_num_7d cart_cate2_num_7d cart_item_num_15d cart_brand_num_15d cart_seller_num_15d cart_cate1_num_15d cart_cate2_num_15d cart_item_num_30d cart_brand_num_30d cart_seller_num_30d cart_cate1_num_30d cart_cate2_num_30d cart_item_num_60d cart_brand_num_60d cart_seller_num_60d cart_cate1_num_60d cart_cate2_num_60d cart_item_num_90d cart_brand_num_90d cart_seller_num_90d cart_cate1_num_90d cart_cate2_num_90d pay_item_num_3d pay_brand_num_3d pay_seller_num_3d pay_cate1_num_3d pay_cate2_num_3d pay_item_num_7d pay_brand_num_7d pay_seller_num_7d pay_cate1_num_7d pay_cate2_num_7d pay_item_num_15d pay_brand_num_15d pay_seller_num_15d pay_cate1_num_15d pay_cate2_num_15d pay_item_num_30d pay_brand_num_30d pay_seller_num_30d pay_cate1_num_30d pay_cate2_num_30d pay_item_num_60d pay_brand_num_60d pay_seller_num_60d pay_cate1_num_60d pay_cate2_num_60d pay_item_num_90d pay_brand_num_90d pay_seller_num_90d pay_cate1_num_90d pay_cate2_num_90d brand_click_num brand_collect_num brand_cart_num brand_alipay_num cb_clk_item_90d cb_clk_item_60d cb_clk_item_30d cb_clk_item_15d cb_clk_item_7d cb_clk_item_3d cb_clk_item_1d cb_clk_num_90d cb_clk_num_60d cb_clk_num_30d cb_clk_num_15d cb_clk_num_7d cb_clk_num_3d cb_clk_num_1d cb_clk_day_90d cb_clk_day_60d cb_clk_day_30d cb_clk_day_15d cb_clk_day_7d cb_clk_day_3d cb_clk_day_1d cb_clt_item_90d cb_clt_item_60d cb_clt_item_30d cb_clt_item_15d cb_clt_item_7d cb_clt_item_3d cb_clt_item_1d cb_cart_item_90d cb_cart_item_60d cb_cart_item_30d cb_cart_item_15d cb_cart_item_7d cb_cart_item_3d cb_cart_item_1d cb_cart_num_90d cb_cart_num_60d cb_cart_num_30d cb_cart_num_15d cb_cart_num_7d cb_cart_num_3d cb_cart_num_1d cb_pay_item_90d cb_pay_item_60d cb_pay_item_30d cb_pay_item_15d cb_pay_item_7d cb_pay_item_3d cb_pay_item_1d cb_pay_num_90d cb_pay_num_60d cb_pay_num_30d cb_pay_num_15d cb_pay_num_7d cb_pay_num_3d cb_pay_num_1d c2_clk_item_90d c2_clk_item_60d c2_clk_item_30d c2_clk_item_15d c2_clk_item_7d c2_clk_item_3d c2_clk_item_1d c2_clk_num_90d c2_clk_num_60d c2_clk_num_30d c2_clk_num_15d c2_clk_num_7d c2_clk_num_3d c2_clk_num_1d c2_clk_day_90d c2_clk_day_60d c2_clk_day_30d c2_clk_day_15d c2_clk_day_7d c2_clk_day_3d c2_clk_day_1d c2_clt_item_90d c2_clt_item_60d c2_clt_item_30d c2_clt_item_15d c2_clt_item_7d c2_clt_item_3d c2_clt_item_1d c2_cart_item_90d c2_cart_item_60d c2_cart_item_30d c2_cart_item_15d c2_cart_item_7d c2_cart_item_3d c2_cart_item_1d c2_cart_num_90d c2_cart_num_60d c2_cart_num_30d c2_cart_num_15d c2_cart_num_7d c2_cart_num_3d c2_cart_num_1d c2_pay_item_90d c2_pay_item_60d c2_pay_item_30d c2_pay_item_15d c2_pay_item_7d c2_pay_item_3d c2_pay_item_1d c2_pay_num_90d c2_pay_num_60d c2_pay_num_30d c2_pay_num_15d c2_pay_num_7d c2_pay_num_3d c2_pay_num_1d
feature_infos=[0:5028] [0:2122] [0:2276] [0:83] [0:1046] [0:4] [0:9586] [0:3702] [0:4006] [0:86] [0:1465] [0:8] [0:17394] [0:6116] [0:6781] [0:87] [0:1994] [0:16] [0:38345] [0:11182] [0:12847] [0:87] [0:2766] [0:31] [0:84690] [0:19814] [0:23730] [0:87] [0:3704] [0:61] [1:110320] [0:23170] [1:27803] [1:87] [1:3988] [1:91] [0:69] [0:32] [0:26] [0:11] [0:29] [0:80] [0:39] [0:39] [0:16] [0:40] [0:157] [0:68] [0:66] [0:21] [0:55] [0:219] [0:104] [0:103] [0:31] [0:73] [0:505] [0:212] [0:210] [0:39] [0:111] [0:626] [0:240] [0:239] [0:44] [0:136] [0:70] [0:37] [0:37] [0:8] [0:18] [0:85] [0:49] [0:49] [0:13] [0:27] [0:194] [0:88] [0:88] [0:19] [0:39] [0:337] [0:148] [0:150] [0:32] [0:71] [0:755] [0:156] [0:165] [0:38] [0:121] [0:1235] [0:192] [0:210] [0:42] [0:161] [0:24] [0:15] [0:15] [0:9] [0:17] [0:27] [0:25] [0:25] [0:13] [0:21] [0:49] [0:39] [0:41] [0:18] [0:38] [0:103] [0:67] [0:78] [0:32] [0:70] [0:223] [0:122] [0:149] [0:38] [0:120] [0:312] [0:177] [0:220] [0:43] [0:169] [104383:166149] [5380:11109] [3379:6577] [399:815] [0:12298] [0:9408] [0:4101] [0:1664] [0:873] [0:465] [0:256] [0:31381] [0:25334] [0:8621] [0:4094] [0:1432] [0:720] [0:339] [0:91] [0:61] [0:31] [0:16] [0:8] [0:4] [0:2] [0:142] [0:142] [0:52] [0:30] [0:30] [0:23] [0:8] [0:260] [0:103] [0:52] [0:36] [0:27] [0:26] [0:22] [0:301] [0:153] [0:80] [0:50] [0:39] [0:33] [0:27] [0:49] [0:18] [0:13] [0:7] [0:6] [0:5] [0:4] [0:49] [0:18] [0:13] [0:7] [0:6] [0:5] [0:4] [0:184] [0:164] [0:142] [0:99] [0:93] [0:65] [0:54] [0:684] [0:444] [0:233] [0:202] [0:177] [0:94] [0:83] [0:57] [0:35] [0:27] [0:15] [0:8] [0:4] [0:2] [0:16] [0:16] [0:16] [0:16] [0:16] [0:16] [0:6] [0:23] [0:20] [0:17] [0:12] [0:11] [0:9] [0:8] [0:34] [0:27] [0:22] [0:22] [0:22] [0:9] [0:9] [0:11] [0:10] [0:8] [0:7] [0:5] [0:4] none [0:11] [0:10] [0:8] [0:7] [0:5] [0:4] none
tree_sizes=3320 3379 3364 3364 3385 3411 3389 3380 3381 3376 3410 3404 3402 3377 3404 3410 3404 3391 3426 3407 3411

Tree=0
num_leaves=31
num_cat=0
split_feature=186 172 193 94 25 144 32 101 32 130 112 27 70 90 91 32 111 147 112 33 52 43 12 32 133 26 126 145 35 22
split_gain=29165.1 1006.37 563.4 428.19 419.104 319.271 304.14 279.108 274.7 260.969 256.19 207.718 204.087 192.95 193.125 191.851 187.029 177.984 174.008 165.415 163.943 161.168 161.009 151.054 147.577 135.428 127.184 126.976 161.931 191.917
threshold=1.0000000180025095e-35 1.0000000180025095e-35 2.5000000000000004 5.5000000000000009 64.500000000000014 29.500000000000004 45.500000000000007 1.5000000000000002 101.50000000000001 25.500000000000004 1.0000000180025095e-35 4.5000000000000009 3.5000000000000004 5.5000000000000009 14.500000000000002 102.50000000000001 1.5000000000000002 4.5000000000000009 4.5000000000000009 8.5000000000000018 9.5000000000000018 1.5000000000000002 21.500000000000004 26.500000000000004 8.5000000000000018 53.500000000000007 112177.00000000001 2.5000000000000004 4.5000000000000009 7.5000000000000009
decision_type=2 2 2 2 2 2 2 2 2 2 2 2 2 2 2 2 2 2 2 2 2 2 2 2 2 2 2 2 2 2
left_child=1 3 4 6 -2 7 9 15 13 10 12 -11 23 -5 -15 19 26 -13 -7 24 -8 -18 -16 27 -3 -22 -12 -1 -29 -30
right_child=2 5 -4 8 -6 18 20 -9 -10 11 16 17 -14 14 22 -17 21 -19 -20 -21 25 -23 -24 -25 -26 -27 -28 28 29 -31
leaf_value=-2.2301788098266391 -1.4459453530527866 -2.4093639412663688 -1.2360014547552172 -2.4093639412663688 -2.1843929471751888 -2.4093639412663688 -2.3366819868739235 -1.3989796974931972 -2.328071503000023 -2.4093639412663688 -1.6057141911715442 -1.7299470223282301 -1.4042563996650563 -1.4419790402317176 -2.4093639412663683 -2.4093639412663688 -2.4093639412663683 -2.4093639412663688 -1.4042563996650563 -1.7233530408801798 -1.5633201940682961 -1.481766045871912 -1.7304515906059996 -2.3244182449166044 -1.6560444850821687 -2.1864772657865306 -1.9984824819303302 -1.3126123497398732 -2.2767694797567479 -1.9134036007525959
leaf_weight=205.81957530230284 57.937523670494556 7.5407020971178991 538.57226148247719 4.3089726269245139 8.861156187951563 13.092647597193716 233.13595005869865 15.78411879390478 12.261307194828985 7.4578372389078131 11.162529475986956 27.87431263178587 2.9750594347715369 15.455351181328295 4.971891492605212 5.9662697911262503 14.584215044975283 4.4747023433446875 1.9833729565143574 43.589025668799877 4.7125296369195011 2.1491026729345313 11.745275303721426 129.07383906841278 3.9694377332925797 13.416031569242476 31.536517314612865 2.7264648601412764 30.069176249206066 28.136366307735443
leaf_count=2152 197 91 814 52 89 158 2661 47 139 90 54 166 9 52 60 72 176 54 6 257 21 8 70 1459 21 135 264 6 327 214
internal_value=-1.80545 -2.16969 -1.26998 -2.20578 -1.5439 -1.85637 -2.22446 -1.77383 -1.91858 -2.17921 -2.20054 -1.93361 -2.22941 -1.78096 -1.69679 -1.87072 -2.00686 -1.82393 -2.27713 -1.81239 -2.31416 -2.29023 -1.93237 -2.23561 -2.14957 -2.02449 -1.8958 -2.19264 -2.06584 -2.10112
internal_weight=1495.34 889.973 605.371 798.047 66.7987 91.9256 749.304 76.8496 48.7428 498.04 458.233 39.8069 398.8 36.4815 32.1725 61.0654 59.4324 32.349 15.076 55.0992 251.265 16.7333 16.7172 395.825 11.5101 18.1286 42.699 266.752 60.932 58.2055
internal_count=9921 8821 1100 8169 286 652 7796 488 373 4979 4669 310 4167 234 182 441 502 220 164 369 2817 184 130 4158 112 156 318 2699 547 541
is_linear=0
shrinkage=1


Tree=1
num_leaves=31
num_cat=0
split_feature=186 125 130 35 35 82 22 31 141 34 30 58 96 89 133 116 189 31 81 126 126 11 29 24 30 155 94 61 153 26
split_gain=5800.2 503.098 312.579 209.643 191.733 226.785 138.456 128.796 123.895 122.808 133.077 106.569 106.028 105.762 103.84 95.6905 94.0375 146.249 133.015 85.9611 90.5628 157.586 109.859 130.369 84.0802 83.1448 79.1734 84.8078 79.9035 77.3815
threshold=1.0000000180025095e-35 2.5000000000000004 6.5000000000000009 31.500000000000004 35.500000000000007 1.5000000000000002 13.500000000000002 15.500000000000002 2.5000000000000004 22.500000000000004 120.50000000000001 3.5000000000000004 1.0000000180025095e-35 2.5000000000000004 1.0000000180025095e-35 2.5000000000000004 1.0000000180025095e-35 80.500000000000014 2.5000000000000004 151142.50000000003 108357.00000000001 3.5000000000000004 7.5000000000000009 5.5000000000000009 17.500000000000004 1.0000000180025095e-35 4.5000000000000009 2.5000000000000004 5.5000000000000009 47.500000000000007
decision_type=2 2 2 2 2 2 2 2 2 2 2 2 2 2 2 2 2 2 2 2 2 2 2 2 2 2 2 2 2 2
left_child=1 4 -3 -4 5 7 -7 19 24 12 -11 29 -10 -5 -15 -16 17 -2 -19 20 22 -22 23 -1 -9 -21 28 -28 -6 -8
right_child=16 2 3 13 26 6 11 8 9 10 -12 -13 -14 14 15 -17 -18 18 -20 25 21 -23 -24 -25 -26 -27 27 -29 -30 -31
leaf_value=-0.11092290495485513 0.39666709681409112 0.018644216027846227 0.46615344058493369 0.046345469736755691 -0.068542404844699575 0.080130499315211129 0.41526096675721036 0.52174572805382502 -0.11168146458809131 0.40036181007034249 -0.11170583295033386 -0.11253228793115673 0.51952133965747971 -0.11243352513192842 -0.11268330933813327 0.37197628458162213 0.43636324958031242 -0.12229320044157609 0.31382410933510652 0.19774922405798517 -0.013398756207941448 0.42061722409425717 -0.11153742069082569 0.42081230522439467 0.00089672942537921305 0.68239560738150795 0.2854344496926195 -0.11244998090078583 0.38243893924944611 0.045009107851047003
leaf_weight=5.8115002959966686 216.78446957468987 45.617884546518326 57.894380353391171 24.914392791688442 142.27383518964052 36.157684952020645 46.848928198218346 3.1314729601144782 17.593164116144184 25.178952276706699 6.3563458621501914 4.9924915283918372 3.1355253979563704 5.7790617346763602 4.4291125163435927 50.775226645171642 1003.5400561466813 10.626533240079882 20.455620348453522 61.121643833816051 81.547276251018047 9.322144150733946 7.878133922815322 22.318419270217419 302.0821131914854 3.7574650049209586 14.91088227927685 8.3607535958290082 4.0402662158012381 6.4180136546492568
leaf_count=66 267 449 156 226 1642 320 188 12 197 129 72 54 9 63 48 200 692 80 61 490 841 45 87 113 3126 10 89 92 28 69
internal_value=0.279153 0.0999421 0.24672 0.319076 0.0657563 0.0906799 0.233844 0.0660689 0.0306019 0.172868 0.297148 0.329244 -0.0162026 0.219947 0.290871 0.333091 0.42274 0.367581 0.164722 0.132187 0.0843093 0.0311262 0.218521 0.310958 0.00624061 0.225817 -0.0288392 0.142487 -0.0560892 0.37065
internal_weight=2254.05 1002.65 189.41 143.792 813.237 643.651 94.4171 549.234 357.478 52.264 31.5353 58.2594 20.7287 85.8978 60.9834 55.2043 1251.41 247.867 31.0822 191.757 126.877 90.8694 36.0081 28.1299 305.214 64.8791 169.586 23.2716 146.314 53.2669
internal_count=9921 8821 1142 693 7679 5828 631 5197 3545 407 201 311 206 537 311 248 1100 408 141 1652 1152 886 266 179 3138 500 1851 181 1670 257
is_linear=0
shrinkage=0.1


Tree=2
num_leaves=31
num_cat=0
split_feature=186 125 32 130 82 32 32 158 0 0 12 30 22 129 21 56 32 33 134 30 86 14 18 21 35 76 153 64 82 131
split_gain=3205.26 301.584 168.087 166.883 148.339 147.229 99.1696 94.08 109.664 88.3578 154.401 84.6313 83.3741 79.1354 75.4919 72.4105 71.3319 69.285 67.5606 92.5499 90.4691 71.9848 65.6754 59.6605 65.9489 59.027 53.3976 73.0285 61.3905 52.9881
threshold=1.0000000180025095e-35 2.5000000000000004 57.500000000000007 6.5000000000000009 1.5000000000000002 26.500000000000004 64.500000000000014 1.0000000180025095e-35 1.0000000180025095e-35 11.500000000000002 24.500000000000004 76.500000000000014 13.500000000000002 452.50000000000006 7.5000000000000009 5.5000000000000009 20.500000000000004 7.5000000000000009 1.0000000180025095e-35 120.50000000000001 6.5000000000000009 5.5000000000000009 47.500000000000007 9.5000000000000018 14.500000000000002 4.5000000000000009 3.5000000000000004 3.5000000000000004 1.5000000000000002 4.5000000000000009
decision_type=2 2 2 2 2 2 2 2 2 2 2 2 2 2 2 2 2 2 2 2 2 2 2 2 2 2 2 2 2 2
left_child=1 2 4 15 5 7 -5 29 17 -4 -11 -7 13 16 -8 -3 -6 25 20 21 -13 -20 -23 -14 -25 -9 27 28 -16 -1
right_child=-2 3 9 6 12 11 14 8 -10 10 -12 18 23 -15 26 -17 -18 -19 19 -21 -22 22 -24 24 -26 -27 -28 -29 -30 -31
leaf_value=0.059507859244696641 0.30694356163577946 -0.054624972069699934 -0.078328286726507726 0.2840233635770823 0.62257322212970856 -0.057740416689699862 -0.11360829235274116 -0.11096720327636785 -0.020060386323437044 0.69314668337914709 0.028332506586678421 -0.059666033150023959 0.2869735870629152 -0.034212487327511268 -0.11256258227989312 0.23640318720800679 0.067864077568783987 0.48533592974243112 0.46770783047649528 -0.11166762736612855 0.48046142406210895 -0.024264824798120942 0.34635791786520392 0.38192571675736176 -0.11784361023849754 0.43417918663448907 0.38912473161188715 -0.11485156244288304 0.26594273121912643 0.16102048566653659
leaf_weight=254.21643825620413 1531.1129727512598 34.970070049166679 123.35188725590706 115.97648989409208 4.0454842522740346 131.4277821034193 10.790463767945765 4.5351166874170321 10.353917174041269 3.7236971780657759 56.490258790552616 38.25068361312151 60.711817376315594 25.246827028691769 5.1495991125702885 11.315737217664717 5.4295303747057915 16.505497679114342 10.242649555206301 9.0783337056636793 3.3746308609843245 10.791460841894152 8.5847374796867353 3.9001928344368926 8.1743268072605115 3.5339329242706299 9.6674280986189824 9.5040882080793363 25.524041652679443 64.458937332034111
leaf_count=2232 1100 380 1463 310 8 1481 111 52 91 19 570 412 211 242 57 69 41 45 40 105 23 94 40 5 73 2 20 93 102 430
internal_value=0.213908 0.0819303 0.0549631 0.185545 0.0781026 0.0576275 0.229841 0.0971177 0.25292 -0.029855 0.0694453 -0.00831749 0.185775 0.0582724 0.126208 0.0165242 0.304705 0.367934 0.0725508 0.16767 -0.015877 0.253288 0.139942 0.246598 0.043587 0.127786 0.178123 0.127352 0.202398 0.080041
internal_weight=2610.44 1079.33 856.428 222.898 672.862 565.354 176.612 353.604 34.9285 183.566 60.214 211.75 107.508 34.7218 60.6356 46.2858 9.47501 24.5745 80.3225 38.6972 41.6253 29.6188 19.3762 72.7863 12.0745 8.06905 49.8452 40.1777 30.6736 318.675
internal_count=9921 8821 7679 1142 5627 5047 693 2852 190 2052 589 2195 580 291 383 449 49 99 714 279 435 174 134 289 78 54 272 252 159 2662
is_linear=0
shrinkage=0.1


Tree=3
num_leaves=31
num_cat=0
split_feature=186 125 32 130 82 32 145 0 12 10 30 26 30 66 58 22 189 31 81 56 12 20 131 137 31 94 31 126 30 117
split_gain=2183.91 204.07 126.066 106.216 96.9006 107.81 79.9191 74.5655 74.369 76.3472 66.2051 61.2136 61.057 59.533 55.9474 59.7096 51.8899 73.9617 76.1586 50.4909 54.7709 109.467 46.6129 68.2684 53.9016 50.8165 50.1793 44.6927 56.8222 94.2298
threshold=1.0000000180025095e-35 2.5000000000000004 57.500000000000007 6.5000000000000009 1.5000000000000002 26.500000000000004 26.500000000000004 9.5000000000000018 24.500000000000004 11.500000000000002 76.500000000000014 22.500000000000004 776.00000000000011 1.0000000180025095e-35 3.5000000000000004 6.5000000000000009 1.0000000180025095e-35 80.500000000000014 2.5000000000000004 5.5000000000000009 2.5000000000000004 12.500000000000002 5.5000000000000009 55.500000000000007 48.500000000000007 2.5000000000000004 31.500000000000004 151142.50000000003 9.5000000000000018 1.0000000180025095e-35
decision_type=2 2 2 2 2 2 2 2 2 2 2 2 2 2 2 2 2 2 2 2 2 2 2 2 2 2 2 2 2 2
left_child=1 2 4 19 5 11 -5 12 9 -9 -7 13 -4 27 15 -6 17 -2 -19 20 21 -3 25 24 26 -12 -24 28 29 -1
right_child=16 3 7 6 14 10 -8 8 -10 -11 22 -13 -14 -15 -16 -17 -18 18 -20 -21 -22 -23 23 -25 -26 -27 -28 -29 -30 -31
leaf_value=0.094615374996374055 0.23029533668932919 -0.11114670264360196 -0.090766400958339932 0.19493349239587721 -0.11394069182983275 -0.054595535487586923 -0.11637641733138189 0.069755983038888775 0.011166028738028359 0.65181532610419202 -0.11101403789734994 0.30698715882255245 0.55258681187257463 0.24765176364689842 -0.11366268713320299 0.1842866002392374 0.25695354382337449 -0.12661858548978064 0.17529628014030429 0.17850167219284885 -0.11101198387768446 0.77234399089446348 -0.11452396149599026 -0.11368851486929749 -0.11139811699103969 0.21382592383064147 0.24922892837215646 0.11344667016239761 0.01635128279859906 0.59784230385973114
leaf_weight=32.57357582449913 294.5907030403614 3.7043847218155852 104.67387279123068 190.6419914290309 7.1701670438051215 125.41822683811188 8.6192334219813329 5.3606859147548658 64.312930844724178 3.8878772854804993 22.993596620857719 11.6030440852046 1.4962373748421658 18.675147041678429 7.6801809333264819 105.4098374247551 1358.6336184293032 11.906100004911421 28.013289630413055 13.354527764022349 27.516155332326889 2.2568177282810211 4.2542618662118903 10.728573322296141 6.0311866179108611 6.0915916115045539 34.930330783128738 121.20066499710083 190.90703335404396 4.2008936107158652
leaf_count=242 267 43 1344 610 74 1481 83 42 655 5 276 40 6 77 79 427 692 80 61 69 329 8 42 116 70 44 166 828 1651 14
internal_value=0.176306 0.0690231 0.0467279 0.149618 0.0656698 0.0489838 0.181467 -0.0280854 0.0492953 0.31444 -0.00841297 0.0808411 -0.0816997 0.0737021 0.147478 0.165293 0.248267 0.212986 0.0852491 0.0141035 -0.051477 0.223329 0.0597061 0.113092 0.166901 -0.0429797 0.209736 0.0643909 0.0382772 0.152101
internal_weight=2828.84 1135.69 889.6 246.093 709.868 589.608 199.261 179.732 73.5615 9.24856 210.448 379.16 106.17 367.557 120.26 112.58 1693.14 334.51 39.9194 46.8319 33.4774 5.9612 85.0295 55.9444 45.2158 29.0852 39.1846 348.882 227.682 36.7745
internal_count=9921 8821 7679 1142 5627 5047 693 2052 702 47 2195 2852 1350 2812 580 501 1100 408 141 449 380 51 714 394 278 320 208 2735 1907 256
is_linear=0
shrinkage=0.1


Tree=4
num_leaves=31
num_cat=0
split_feature=186 125 35 24 26 31 130 122 17 133 16 26 35 22 126 59 22 0 126 134 126 126 94 144 158 193 14 27 0 28
split_gain=1662.67 144.791 89.0794 89.0377 108.67 94.0047 75.9478 73.7414 73.5527 69.9789 67.7932 67.5955 67.5902 64.0531 71.1801 64.021 63.3082 58.2847 60.3601 110.035 55.4865 65.9979 54.127 51.7104 50.0152 49.2901 62.4502 49.175 48.7952 48.6578
threshold=1.0000000180025095e-35 2.5000000000000004 35.500000000000007 72.500000000000014 48.500000000000007 37.500000000000007 8.5000000000000018 1.0000000180025095e-35 5.5000000000000009 1.0000000180025095e-35 4.5000000000000009 11.500000000000002 31.500000000000004 18.500000000000004 132648.00000000003 4.5000000000000009 2.5000000000000004 37.500000000000007 105921.50000000001 2.5000000000000004 151142.50000000003 105921.50000000001 4.5000000000000009 8.5000000000000018 1.0000000180025095e-35 3.5000000000000004 30.500000000000004 28.500000000000004 1.0000000180025095e-35 30.500000000000004
decision_type=2 2 2 2 2 2 2 2 2 2 2 2 2 2 2 2 2 2 2 2 2 2 2 2 2 2 2 2 2 2
left_child=1 2 3 5 10 7 15 8 -1 11 -5 16 -8 -12 -15 27 -9 18 19 -4 21 -11 -20 -14 -24 26 -2 -3 -18 -21
right_child=25 6 17 4 -6 -7 12 9 -10 20 13 -13 23 14 -16 -17 28 -19 22 29 -22 -23 24 -25 -26 -27 -28 -29 -30 -31
leaf_value=0.046837277942053508 0.18603821192445824 -0.066816522239004125 -0.11016431048664017 -0.11601277892762603 -0.039572315735690748 -0.056641676653782107 0.22055828514678413 -0.043008097388243301 -0.091714071277231482 0.29113018823488479 0.26819207283704405 -0.031807499167609998 -0.11936416100821901 0.22475399059796508 -0.11991872047048467 0.21088714867048855 0.28564877821010348 0.1675562882468615 -0.1004794327085155 0.089051870217150914 0.27003887099124307 0.001930585042621166 0.206953024363877 0.12379673143073562 -0.11543548318147723 0.21914813878632905 0.0008871399672588184 0.26531043455597769 0.0014166797998739341 0.5127973630680297
leaf_weight=338.37624747306108 238.91915439069271 41.349831037223339 11.581531159579756 6.8093398362398139 27.492804497480392 86.906644850969315 86.575248941779137 13.447150789201258 43.208372138440609 11.680821865797041 59.334570072591305 46.450864434242249 9.5193431824445707 13.860397897660734 10.553925838321446 14.322227068245409 24.343051604926586 14.109483398497103 106.29125835746527 4.7488269284367544 37.08624842017889 24.321778677403927 12.081542376428844 107.59839162230492 7.9977764487266532 1518.0969059914351 19.720861330628395 4.996657356619834 8.0330416038632375 6.3112097457051277
leaf_count=2809 275 436 151 68 317 931 132 115 430 27 153 408 80 42 94 40 91 107 1395 35 101 186 60 435 84 747 78 19 56 19
internal_value=0.151171 0.0591205 0.0402873 0.05482 0.134558 0.0399693 0.124307 0.0553202 0.0311485 0.111098 0.187423 0.0532015 0.153559 0.212094 0.0757574 0.0260956 0.139375 -0.0267008 -0.0450944 0.105266 0.184191 0.0957596 -0.0720342 0.104033 0.0785427 0.212273 0.171921 -0.0310096 0.215126 0.330855
internal_weight=2956.13 1179.39 915.027 751.905 118.051 633.854 264.362 546.948 381.585 165.363 90.5582 92.2741 203.693 83.7489 24.4143 60.6687 45.8232 163.122 149.012 22.6416 73.0888 36.0026 126.371 117.118 20.0793 1776.74 258.64 46.3465 32.3761 11.06
internal_count=9921 8821 7679 5828 674 5154 1142 4223 3239 984 357 670 647 289 136 495 262 1851 1744 205 314 213 1539 515 144 1100 353 455 147 54
is_linear=0
shrinkage=0.1


Tree=5
num_leaves=31
num_cat=0
split_feature=186 125 32 81 130 137 24 144 30 20 137 145 133 46 135 195 13 20 59 138 61 131 88 56 33 29 35 126 20 23
split_gain=1343.48 108.584 79.9983 87.2664 57.4737 68.6984 55.489 63.4287 64.6316 89.7089 55.037 54.9002 54.2308 51.6499 49.9518 46.4863 77.681 53.7819 46.1448 44.491 52.4579 90.9129 49.6371 43.8686 43.7574 56.1033 76.9447 56.806 56.1443 49.6629
threshold=1.0000000180025095e-35 2.5000000000000004 41.500000000000007 1.0000000180025095e-35 25.500000000000004 48.500000000000007 73.500000000000014 22.500000000000004 618.50000000000011 30.500000000000004 10.500000000000002 26.500000000000004 1.0000000180025095e-35 15.500000000000002 1.5000000000000002 2.5000000000000004 29.500000000000004 47.500000000000007 4.5000000000000009 11.500000000000002 1.0000000180025095e-35 1.0000000180025095e-35 2.5000000000000004 1.5000000000000002 3.5000000000000004 5.5000000000000009 9.5000000000000018 108357.00000000001 9.5000000000000018 4.5000000000000009
decision_type=2 2 2 2 2 2 2 2 2 2 2 2 2 2 2 2 2 2 2 2 2 2 2 2 2 2 2 2 2 2
left_child=1 2 4 13 14 -6 -5 8 9 12 18 -12 -8 -4 19 16 -2 -18 -3 20 24 -22 -23 -16 -1 -26 27 -27 -29 -28
right_child=15 10 3 6 5 -7 7 -9 -10 -11 11 -13 -14 -15 23 -17 17 -19 -20 -21 21 22 -24 -25 25 26 29 28 -30 -31
leaf_value=0.10886297701812649 0.16937716018769669 -0.029158452634511407 -0.079613036915408039 -0.062325153026400661 0.20621072129778428 -0.0017758854347783137 -0.026227783662510967 -0.11136838560365206 0.45071730876920973 -0.022981186085390945 0.1404236736199462 -0.11648914653681504 0.22052401427192023 0.22540663197363348 0.18625015230748679 0.19631999242103093 0.14323089528075347 -0.14534300111289442 0.16898813425596526 -0.067521308631123225 -0.020778892223238865 0.15490893533877204 -0.11701212116401145 -0.12160108536831148 -0.09353468622855704 0.37146176073468262 -0.077003602133386917 -0.034120071202890498 0.40626418506906464 0.035291602195109836
leaf_weight=47.181341096758842 393.52843699604273 45.081890746951103 130.74486835300922 37.997746530920267 48.93771793320775 23.510339003056288 11.159858692437409 15.584313295781611 5.1412807628512374 42.141364976763725 206.97475910186768 8.6659453213214857 44.119215700775385 5.7977250330150119 37.409963633865118 1388.6716779619455 12.214352361857893 13.704785689711569 15.897590115666388 38.695846192538738 52.087631840258837 109.16073702648282 7.1529455706477156 5.2824524939060202 48.017526037991047 10.166677772998812 54.490190349519253 12.303611151874067 3.7857044264674178 142.05147745832801
leaf_count=291 372 454 1751 404 141 156 109 194 7 434 563 83 138 34 139 634 16 78 42 342 457 715 66 45 445 34 529 104 10 1134
internal_value=0.132935 0.051355 0.0350398 -0.00826998 0.0548391 0.138716 0.0427916 0.0765989 0.105161 0.0869242 0.106379 0.130099 0.170709 -0.0666616 0.0441366 0.187508 0.158333 -0.00935301 0.0224991 0.0356791 0.0438893 0.0890175 0.138187 0.148159 0.0199908 0.00450753 0.0256377 0.186423 0.0694993 0.00415832
internal_weight=3017.66 1209.54 932.921 292.686 640.234 72.4481 156.144 118.146 102.562 97.4204 276.62 215.641 55.2791 136.543 567.786 1808.12 419.448 25.9191 60.9795 525.094 486.398 168.401 116.314 42.6924 317.997 270.815 222.798 26.256 16.0893 196.542
internal_count=9921 8821 7679 3071 4608 297 1286 882 688 681 1142 646 247 1785 4311 1100 466 94 496 4127 3785 1238 781 184 2547 2256 1811 148 114 1663
is_linear=0
shrinkage=0.1


Tree=6
num_leaves=31
num_cat=0
split_feature=186 90 32 138 126 76 31 137 130 112 193 111 144 15 6 148 25 14 53 4 20 92 167 138 146 139 34 32 35 26
split_gain=1135.3 89.7983 79.9916 82.2294 56.4293 53.8402 60.9894 45.6742 72.435 47.321 45.6129 43.9442 42.7443 54.4333 41.6964 41.6391 37.9778 50.2908 48.997 53.3013 40.1602 36.7757 36.1547 55.5867 55.1853 58.1702 34.9385 75.4326 51.377 35.6697
threshold=1.0000000180025095e-35 3.5000000000000004 41.500000000000007 6.5000000000000009 138330.50000000003 1.0000000180025095e-35 58.500000000000007 55.500000000000007 25.500000000000004 1.0000000180025095e-35 3.5000000000000004 1.5000000000000002 28.500000000000004 2.5000000000000004 2.5000000000000004 4.5000000000000009 31.500000000000004 12.500000000000002 12.500000000000002 9.5000000000000018 31.500000000000004 1.0000000180025095e-35 3.5000000000000004 46.500000000000007 4.5000000000000009 5.5000000000000009 32.500000000000007 26.500000000000004 25.500000000000004 17.500000000000004
decision_type=2 2 2 2 2 2 2 2 2 2 2 2 2 2 2 2 2 2 2 2 2 2 2 2 2 2 2 2 2 2
left_child=1 2 7 -4 14 -6 -7 8 9 26 12 -11 -2 -14 -5 22 -16 21 19 -19 -21 -18 23 24 25 -3 27 29 -28 -1
right_child=10 15 3 4 5 6 -8 -9 -10 11 -12 -13 13 -15 16 -17 17 18 -20 20 -22 -23 -24 -25 -26 -27 28 -29 -30 -31
leaf_value=0.030747393041907281 0.14378644564681889 0.088304017666700527 -0.090387151611124192 -0.11371807075610008 -0.094288207320456632 0.18715268239672506 -0.11406429248159076 -0.12231353454741925 0.1610967024798447 0.13732191619359288 0.1760731892535693 -0.056749822417495183 0.15367695590008376 -0.15071184500167847 -0.11465962691409178 -0.11960852801483349 0.39241102149543478 -0.11158966941662539 0.28603040115162798 0.45844594687821333 0.026217941218540753 0.1538932889127447 0.17056358223568319 -0.055165507120965906 0.1752968171474458 -0.086845426167039053 -0.11228043450102053 -0.058533448396830702 0.24041188281512549 0.12231842524128621
leaf_weight=321.15671836584806 246.78564431518316 156.04834416881204 98.452260207384825 9.2575519010424596 51.652629982680082 18.2461461275816 10.642817508429287 15.481061205267904 55.075963191688061 76.224683489650488 1531.1357740610838 13.776142343878744 11.840662240982057 11.660692140460013 6.6798030361533156 9.2665655687451345 9.5970363058149832 17.512737382203344 7.1259981468319884 3.4006048031151277 5.8436905667185783 19.802846305072308 53.387327555567026 27.162600886076689 64.042724594473839 21.584791049361229 5.5147761404514339 91.474721997976303 16.451412405818701 49.033339530229568
leaf_count=2365 273 793 1355 122 663 62 124 134 158 284 747 114 13 67 78 85 28 229 19 4 42 76 100 204 155 143 64 1039 94 287
internal_value=0.118772 0.0448759 0.0285254 -0.0185007 0.0257989 -0.0331429 0.0761831 0.0473751 0.0515535 0.0410359 0.169388 0.107616 0.131515 0.00264804 0.0857239 0.089386 0.112114 0.136051 0.0530122 -0.00904575 0.185217 0.231753 0.0953963 0.0804692 0.0957135 0.067021 0.0286458 0.0227829 0.151866 0.0428764
internal_weight=3035.32 1233.9 902.403 258.214 159.762 80.5416 28.889 644.189 628.708 573.632 1801.42 90.0008 270.287 23.5014 79.2203 331.492 69.9627 63.2829 33.883 26.757 9.2443 29.3999 322.226 268.838 241.676 177.633 483.631 461.665 21.9662 370.19
internal_count=9921 8821 7341 2802 1447 849 186 4539 4405 4247 1100 398 353 80 598 1480 476 398 294 275 46 104 1395 1295 1091 936 3849 3691 158 2652
is_linear=0
shrinkage=0.1


Tree=7
num_leaves=31
num_cat=0
split_feature=186 172 9 89 17 6 7 35 7 30 30 24 1 126 189 31 77 10 132 24 35 26 22 27 144 144 130 24 26 30
split_gain=984.969 74.5721 64.3413 53.5239 48.9188 66.422 60.8151 58.2268 59.993 54.0395 50.9807 49.0755 48.9987 54.9471 46.1569 46.0308 56.6936 45.8299 69.6996 42.828 65.9851 42.7867 64.4067 40.6537 37.0395 35.7396 35.137 34.6739 68.1631 64.6889
threshold=1.0000000180025095e-35 1.0000000180025095e-35 8.5000000000000018 3.5000000000000004 7.5000000000000009 13.500000000000002 9.5000000000000018 31.500000000000004 5.5000000000000009 113.50000000000001 133.50000000000003 58.500000000000007 25.500000000000004 105921.50000000001 1.0000000180025095e-35 78.500000000000014 1.0000000180025095e-35 4.5000000000000009 1.0000000180025095e-35 23.500000000000004 23.500000000000004 12.500000000000002 7.5000000000000009 32.500000000000007 7.5000000000000009 29.500000000000004 16.500000000000004 41.500000000000007 12.500000000000002 39.500000000000007
decision_type=2 2 2 2 2 2 2 2 2 2 2 2 2 2 2 2 2 2 2 2 2 2 2 2 2 2 2 2 2 2
left_child=1 2 3 4 5 7 21 8 9 11 -11 17 13 -6 15 -2 -17 27 -19 -20 -21 -7 -23 -9 -8 -3 -26 28 29 -1
right_child=14 25 -4 -5 12 6 24 23 -10 10 -12 -13 -14 -15 -16 16 -18 18 19 20 -22 22 -24 -25 26 -27 -28 -29 -30 -31
leaf_value=0.063019548648799231 0.13759794741464249 0.10979064788893707 -0.11178658669337078 0.092488108368830979 0.10155178335729453 -0.12430048810675952 -0.11810500017475389 -0.081766244903366314 -0.11442937732355359 0.2443846923671063 -0.026401048716706666 -0.11776182826377338 0.27103559247185166 -0.077029128602441765 0.16363048462853849 -0.14505183541536723 0.098694134618477702 -0.11358545686410537 0.32744050037374323 -0.11863311308397484 0.2702154901864891 0.55589447363299926 0.16012330798441243 0.37410112949563379 0.26712303761670519 -0.031548360478228885 -0.027830392506645887 0.1038833686922553 -0.035223037399956407 -0.11534811746015557
leaf_weight=253.57235142588615 314.77192947268486 178.92912958562374 31.542506091296673 132.60741862654686 20.8229497410357 4.691025733947753 14.772709317505361 62.593397177755833 26.60607697442174 23.184292357414961 9.9308696538209897 21.142766732722521 5.0731076374649993 99.842348981648684 1405.4024987816811 13.074808225035666 35.320675805211067 8.6960308738052827 15.262435540556906 7.8023744672536877 9.902818486094473 4.438256297260522 55.919626511633396 2.0193529464304438 7.1306303851306465 19.8781793192029 9.3148963116109353 54.651033956557512 149.04333509504795 22.1053223349154
leaf_count=1665 262 488 406 553 128 36 158 820 286 60 102 223 23 1152 692 77 69 97 35 68 34 15 214 9 8 164 85 335 1427 230
internal_value=0.107378 0.0394883 0.0288799 0.0332251 0.0243804 0.033907 0.111553 0.0226922 0.0323762 0.0391656 0.163179 0.0315912 -0.033412 -0.0462118 0.155418 0.123638 0.0328423 0.0376517 0.138252 0.20468 0.0988566 0.166615 0.189225 -0.0675189 -0.00317803 0.0956586 0.100059 0.0289082 0.0192608 0.0487171
internal_weight=3020.05 1251.48 1052.67 1021.13 888.518 762.78 96.2671 666.512 601.9 575.294 33.1152 542.178 125.738 120.665 1768.57 363.167 48.3955 521.036 41.6637 32.9676 17.7052 65.0489 60.3579 64.6128 31.2182 198.807 16.4455 479.372 424.721 275.678
internal_count=9921 8821 8169 7763 7210 5907 516 5391 4562 4276 162 4114 1303 1280 1100 408 146 3891 234 137 102 265 229 829 251 652 93 3657 3322 1895
is_linear=0
shrinkage=0.1


Tree=8
num_leaves=31
num_cat=0
split_feature=186 131 34 32 110 32 112 194 144 12 30 47 24 137 132 26 18 24 20 16 31 33 19 133 34 29 21 172 22 23
split_gain=873.145 63.0146 72.7323 79.9625 68.0897 66.114 63.3627 48.5435 48.9725 42.5348 59.041 99.0103 52.6689 41.6638 72.4862 40.5855 58.7751 39.7918 41.4215 38.0183 36.6711 38.6521 50.984 50.4147 51.1602 54.3525 48.4667 36.3048 35.897 34.2423
threshold=1.0000000180025095e-35 6.5000000000000009 18.500000000000004 95.500000000000014 2.5000000000000004 20.500000000000004 1.0000000180025095e-35 2.5000000000000004 28.500000000000004 10.500000000000002 26.500000000000004 1.0000000180025095e-35 15.500000000000002 57.500000000000007 56.500000000000007 9.5000000000000018 12.500000000000002 24.500000000000004 6.5000000000000009 9.5000000000000018 11.500000000000002 6.5000000000000009 1.5000000000000002 1.0000000180025095e-35 4.5000000000000009 5.5000000000000009 1.5000000000000002 1.0000000180025095e-35 3.5000000000000004 3.5000000000000004
decision_type=2 2 2 2 2 2 2 2 2 2 2 2 2 2 2 2 2 2 2 2 2 2 2 2 2 2 2 2 2 2
left_child=1 5 -3 13 -5 9 -7 8 -2 10 15 12 -12 -4 -15 16 20 18 27 -10 21 23 -23 24 25 -1 -25 -14 -19 -24
right_child=7 2 3 4 -6 6 -8 -9 19 -11 11 -13 17 14 -16 -17 -18 28 -20 -21 -22 22 29 26 -26 -27 -28 -29 -30 -31
leaf_value=0.046623964065266039 0.11791407729580494 -0.032211027947462438 0.11086319931029794 -0.059903254215629725 0.15834712608033966 -0.040196598840052992 0.047934906470352978 0.15156457844860063 0.11157542721867922 -0.079841629527558966 -0.11510379997212944 0.45576419755367159 -0.11428668483196314 -0.033691981009674382 0.15208282450330754 -0.043459160477706392 0.35810046175944682 0.16048940294007369 0.30325339644906846 -0.15635140659789934 -0.052680115479230238 -0.11479355604217811 0.28947054927077914 0.23719040782656237 -0.073576089602341188 0.46969397208423369 -0.030239283843973674 0.21715683120740656 -0.11691978789453215 0.064934524398553531
leaf_weight=29.595763884484768 248.5738725438714 74.062994178384542 305.1472337320447 67.259054467082024 18.152532190084457 265.37029928341508 117.78642642125487 1446.8806631267071 9.4045498073101061 24.058706380426884 10.021264001727102 8.6637230366468412 5.8999732807278651 57.882794145494699 32.964198347181082 52.114184305071831 6.2456443198025218 9.2290231958031672 18.095843750983477 12.123436160385607 31.042652256786823 5.7539892494678488 19.280738245695833 20.104138694703583 45.454804848879576 3.383848972618579 10.222707726061342 7.513244166970253 9.431652329862116 10.485565192997454
leaf_count=181 271 584 1244 724 32 2968 745 746 12 191 93 21 56 430 74 397 20 36 31 71 248 53 64 36 372 7 66 4 84 60
internal_value=0.0978508 0.034817 0.0600437 0.0742369 -0.0135185 0.015074 -0.013104 0.1443 0.105383 0.0481319 0.0583087 0.139692 0.0941971 0.0931647 0.0337172 0.0343293 0.0566561 0.136004 0.204541 -0.039307 0.0459176 0.0671312 0.1577 0.0375523 -0.00478287 0.0900328 0.147044 0.0713672 0.0202787 0.210375
internal_weight=2982.21 1265.22 555.469 481.406 85.4116 709.754 383.157 1716.98 270.102 326.597 302.539 68.8547 60.191 395.994 90.847 233.684 181.57 50.1697 31.5091 21.528 175.324 144.282 35.5203 108.761 78.4344 32.9796 30.3268 13.4132 18.6607 29.7663
internal_count=9921 8821 3088 2504 756 5733 3713 1100 354 2020 1829 325 304 1748 504 1504 1107 211 91 83 1087 839 177 662 560 188 102 60 120 124
is_linear=0
shrinkage=0.1


Tree=9
num_leaves=31
num_cat=0
split_feature=193 122 32 110 144 21 28 19 11 133 34 137 135 137 2 37 132 28 16 116 33 12 6 105 14 32 21 18 16 126
split_gain=789.675 73.3552 55.0052 65.3643 44.6672 43.464 41.296 38.326 49.8106 39.2037 59.4068 38.8871 38.0741 48.8117 46.5413 43.8387 43.4017 37.8912 48.1194 34.4984 34.354 48.0681 33.374 32.6824 32.0603 45.455 38.9135 34.3478 34.2475 33.1604
threshold=1.5000000000000002 1.0000000180025095e-35 102.50000000000001 2.5000000000000004 2.5000000000000004 12.500000000000002 70.500000000000014 35.500000000000007 6.5000000000000009 1.0000000180025095e-35 37.500000000000007 8.5000000000000018 1.5000000000000002 40.500000000000007 2.5000000000000004 2.5000000000000004 4.5000000000000009 9.5000000000000018 4.5000000000000009 1.0000000180025095e-35 9.5000000000000018 13.500000000000002 9.5000000000000018 4.5000000000000009 12.500000000000002 20.500000000000004 5.5000000000000009 5.5000000000000009 2.5000000000000004 112177.00000000001
decision_type=2 2 2 2 2 2 2 2 2 2 2 2 2 2 2 2 2 2 2 2 2 2 2 2 2 2 2 2 2 2
left_child=1 5 7 4 6 12 -4 8 9 10 11 24 14 16 22 -15 -14 18 -16 -19 21 -13 -1 -12 25 26 27 28 29 -3
right_child=-2 2 3 -5 -6 -7 -8 -9 -10 -11 23 20 13 15 17 -17 -18 19 -20 -21 -22 -23 -24 -25 -26 -27 -28 -29 -30 -31
leaf_value=0.010579866312011622 0.13964873328077684 0.17276481730744372 -0.10917327622705529 0.12795253537882367 -0.11588988364851419 -0.10985602243757625 0.22941974005193391 0.13626024437564388 -0.12787527969699025 0.086930409934567562 -0.10259238309518698 -0.12564180063833238 -0.11514416805956845 -0.12796927014455825 -0.1189662544984981 0.19298714178422155 0.14478549900603616 -0.11711226444908096 0.2501878319256125 0.10421664319265903 0.1475981602969042 0.25617731060234356 0.097563212194798951 0.28719190688760332 0.1350978806508468 -0.074831366218455583 0.18319070740036461 -0.12101073315899387 0.24855502098759574 -0.11639029134772527
leaf_weight=425.8262151107192 1522.094863049686 6.426120273768908 6.3402523919939986 22.77576357498765 48.511771533638239 28.024657931178808 8.340581610798834 72.701575420796871 13.893238082528113 315.48893297463655 36.690365318208933 11.578365735709669 7.1562043055891982 17.427391499280933 6.3317954540252668 5.6306006722152224 62.769754610955715 61.51606859266758 7.9828822687268257 7.9528854414820662 58.807388365268707 4.6099510565400115 49.207163535058498 2.2850953042507163 20.452663991600275 46.726728279143572 17.345747992396355 14.169830180704592 7.7411702871322623 10.360003627836702
leaf_count=3329 894 20 95 50 550 444 35 235 122 1072 355 108 74 189 62 14 157 748 37 46 149 11 271 2 87 494 40 118 18 95
internal_value=0.0897455 0.035686 0.0578079 -0.0172912 -0.0696397 0.0120861 0.0831906 0.067907 0.0591361 0.0638372 0.033121 0.0553127 0.0173291 0.076579 0.00747021 -0.049594 0.118184 -0.0612472 0.0869003 -0.0917743 0.112088 -0.0169111 0.0195902 -0.0797397 0.0207582 -0.00199705 0.0587298 0.00294102 0.07455 -0.00569496
internal_weight=2927.17 1405.07 725.246 85.9684 63.1926 679.826 14.6808 639.277 566.576 552.682 237.193 198.218 651.801 92.984 558.817 23.058 69.926 83.7836 14.3147 69.469 74.9957 16.1883 475.033 38.9755 123.222 102.77 56.0429 38.6971 24.5273 16.7861
internal_count=9921 9027 3656 730 680 5371 130 2926 2691 2569 1497 1140 4927 434 4493 203 231 893 99 794 268 119 3600 357 872 785 291 251 133 115
is_linear=0
shrinkage=0.1


Tree=10
num_leaves=31
num_cat=0
split_feature=193 122 21 35 7 90 19 16 21 136 12 139 130 60 47 142 1 0 21 131 33 33 31 89 61 131 6 35 24 33
split_gain=715.433 58.5474 38.0529 33.5762 55.7975 53.8615 39.6777 35.9718 32.3437 32.2988 36.0617 42.3003 38.2127 32.2801 32.2697 31.6033 31.1617 36.5304 63.4445 38.3446 39.6252 70.7021 44.1327 41.9126 39.065 46.7007 51.4415 38.0268 78.0797 37.7052
threshold=1.5000000000000002 1.0000000180025095e-35 12.500000000000002 34.500000000000007 5.5000000000000009 1.5000000000000002 8.5000000000000018 32.500000000000007 12.500000000000002 1.0000000180025095e-35 2.5000000000000004 5.5000000000000009 36.500000000000007 2.5000000000000004 14.500000000000002 11.500000000000002 1.5000000000000002 3.5000000000000004 3.5000000000000004 19.500000000000004 17.500000000000004 18.500000000000004 22.500000000000004 1.5000000000000002 1.0000000180025095e-35 1.0000000180025095e-35 1.0000000180025095e-35 10.500000000000002 30.500000000000004 7.5000000000000009
decision_type=2 2 2 2 2 2 2 2 2 2 2 2 2 2 2 2 2 2 2 2 2 2 2 2 2 2 2 2 2 2
left_child=1 2 9 13 8 6 -6 15 -5 16 -11 -12 -13 -3 -14 -7 17 19 -19 20 22 -22 23 24 27 -26 -27 28 -1 -21
right_child=-2 3 -4 4 5 7 -8 -9 -10 10 11 12 14 -15 -16 -17 -18 18 -20 29 21 -23 -24 -25 25 26 -28 -29 -30 -31
leaf_value=-0.0018679800087396132 0.13190970851463704 0.052817346455259373 -0.10897281057532074 -0.091362427360982518 0.34073358013576582 0.095523521654003463 -0.11353225025999969 -0.076443076330607929 0.09310226159848306 0.2952507146505427 -0.11986812290314952 0.11289913406488535 -0.12406562844253943 0.11431400771822371 0.2808403708225215 -0.12213204748361527 -0.035207496349568074 0.36312697267491001 -0.033577170150851245 -0.12679637265547214 0.36318769297543008 -0.025374362371644046 -0.066738142225175281 0.14282828467241168 -0.066580998495121141 0.19951561112144417 0.0026304241171065338 -0.085003782790195201 0.49881062660572689 0.14213331918330274
leaf_weight=89.548656925559044 1453.7872403934598 357.12267033010721 25.552790753543377 52.712087940424681 2.0782114975154427 144.63417914882302 25.706034112721682 15.083685800433157 11.59633358940482 6.5341980084776869 12.373532596975563 63.996504195034504 13.018174733966587 112.16390946507454 2.3188800960779181 6.9935892373323432 137.56993090733886 8.1641964018344897 7.9640521742403498 6.0855286344885817 8.2789180092513579 10.781002029776571 85.87541064992547 23.697390541434288 20.200484041124582 29.779722273349762 23.937646519392729 63.255323387682438 3.2269697561860076 36.379675980657339
leaf_count=616 894 1663 444 510 2 555 356 111 60 19 134 180 154 333 2 66 1305 23 59 65 47 140 931 90 179 105 154 587 8 129
internal_value=0.082716 0.0318731 0.0107397 0.0515682 0.022651 0.0493504 -0.079554 0.0708337 -0.0580991 0.0154243 0.0682739 0.0521016 0.0789234 0.0675156 -0.062846 0.0854845 0.00606505 0.0196753 0.167236 0.0137411 0.00310021 0.143402 -0.00477602 0.0162021 0.00315265 0.0630364 0.111779 -0.0252166 0.0155469 0.103594
internal_weight=2860.42 1406.63 678.539 728.091 258.804 194.496 27.7842 166.711 64.3084 652.986 98.2413 91.7071 79.3336 469.287 15.3371 151.628 554.745 417.175 16.1282 401.047 358.582 19.0599 339.522 253.646 229.949 73.9179 53.7174 156.031 92.7756 42.4652
internal_count=9921 9027 5371 3656 1660 1090 358 732 570 4927 489 470 336 1996 156 621 4438 3133 82 3051 2857 187 2670 1739 1649 438 259 1211 624 194
is_linear=0
shrinkage=0.1


Tree=11
num_leaves=31
num_cat=0
split_feature=193 88 32 189 126 21 29 0 145 33 33 32 12 18 14 9 62 12 18 130 31 34 34 62 28 126 32 10 187 23
split_gain=657.231 53.7192 70.775 44.0837 36.6774 49.2204 43.3046 35.2368 34.6493 39.8724 43.4784 36.828 35.575 34.4751 43.2028 32.5482 47.8401 37.7583 47.0875 43.6082 35.5531 38.3349 41.4091 31.4204 31.3178 58.0856 37.5218 39.4136 33.8193 32.4197
threshold=2.5000000000000004 1.5000000000000002 45.500000000000007 1.0000000180025095e-35 151142.50000000003 5.5000000000000009 10.500000000000002 1.0000000180025095e-35 2.5000000000000004 17.500000000000004 18.500000000000004 20.500000000000004 38.500000000000007 25.500000000000004 12.500000000000002 2.5000000000000004 1.0000000180025095e-35 1.5000000000000002 13.500000000000002 1.5000000000000002 7.5000000000000009 13.500000000000002 15.500000000000002 3.5000000000000004 16.500000000000004 123644.00000000001 102.50000000000001 11.500000000000002 1.0000000180025095e-35 21.500000000000004
decision_type=2 2 2 2 2 2 2 2 2 2 2 2 2 2 2 2 2 2 2 2 2 2 2 2 2 2 2 2 2 2
left_child=1 2 3 4 8 15 -7 13 9 11 -11 23 -13 -4 -15 16 17 -6 -19 -20 -18 -22 -23 -1 25 -3 29 -28 -27 -26
right_child=-2 24 7 -5 5 6 -8 -9 -10 10 -12 12 -14 14 -16 -17 20 18 19 -21 21 22 -24 -25 26 28 27 -29 -30 -31
leaf_value=-0.012079481476469433 0.12730200943513084 0.089409268047902113 -0.083582106872209086 0.13303576497662267 0.08520935254945404 0.10484163025921785 -0.11740848350793938 -0.078802298408601923 0.038434923313009919 0.32035729647834876 -0.11009085774771786 -0.11330793760472038 0.14089841400528008 0.16641082068668167 -0.1192179339854807 0.17620669700498792 0.30530758350589449 -0.12067677914686502 0.26396467349082148 -0.047508662424659488 -0.051719619068709768 0.27728099340576295 0.070246166428049414 0.22721856136449856 0.07776471207546988 -0.091393968047419685 -0.092434124821209912 0.051989338424481162 0.10200043247225438 -0.071134965988333868
leaf_weight=154.71288965269923 1327.0507736504078 45.428088743239641 17.70353802293539 37.230450794100761 37.869846615940332 12.885568652302025 27.428800646215677 108.76632000878453 164.34862133860588 6.7540406100451928 3.5958815217018127 62.814848128706217 6.0340162999927989 21.048787314444784 7.075614482164382 27.395679119974375 9.1276479586958867 31.877904005348682 7.5896561294794109 11.023772805929182 13.903643835335968 14.463829755783079 29.091623410582542 5.688731111586093 440.16707330197096 53.089708253741264 29.810112375766039 51.611659161746502 10.89849543571472 15.124949753284453
leaf_count=1122 814 179 236 25 179 65 303 1505 921 30 48 764 17 89 102 89 22 281 27 80 96 38 127 22 1565 461 309 279 11 115
internal_value=0.0763289 0.0301417 0.0131248 0.0273159 0.0210344 0.0536215 -0.0463713 -0.0478124 0.00307231 -0.0211839 0.170806 -0.0298516 -0.0910289 0.0257377 0.0945516 0.075729 0.0579639 0.00972847 -0.0468842 0.0794951 0.121973 0.0928492 0.138998 -0.00359265 0.0516964 0.00293617 0.0616368 -0.000886933 -0.058455 0.0728182
internal_weight=2791.61 1464.56 818.432 663.837 626.607 222.658 40.3144 154.594 403.949 239.6 10.3499 229.25 68.8489 45.8279 28.1244 182.344 154.948 88.3612 50.4913 18.6134 66.5867 57.4591 43.5555 160.402 646.13 109.416 536.714 81.4218 63.9882 455.292
internal_count=9921 9107 6188 4256 4231 1307 368 1932 2924 2003 78 1925 781 427 191 939 850 567 388 107 283 261 165 1144 2919 651 2268 588 472 1680
is_linear=0
shrinkage=0.1


Tree=12
num_leaves=31
num_cat=0
split_feature=193 122 186 74 32 3 20 11 7 7 29 27 88 53 26 18 133 29 121 125 34 65 21 126 138 32 26 159 32 33
split_gain=605.449 47.0972 33.582 28.2429 40.3521 29.4187 42.2238 32.8912 44.7604 60.3574 44.2316 32.9852 32.742 32.8664 31.4222 33.5022 30.7411 32.5935 38.6869 33.8825 37.3429 32.2754 31.7668 28.0535 42.9766 37.0713 58.4145 40.4183 36.9596 43.1556
threshold=2.5000000000000004 1.0000000180025095e-35 1.0000000180025095e-35 3.5000000000000004 125.50000000000001 3.5000000000000004 51.500000000000007 6.5000000000000009 5.5000000000000009 4.5000000000000009 25.500000000000004 32.500000000000007 2.5000000000000004 6.5000000000000009 28.500000000000004 24.500000000000004 1.0000000180025095e-35 18.500000000000004 3.5000000000000004 2.5000000000000004 20.500000000000004 7.5000000000000009 1.5000000000000002 138330.50000000003 4.5000000000000009 26.500000000000004 33.500000000000007 1.0000000180025095e-35 15.500000000000002 7.5000000000000009
decision_type=2 2 2 2 2 2 2 2 2 2 2 2 2 2 2 2 2 2 2 2 2 2 2 2 2 2 2 2 2 2
left_child=1 23 3 4 5 7 -7 8 9 10 16 -12 13 14 15 -10 17 18 19 20 22 -22 -3 24 -1 -26 -27 -28 29 -25
right_child=-2 2 -4 -5 -6 6 -8 -9 12 -11 11 -13 -14 -15 -16 -17 -18 -19 -20 -21 21 -23 -24 28 25 26 27 -29 -30 -31
leaf_value=-0.0097690198044319606 0.12168133366437664 -0.11561775651878643 0.096882193944440254 0.14712489487975197 -0.06106346346836164 -0.087533861330616247 0.11980703322671721 -0.12445606592007162 -0.12207288925236826 -0.12923567946961836 -0.12358143312518291 0.2722169749227803 0.11610485726348103 0.17096356313842254 -0.11515175975958965 0.13752120921651906 0.084840659186657563 -0.085397406239305709 -0.12715107981431303 0.15822934063228375 -0.11529320069122817 0.2619339087130052 0.087840763563000898 0.056797046146573438 0.11815872570562035 -0.096060309381317488 0.10099130153312355 -0.13566794567535279 -0.03201884792234392 -0.11811368360243218
leaf_weight=145.87743627652526 1253.3354836851358 8.6626692190766317 104.16799166798592 22.025089025497437 43.467041112482548 37.878017704933882 13.260031249374149 11.145417649298905 7.1336483769118813 22.802735593169928 23.125095821917061 2.3165009021759024 130.30831124261022 11.796434033662079 18.568887051194906 16.402173411101103 136.45904023200274 24.652727294713259 12.682585470378397 25.826209053397179 22.233003113418821 2.5257903039455405 67.239855255931616 109.45287895575166 72.871482968330383 28.688080981373787 61.831772558391094 8.170131389051674 254.77954317815602 16.192908525466919
leaf_count=1301 814 92 140 27 467 306 42 111 63 204 232 1 300 25 238 41 431 240 121 61 253 9 290 572 240 275 325 83 2475 142
internal_value=0.0706773 0.0269691 0.0441122 0.03579 0.0319494 0.0387441 -0.0337706 0.0455623 0.0491192 0.0280461 0.0390568 -0.0875433 0.0889898 0.0234381 -0.0178939 0.0588389 0.0497831 0.0205814 0.0393546 0.0560497 0.0298339 -0.07681 0.0646203 0.00818473 0.0301336 0.0640625 0.0241186 0.0733701 -0.0101301 0.034255
internal_weight=2715.88 1462.54 764.679 660.511 638.486 595.019 51.138 543.881 532.736 348.526 325.723 25.4416 184.209 53.9011 42.1047 23.5358 300.282 163.823 139.17 126.488 100.661 24.7588 75.9025 697.864 317.439 171.561 98.69 70.0019 380.425 125.646
internal_count=9921 9107 3694 3554 3527 3060 348 2712 2601 1934 1730 233 667 367 342 104 1497 1066 826 705 644 262 382 5413 2224 923 683 408 3189 714
is_linear=0
shrinkage=0.1


Tree=13
num_leaves=31
num_cat=0
split_feature=193 136 2 122 17 126 35 35 30 30 12 18 12 22 31 30 6 35 33 130 30 33 34 62 144 19 126 35 23 130
split_gain=555.849 38.7192 42.3475 32.3104 31.2753 40.6038 37.9904 33.5398 36.3199 33.4776 33.8556 42.5264 36.747 41.6307 49.2072 39.8694 33.6055 30.3265 44.0299 42.5534 30.2848 29.9856 42.5203 43.745 58.388 43.5285 40.8662 35.8375 28.8521 27.5597
threshold=2.5000000000000004 1.0000000180025095e-35 13.500000000000002 1.0000000180025095e-35 5.5000000000000009 105921.50000000001 38.500000000000007 31.500000000000004 113.50000000000001 77.500000000000014 16.500000000000004 30.500000000000004 10.500000000000002 14.500000000000002 21.500000000000004 76.500000000000014 9.5000000000000018 18.500000000000004 9.5000000000000018 2.5000000000000004 133.50000000000003 6.5000000000000009 11.500000000000002 3.5000000000000004 6.5000000000000009 1.5000000000000002 165896.00000000003 6.5000000000000009 3.5000000000000004 1.5000000000000002
decision_type=2 2 2 2 2 2 2 2 2 2 2 2 2 2 2 2 2 2 2 2 2 2 2 2 2 2 2 2 2 2
left_child=1 3 -3 4 7 6 -6 8 9 10 12 -12 13 14 16 -16 17 18 21 -19 -10 26 25 24 -24 -23 -1 -28 -27 -30
right_child=-2 2 -4 -5 5 -7 -8 -9 20 -11 11 -13 -14 -15 15 -17 -18 19 -20 -21 -22 22 23 -25 -26 28 27 -29 29 -31
leaf_value=-0.028994635287557819 0.1167123969504236 0.068326785257787556 -0.079104244008962613 0.033009159206574788 -0.12133595018267335 -0.073432091877022238 0.14742028080925049 -0.11679554552754537 0.17338085054456132 -0.12371806516209352 0.20954314648716751 -0.12466871154073694 -0.12092170474293351 0.23773069715359565 -0.096383564280926481 0.18168325252241138 0.23520559295155152 -0.11242495984640094 -0.11714545120557485 0.17130359729270422 -0.043800183546582473 -0.11945113012834746 -0.11654061359223139 0.2638096397491615 0.25700251891460918 0.23757218079176892 -0.11940508029442064 0.17745105716303103 -0.11547181967251863 0.1914063416829129
leaf_weight=112.68713003769517 1179.8374750167131 263.18852447159588 21.040248144418001 579.95991641841829 7.4514631964266327 99.549643222242594 17.88117716088891 19.45595146715641 24.901036731898785 18.120621252804995 17.201153710484508 4.8895238861441603 20.822834268212318 8.2544055469334108 55.689120780676603 5.6824849694967261 7.6313149556517592 6.64819362014532 24.403639409691095 25.798523455858231 8.6514318659901601 5.6244117170572272 24.96293725818396 5.0649319887161246 5.027185693383216 25.98539537191391 5.1691781058907535 19.068147972226143 5.4663088135421258 6.2983919531106949
leaf_count=786 814 1006 209 3046 80 1223 68 296 46 222 62 47 219 40 716 13 9 74 239 66 77 54 243 13 9 68 39 60 51 26
internal_value=0.0657254 0.0243118 0.0574131 0.016259 -0.000251176 -0.0446678 0.068367 0.011716 0.0173468 0.00917031 0.0153073 0.135569 0.00813268 0.0158224 0.0104541 -0.070637 0.0282384 0.022436 0.0101571 0.113169 0.117381 0.0245828 0.0738866 -0.0080165 -0.0539243 0.14008 -0.00365811 0.11414 0.178748 0.0488196
internal_weight=2632.41 1452.58 284.229 1168.35 588.387 124.882 25.3326 463.504 444.048 410.496 392.375 22.0907 370.285 349.462 341.207 61.3716 279.836 272.204 239.758 32.4467 33.5525 215.354 78.4296 35.0551 29.9901 43.3745 136.924 24.2373 37.7501 11.7647
internal_count=9921 9107 1215 7892 4846 1371 148 3475 3179 3056 2834 109 2725 2506 2466 729 1737 1728 1588 140 123 1349 464 265 252 199 885 99 145 77
is_linear=0
shrinkage=0.1


Tree=14
num_leaves=31
num_cat=0
split_feature=195 137 172 9 193 18 126 130 133 32 84 33 30 24 7 32 26 18 32 24 23 35 137 136 33 17 30 26 196 24
split_gain=520.917 44.8253 44.4048 50.308 32.0508 31.6654 28.7872 33.2423 43.166 34.9981 52.1209 42.3097 55.6412 33.5553 30.7736 30.7539 28.8161 31.0841 31.2852 44.9664 38.2119 67.1887 41.817 33.1324 40.9948 28.0607 26.2634 25.9577 50.1723 40.675
threshold=1.0000000180025095e-35 236.00000000000003 1.0000000180025095e-35 8.5000000000000018 6.5000000000000009 294.50000000000006 138330.50000000003 7.5000000000000009 10.500000000000002 20.500000000000004 2.5000000000000004 6.5000000000000009 7.5000000000000009 5.5000000000000009 55.500000000000007 1.5000000000000002 51.500000000000007 1.0000000180025095e-35 12.500000000000002 15.500000000000002 2.5000000000000004 10.500000000000002 1.5000000000000002 1.0000000180025095e-35 8.5000000000000018 2.5000000000000004 41.500000000000007 109.50000000000001 6.5000000000000009 307.50000000000006
decision_type=2 2 2 2 2 2 2 2 2 2 2 2 2 2 2 2 2 2 2 2 2 2 2 2 2 2 2 2 2 2
left_child=1 2 3 4 5 6 7 9 -9 11 -11 12 13 15 -10 -1 17 -8 20 -20 22 -22 -19 -21 -25 -26 -4 -2 29 -29
right_child=27 -3 26 -5 -6 -7 16 8 14 10 -12 -13 -14 -15 -16 -17 -18 18 19 23 21 -23 -24 24 25 -27 -28 28 -30 -31
leaf_value=0.27531245779729302 0.11593249549417727 -0.14077623846054405 -0.12811562192525258 -0.11939595053203883 0.099105994583823354 0.18273563084811029 -0.12381106186989793 0.068359433331730099 -0.12501984704578115 -0.074461967948278696 0.11561295544347489 0.083778723809566788 -0.10560605044596155 0.20620386752065956 0.2580121832221659 -0.11818110454954994 -0.062760918485794112 0.151937649828915 -0.096687064898651601 -0.0039476769989500908 -0.12120961400534908 0.11745287587377445 -0.063016922766912509 -0.074519586637693938 0.30264370255271367 0.083833067282827162 0.070120647685458337 0.046152973671571257 0.11528602646570524 -0.30122526045127906
leaf_weight=2.5501595735549936 1059.1185346916318 16.764808539301157 6.8911188915371886 26.806353632360697 48.086344227194786 11.245135396718977 17.558221705257893 242.05618413165212 18.491330228745941 81.186946947127581 17.544051237404346 81.505970515310764 35.921345926821232 12.316303186118603 2.3659036159515372 8.9815603569149953 65.943927140906453 49.223334111273289 43.77993868291378 315.48595222830772 24.790212355554104 22.50361867621541 11.089080817997454 15.476650588214396 6.6021508760750285 52.198585271835327 221.50289086252451 6.9181943014264089 25.546587333083153 6.5734831020236015
leaf_count=13 760 176 51 414 41 25 172 1068 192 1012 61 372 311 19 1 80 778 163 429 2508 198 78 70 112 11 177 561 12 18 38
internal_value=0.0609581 0.0217983 0.0236882 0.0160762 0.0191358 0.0157591 0.0140939 0.0319011 0.0564653 0.00499255 -0.0406865 0.0369156 -0.0269904 0.0914252 -0.0815713 -0.0311627 -0.000243112 0.00713583 0.0113845 -0.000594259 0.0596469 -0.00764788 0.112416 0.0101993 0.0702873 0.108401 0.0641395 0.112981 0.0329 -0.123098
internal_weight=2557.02 1458.87 1442.1 1213.71 1186.9 1138.82 1127.57 502.92 262.913 240.006 98.731 141.275 59.7694 23.848 20.8572 11.5317 624.652 558.708 541.15 433.543 107.606 47.2938 60.3124 389.763 74.2774 58.8007 228.394 1098.16 39.0383 13.4917
internal_count=9921 9093 8917 8305 7891 7850 7825 3129 1261 1868 1073 795 423 112 193 93 4696 3918 3746 3237 509 276 233 2808 300 188 612 828 68 50
is_linear=0
shrinkage=0.1


Tree=15
num_leaves=31
num_cat=0
split_feature=193 88 35 126 26 196 20 133 126 27 122 131 34 153 32 138 130 22 19 25 144 18 19 16 30 92 11 136 10 18
split_gain=479.252 32.0067 53.6929 28.5053 27.3602 44.6539 41.3695 27.1543 26.0838 38.3149 39.3915 31.1158 38.2038 26.9354 25.6328 30.348 57.6368 25.3585 32.0491 34.1839 24.8714 28.1817 53.5586 28.4384 27.1629 27.4469 24.7748 28.9795 23.9081 23.246
threshold=2.5000000000000004 1.5000000000000002 31.500000000000004 105921.50000000001 108.50000000000001 6.5000000000000009 77.500000000000014 3.5000000000000004 151142.50000000003 7.5000000000000009 1.5000000000000002 16.500000000000004 16.500000000000004 1.0000000180025095e-35 25.500000000000004 8.5000000000000018 7.5000000000000009 12.500000000000002 14.500000000000002 21.500000000000004 41.500000000000007 291.50000000000006 52.500000000000007 4.5000000000000009 22.500000000000004 3.5000000000000004 3.5000000000000004 1.5000000000000002 18.500000000000004 1.0000000180025095e-35
decision_type=2 2 2 2 2 2 2 2 2 2 2 2 2 2 2 2 2 2 2 2 2 2 2 2 2 2 2 2 2 2
left_child=1 2 8 7 -2 6 -6 -4 11 29 -11 14 -13 -14 15 16 26 -16 19 -19 21 22 23 24 -3 -26 27 -1 -25 -10
right_child=4 20 3 -5 5 -7 -8 -9 9 10 -12 12 13 -15 17 -17 -18 18 -20 -21 -22 -23 -24 28 25 -27 -28 -29 -30 -31
leaf_value=-0.022227295848052459 0.11178280753915648 0.10553423105043346 -0.11435094730269094 -0.07873189763271865 0.029179367553732013 0.1122816326745265 -0.29537454723653472 0.11801867303362618 -0.11647527936740221 -0.075713229509186533 0.12316683079501554 -0.13694614731913357 0.12406146686002553 -0.075354489513574013 -0.089535663374532726 -0.098946968125159712 0.14445810180409541 -0.12276270994893923 -0.075954529329989043 0.19143349378411956 -0.12460587827374536 0.1353651557771654 -0.099974288743731099 0.053948062219652863 -0.10791772845715586 0.010794681294339095 0.10784688135015091 0.12785250344959345 -0.12539442133095549 0.07163773815562019
leaf_weight=179.36174244433641 997.62179389595985 17.867271818220615 7.3604337554425028 98.367051638662815 9.9224634170532244 25.416175574064255 6.5002963095903388 15.876588087528942 6.816802915185689 42.894570305943489 12.970570079982279 8.0570836476981622 48.063688397407532 7.8844502270221701 64.511230830103159 24.420565128326416 31.390965644270182 4.6764659732580212 19.133281275629997 13.341933161020277 9.4959077667444927 28.637429051101208 28.496411837637424 459.29895823076367 29.638529025018215 56.801567390561104 19.127629656344652 13.860323332250116 7.5555190891027442 180.82538317516446
leaf_count=1380 749 60 121 1467 16 19 30 58 63 479 51 77 117 47 833 166 115 57 238 37 105 46 285 1753 274 327 77 16 69 789
internal_value=0.0567385 0.0193183 0.00598266 -0.0552002 0.10846 0.0292378 -0.0992824 0.0444145 0.016967 0.0431601 -0.029538 0.00226486 0.0666404 0.0959589 -0.00887658 0.00733344 0.0179818 -0.0516345 0.014178 0.109888 0.0360235 0.0384512 0.0338229 0.0404983 -0.00670863 -0.0299094 -0.000714832 -0.0114617 0.0510456 0.0648038
internal_weight=2476.19 1436.73 798.941 121.604 1039.46 41.8389 16.4228 23.237 677.337 243.507 55.8651 433.829 64.0052 55.9481 369.824 268.161 243.741 101.663 37.1517 18.0184 637.792 628.296 599.658 571.162 104.307 86.4401 212.35 193.222 466.854 187.642
internal_count=9921 9107 6188 1646 814 65 46 179 4542 1382 530 3160 241 164 2919 1754 1588 1165 332 94 2919 2814 2768 2483 661 601 1473 1396 1822 852
is_linear=0
shrinkage=0.1


Tree=16
num_leaves=31
num_cat=0
split_feature=195 145 200 132 15 81 125 130 0 33 72 33 26 57 82 51 15 29 24 130 10 21 12 22 34 190 13 187 17 92
split_gain=447.439 32.3891 34.0898 34.2708 30.4096 26.0201 30.6474 39.8564 35.4852 39.0651 37.0083 31.5041 27.8158 29.0312 26.679 35.784 34.8552 29.0214 39.5409 26.3614 23.9594 29.5839 23.7883 28.4095 29.7708 23.5099 43.5032 24.2161 22.0416 20.6817
threshold=1.0000000180025095e-35 28.500000000000004 2.5000000000000004 53.500000000000007 12.500000000000002 17.500000000000004 2.5000000000000004 48.500000000000007 15.500000000000002 19.500000000000004 1.5000000000000002 17.500000000000004 17.500000000000004 1.5000000000000002 1.5000000000000002 1.5000000000000002 3.5000000000000004 17.500000000000004 55.500000000000007 32.500000000000007 3.5000000000000004 5.5000000000000009 23.500000000000004 14.500000000000002 23.500000000000004 1.0000000180025095e-35 23.500000000000004 4.5000000000000009 4.5000000000000009 1.0000000180025095e-35
decision_type=2 2 2 2 2 2 2 2 2 2 2 2 2 2 2 2 2 2 2 2 2 2 2 2 2 2 2 2 2 2
left_child=1 2 3 4 5 6 7 8 9 10 11 14 13 -8 16 -16 19 18 20 -1 -18 28 23 24 -13 26 -2 -28 -22 -10
right_child=25 -3 -4 -5 -6 -7 12 -9 29 -11 -12 22 -14 -15 15 -17 17 -19 -20 -21 21 -23 -24 -25 -26 -27 27 -29 -30 -31
leaf_value=0.0078493091553264917 0.092146695556571734 -0.13526757475729456 0.1022130798474116 0.10410401032601622 -0.093217126721423113 -0.14378380214813208 -0.14173117752389877 -0.085155319108046412 -0.054519966430638667 -0.094025646716346625 -0.1330286280663612 0.35404491372707142 0.058208079535952389 0.061595746892664421 0.07054948627923581 -0.12687084045953653 -0.1163128497470336 -0.1072542870508684 0.1031328564352197 0.091040032074077723 -0.072151638353977768 -0.080049025866474069 -0.12761116785431018 0.17782634416993062 -0.056072378539675866 0.11398343783490822 -0.1938590443360183 0.020673999528810771 0.12771127152307346 0.096547645712508345
leaf_weight=495.52466709166765 198.71662425994873 13.768544154241679 47.414986059069633 42.74310127645731 26.353380005806684 10.202922377735375 15.050630647689106 43.300396054983139 10.424619242548941 36.558248208835721 17.363439325243235 2.0715818777680388 235.39215061441064 13.164359819144009 108.01874933764338 10.034198395907877 29.494530446827412 45.169899864122272 23.42483626678586 41.262457676231861 7.7671171650290516 25.868820322677493 4.3468296993523827 27.371455861255527 12.158422755077479 743.09623225033283 7.933529524132612 15.622668653726576 19.055503197014332 69.352714125066996
leaf_count=3491 192 176 40 115 402 74 131 467 110 622 133 5 772 31 373 94 337 597 81 159 59 246 58 81 138 565 46 25 66 235
internal_value=0.0528269 0.0173688 0.01885 0.0159679 0.0131327 0.0152847 0.0165407 0.00874423 0.0128709 0.00723785 0.0114983 0.0144452 0.0469617 -0.0468643 0.00985167 0.0537693 0.00231118 -0.0401707 -0.011479 0.0142441 -0.0441459 -0.00374978 0.0949838 0.118242 0.00363186 0.105449 0.0769148 -0.0515789 0.0698363 0.0768074
internal_weight=2398.03 1432.66 1418.89 1371.48 1328.73 1302.38 1292.18 1028.57 985.268 905.491 868.933 851.569 263.607 28.215 805.621 118.053 687.568 150.781 105.611 536.787 82.186 52.6914 45.9483 41.6015 14.23 965.369 222.273 23.5562 26.8226 79.7773
internal_count=9921 9093 8917 8877 8762 8360 8286 7352 6885 6540 5918 5785 934 162 5503 467 5036 1386 789 3650 708 371 282 224 143 828 263 71 125 345
is_linear=0
shrinkage=0.1


Tree=17
num_leaves=31
num_cat=0
split_feature=193 190 125 31 24 33 31 32 32 190 19 35 5 74 30 8 0 141 32 130 138 33 5 26 28 84 33 95 73 131
split_gain=412.209 31.2594 23.8336 25.9292 34.6542 25.3848 28.7907 25.4121 23.6806 48.9801 27.3974 23.5513 22.2352 27.1341 22.4758 20.4575 20.0202 39.2138 23.1177 25.9166 38.0632 27.584 29.7461 27.6022 24.7998 21.4587 32.989 31.3146 29.3226 22.5458
threshold=3.5000000000000004 1.0000000180025095e-35 2.5000000000000004 80.500000000000014 232.50000000000003 19.500000000000004 76.500000000000014 77.500000000000014 117.50000000000001 1.0000000180025095e-35 60.500000000000007 48.500000000000007 3.5000000000000004 3.5000000000000004 44.500000000000007 6.5000000000000009 15.500000000000002 5.5000000000000009 57.500000000000007 25.500000000000004 11.500000000000002 17.500000000000004 1.5000000000000002 35.500000000000007 22.500000000000004 1.5000000000000002 11.500000000000002 3.5000000000000004 1.5000000000000002 8.5000000000000018
decision_type=2 2 2 2 2 2 2 2 2 2 2 2 2 2 2 2 2 2 2 2 2 2 2 2 2 2 2 2 2 2
left_child=1 2 3 5 -5 7 -7 11 -2 10 -10 16 14 -14 -4 -3 17 18 19 20 21 23 -23 25 -22 26 -1 -28 -27 -29
right_child=8 15 12 4 -6 6 -8 -9 9 -11 -12 -13 13 -15 -16 -17 -18 -19 -20 -21 24 22 -24 -25 -26 28 27 29 -30 -31
leaf_value=0.018346047767813428 0.10893635808358089 0.1219678327666224 -0.12875972648745229 -0.10004184581388692 0.038781853392479471 -0.12121485335660831 0.11870852323467361 0.099516243971900772 0.0041815689167000424 0.096476031249658908 -0.26334665400066093 -0.14298405228275454 -0.1285988941198688 0.11753180277471525 0.049165217433290859 0.0052717343699507438 0.064539270624669937 -0.10537142454811269 -0.06419966592895561 0.064652540687182028 -0.12417717964583926 0.14546847306002683 -0.12129454708905391 -0.1249074221998558 0.022666637746826701 0.092135547970835355 -0.077955495530988878 -0.011346448773793504 -0.1348169292262926 0.26685350661888735
leaf_weight=448.22769807837903 795.14409570395947 45.313784182071686 7.2770641893148413 49.041284397244453 28.39189599826932 26.445247350260615 6.1681723315268746 33.439052354544401 9.1607222855091077 46.531399309635162 6.5758334100246421 9.8544304370880109 15.86455048248172 6.2410598397254935 291.34571259282529 22.472549729049206 68.275861183181405 29.323898071423173 37.686121836304665 96.023754198104143 33.57356453128159 27.772199964150786 4.9206273518502703 14.58028384670615 17.493675321340561 56.89598411694169 67.821086712181568 7.5960156321525556 6.3258307874202719 4.7251769155263901
leaf_count=2864 657 30 82 877 265 452 32 173 17 44 29 125 141 12 956 43 234 234 439 330 334 104 65 189 84 170 830 57 48 4
internal_value=0.0492292 0.0169647 0.0137429 0.00660278 -0.0491403 0.0109315 -0.0758382 0.0138654 0.104286 0.0448987 -0.10761 0.0107894 0.0376656 -0.059109 0.0448294 0.0832807 0.0124343 0.00826349 0.0123092 0.0159778 0.00920328 0.015844 0.105318 0.0110184 -0.0738741 0.0143684 0.00778039 -0.0513123 0.0694272 0.0953432
internal_weight=2320.51 1463.1 1395.31 1074.58 77.4332 997.149 32.6134 964.535 857.412 62.268 15.7366 931.096 320.728 22.1056 298.623 67.7863 921.242 852.966 823.642 785.956 689.932 638.865 32.6928 606.172 51.0672 591.592 528.37 80.1423 63.2218 12.3212
internal_count=9921 9174 9101 7910 1142 6768 484 6284 747 90 46 6111 1191 153 1038 73 5986 5752 5518 5079 4749 4331 169 4162 418 3973 3755 891 218 61
is_linear=0
shrinkage=0.1


Tree=18
num_leaves=31
num_cat=0
split_feature=189 200 137 167 15 126 33 18 33 132 30 25 34 28 20 25 42 20 84 10 14 0 135 30 19 11 121 32 158 30
split_gain=384.568 39.5792 27.6007 28.3004 24.9806 22.9755 28.1861 24.8196 23.9906 27.874 28.0121 27.2211 22.8397 22.2375 28.9217 31.3795 26.8812 39.2978 42.7319 35.0057 29.7976 31.4511 25.0975 25.7538 24.3202 29.3919 28.0519 23.071 26.7708 23.0169
threshold=1.0000000180025095e-35 2.5000000000000004 255.00000000000003 3.5000000000000004 12.500000000000002 138330.50000000003 24.500000000000004 1.0000000180025095e-35 6.5000000000000009 3.5000000000000004 7.5000000000000009 4.5000000000000009 1.5000000000000002 3.5000000000000004 2.5000000000000004 2.5000000000000004 1.0000000180025095e-35 25.500000000000004 4.5000000000000009 3.5000000000000004 3.5000000000000004 3.5000000000000004 1.0000000180025095e-35 113.50000000000001 8.5000000000000018 5.5000000000000009 1.5000000000000002 23.500000000000004 2.5000000000000004 99.500000000000014
decision_type=2 2 2 2 2 2 2 2 2 2 2 2 2 2 2 2 2 2 2 2 2 2 2 2 2 2 2 2 2 2
left_child=1 2 3 4 5 6 8 -7 9 10 11 12 -1 14 15 -9 17 19 -19 20 21 22 23 -15 -18 26 -26 -21 -29 -28
right_child=-2 -3 -4 -5 -6 7 -8 13 -10 -11 -12 -13 -14 16 -16 -17 24 18 -20 27 -22 -23 -24 -25 25 -27 29 28 -30 -31
leaf_value=0.20196897123331081 0.10414963208801836 0.086030584470109417 -0.13704164008448813 0.077326473822366751 -0.088695225246520876 -0.12232278988718491 -0.12554645010282067 -0.027326850864330843 0.040366391010889562 0.053567622475211685 -0.096737923435160703 0.2413053935108046 -0.11480500100942137 -0.034371201227525301 -0.11803771839445801 0.18260530358927671 0.10459881630282244 -0.11070353612961387 0.11932608738392442 -0.03265973598313493 -0.068726035937149613 0.18281550945627548 0.13845294107070136 0.093593532168883553 -0.11671747122807213 0.076952877337479922 0.096889152892809638 0.056963277536655178 -0.15555889279657556 -0.071315586317832649
leaf_weight=3.0911370441317585 752.52312587946653 77.604718223214149 12.205582616850732 67.168309897184372 24.76438082754612 15.972687285393475 11.768416086211799 10.492143385112284 465.14587972126901 38.147571897134185 44.714633805677295 5.3286876678466788 8.632348880171774 135.32164434343576 6.3548704870045176 22.154484994709492 40.019465640187263 61.017552429810166 9.3076724633574468 44.47427573800087 95.470862977206707 9.0064294114708883 10.76703644171357 17.795859640464187 23.935670360922813 40.778092879801989 19.097805922850966 153.71277277730405 6.1649579256772986 14.17231218703091
leaf_count=13 692 81 153 137 412 177 168 69 2479 168 436 14 82 1060 57 49 97 776 21 266 934 32 45 82 277 174 44 782 44 100
internal_value=0.0458488 0.0164943 0.012686 0.0139869 0.0108063 0.0126832 0.0276265 0.000971939 0.0308166 -0.0136418 -0.0551507 0.0539003 -0.0312811 0.00370698 0.0771431 0.115136 -0.000498512 -0.0105139 -0.0802587 -0.000137991 -0.0238845 0.000877158 -0.00912144 -0.0194987 0.0389116 0.0120831 -0.0341582 0.0310467 0.0487683 0.0252378
internal_weight=2247.11 1494.59 1416.98 1404.78 1337.61 1312.85 576.829 736.017 565.06 99.9144 61.7668 17.0522 11.7235 720.044 39.0015 32.6466 681.042 543.039 70.3252 472.714 268.362 172.891 163.885 153.118 138.003 97.9839 57.2058 204.352 159.878 33.2701
internal_count=9921 9229 9148 8995 8858 8446 3360 5086 3192 713 545 109 95 4909 175 118 4734 4042 797 3245 2153 1219 1187 1142 692 595 421 1092 826 144
is_linear=0
shrinkage=0.1


Tree=19
num_leaves=31
num_cat=0
split_feature=189 200 144 160 3 28 9 26 27 33 34 117 24 29 116 2 15 146 34 22 7 21 3 10 126 2 24 91 33 30
split_gain=353.061 34.8244 23.8975 24.032 28.2204 33.6641 24.8315 42.0807 31.5393 28.3838 25.8911 28.8166 25.6226 29.3433 28.5235 26.7815 23.7285 23.5829 23.1807 38.9283 33.009 21.8225 21.5299 21.2911 20.5326 32.5302 27.9419 32.5151 22.0982 52.3076
threshold=1.0000000180025095e-35 2.5000000000000004 41.500000000000007 1.0000000180025095e-35 3.5000000000000004 40.500000000000007 2.5000000000000004 34.500000000000007 28.500000000000004 24.500000000000004 38.500000000000007 2.5000000000000004 56.500000000000007 20.500000000000004 1.5000000000000002 2.5000000000000004 10.500000000000002 8.5000000000000018 22.500000000000004 8.5000000000000018 3.5000000000000004 11.500000000000002 2.5000000000000004 6.5000000000000009 165896.00000000003 1.5000000000000002 10.500000000000002 1.5000000000000002 6.5000000000000009 8.5000000000000018
decision_type=2 2 2 2 2 2 2 2 2 2 2 2 2 2 2 2 2 2 2 2 2 2 2 2 2 2 2 2 2 2
left_child=1 2 3 4 6 -6 7 10 -9 18 11 12 14 -14 15 23 21 -15 19 20 -8 -7 -22 24 25 28 -26 -28 29 -1
right_child=-2 -3 -4 -5 5 16 9 8 -10 -11 -12 -13 13 17 -16 -17 -18 -19 -20 -21 22 -23 -24 -25 26 -27 27 -29 -30 -31
leaf_value=0.056850648006821658 0.10113030930894802 0.08204634730759619 -0.13413452880526069 0.041961968298048685 -0.12741861049439526 -0.11756801422759444 -0.11556269633482191 -0.080730607254676845 0.16336032392193478 -0.11996715005301878 -0.12561269744890688 0.12340751740309686 0.096658835882398292 -0.14551548641618089 -0.096185133747426321 -0.091605531326169137 -0.079402963655688164 0.095097497112572829 0.050715876716609376 -0.10149292738348883 0.13404877821002648 0.10297177050967779 -0.11591214846537834 0.16721200973831626 -0.05884580743584468 -0.1082498379259636 0.12653131727713726 -0.12363735211399425 0.026670954997023179 -0.070781465377912786
leaf_weight=50.723302148282528 700.20139624923468 73.454241156578064 11.19085452146828 232.05357249453664 33.231387181207538 5.5456857234239605 9.1551040541380626 81.366037409752607 5.6619354486465445 11.791367987170814 13.911691466346381 22.50836855173111 58.07175494171679 10.502212541177871 28.947366002947092 26.622293135151267 20.627019435167313 6.6544458568096152 276.65601206943393 29.291052907705307 26.225167898461226 23.497195487841964 3.9671271443366996 8.6204932034015638 14.99975363910198 25.931636760011315 43.823364635929465 5.8941671997308722 229.35529957897961 87.505982950329781
leaf_count=244 692 81 163 773 431 72 97 914 21 198 176 44 157 98 244 264 358 17 1449 288 108 82 42 16 104 261 186 62 1531 748
internal_value=0.042639 0.0149247 0.0114139 0.012583 0.0067114 -0.0495118 0.0110344 0.00035508 -0.0648503 0.0326002 0.00930469 0.0123312 0.00814793 0.0627121 0.000290743 0.00595003 0.00261136 -0.0521904 0.0378102 -0.0142079 0.0507689 0.0608601 0.101205 0.0115131 0.00858404 -3.04205e-07 0.0607815 0.096873 0.00763627 -0.0239468
internal_weight=2177.99 1477.79 1404.33 1393.14 1161.09 82.9013 1078.19 721.1 87.028 357.086 634.072 620.16 597.652 75.2284 522.424 493.476 49.6699 17.1567 345.294 68.6385 39.3474 29.0429 30.1923 466.854 458.234 393.516 64.7173 49.7175 367.585 138.229
internal_count=9921 9229 9148 8985 8212 943 7269 5087 935 2182 4152 3976 3932 272 3660 3416 512 115 1984 535 247 154 150 3152 3136 2784 352 248 2523 992
is_linear=0
shrinkage=0.1


Tree=20
num_leaves=31
num_cat=0
split_feature=193 32 196 20 144 136 2 152 88 32 0 126 126 32 18 172 132 8 122 23 0 30 31 17 72 30 121 30 33 190
split_gain=327.158 24.6917 44.67 33.2337 21.8307 24.7555 24.9253 19.9778 16.7223 29.7291 35.3871 16.4589 26.7794 28.2757 28.6567 26.5268 27.852 21.3812 19.1505 39.1482 32.4119 26.1845 28.9307 29.1134 21.6415 21.4928 19.0293 18.6004 34.7288 36.5485
threshold=3.5000000000000004 117.50000000000001 7.5000000000000009 78.500000000000014 41.500000000000007 1.0000000180025095e-35 13.500000000000002 22.500000000000004 4.5000000000000009 45.500000000000007 24.500000000000004 138330.50000000003 151142.50000000003 40.500000000000007 294.50000000000006 1.0000000180025095e-35 1.0000000180025095e-35 9.5000000000000018 1.0000000180025095e-35 6.5000000000000009 3.5000000000000004 17.500000000000004 14.500000000000002 1.5000000000000002 1.0000000180025095e-35 63.500000000000007 3.5000000000000004 10.500000000000002 10.500000000000002 1.0000000180025095e-35
decision_type=2 2 2 2 2 2 2 2 2 2 2 2 2 2 2 2 2 2 2 2 2 2 2 2 2 2 2 2 2 2
left_child=4 -2 3 -3 5 11 8 -8 9 -7 -11 -1 27 18 15 16 26 -17 19 20 21 22 23 -14 25 -23 -15 -13 29 -29
right_child=1 2 -4 -5 -6 6 7 -9 -10 10 -12 12 13 14 -16 17 -18 -19 -20 -21 -22 24 -24 -25 -26 -27 -28 28 -30 -31
leaf_value=0.020264506795936395 0.10122036944577106 -0.0050898520100958987 0.10775696855570627 -0.2840761265822781 -0.1335076641305234 0.053700880059979764 -0.1318924198550839 0.15853717658568944 0.085527884162579837 -0.11021727545386653 0.081022274446715878 0.054580774732757555 0.079614155247951388 -0.071522186215318556 0.16348026396826112 -0.080612885947720606 -0.12257717837470711 0.10676104169576034 0.060051233494486482 -0.095134688652987409 0.14721387486519658 -0.11945076869382583 0.29800573767129646 -0.093980256811836249 0.13313578707526011 0.073521293963553266 0.078595702402379591 -0.10051352429170811 -0.0045544944767984923 0.12570792242098761
leaf_weight=496.37651166133583 642.61609369516373 16.071360833942894 30.707586273550987 5.8147141039371482 10.2279429230839 133.10539138503373 13.298695564270021 2.8816733732819548 80.554761577397585 27.335727047175169 14.977274509146808 24.155042722821236 35.325497202575207 18.45474548637867 7.2509001903235903 9.2111204899847525 45.27384546585381 17.972576946020126 121.07384405843914 30.197160603478551 20.375683639198542 28.399257332086563 4.4690773785114279 13.297682948410509 5.4852209575474253 7.2439270317554465 15.567083744332193 90.761996444314718 134.42622854374349 7.7516589164733878
leaf_count=3109 657 33 30 27 165 418 165 4 176 322 34 120 140 336 10 56 617 35 432 331 66 295 3 94 12 30 66 950 1183 5
internal_value=0.0396518 0.0958289 0.0299529 -0.0792112 0.01206 0.0131195 0.0402017 -0.0801678 0.0478104 0.03049 -0.0425254 0.00661455 -0.00402719 0.0128508 -0.0288784 -0.0419774 -0.0712013 0.0432699 0.0307013 0.00615936 0.0328512 0.00811976 0.0545183 0.0321388 -0.0517757 -0.0802322 -0.002834 -0.0289473 -0.0376089 -0.082713
internal_weight=2110.66 695.21 52.5937 21.8861 1415.45 1405.22 272.154 16.1804 255.973 175.418 42.313 1133.07 636.693 379.598 113.73 106.479 79.2957 27.1837 265.867 144.794 114.596 94.2207 53.0923 48.6232 41.1284 35.6432 34.0218 257.095 232.94 98.5137
internal_count=9921 747 90 60 9174 9009 1119 169 950 774 356 7890 4781 2523 1120 1110 1019 91 1403 971 640 574 237 234 337 325 402 2258 2138 955
is_linear=0
shrinkage=0.1


end of trees

feature_importances:
click_seller_num_90d=34
click_item_num_90d=27
click_cate1_num_90d=25
brand_click_num=24
click_cnt_days_90d=19
click_seller_num_60d=17
cb_clk_item_90d=17
click_item_num_60d=16
click_brand_num_90d=15
click_cate2_num_90d=14
click_item_num_30d=13
click_item_num_3d=12
click_item_num_15d=12
click_cate1_num_30d=12
click_cate2_num_30d=12
cb_clk_day_90d=12
c2_clk_num_90d=12
click_seller_num_30d=11
cb_clk_num_90d=10
c2_clk_item_90d=10
cb_clk_item_15d=9
click_brand_num_30d=8
click_cnt_days_60d=8
pay_cate2_num_90d=8
cb_clk_item_60d=8
click_brand_num_7d=7
click_cate2_num_7d=7
click_cate2_num_60d=7
pay_brand_num_90d=7
click_seller_num_15d=6
click_cate2_num_15d=6
click_cnt_days_15d=6
click_cnt_days_30d=6
click_cate1_num_60d=6
cb_clk_item_30d=6
cb_clk_num_60d=6
c2_clk_item_15d=6
click_seller_num_3d=5
click_item_num_7d=5
click_cnt_days_7d=5
click_cate1_num_15d=5
click_brand_num_60d=5
cart_brand_num_30d=5
cart_seller_num_60d=5
cb_clk_item_1d=5
cb_clk_day_60d=5
cb_pay_item_90d=5
click_cate1_num_7d=4
cart_item_num_30d=4
cart_cate1_num_90d=4
pay_brand_num_30d=4
c2_clk_item_7d=4
click_cate1_num_3d=3
clt_item_num_60d=3
clt_item_num_90d=3
clt_brand_num_90d=3
cart_cate1_num_30d=3
cart_cate1_num_60d=3
cart_cate2_num_60d=3
cart_brand_num_90d=3
pay_item_num_60d=3
pay_item_num_90d=3
cb_clk_item_3d=3
cb_clt_item_30d=3
cb_cart_item_90d=3
c2_clk_num_30d=3
c2_clk_num_15d=3
c2_clk_day_90d=3
click_brand_num_3d=2
click_cnt_days_3d=2
click_seller_num_7d=2
click_brand_num_15d=2
clt_brand_num_15d=2
clt_seller_num_30d=2
clt_seller_num_60d=2
clt_cate1_num_60d=2
cart_brand_num_7d=2
cart_cate1_num_7d=2
cart_item_num_15d=2
cart_item_num_90d=2
pay_cate2_num_15d=2
pay_item_num_30d=2
pay_brand_num_60d=2
cb_clk_item_7d=2
cb_clk_num_30d=2
cb_clk_num_7d=2
cb_clk_day_30d=2
cb_cart_num_30d=2
c2_clk_item_60d=2
click_cate2_num_3d=1
clt_brand_num_3d=1
clt_brand_num_7d=1
clt_seller_num_7d=1
clt_item_num_15d=1
clt_item_num_30d=1
clt_brand_num_30d=1
clt_brand_num_60d=1
clt_cate2_num_60d=1
clt_cate1_num_90d=1
clt_cate2_num_90d=1
cart_item_num_3d=1
cart_cate2_num_3d=1
cart_seller_num_7d=1
cart_brand_num_15d=1
cart_item_num_60d=1
cart_cate2_num_90d=1
pay_item_num_3d=1
pay_item_num_7d=1
pay_cate2_num_7d=1
brand_alipay_num=1
cb_clk_num_3d=1
cb_clk_day_15d=1
cb_clk_day_7d=1
cb_clt_item_60d=1
cb_clt_item_7d=1
cb_cart_item_60d=1
cb_cart_item_30d=1
c2_clk_num_60d=1

parameters:
[boosting: gbdt]
[objective: binary]
[metric: auc]
[tree_learner: serial]
[device_type: cpu]
[data_sample_strategy: bagging]
[data: ]
[valid: ]
[num_iterations: 3]
[learning_rate: 0.1]
[num_leaves: 31]
[num_threads: -1]
[seed: 42]
[deterministic: 0]
[force_col_wise: 0]
[force_row_wise: 0]
[histogram_pool_size: -1]
[max_depth: -1]
[min_data_in_leaf: 20]
[min_sum_hessian_in_leaf: 0.001]
[bagging_fraction: 0.8]
[pos_bagging_fraction: 1]
[neg_bagging_fraction: 1]
[bagging_freq: 5]
[bagging_seed: 400]
[bagging_by_query: 0]
[feature_fraction: 0.9]
[feature_fraction_bynode: 1]
[feature_fraction_seed: 30056]
[extra_trees: 0]
[extra_seed: 12879]
[early_stopping_round: 0]
[early_stopping_min_delta: 0]
[first_metric_only: 0]
[max_delta_step: 0]
[lambda_l1: 0]
[lambda_l2: 0]
[linear_lambda: 0]
[min_gain_to_split: 0]
[drop_rate: 0.1]
[max_drop: 50]
[skip_drop: 0.5]
[xgboost_dart_mode: 0]
[uniform_drop: 0]
[drop_seed: 17869]
[top_rate: 0.2]
[other_rate: 0.1]
[min_data_per_group: 100]
[max_cat_threshold: 32]
[cat_l2: 10]
[cat_smooth: 10]
[max_cat_to_onehot: 4]
[top_k: 20]
[monotone_constraints: ]
[monotone_constraints_method: basic]
[monotone_penalty: 0]
[feature_contri: ]
[forcedsplits_filename: ]
[refit_decay_rate: 0.9]
[cegb_tradeoff: 1]
[cegb_penalty_split: 0]
[cegb_penalty_feature_lazy: ]
[cegb_penalty_feature_coupled: ]
[path_smooth: 0]
[interaction_constraints: ]
[verbosity: -1]
[saved_feature_importance_type: 0]
[use_quantized_grad: 0]
[num_grad_quant_bins: 4]
[quant_train_renew_leaf: 0]
[stochastic_rounding: 1]
[linear_tree: 0]
[max_bin: 255]
[max_bin_by_feature: ]
[min_data_in_bin: 3]
[bin_construct_sample_cnt: 200000]
[data_random_seed: 175]
[is_enable_sparse: 1]
[enable_bundle: 1]
[use_missing: 1]
[zero_as_missing: 0]
[feature_pre_filter: 1]
[pre_partition: 0]
[two_round: 0]
[header: 0]
[label_column: ]
[weight_column: ]
[group_column: ]
[ignore_column: ]
[categorical_feature: ]
[forcedbins_filename: ]
[precise_float_parser: 0]
[parser_config_file: ]
[objective_seed: 16083]
[num_class: 1]
[is_unbalance: 0]
[scale_pos_weight: 9.96752]
[sigmoid: 1]
[boost_from_average: 1]
[reg_sqrt: 0]
[alpha: 0.9]
[fair_c: 1]
[poisson_max_delta_step: 0.7]
[tweedie_variance_power: 1.5]
[lambdarank_truncation_level: 30]
[lambdarank_norm: 1]
[label_gain: ]
[lambdarank_position_bias_regularization: 0]
[eval_at: ]
[multi_error_top_k: 1]
[auc_mu_weights: ]
[num_machines: 1]
[local_listen_port: 12400]
[time_out: 120]
[machine_list_filename: ]
[machines: ]
[gpu_platform_id: -1]
[gpu_device_id: -1]
[gpu_use_dp: 0]
[num_gpu: 1]

end of parameters

pandas_categorical:[]
