tree
version=v4
num_class=1
num_tree_per_iteration=1
label_index=0
max_feature_idx=241
objective=binary sigmoid:1
feature_names=click_item_num_3d click_brand_num_3d click_seller_num_3d click_cate1_num_3d click_cate2_num_3d click_cnt_days_3d click_item_num_7d click_brand_num_7d click_seller_num_7d click_cate1_num_7d click_cate2_num_7d click_cnt_days_7d click_item_num_15d click_brand_num_15d click_seller_num_15d click_cate1_num_15d click_cate2_num_15d click_cnt_days_15d click_item_num_30d click_brand_num_30d click_seller_num_30d click_cate1_num_30d click_cate2_num_30d click_cnt_days_30d click_item_num_60d click_brand_num_60d click_seller_num_60d click_cate1_num_60d click_cate2_num_60d click_cnt_days_60d click_item_num_90d click_brand_num_90d click_seller_num_90d click_cate1_num_90d click_cate2_num_90d click_cnt_days_90d clt_item_num_3d clt_brand_num_3d clt_seller_num_3d clt_cate1_num_3d clt_cate2_num_3d clt_item_num_7d clt_brand_num_7d clt_seller_num_7d clt_cate1_num_7d clt_cate2_num_7d clt_item_num_15d clt_brand_num_15d clt_seller_num_15d clt_cate1_num_15d clt_cate2_num_15d clt_item_num_30d clt_brand_num_30d clt_seller_num_30d clt_cate1_num_30d clt_cate2_num_30d clt_item_num_60d clt_brand_num_60d clt_seller_num_60d clt_cate1_num_60d clt_cate2_num_60d clt_item_num_90d clt_brand_num_90d clt_seller_num_90d clt_cate1_num_90d clt_cate2_num_90d cart_item_num_3d cart_brand_num_3d cart_seller_num_3d cart_cate1_num_3d cart_cate2_num_3d cart_item_num_7d cart_brand_num_7d cart_seller_num_7d cart_cate1_num_7d cart_cate2_num_7d cart_item_num_15d cart_brand_num_15d cart_seller_num_15d cart_cate1_num_15d cart_cate2_num_15d cart_item_num_30d cart_brand_num_30d cart_seller_num_30d cart_cate1_num_30d cart_cate2_num_30d cart_item_num_60d cart_brand_num_60d cart_seller_num_60d cart_cate1_num_60d cart_cate2_num_60d cart_item_num_90d cart_brand_num_90d cart_seller_num_90d cart_cate1_num_90d cart_cate2_num_90d pay_item_num_3d pay_brand_num_3d pay_seller_num_3d pay_cate1_num_3d pay_cate2_num_3d pay_item_num_7d pay_brand_num_7d pay_seller_num_7d pay_cate1_num_7d pay_cate2_num_7d pay_item_num_15d pay_brand_num_15d pay_seller_num_15d pay_cate1_num_15d pay_cate2_num_15d pay_item_num_30d pay_brand_num_30d pay_seller_num_30d pay_cate1_num_30d pay_cate2_num_30d pay_item_num_60d pay_brand_num_60d pay_seller_num_60d pay_cate1_num_60d pay_cate2_num_60d pay_item_num_90d pay_brand_num_90d pay_seller_num_90d pay_cate1_num_90d pay_cate2_num_90d brand_click_num brand_collect_num brand_cart_num brand_alipay_num cb_clk_item_90d cb_clk_item_60d cb_clk_item_30d cb_clk_item_15d cb_clk_item_7d cb_clk_item_3d cb_clk_item_1d cb_clk_num_90d cb_clk_num_60d cb_clk_num_30d cb_clk_num_15d cb_clk_num_7d cb_clk_num_3d cb_clk_num_1d cb_clk_day_90d cb_clk_day_60d cb_clk_day_30d cb_clk_day_15d cb_clk_day_7d cb_clk_day_3d cb_clk_day_1d cb_clt_item_90d cb_clt_item_60d cb_clt_item_30d cb_clt_item_15d cb_clt_item_7d cb_clt_item_3d cb_clt_item_1d cb_cart_item_90d cb_cart_item_60d cb_cart_item_30d cb_cart_item_15d cb_cart_item_7d cb_cart_item_3d cb_cart_item_1d cb_cart_num_90d cb_cart_num_60d cb_cart_num_30d cb_cart_num_15d cb_cart_num_7d cb_cart_num_3d cb_cart_num_1d cb_pay_item_90d cb_pay_item_60d cb_pay_item_30d cb_pay_item_15d cb_pay_item_7d cb_pay_item_3d cb_pay_item_1d cb_pay_num_90d cb_pay_num_60d cb_pay_num_30d cb_pay_num_15d cb_pay_num_7d cb_pay_num_3d cb_pay_num_1d c2_clk_item_90d c2_clk_item_60d c2_clk_item_30d c2_clk_item_15d c2_clk_item_7d c2_clk_item_3d c2_clk_item_1d c2_clk_num_90d c2_clk_num_60d c2_clk_num_30d c2_clk_num_15d c2_clk_num_7d c2_clk_num_3d c2_clk_num_1d c2_clk_day_90d c2_clk_day_60d c2_clk_day_30d c2_clk_day_15d c2_clk_day_7d c2_clk_day_3d c2_clk_day_1d c2_clt_item_90d c2_clt_item_60d c2_clt_item_30d c2_clt_item_15d c2_clt_item_7d c2_clt_item_3d c2_clt_item_1d c2_cart_item_90d c2_cart_item_60d c2_cart_item_30d c2_cart_item_15d c2_cart_item_7d c2_cart_item_3d c2_cart_item_1d c2_cart_num_90d c2_cart_num_60d c2_cart_num_30d c2_cart_num_15d c2_cart_num_7d c2_cart_num_3d c2_cart_num_1d c2_pay_item_90d c2_pay_item_60d c2_pay_item_30d c2_pay_item_15d c2_pay_item_7d c2_pay_item_3d c2_pay_item_1d c2_pay_num_90d c2_pay_num_60d c2_pay_num_30d c2_pay_num_15d c2_pay_num_7d c2_pay_num_3d c2_pay_num_1d
feature_infos=[0:10368] [0:3116] [0:3329] [0:84] [0:1378] [0:4] [0:16301] [0:5430] [0:5963] [0:86] [0:1865] [0:8] [0:35376] [0:10369] [0:12110] [0:87] [0:2650] [0:16] [0:62092] [0:15875] [0:18874] [0:87] [0:3332] [0:31] [0:85257] [0:19814] [0:23730] [0:87] [0:3712] [0:61] [0:130720] [0:24861] [0:29889] [0:87] [0:4087] [0:91] [0:82] [0:48] [0:48] [0:18] [0:51] [0:165] [0:116] [0:115] [0:26] [0:103] [0:323] [0:146] [0:144] [0:33] [0:123] [0:678] [0:203] [0:200] [0:41] [0:188] [0:1058] [0:303] [0:316] [0:45] [0:236] [0:1561] [0:432] [0:444] [0:49] [0:286] [0:90] [0:58] [0:58] [0:13] [0:55] [0:195] [0:134] [0:133] [0:24] [0:108] [0:308] [0:172] [0:170] [0:28] [0:132] [0:423] [0:227] [0:224] [0:32] [0:156] [0:883] [0:268] [0:265] [0:44] [0:215] [0:1126] [0:268] [0:306] [0:47] [0:239] [0:153] [0:15] [0:85] [0:12] [0:82] [0:274] [0:51] [0:140] [0:18] [0:125] [0:418] [0:82] [0:185] [0:28] [0:147] [0:616] [0:91] [0:226] [0:34] [0:168] [0:1066] [0:162] [0:312] [0:44] [0:210] [0:1384] [0:324] [0:363] [0:50] [0:225] [301856:443349] [19888:34208] [18454:27873] [5030:6667] [0:16760] [0:11193] [0:8071] [0:4635] [0:2012] [0:1003] [0:672] [0:40264] [0:28345] [0:21034] [0:10311] [0:4593] [0:2337] [0:1249] [0:91] [0:61] [0:31] [0:16] [0:8] [0:4] [0:2] [0:232] [0:174] [0:118] [0:54] [0:49] [0:30] [0:18] [0:380] [0:261] [0:140] [0:71] [0:36] [0:24] [0:21] [0:432] [0:291] [0:161] [0:77] [0:46] [0:35] [0:32] [0:58] [0:46] [0:21] [0:16] [0:16] [0:16] [0:4] [0:65] [0:47] [0:21] [0:16] [0:16] [0:16] [0:4] [0:850] [0:584] [0:354] [0:260] [0:256] [0:256] [0:129] [0:1424] [0:948] [0:653] [0:546] [0:546] [0:546] [0:291] [0:79] [0:57] [0:30] [0:16] [0:8] [0:4] [0:2] [0:122] [0:110] [0:72] [0:55] [0:35] [0:21] [0:21] [0:266] [0:200] [0:60] [0:55] [0:40] [0:24] [0:18] [0:318] [0:243] [0:88] [0:71] [0:41] [0:30] [0:20] [0:60] [0:50] [0:28] [0:19] [0:10] [0:9] [0:6] [0:60] [0:50] [0:31] [0:20] [0:12] [0:9] [0:8]
tree_sizes=3406 3431 3427 3435 3447 3441 3462 3437 3476 3468 3473 3471 3458 3490 3461 3474 3471 3486 3484 3495 3448 3445 3468 3469

Tree=0
num_leaves=31
num_cat=0
split_feature=193 195 30 32 92 30 35 25 120 122 29 158 31 200 1 30 119 130 124 30 190 19 139 214 179 20 35 115 29 81
split_gain=136183 8575.92 7767.97 4260.55 1909.37 1628.89 1510.07 1287.22 1230.32 1056.99 1022.37 914.531 815.058 812.049 781.027 813.791 692.962 590.523 638.138 601.975 579.531 582.749 570.805 556.508 527.486 517.961 505.112 476.459 427.497 443.592
threshold=1.0000000180025095e-35 1.5000000000000002 89.500000000000014 68.500000000000014 2.5000000000000004 181.50000000000003 23.500000000000004 362.50000000000006 7.5000000000000009 1.5000000000000002 37.500000000000007 1.0000000180025095e-35 29.500000000000004 1.5000000000000002 1.5000000000000002 13.500000000000002 2.5000000000000004 1.5000000000000002 3.5000000000000004 63.500000000000007 1.0000000180025095e-35 30.500000000000004 2.5000000000000004 1.0000000180025095e-35 8.5000000000000018 19.500000000000004 27.500000000000004 4.5000000000000009 6.5000000000000009 1.0000000180025095e-35
decision_type=2 2 2 2 2 2 2 2 2 2 2 2 2 2 2 2 2 2 2 2 2 2 2 2 2 2 2 2 2 2
left_child=2 3 4 12 6 9 14 20 10 25 13 -11 -2 -5 15 -1 -8 18 -6 -19 21 -3 -17 -14 -7 -4 -27 -13 -16 -30
right_child=1 7 5 8 17 24 16 -9 -10 11 -12 27 23 -15 28 22 -18 19 -20 -21 -22 -23 -24 -25 -26 26 -28 -29 29 -31
leaf_value=-1.9097115657649215 -1.3724659556241003 -1.2931755149923319 -2.2539800801346597 -1.9227551189001155 -2.0468307453641192 -2.2863068353725557 -2.1315164518634786 -2.2564097439027573 -1.3125984394329651 -2.1203037344025675 -2.172677406753893 -1.8911739781903947 -1.5879887136973916 -1.5904090061600764 -1.7480834206166618 -2.0643773842847351 -1.5482466730004552 -1.7372672590621854 -1.5683345974261025 -1.9250523287306662 -1.233229321809181 -1.540019912580735 -1.9325532567714832 -1.2974498613034369 -1.5875085388544294 -1.9525305857230257 -2.1598677079335924 -1.4180646633523537 -1.9772735986765866 -1.8061338565815925
leaf_weight=685.02494278550148 631.61521034687757 449.26967156678438 463.76434054970741 177.87439935654402 216.52438303828239 1079.7041306719184 921.27260757982731 12.905359685420988 43.630653977394104 250.62118366360664 87.929679177701473 180.51381716877222 425.78621947020292 125.3142627030611 161.13675303012133 1543.4094343408942 20.829558312892914 460.83360838890076 31.989014647901058 271.15376568585634 2316.8334794789553 121.5045677870512 417.27786381542683 78.00491552054882 10.911230608820913 145.87706144154072 604.00068373978138 24.132100433111191 524.72631018608809 212.90702905505896
leaf_count=5188 1730 910 4949 1368 1907 11836 8816 138 96 2373 874 1337 1992 589 986 13837 90 2775 144 2091 3443 516 3246 161 51 1161 5934 76 4293 1414
internal_value=-1.80608 -1.36182 -2.0475 -1.55007 -1.97846 -2.18427 -2.00609 -1.25992 -1.81627 -2.12217 -1.87246 -1.99223 -1.44813 -1.78539 -1.97618 -2.00354 -2.11862 -1.85205 -1.98524 -1.80683 -1.25547 -1.34572 -2.03632 -1.543 -2.27932 -2.17091 -2.11953 -1.83538 -1.89564 -1.92788
internal_weight=12697.3 4470.67 8226.61 1570.16 5467.09 2759.52 4486.58 2900.51 434.749 1668.91 391.118 455.267 1135.41 303.189 3544.48 2645.71 942.102 980.501 248.513 731.987 2887.61 570.774 1960.69 503.791 1090.62 1213.64 749.878 204.646 898.77 737.633
internal_count=84321 11817 72504 6810 44787 27717 37870 5007 2927 15830 2831 3786 3883 1957 28964 22271 8906 6917 2051 4866 4869 1426 17083 2153 11887 12044 7095 1413 6693 5707
is_linear=0
shrinkage=1


Tree=1
num_leaves=31
num_cat=0
split_feature=186 30 123 30 193 130 136 158 190 30 0 31 122 91 130 24 19 30 138 144 8 130 32 29 31 165 23 77 117 34
split_gain=23767.3 3815.76 1094.94 1128.93 1037.69 1049.73 720.265 680.459 567.055 502.571 488.722 418.715 392.051 364.464 347.53 458.131 322.899 321.161 318.895 306.143 347.596 298.645 292.403 279.119 278.126 274.379 266.317 258.09 255.27 263.681
threshold=1.0000000180025095e-35 146.50000000000003 2.5000000000000004 72.500000000000014 3.5000000000000004 75.500000000000014 1.0000000180025095e-35 1.0000000180025095e-35 1.0000000180025095e-35 31.500000000000004 4.5000000000000009 38.500000000000007 1.5000000000000002 1.0000000180025095e-35 1.0000000180025095e-35 37.500000000000007 9.5000000000000018 135.50000000000003 14.500000000000002 3.5000000000000004 14.500000000000002 1.0000000180025095e-35 45.500000000000007 11.500000000000002 421.50000000000006 2.5000000000000004 12.500000000000002 13.500000000000002 1.0000000180025095e-35 2.5000000000000004
decision_type=2 2 2 2 2 2 2 2 2 2 2 2 2 2 2 2 2 2 2 2 2 2 2 2 2 2 2 2 2 2
left_child=1 2 3 7 5 8 19 9 17 21 16 -8 -3 -13 15 -4 -11 -2 -15 -5 -21 23 -12 28 -6 -19 -18 -14 29 -1
right_child=4 12 14 6 24 -7 11 -9 -10 10 22 13 27 18 -16 -17 26 25 -20 20 -22 -23 -24 -25 -26 -27 -28 -29 -30 -31
leaf_value=0.33402675906287388 0.35523938321567528 -0.0012520273333134269 0.33704470373325379 0.043813277489475444 0.43190822162877573 0.089776289435613693 0.049911119743736104 0.30957160976493392 0.43002980272104074 0.11285602625606893 0.27655023423290448 0.13575945236772971 0.088117051451758022 0.54413135375361976 0.36800268056413887 -0.089919136635668764 0.21752082228375424 0.18220182183326375 0.27377042093009829 0.11658248764801718 0.31209143254817762 0.26139548797135431 0.015345574833541934 0.013004096275742083 0.091380659410114418 0.40262322169514858 0.058464776141344536 0.43922975630299849 0.34677138878586211 0.16713344817968792
leaf_weight=108.98577383905649 1355.4875261932611 940.61864398419857 63.902210101485252 557.12829019874334 5972.4399500191212 139.90671409666538 67.621225908398628 739.67888890951872 1004.9461472630501 1046.124013364315 528.96208210289478 68.490005731582642 625.61799152940512 86.625691562891006 530.37018509954214 41.420201472938061 750.86320450156927 216.33359149098396 87.893042229115963 907.51235520839691 101.06437315791845 1757.6678206697106 46.635174304246902 79.07545743137598 24.081535071134567 76.423529133200645 122.4332385584712 21.66004104912281 117.11799209564924 720.57984580844641
leaf_count=525 3053 9976 298 5049 5076 934 598 3576 1151 8026 3059 564 5885 354 2327 390 4966 1187 595 7577 631 10395 406 678 190 226 1040 110 630 4849
internal_value=0.286799 0.182301 0.208797 0.19863 0.407091 0.356746 0.130905 0.219746 0.370824 0.207158 0.174567 0.270004 0.0399671 0.331249 0.335054 0.169132 0.150331 0.334725 0.407969 0.103309 0.136173 0.236372 0.255387 0.193494 0.430541 0.239742 0.195222 0.0998664 0.208571 0.189059
internal_weight=18907.7 10118 8530.15 7894.46 8789.62 2793.1 1876.33 6018.12 2653.19 5278.44 2495.02 310.63 1587.9 243.009 635.693 105.322 1919.42 1648.24 174.519 1565.71 1008.58 2783.43 575.597 1025.76 5996.52 292.757 873.296 647.278 946.684 829.566
internal_count=84321 72504 56533 53518 11817 6551 15368 38150 5617 34574 17497 2111 15971 1513 3015 688 14032 4466 949 13257 8208 17077 3465 6682 5266 1413 6006 5995 6004 5374
is_linear=0
shrinkage=0.1


Tree=2
num_leaves=31
num_cat=0
split_feature=187 35 124 30 116 35 144 4 137 221 30 31 34 116 123 81 121 144 17 34 13 194 93 25 29 30 144 34 79 145
split_gain=13242.6 2280.63 702.073 685.205 514.659 354.234 463.565 385.673 346.192 340.63 532.54 328.342 300.652 249.596 238.461 259.7 220.803 210.598 206.872 197.12 197.598 192.445 189.323 214.187 189.015 187.305 199.416 266.806 268.395 199.133
threshold=1.0000000180025095e-35 29.500000000000004 3.5000000000000004 181.50000000000003 1.0000000180025095e-35 11.500000000000002 1.5000000000000002 3.5000000000000004 2.5000000000000004 1.0000000180025095e-35 325.50000000000006 164.50000000000003 34.500000000000007 1.0000000180025095e-35 10.500000000000002 10.500000000000002 9.5000000000000018 12.500000000000002 1.5000000000000002 18.500000000000004 2.5000000000000004 5.5000000000000009 1.5000000000000002 20.500000000000004 5.5000000000000009 44.500000000000007 3.5000000000000004 37.500000000000007 1.5000000000000002 6.5000000000000009
decision_type=2 2 2 2 2 2 2 2 2 2 2 2 2 2 2 2 2 2 2 2 2 2 2 2 2 2 2 2 2 2
left_child=1 4 3 8 5 19 16 12 11 10 -2 -3 17 22 15 -4 -7 18 -8 20 -1 -12 -10 -24 -20 -6 27 28 -27 -28
right_child=9 2 14 -5 25 6 7 -9 13 -11 21 -13 -14 -15 -16 -17 -18 -19 24 -21 -22 -23 23 -25 -26 26 29 -29 -30 -31
leaf_value=0.17583437771641486 0.29117862399778244 0.0070746896108198846 0.20266771828512542 -0.0019096484533167712 0.24382603405610551 0.083315479580005652 0.10492789638388698 0.23588613424958704 0.045024161167551979 0.32045113542794113 0.066618095400163668 0.94171648793801122 -0.011498608251871803 0.1560702263041831 0.33226606997437108 -0.067215690486929366 0.41707373351974442 0.043345191923644194 0.37847659378049425 -0.010845182373703081 0.24127569605292873 0.23309245442026427 -0.072514961298207267 0.15718031607175229 0.17280839143319671 0.13020160223215324 0.25224860958098966 -0.028523773907656421 0.32444379047721811 0.13566118040080094
leaf_weight=1421.8674532026052 4835.8726493194699 423.31501408666372 214.73672866076231 1030.0098764374852 1119.9737059697509 1146.3435261696577 495.7059675604105 589.10658902674913 584.41404953598976 4842.4962520822883 140.65848738700151 3.7923614084720603 115.78232005983591 826.77187616378069 112.70568409562111 42.75371927767992 20.170447267591953 161.39269676059484 45.935437105596066 46.608927570283413 683.05551882088184 137.14759360253811 45.443926982581615 380.5870818272233 1641.6242605820298 342.40427868813276 541.08859167248011 79.740013651549816 89.789615996181965 200.89300155639648
leaf_count=7049 5848 3755 1231 10560 4698 7795 2962 2596 4819 2731 758 5 975 5071 269 409 24 1129 133 333 2853 294 385 2514 8677 2040 2259 644 307 1198
internal_value=0.215542 0.146604 0.0803832 0.0657104 0.174365 0.159549 0.1427 0.163208 0.0964698 0.301444 0.283444 0.0153735 0.145807 0.115323 0.210955 0.157856 0.0890866 0.153575 0.161723 0.192566 0.19707 0.148803 0.0819819 0.132679 0.178407 0.214104 0.187557 0.139547 0.170556 0.220682
internal_weight=22362.2 12406 3664.53 3294.33 8741.48 6367.59 4216.06 3049.55 2264.32 9956.17 5113.68 427.107 2460.44 1837.22 370.196 257.49 1166.51 2344.66 2183.27 2151.53 2104.92 277.806 1010.45 426.031 1687.56 2373.89 1253.92 511.934 432.194 741.982
internal_count=84321 74690 29018 27109 45672 34526 24291 16472 16549 9631 6900 3760 13876 12789 1909 1640 7819 12901 11772 10235 9902 1052 7718 2899 8810 11146 6448 2991 2347 3457
is_linear=0
shrinkage=0.1


Tree=3
num_leaves=31
num_cat=0
split_feature=193 30 189 172 35 131 30 88 193 121 94 32 92 137 34 77 24 30 24 4 18 31 147 146 32 122 132 77 30 29
split_gain=9488.26 1499.35 533.199 454.17 476.169 431.624 352.485 302.927 301.769 267.135 251.536 251.252 229.719 225.868 223.174 185.013 195.421 179.604 164.626 163.313 160.639 154.016 152.217 150.361 157.26 144.43 143.898 143.78 143.247 164.823
threshold=1.0000000180025095e-35 144.50000000000003 1.0000000180025095e-35 1.0000000180025095e-35 20.500000000000004 1.0000000180025095e-35 405.50000000000006 1.5000000000000002 2.5000000000000004 1.0000000180025095e-35 4.5000000000000009 115.50000000000001 7.5000000000000009 50.500000000000007 338.00000000000006 1.0000000180025095e-35 125.50000000000001 52.500000000000007 56.500000000000007 1.5000000000000002 13.500000000000002 22.500000000000004 1.5000000000000002 5.5000000000000009 190.50000000000003 1.0000000180025095e-35 31.500000000000004 13.500000000000002 53.500000000000007 25.500000000000004
decision_type=2 2 2 2 2 2 2 2 2 2 2 2 2 2 2 2 2 2 2 2 2 2 2 2 2 2 2 2 2 2
left_child=1 3 6 4 7 18 8 17 11 14 19 26 28 -5 -3 -11 23 -1 20 21 -6 -7 25 24 -17 -9 -2 -18 -12 -30
right_child=2 9 -4 13 5 10 -8 22 -10 15 12 -13 -14 -15 -16 16 27 -19 -20 -21 -22 -23 -24 -25 -26 -27 -28 -29 29 -31
leaf_value=0.13556346218906123 0.1939749477739639 -0.036759625313647584 0.25108509455255962 0.22764904981916803 -0.011636381113116948 -0.023496139506003287 0.03642039252188186 0.12492355516319978 0.24141143246022301 0.0086285368527715799 -0.12675144256966528 0.032354669243928998 0.095371866207899822 0.079992580598315322 0.59362804812859948 0.092236202184564978 0.042875734212269354 0.067071974882558824 -0.045791514154295297 0.12392525588297608 0.094922675798849485 0.088467649443625562 0.26250744229561102 0.30453282652094865 0.79057463516478554 0.20749615236143454 -0.075703766002230374 0.25537086135694259 0.31645994668116284 0.055973473678543197
leaf_weight=4614.5816630274057 1478.9994177445769 535.04205586016178 8662.6609399542212 622.96534445881844 218.49324841797352 136.75702645629644 121.14289177954197 394.50443582236767 1569.2793692350388 512.06450670212507 9.1205331757664663 107.87094357609749 142.60760505497456 124.26238861680031 5.6755874156951895 115.32164065539837 488.87714153528214 417.50282100588083 206.19181957840919 1666.4301472678781 401.3267745450139 1209.0014863088727 220.33994124829769 61.406145490705967 3.3174367845058432 457.46302401274443 20.054384537041187 34.060476392507553 167.47452486306429 28.412013083696365
leaf_count=21772 2951 5606 5724 1948 1635 959 657 1792 1768 4859 56 594 741 693 32 842 4503 2461 1884 9516 2458 7534 555 276 7 1631 123 122 451 171
internal_value=0.174026 0.114163 0.238058 0.127817 0.122351 0.0963735 0.203835 0.140164 0.21022 0.0283286 0.112296 0.17976 0.19284 0.203094 -0.0301428 0.0543494 0.0876532 0.129881 0.0316106 0.103001 0.0573595 0.0770898 0.188421 0.177509 0.111763 0.169261 0.190367 0.0567162 0.260641 0.278678
internal_weight=24753.2 12793.2 11960 11037.4 10290.2 4185.82 3297.35 6104.39 3176.2 1755.76 3359.8 1606.92 347.615 747.228 540.718 1215.05 702.983 5032.08 826.012 3012.19 619.82 1345.76 1072.31 180.045 118.639 851.967 1499.05 522.938 205.007 195.887
internal_count=84321 72504 11817 56257 53616 25405 6093 28211 5436 16247 19428 3668 1419 2641 5638 10609 5750 24233 5977 18009 4093 8493 3978 1125 849 3423 3074 4625 678 622
is_linear=0
shrinkage=0.1


Tree=4
num_leaves=31
num_cat=0
split_feature=186 30 193 30 88 30 122 0 137 30 130 30 107 18 25 24 130 131 34 123 112 32 5 30 191 31 135 147 25 146
split_gain=7496.5 1026.9 495.349 332.624 319.857 280.571 273.237 243.115 231.995 227.234 200.652 173.489 176.397 264.9 167.406 166.025 165.605 164.904 197.352 158.161 155.371 142.551 181.365 149.385 137.951 136.971 147.659 149.667 137.39 129.735
threshold=1.0000000180025095e-35 115.50000000000001 2.5000000000000004 123.50000000000001 1.5000000000000002 34.500000000000007 1.5000000000000002 1.5000000000000002 4.5000000000000009 219.50000000000003 5.5000000000000009 515.50000000000011 1.0000000180025095e-35 15.500000000000002 181.50000000000003 43.500000000000007 1.0000000180025095e-35 1.0000000180025095e-35 20.500000000000004 1.5000000000000002 1.0000000180025095e-35 28.500000000000004 1.5000000000000002 15.500000000000002 1.0000000180025095e-35 62.500000000000007 1.0000000180025095e-35 4.5000000000000009 5.5000000000000009 8.5000000000000018
decision_type=2 2 2 2 2 2 2 2 2 2 2 2 2 2 2 2 2 2 2 2 2 2 2 2 2 2 2 2 2 2
left_child=1 4 3 24 5 16 9 -7 -8 25 15 12 13 -10 -4 -9 21 18 -6 -18 -16 23 -23 -1 -2 -3 28 -28 -27 -12
right_child=2 6 14 -5 17 7 8 10 11 -11 29 -13 -14 -15 20 -17 19 -19 -20 -21 -22 22 -24 -25 -26 26 27 -29 -30 -31
leaf_value=0.11047746533852137 0.17125216697689113 -0.0062569679847956448 0.21490871860166508 0.10648701705591386 0.14859888194068141 0.051630406391817041 -0.033712835847010875 0.10034370108243058 0.26140968757840477 -0.049876130068666008 0.1362470185387146 -0.036555236283533098 0.15588155490359101 0.032143179588723397 -0.050644233426657859 0.011165144604175392 0.12417908933660066 0.14888766934109676 0.033175815635425439 0.23673297987475503 0.18094423519275057 -0.11822374927034066 0.49200352410650572 0.043631611758860669 0.22469384084767038 0.60539338964774503 0.18902814847490773 0.0019944114037764053 0.027658633880038141 -0.024186776488404185
leaf_weight=820.77041277289391 1924.027000233531 459.44674748927355 9273.5998004674911 690.43918327987194 290.71238273382187 1788.8043171465397 160.3966079428792 541.23847176879644 58.631891280412674 428.73559463024139 1124.018701992929 88.658153004944324 424.73866027593613 358.80130991339684 44.753208480775356 339.84463853389025 2808.8588635399938 2318.6811799705029 302.04122057557106 130.65404681861401 82.137306936085224 6.6892016232013729 17.913394413888454 564.07996148616076 644.92715704441071 4.1541152819991103 147.26660673320293 60.304599620401859 451.31811331212521 52.770236670970917
leaf_count=3366 2842 3830 5786 2402 1117 10945 1397 2672 183 4836 5246 799 2336 2611 241 2374 11470 8270 1796 323 135 52 26 3177 411 10 929 530 3845 364
internal_value=0.146176 0.0950529 0.2017 0.168107 0.108383 0.0982683 0.0390235 0.0785948 0.077363 0.0120531 0.102034 0.0965031 0.110511 0.0643455 0.213348 0.0659464 0.115669 0.136855 0.0897844 0.129182 0.0992649 0.0874885 0.326089 0.0832497 0.184669 0.035707 0.0647854 0.13469 0.0329278 0.129053
internal_weight=26409.4 13749.5 12659.9 3259.39 11107.1 8195.64 2642.45 3846.68 1091.23 1551.23 2057.87 930.83 842.172 417.433 9400.49 881.083 4348.97 2911.43 592.754 2939.51 126.891 1409.45 24.6026 1384.85 2568.95 1122.49 663.043 207.571 455.472 1176.79
internal_count=84321 72504 11817 5655 51198 40015 21306 21601 7326 13980 10656 5929 5130 2794 6162 5046 18414 11183 2913 11793 376 6621 78 6543 3253 9144 5314 1459 3855 5610
is_linear=0
shrinkage=0.1


Tree=5
num_leaves=31
num_cat=0
split_feature=187 35 123 191 31 1 35 123 30 34 30 87 35 33 144 138 193 14 56 186 34 30 10 20 30 186 34 15 193 29
split_gain=6387.51 792.389 377.919 311.192 292.106 283.528 243.118 256.157 233.97 212.221 169.461 194.807 160.133 156.775 170.675 179.254 148.807 148.519 145.871 142.539 139.876 137.96 132.774 132.24 136.755 128.744 127.438 170.43 121.092 117.172
threshold=1.0000000180025095e-35 34.500000000000007 6.5000000000000009 1.0000000180025095e-35 58.500000000000007 1.0000000180025095e-35 3.5000000000000004 1.5000000000000002 221.50000000000003 33.500000000000007 128.50000000000003 1.5000000000000002 23.500000000000004 12.500000000000002 13.500000000000002 64.500000000000014 6.5000000000000009 5.5000000000000009 5.5000000000000009 1.5000000000000002 51.500000000000007 515.50000000000011 8.5000000000000018 9.5000000000000018 75.500000000000014 1.0000000180025095e-35 22.500000000000004 3.5000000000000004 1.5000000000000002 23.500000000000004
decision_type=2 2 2 2 2 2 2 2 2 2 2 2 2 2 2 2 2 2 2 2 2 2 2 2 2 2 2 2 2 2
left_child=1 5 8 4 19 9 -7 20 13 10 11 12 22 -3 29 -16 21 -14 -4 -2 25 -6 28 24 -13 -8 -19 -28 -1 -15
right_child=3 2 18 -5 16 6 7 -9 -10 -11 -12 23 17 14 15 -17 -18 26 -20 -21 -22 -23 -24 -25 -26 -27 27 -29 -30 -31
leaf_value=0.077315293478733171 0.14635301669054321 -0.0015979584068546333 0.19490402766078174 0.19608013592669421 0.1098200274774313 0.25766169706837566 0.094549276991091308 0.14693123704201314 -0.019201339689983648 0.00090047348314623217 -0.066473982894225112 0.10573996206625232 -0.039247023636017848 0.10574742888411122 0.13577489893287131 -0.090355650862319781 0.16369687314174505 -0.069094513393876747 -0.018110424134507901 0.18821813411020052 -0.038359862932857244 -0.055833774328212106 0.31078617364920552 0.16652880747975307 -0.096931000660478245 0.15671268038672234 0.26648605495671929 0.024940877106353058 0.18191333749599706 0.024750628118457157
leaf_weight=3702.6053234860301 1099.4713671728969 527.93675833940506 196.19574730843306 6256.2376229837537 836.13475702702999 107.23411829769611 5125.4162001907825 1243.752401560545 767.72617787122726 335.94655537605286 74.874020501971245 474.70492898672819 220.36172825098038 223.30949011445045 387.96900472044945 38.537077635526657 619.3859431296587 38.657385267317295 38.447610296308994 3124.1025802493095 75.608461201190948 53.491045258939266 25.189273595809937 435.69886776804924 35.804744325578213 356.32638136297464 55.921048156917095 61.158283323049545 114.09061655402184 892.10390647500753
leaf_count=16272 1477 3681 527 3161 1944 198 22423 3982 7641 2303 609 1591 1526 1230 2113 343 673 272 267 2067 610 309 61 1274 233 533 182 368 117 6334
internal_value=0.125805 0.0835285 0.0380333 0.180658 0.163827 0.0947251 0.108264 0.105908 0.0279477 0.0779488 0.0828894 0.085055 0.0758559 0.0454357 0.0615395 0.115343 0.126062 0.0135815 0.16 0.17732 0.0967268 0.0998597 0.0819522 0.126062 0.0915256 0.09859 0.0883318 0.140311 0.080442 0.0409665
internal_weight=27544.4 15555.6 3072.23 11988.8 5732.59 12483.4 6908.34 6801.1 2837.58 5575.01 5239.07 5164.19 4217.98 2069.86 1541.92 426.506 1509.01 376.098 234.643 4223.57 5557.35 889.626 3841.89 946.209 510.51 5481.74 155.737 117.079 3816.7 1115.41
internal_count=84321 74690 22136 9631 6470 52554 27746 27548 21342 24808 22505 21896 18798 13701 10020 2456 2926 2348 794 3544 23566 2253 16450 3098 1824 22956 822 550 16389 7564
is_linear=0
shrinkage=0.1


Tree=6
num_leaves=31
num_cat=0
split_feature=187 35 214 122 30 30 94 194 193 34 30 130 168 126 30 14 35 137 20 19 30 142 32 27 20 26 101 130 130 26
split_gain=5622.75 597.421 328.934 321.233 287.671 247.602 245.437 240.035 214.193 181.676 175.638 168.79 158.774 154.294 149.164 165.267 234.136 146.743 139.251 246.737 132.511 130.434 136.007 143.85 139.755 116.479 114.508 110.792 109.377 108.024
threshold=1.0000000180025095e-35 29.500000000000004 1.0000000180025095e-35 3.5000000000000004 125.50000000000001 185.50000000000003 3.5000000000000004 4.5000000000000009 1.0000000180025095e-35 35.500000000000007 502.50000000000006 1.5000000000000002 1.0000000180025095e-35 382356.00000000006 130.50000000000003 6.5000000000000009 11.500000000000002 413.50000000000006 49.500000000000007 50.500000000000007 515.50000000000011 1.5000000000000002 166.50000000000003 25.500000000000004 5.5000000000000009 12.500000000000002 1.0000000180025095e-35 1.0000000180025095e-35 4.5000000000000009 101.50000000000001
decision_type=2 2 2 2 2 2 2 2 2 2 2 2 2 2 2 2 2 2 2 2 2 2 2 2 2 2 2 2 2 2
left_child=1 6 4 5 -2 21 8 20 9 12 11 -5 14 -8 15 16 25 -9 28 -20 -6 22 23 24 -3 -1 -17 -26 -11 -23
right_child=2 3 -4 10 7 -7 13 17 -10 18 -12 -13 -14 -15 -16 26 -18 -19 19 -21 -22 29 -24 -25 27 -27 -28 -29 -30 -31
leaf_value=0.084324731251598006 0.15902228379175273 -0.10446085879052683 0.17932177445369782 -0.038409272691515416 0.082885500056768147 -0.015054834908750307 0.10265017778504218 0.15460244811307033 0.13543493731593864 -0.07511866871870268 -0.055632769384720719 0.1407941479889345 0.14230211729183717 0.1852699856037768 -0.046751608747473007 0.091329565728221665 0.052577952594481808 -0.095637743146557472 0.47647719063931487 -0.0094188788696372237 -0.077764780742339515 0.084094848477176951 0.36666586323894212 -0.085577509853758213 -0.027474943550281329 0.15935025649153578 0.16104293309850659 0.049573994631555103 0.040062081524424552 0.39027192168533392
leaf_weight=2689.6747109144926 4658.9144314080477 67.010773152112961 5693.5733790695667 58.461330033838749 766.88594264537096 950.30167134106159 671.03939861059189 839.84287695586681 632.90827687084675 158.55574429780245 61.04610500484705 520.67348727583885 370.5527471601963 340.85351399332285 98.64471086114645 2313.8089332655072 3875.4932718202472 24.106399893760681 16.73797420412302 27.822166599333286 55.028011605143547 464.37520269304514 12.244100637733935 98.776528306305408 206.42421796172857 224.18116097152233 262.32806642353535 1945.9137114211917 171.75157348066568 11.81642100214958
leaf_count=9599 3852 543 2731 426 1864 9557 2127 706 915 1179 497 1916 939 767 780 9019 17686 141 37 213 337 2260 40 847 1769 702 701 11118 1008 45
internal_value=0.110073 0.0717026 0.161872 0.0402212 0.146213 0.0290637 0.0833797 0.110816 0.0789839 0.0754844 0.105698 0.122704 0.0780888 0.13048 0.0755746 0.0768631 0.0686804 0.14762 0.00715837 0.173097 0.0721298 0.0440022 0.0342571 0.0325013 0.0377567 0.0900969 0.0984285 0.0421845 -0.0152275 0.0916925
internal_weight=28289.7 16251.4 12038.4 4397.04 6344.78 3756.86 11854.4 1685.86 10842.5 10209.6 640.181 579.135 9834.68 1011.89 9464.13 9365.49 6789.35 863.949 374.867 44.5601 821.914 2806.56 2330.37 2318.13 2219.35 2913.86 2576.14 2152.34 330.307 476.192
internal_count=84321 74690 9631 29018 6900 26179 45672 3048 42778 41863 2839 2342 39426 2894 38487 37707 27987 847 2437 250 2201 16622 14317 14277 13430 10301 9720 12887 2187 2305
is_linear=0
shrinkage=0.1


Tree=7
num_leaves=31
num_cat=0
split_feature=193 30 186 172 34 20 117 189 138 24 34 31 48 1 23 32 132 25 144 130 8 30 25 13 20 92 191 127 62 130
split_gain=5061.95 544.957 429.951 240.481 274.013 219.458 199.847 198.974 154.561 150.143 145.359 137.809 133.867 131.523 177.669 178.297 144.36 127.856 121.269 155.145 127.166 131.091 119.954 114.046 123.935 112.268 111.395 109.502 109.017 108.005
threshold=1.5000000000000002 219.50000000000003 1.0000000180025095e-35 1.0000000180025095e-35 37.500000000000007 13.500000000000002 1.5000000000000002 1.0000000180025095e-35 89.500000000000014 321.50000000000006 313.50000000000006 456.50000000000006 4.5000000000000009 8.5000000000000018 14.500000000000002 70.500000000000014 4.5000000000000009 112.50000000000001 12.500000000000002 1.0000000180025095e-35 6.5000000000000009 7.5000000000000009 23.500000000000004 4.5000000000000009 24.500000000000004 2.5000000000000004 1.0000000180025095e-35 21796.000000000004 18.500000000000004 38.500000000000007
decision_type=2 2 2 2 2 2 2 2 2 2 2 2 2 2 2 2 2 2 2 2 2 2 2 2 2 2 2 2 2 2
left_child=1 2 3 4 13 -6 10 9 17 -2 -3 -12 -8 14 18 -16 -17 -5 19 22 21 -21 -1 24 -7 -23 -4 -15 -20 -29
right_child=7 6 26 8 5 23 12 -9 -10 -11 11 -13 -14 27 15 16 -18 -19 28 20 -22 25 -24 -25 -26 -27 -28 29 -30 -31
leaf_value=0.0527411285254255 0.13066218675648195 -0.04716398656471528 0.10100225970052759 0.11132342187982412 -0.05868650874954006 0.18616971190731024 0.068344977117014011 0.159277887338409 -0.093559119606241317 -0.028437289101079056 0.58270196363594184 -0.11616154532299156 -0.086794509387052021 0.18572884774045612 -0.022784050121112946 -0.081154861217972912 0.18843403837101483 0.51684918183129092 0.011679646348301194 0.13406606855586214 0.10824065482949961 0.06073858123625845 -0.03417182445875587 0.030813198365032379 -0.1175351051693125 0.092785178335066276 0.16027952795793404 0.10092052550205757 0.25911893944098402 -0.12150696244009428
leaf_weight=2365.4938082769513 2352.3028926849365 612.69712494313717 1682.1521351635456 1104.9828783348203 276.14635430276394 87.63144313544035 394.15895812213421 8289.9237383678555 37.007163479924202 60.849932141602039 7.1522545740008336 4.6599701419472694 64.75739860534668 158.91181870549917 419.68776282668114 26.370955571532249 80.48471949249506 7.8297728374600402 526.48651680350304 309.39937460422516 1022.3161653503776 5208.8818054869771 170.22562498599291 1397.1807195991278 15.87005329877138 1383.5379638150334 390.64362056553364 237.85135377943516 18.428923390805721 24.036883629858494
leaf_count=9937 2756 6408 2859 3310 2047 429 2575 4704 280 297 19 40 558 454 2563 211 377 14 3109 824 3294 21533 1092 8944 134 4148 288 855 76 186
internal_value=0.097442 0.0651105 0.0695051 0.0635608 0.0598816 0.0232406 -0.00364835 0.151922 0.107491 0.12665 -0.0404652 0.306997 0.0464533 0.0653287 0.0633248 0.00657827 0.121902 0.114177 0.0660399 0.0684359 0.0753253 0.0704498 0.0469066 0.0383163 0.139602 0.0674641 0.112174 0.120242 0.020048 0.0805055
internal_weight=28738.1 18035 16951.6 14878.8 13728.9 1776.83 1083.43 10703.1 1149.82 2413.15 624.509 11.8122 458.916 11952.1 11531.3 526.543 106.856 1112.81 11004.8 10459.9 7924.14 6901.82 2535.72 1500.68 103.501 6592.42 2072.8 420.8 544.915 261.888
internal_count=84321 76564 66964 63817 60213 11554 9600 7757 3604 3053 6467 59 3133 48659 47164 3151 588 3324 44013 40828 29799 26505 11029 9507 563 25681 3147 1495 3185 1041
is_linear=0
shrinkage=0.1


Tree=8
num_leaves=31
num_cat=0
split_feature=187 30 190 25 124 35 117 145 1 132 29 137 139 187 30 23 8 50 127 147 35 31 186 71 111 160 133 117 130 30
split_gain=4617.47 372.538 358.457 202.468 193.604 267.257 182.447 153.75 142.882 141.533 135.238 133.48 132.334 127.682 126.719 126.43 129.871 131.069 134.178 167.043 128.936 112.669 112.135 108.462 100.709 97.3926 95.3704 92.9713 113.742 107.92
threshold=1.0000000180025095e-35 179.50000000000003 1.0000000180025095e-35 27.500000000000004 2.5000000000000004 20.500000000000004 1.5000000000000002 1.5000000000000002 1.0000000180025095e-35 1.0000000180025095e-35 41.500000000000007 80.500000000000014 10.500000000000002 1.5000000000000002 7.5000000000000009 12.500000000000002 3.5000000000000004 1.5000000000000002 20775.000000000004 1.5000000000000002 32.500000000000007 49.500000000000007 1.0000000180025095e-35 1.0000000180025095e-35 2.5000000000000004 1.0000000180025095e-35 3.5000000000000004 1.0000000180025095e-35 1.0000000180025095e-35 33.500000000000007
decision_type=2 2 2 2 2 2 2 2 2 2 2 2 2 2 2 2 2 2 2 2 2 2 2 2 2 2 2 2 2 2
left_child=1 4 3 -2 5 8 -3 -8 24 -7 21 12 -12 -5 -10 16 17 18 25 -20 -19 -9 23 -16 27 -11 -14 28 -1 -30
right_child=2 6 -4 13 -6 9 7 10 14 15 11 -13 26 -15 22 -17 -18 20 19 -21 -22 -23 -24 -25 -26 -27 -28 -29 29 -31
leaf_value=0.02285013782222773 0.13226435091195388 -0.02283749321620876 0.1485395389912515 0.054555670884358434 0.099242905718298718 0.016360505428903719 -0.098539778425281013 -0.083641692079680682 0.15521773472439523 -0.051546551719504688 -0.064060153606948569 -0.10394269632421455 0.42589515330002348 0.1080330004662074 0.063257866448235098 0.026284272101134178 0.083204259440755352 0.077434178167396242 0.072960404510871366 -0.02773128418261301 0.33096629231664076 0.11844675317366193 0.14442243059776411 0.10616707375511809 -0.10996100353586458 0.090002178380958517 0.10193357712761233 0.088933251700833979 0.073296275927195439 0.028849966258086165
leaf_weight=1101.3910984843969 2246.152208045125 881.43557197600603 7525.6732221245766 715.32455606013536 1091.1343374177814 1832.0023834556341 62.507526069879532 30.125272750854492 215.83672474324703 257.31323856115341 34.886938311159611 76.907300688326359 12.856876403093336 1187.8866250813007 2846.7651637867093 1514.3417395502329 1430.6645873039961 67.693676233291626 733.55486515909433 212.4777305200696 28.50564406812191 327.56905927509069 228.25250256061554 742.7919682264328 36.768628522753716 59.930019959807396 30.992037624120712 728.96672791242599 1964.7002580463886 756.70769026875496
leaf_count=4748 1909 9037 4379 1792 2843 10445 588 250 434 1475 271 708 43 1551 9911 7833 5324 245 3169 1106 76 1743 218 1804 187 185 131 2165 6490 3261
internal_value=0.0869305 0.0541471 0.135529 0.111931 0.0585958 0.0555907 0.00576176 0.0495381 0.0669432 0.0396396 0.0675691 -0.0102414 0.0812838 0.0879335 0.0806731 0.0495473 0.0621732 0.0400409 0.0314725 0.0503452 0.15256 0.101427 0.0764588 0.0721371 0.0548736 -0.0248068 0.196922 0.0562051 0.0499642 0.0609376
internal_weight=28982.1 17307.1 11675 4149.36 15849.8 14758.7 1457.28 575.845 8622.18 6136.48 513.337 155.643 78.7359 1903.21 4033.65 4304.48 2790.14 1359.48 1263.28 946.033 96.1993 357.694 3817.81 3589.56 4588.53 317.243 43.8489 4551.77 3822.8 2721.41
internal_count=84321 74690 9631 5252 61919 59076 12771 3734 29218 29858 3146 1153 445 3343 12367 19413 11580 6256 5935 4275 321 1993 11933 11715 16851 1660 174 16664 14499 9751
is_linear=0
shrinkage=0.1


Tree=9
num_leaves=31
num_cat=0
split_feature=193 30 187 214 30 67 94 32 30 194 34 165 1 137 35 23 20 61 119 57 35 34 116 125 131 151 35 27 31 138
split_gain=4306.49 366.303 302.068 228.559 253.659 207.125 206.761 177.802 188.633 168.25 160.088 155.678 135.478 127.456 119.594 118.463 133.708 125.945 117.353 111.978 107.2 97.8196 96.8545 96.0652 93.8036 93.5142 153.311 165.115 93.2834 92.1555
threshold=1.5000000000000002 88.500000000000014 1.0000000180025095e-35 1.0000000180025095e-35 139.50000000000003 1.0000000180025095e-35 3.5000000000000004 46.500000000000007 219.50000000000003 4.5000000000000009 35.500000000000007 1.5000000000000002 1.0000000180025095e-35 560.50000000000011 3.5000000000000004 9.5000000000000018 10.500000000000002 4.5000000000000009 2.5000000000000004 1.0000000180025095e-35 10.500000000000002 313.50000000000006 1.0000000180025095e-35 4.5000000000000009 18.500000000000004 1.0000000180025095e-35 41.500000000000007 11.500000000000002 181.50000000000003 118.50000000000001
decision_type=2 2 2 2 2 2 2 2 2 2 2 2 2 2 2 2 2 2 2 2 2 2 2 2 2 2 2 2 2 2
left_child=1 2 6 4 -2 7 10 -3 11 -6 12 25 15 -11 -14 16 20 -18 21 -13 -1 -10 -16 -12 -8 28 27 -27 -9 -7
right_child=3 5 -4 -5 9 29 24 8 18 13 23 19 14 -15 22 -17 17 -19 -20 -21 -22 -23 -24 -25 -26 26 -28 -29 -30 -31
leaf_value=0.054920960385951893 0.12837514313406137 -0.030596208031468609 0.10707672573002938 0.14520254914150768 0.033653630248400249 0.076346610306501445 0.1017082154439688 0.013911130684748807 -0.043576958785356494 0.11505047823565302 -0.023967694071240189 0.12781721631208515 0.15647735601200555 -0.13260936553511746 0.052548824804226874 -0.021599949369781397 0.10008392029918152 -0.050871339217805303 0.068502309146729126 0.023723139221296999 0.023477229202948167 0.21827025821402884 0.081353526702547363 0.15270547940000934 -0.14531342698594388 0.036242494701418999 -0.018259357610077746 0.1632598484361133 0.42350556080731416 -0.034451769948174039
leaf_weight=2012.5518049001694 3697.6361228078604 661.53634759038687 1161.5165973156691 5199.7212115973234 531.86448509246111 930.07841940969229 969.29364995658398 1646.3436757177114 591.16748210787773 702.72122751176357 392.38561446219683 296.88451848179102 133.07041017711163 21.413354367017746 4179.1439517438412 288.1091023683548 601.26145075261593 60.864317737519741 126.89589433372021 158.52264023572206 2350.5965390056372 14.619729571044443 1619.7651091516018 33.396343499422073 15.620410218834875 221.78504201024771 168.99139760434628 190.03648020327091 5.5791206732392302 81.658755719661713
leaf_count=6652 2868 4180 1264 2772 1338 4121 2322 9739 6139 649 2423 966 198 130 14945 1425 1937 302 728 765 10027 59 4721 86 75 1070 1098 606 29 687
internal_value=0.0780248 0.0498205 0.0582708 0.130558 0.115187 0.0268993 0.0537916 0.016861 0.0260385 0.0763599 0.0500786 0.038298 0.0523575 0.107727 0.0627455 0.0407601 0.0443353 0.0862077 -0.0189407 0.0915831 0.037981 -0.0372577 0.0605946 -0.0101103 0.0977905 0.0274296 0.0619437 0.0948551 0.0152945 0.0674039
internal_weight=29065 18911.7 13817.6 10153.4 4953.64 5094.1 12656.1 4082.36 3420.83 1256 11671.1 2688.14 11245.4 724.135 5931.98 5313.38 5025.27 662.126 732.683 455.407 4363.15 605.787 5798.91 425.782 984.914 2232.74 580.813 411.822 1651.92 1011.74
internal_count=84321 76564 46377 7757 4985 30187 45113 25379 21199 2117 42716 14273 40207 779 19864 20343 18918 2239 6926 1731 16679 6198 19666 2509 2397 12542 2774 1676 9768 4808
is_linear=0
shrinkage=0.1


Tree=10
num_leaves=31
num_cat=0
split_feature=188 186 29 214 26 113 172 130 140 137 193 161 144 37 30 1 51 6 11 93 85 130 29 34 95 81 138 30 62 25
split_gain=4000.98 330.037 286.876 226.237 205.517 169.661 141.399 126.507 124.111 155.273 123.39 115.77 135.683 111.834 107.041 120.096 147.886 105.469 104.012 111.899 154.262 94.9078 106.011 88.8008 86.8283 85.5961 84.9923 83.5275 102.709 153.046
threshold=1.0000000180025095e-35 1.5000000000000002 25.500000000000004 1.0000000180025095e-35 43.500000000000007 4.5000000000000009 1.0000000180025095e-35 258.50000000000006 1.0000000180025095e-35 123.50000000000001 6.5000000000000009 1.0000000180025095e-35 15.500000000000002 1.0000000180025095e-35 132.50000000000003 8.5000000000000018 5.5000000000000009 42.500000000000007 2.5000000000000004 1.5000000000000002 5.5000000000000009 1.0000000180025095e-35 8.5000000000000018 38.500000000000007 7.5000000000000009 6.5000000000000009 95.500000000000014 29.500000000000004 7.5000000000000009 28.500000000000004
decision_type=2 2 2 2 2 2 2 2 2 2 2 2 2 2 2 2 2 2 2 2 2 2 2 2 2 2 2 2 2 2
left_child=1 2 6 4 -2 8 11 10 -4 18 -6 12 13 14 15 16 21 24 -10 -20 -21 22 -1 -13 -15 -26 -22 -23 -29 -30
right_child=3 -3 5 -5 7 -7 -8 -9 9 -11 -12 23 -14 17 -16 -17 -18 -19 19 20 26 27 -24 -25 25 -27 -28 28 29 -31
leaf_value=0.042853311383672155 0.12166193950683082 0.092977562205787179 -0.027821884077699317 0.13916430434810736 0.05526938706946978 0.11952994267525192 0.080885143697618817 -0.11216530732451957 -0.040438662503975896 -0.046057373957122338 0.11543603194296448 0.099587918466934891 -0.019409109044420732 0.074462614291378501 -0.0091965892273980169 0.10540779882102297 -0.076606855411368052 -0.12887110426974374 0.004334082186668 0.079535365432733998 -0.05619616461928937 0.059744713247194596 0.0030333254267469671 -0.069387048810543056 0.23406132361689755 -0.027187046623762225 0.29581156347901966 0.037289981593660954 0.0022255135851393468 0.18272939404892025
leaf_weight=1582.6806482374668 3409.7678578197956 1306.2219112217426 771.41903910040855 4687.083805501461 792.41804810613394 138.49707746505737 1098.6072390526533 34.696519561111927 176.04941757023335 302.10772927105427 598.14243546128273 504.56014481931925 352.04300791025162 708.19388598948717 408.41249448060989 299.33095572143793 105.48131283372641 23.599922098219395 525.64078500121832 770.5710171610117 125.91944709420204 3368.9605071395636 1157.565148435533 33.143811196088791 65.284880831837654 15.523551449179648 7.2543982937932006 5450.2134542018175 77.984200686216354 118.12376302480698
leaf_count=5554 2617 1789 6059 2495 1520 311 2984 204 1184 2983 502 1214 2192 2222 2912 796 563 161 3645 4002 874 9995 5765 215 74 62 41 20758 354 274
internal_value=0.0703783 0.0444251 0.040938 0.123509 0.108333 0.0116042 0.0463152 0.0764437 0.00602462 0.0197123 0.0811498 0.043654 0.0418718 0.043484 0.0411595 0.0428508 0.041272 0.0794377 0.0320887 0.0410215 0.0623598 0.0423298 0.0260321 0.0891724 0.0856684 0.183875 -0.0370212 0.0472835 0.0398484 0.11095
internal_weight=29015.5 19493.4 18187.2 9522.11 4835.02 2817.46 15369.7 1425.26 2678.96 1907.54 1390.56 14271.1 13733.4 13381.4 12568.8 12160.3 11861 812.602 1605.44 1429.39 903.745 11755.5 2740.25 537.704 789.002 80.8084 133.174 9015.28 5646.32 196.108
internal_count=84321 76983 75194 7338 4843 19099 56095 2226 18788 12729 2022 53111 51682 49490 46971 44059 43263 2519 9746 8562 4917 42700 11319 1429 2358 136 915 31381 21386 628
is_linear=0
shrinkage=0.1


Tree=11
num_leaves=31
num_cat=0
split_feature=188 193 221 30 26 136 144 94 34 117 31 32 82 130 137 193 30 130 8 135 130 24 25 75 18 129 139 186 35 87
split_gain=3689.48 283.641 233.462 228.626 188.874 164.045 165.711 163.373 151.59 147.463 135.612 127.76 123.059 122.658 107.67 112.083 94.3951 94.3656 98.8493 92.6083 98.598 91.3314 114.832 97.7225 101.937 89.6081 101.712 89.3299 88.4313 87.0016
threshold=1.0000000180025095e-35 2.5000000000000004 1.0000000180025095e-35 72.500000000000014 43.500000000000007 1.0000000180025095e-35 27.500000000000004 3.5000000000000004 35.500000000000007 1.0000000180025095e-35 20.500000000000004 31.500000000000004 11.500000000000002 1.0000000180025095e-35 400.50000000000006 6.5000000000000009 413.50000000000006 1.0000000180025095e-35 6.5000000000000009 3.5000000000000004 98.500000000000014 213.50000000000003 102.50000000000001 8.5000000000000018 821.00000000000011 5621.0000000000009 1.5000000000000002 1.0000000180025095e-35 2.5000000000000004 1.0000000180025095e-35
decision_type=2 2 2 2 2 2 2 2 2 2 2 2 2 2 2 2 2 2 2 2 2 2 2 2 2 2 2 2 2 2
left_child=1 3 4 7 -2 9 11 8 17 -5 -11 -7 -8 -12 15 -6 -3 28 27 20 -13 22 -15 24 -23 26 -9 -19 -1 -24
right_child=2 16 -4 5 14 6 12 25 -10 10 13 19 -14 21 -16 -17 -18 18 -20 -21 -22 23 29 -25 -26 -27 -28 -29 -30 -31
leaf_value=0.086440549572075531 0.11383618750508434 0.095872397477941004 0.13272881290935118 -0.0045051436897047903 0.049863470714042818 -0.060476129469988621 -0.049274989545135629 0.00089964606537754066 -0.045318363001031918 -0.13134818432387516 -0.049950085261941057 0.089063348498176903 0.15073372656257136 0.042518069679275176 -0.10837378147238537 0.10779569565913012 -0.0712107570936963 0.0405460900807477 0.075454583236915895 0.03118019096638034 0.32999001010025902 -0.049391277194244743 -0.11681975607122548 0.18526138173362139 0.53501620245778037 0.11773755029516944 0.10698479926698981 0.079580593486077392 0.020657101737166502 0.21951980679229305
leaf_weight=223.41746407747269 3286.2079260200262 1004.3259305208921 4435.8758628219366 2513.7066035605967 791.59295547008514 73.795587226748466 222.49427273124456 191.79121742397547 198.01602006703615 50.816291809082031 162.66001411527395 749.25809862464666 35.697787798941135 1864.3539059832692 33.042855843901634 577.68201330304146 34.991087049245834 6998.5099521949887 1134.131740257144 330.19814859330654 17.380305625498295 203.24378507584333 8.8532285615801793 21.074368461966515 3.0291856527328482 448.48079599440098 170.92328521609306 639.87564757466316 2394.2792202606797 58.573930628597736
leaf_count=552 2617 1145 2495 16013 1522 401 2167 625 1216 338 1384 2753 186 8123 203 501 163 23593 2928 1583 60 1785 84 37 2 809 288 875 9568 305
internal_value=0.0636917 0.0393991 0.116284 0.0365753 0.100725 0.0210877 0.0508929 0.0444632 0.0414262 0.0123723 0.0302535 0.0668865 -0.0216217 0.0337904 0.07 0.0743044 0.0902471 0.0429343 0.0479064 0.0754555 0.0945253 0.0400991 0.0471547 -0.0198531 -0.0408091 0.0878479 0.0508905 0.0438161 0.0262716 0.175358
internal_weight=28878.3 19753.9 9124.4 18714.6 4688.53 6315.14 1428.82 12399.4 11588.2 4886.31 2372.6 1170.63 258.192 2321.79 1402.32 1369.27 1039.32 11390.2 8772.52 1096.84 766.638 2159.13 1931.78 227.347 206.273 811.195 362.715 7638.39 2617.7 67.4272
internal_count=84321 76983 7338 75675 4843 35221 7150 40454 38732 28071 12058 4797 2353 11720 2226 2023 1308 37516 27396 4396 2813 10336 8512 1824 1787 1722 913 24468 10120 389
is_linear=0
shrinkage=0.1


Tree=12
num_leaves=31
num_cat=0
split_feature=193 190 191 30 31 116 34 4 126 23 117 118 121 137 165 19 24 30 137 48 0 122 27 145 27 149 121 86 144 24
split_gain=3403.03 277.641 220.286 216.222 175.204 159.598 179.055 111.353 247.82 144.224 106.709 106.05 106.2 108.163 94.935 92.7003 89.6919 88.4065 116.523 86.3524 85.0574 84.0923 79.9837 84.5389 106.221 76.7635 75.451 75.1769 110.013 135.259
threshold=1.5000000000000002 1.0000000180025095e-35 1.0000000180025095e-35 219.50000000000003 45.500000000000007 1.0000000180025095e-35 38.500000000000007 7.5000000000000009 351797.50000000006 13.500000000000002 1.5000000000000002 6.5000000000000009 11.500000000000002 131.50000000000003 2.5000000000000004 83.500000000000014 321.50000000000006 13.500000000000002 1.5000000000000002 4.5000000000000009 30.500000000000004 1.5000000000000002 16.500000000000004 3.5000000000000004 20.500000000000004 1.5000000000000002 9.5000000000000018 1.5000000000000002 12.500000000000002 98.500000000000014
decision_type=2 2 2 2 2 2 2 2 2 2 2 2 2 2 2 2 2 2 2 2 2 2 2 2 2 2 2 2 2 2
left_child=2 4 3 5 -2 6 7 9 20 17 -5 12 13 15 -10 22 21 -1 26 -12 -9 -6 -7 25 -25 -24 -19 28 29 -20
right_child=1 -3 -4 10 16 11 -8 8 14 -11 19 -13 -14 -15 -16 -17 -18 18 27 -21 -22 -23 23 24 -26 -27 -28 -29 -30 -31
leaf_value=0.05267232115676837 0.10490404326185475 0.1220923626430956 0.11057684982373568 -0.03965690661492538 0.04478420587552101 0.052403780425378146 -0.011540740948390842 0.16041576528405177 -0.069558101878728781 -0.017370258032380164 0.040009469616893188 0.13324796873984701 -0.071593727079831318 -0.12382685904856283 0.18627187191971128 0.26377905772776672 -0.037269484325573948 0.0061517473270593049 0.032266227575153218 -0.086362891431240069 -0.075539368980372279 0.098400258559045092 -0.042118449582730783 -0.0042269058347322161 0.12152352921092194 0.24238725269122235 0.17003151894956292 0.056000013592981068 -0.023536084183799443 0.19359576640873499
leaf_weight=1963.5179464668036 1920.1813023388386 5717.1463712006807 373.66253432631493 580.4628645889461 782.13303101807833 5240.0543908625841 998.48721236735582 227.84943854063749 99.966891825199127 587.12107170373201 423.50988072901964 145.50623056292534 74.767246063798666 36.258926756680012 16.967121943831444 20.105935417115688 92.390288099646568 2026.8738674968481 4409.4061966687441 61.985795591026545 16.375521525740623 467.30522993206978 238.87421636283398 156.69400288909674 117.57587174326181 9.8756603077054006 28.488925099372864 1430.6494006216526 356.81989424675703 52.58816759288311
leaf_count=5399 1674 3780 336 6437 1361 16626 6553 467 462 3165 2563 186 367 287 37 59 378 8815 15321 552 92 564 1452 671 448 11 20 4115 1926 197
internal_value=0.0577893 0.10881 0.0345278 0.033057 0.0855306 0.0356133 0.0290385 0.0326508 0.0872763 0.0308334 -0.0107211 0.0489107 0.0468287 0.0483502 -0.0324372 0.0494297 0.0578068 0.0335896 0.0290779 0.0238748 0.144595 0.0648373 0.0486819 0.0113927 0.0496806 -0.0308232 0.00842325 0.0358709 0.0298948 0.0341676
internal_weight=28673.6 8979.16 19694.4 19320.8 3262.01 18254.8 12215.1 11216.6 361.159 10855.5 1065.96 6039.71 5894.21 5819.44 116.934 5783.18 1341.83 10268.3 8304.83 485.496 244.225 1249.44 5763.07 523.02 274.27 248.75 2055.36 6249.46 4818.81 4461.99
internal_count=84321 7757 76564 76228 3977 66676 46569 40016 1058 38958 9552 20107 19921 19554 499 19267 2303 35793 30394 3115 559 1925 19208 2582 1119 1463 8835 21559 17444 15518
is_linear=0
shrinkage=0.1


Tree=13
num_leaves=31
num_cat=0
split_feature=188 214 214 19 29 122 123 191 27 30 20 34 32 34 56 36 138 137 77 14 61 62 1 141 132 187 27 132 59 193
split_gain=3165.14 256.495 212.773 186.829 182.18 135.561 124.584 114.929 105.194 102.665 154.93 109.171 129.853 100.541 99.4583 98.6041 95.7924 130.215 98.7599 98.2183 93.2386 88.044 89.4286 89.6055 82.2836 80.7967 78.7331 77.9665 77.8105 77.6667
threshold=1.0000000180025095e-35 1.0000000180025095e-35 1.0000000180025095e-35 23.500000000000004 25.500000000000004 1.0000000180025095e-35 6.5000000000000009 1.0000000180025095e-35 16.500000000000004 52.500000000000007 14.500000000000002 34.500000000000007 31.500000000000004 24.500000000000004 4.5000000000000009 1.0000000180025095e-35 5.5000000000000009 123.50000000000001 23.500000000000004 12.500000000000002 9.5000000000000018 1.5000000000000002 1.5000000000000002 1.5000000000000002 30.500000000000004 1.0000000180025095e-35 11.500000000000002 1.0000000180025095e-35 2.5000000000000004 3.5000000000000004
decision_type=2 2 2 2 2 2 2 2 2 2 2 2 2 2 2 2 2 2 2 2 2 2 2 2 2 2 2 2 2 2
left_child=2 3 4 29 5 9 16 -5 15 20 11 12 -11 -14 -8 24 26 19 -19 -18 21 -1 23 28 25 -7 -6 -15 -23 -2
right_child=1 -3 -4 7 6 8 14 -9 -10 10 -12 -13 13 27 -16 -17 17 18 -20 -21 -22 22 -24 -25 -26 -27 -28 -29 -30 -31
leaf_value=0.029438277776174738 0.084521548278413697 0.12292430869188598 0.10449036978159472 0.03492019319866381 -0.09784679743588677 0.042276885836957885 0.10232657270478336 0.092079430665677336 -0.022947226952604705 -0.048273820105372352 0.032127743391846333 -0.080267759296533875 -0.015332670621150761 -0.00057938604742919077 -0.061294109513353935 0.090689731201562096 -0.012504069097561677 -0.053778885798388 0.50431624825163357 0.038156182433862512 -0.094588870892481636 0.056867936493041962 0.093778089126953512 -0.1170220583141405 -0.069373863918865061 0.091576054115184671 -0.014117935019498755 0.089244321825034986 -0.050447485589725533 0.11729028845360662
leaf_weight=6323.8726072236896 1330.579479008913 3939.849520817399 387.04424998909235 854.98910012096167 139.04767319187522 4906.0653471983969 212.90161914378405 597.66528615355492 215.21750951558352 395.20434600114822 1657.9692168310285 206.19499912112951 378.96798277646303 153.5654312223196 45.003402508795261 500.33065862581134 555.87867410480976 305.34134232997894 3.204036980867385 1228.4049498811364 56.681795485317707 630.42491429299116 457.24776214361191 35.697819702327251 62.972237918525934 356.60482778400183 583.98155815899372 260.65183003246784 75.673938997089863 1584.7618875354528
leaf_count=20484 1419 2495 362 1701 1242 15821 477 635 1087 1900 6970 1512 1692 745 297 1242 3050 3098 6 7009 263 2008 1045 169 387 417 4461 907 332 1088
internal_value=0.0524908 0.104423 0.0310622 0.0877356 0.029623 0.033747 0.00725251 0.0584372 0.0457091 0.0269502 0.0114658 -0.0130983 -0.00144388 0.0218891 0.0737754 0.0482453 0.00115966 0.0120007 -0.0479834 0.0223734 0.0331862 0.0341489 0.0589935 0.037552 0.0442578 0.0456175 -0.0302201 0.0559434 0.0453667 0.102334
internal_weight=28442 8307.85 20134.2 4368 19747.1 16673.3 3073.76 1452.65 6041.19 10632.2 3052.55 1394.58 1188.39 793.185 257.905 5825.97 2815.86 2092.83 308.545 1784.28 7579.6 7522.92 1199.04 741.797 5325.64 5262.67 723.029 414.217 706.099 2915.34
internal_count=84321 7338 76983 4843 76621 56981 19640 2336 18954 38027 13726 6756 5244 3344 774 17867 18866 13163 3104 10059 24301 24038 3554 2509 16625 16238 5703 1652 2340 2507
is_linear=0
shrinkage=0.1


Tree=14
num_leaves=31
num_cat=0
split_feature=188 221 193 26 30 123 35 130 26 2 23 26 32 137 193 31 193 81 121 130 23 34 20 29 94 31 127 32 145 30
split_gain=2899.61 263.857 197.312 173.238 148.199 113.529 121.961 131.606 116.29 103.691 118.317 109.668 98.9549 94.8893 102.85 91.6913 89.2374 88.0682 85.2194 98.8935 92.4488 84.8047 85.4919 84.4547 83.6506 82.686 81.6067 111.113 102.865 94.2432
threshold=1.0000000180025095e-35 1.0000000180025095e-35 2.5000000000000004 43.500000000000007 179.50000000000003 3.5000000000000004 14.500000000000002 1.0000000180025095e-35 14.500000000000002 7.5000000000000009 14.500000000000002 68.500000000000014 170.50000000000003 264.50000000000006 6.5000000000000009 77.500000000000014 3.5000000000000004 52.500000000000007 1.0000000180025095e-35 44.500000000000007 1.5000000000000002 34.500000000000007 19.500000000000004 18.500000000000004 3.5000000000000004 27.500000000000004 23490.500000000004 45.500000000000007 8.5000000000000018 157.50000000000003
decision_type=2 2 2 2 2 2 2 2 2 2 2 2 2 2 2 2 2 2 2 2 2 2 2 2 2 2 2 2 2 2
left_child=2 3 4 16 5 6 8 12 -1 10 11 18 -8 14 -5 17 -2 -6 20 26 -9 -22 -23 -13 -25 -4 -20 28 -28 -29
right_child=1 -3 25 13 15 -7 7 9 -10 -11 -12 23 -14 -15 -16 -17 -18 -19 19 -21 21 22 -24 24 -26 -27 27 29 -30 -31
leaf_value=0.031539852461766459 0.077248538522792218 0.11866580425600924 0.11014909269644094 0.035039369554114401 -0.050998479789718942 0.066234226137085933 -0.013525482978159475 -0.077640693990963905 0.068481576539183492 0.056195238799255268 -0.012313326528115261 -0.13392187708206321 0.33024842795747572 -0.062529873234192068 0.09358136606387317 0.010368498831778619 0.11242447819156175 0.30884683381129285 0.022070487504409486 -0.052441502862360545 0.02078782044161015 -0.06660451269301812 0.026309553751169841 0.1771183510714083 -0.13746982728114907 0.049624446734553643 0.043317131073406526 0.099137388557097611 -0.082522338284314184 -0.12734484550017261
leaf_weight=5020.5784501582384 1371.978309199214 3686.2220177203417 354.06744259595871 755.10022445768118 400.5881738178432 747.19278594106436 1192.8731494024396 108.29871413111687 1026.3298490643501 905.52320995926857 968.73095543682575 11.69843417406082 8.4323883056640607 68.541474550962448 498.03933100402355 1141.3822959810495 1520.4404265582561 6.9186991900205603 1703.6924547478557 126.12986469268799 3657.8856398016214 234.61621409654617 171.35662884265184 95.722133792936802 9.2711397930979711 622.67604773491621 1172.4902191087604 511.86309473961592 68.767980307340622 19.057110793888569
leaf_count=14876 1514 2495 277 1453 3750 1714 6579 579 2751 3042 5132 70 4 306 467 9308 1103 25 5788 633 13365 1600 861 308 52 1031 3330 1475 308 125
internal_value=0.0477301 0.0991258 0.0277144 0.0820336 0.0254963 0.0280834 0.0264079 0.0201208 0.0378099 0.0239631 0.0206687 0.0247178 -0.0111124 0.0520394 0.0583059 -0.00416954 0.0957393 -0.044889 0.0232735 0.0345416 0.0135452 0.0159753 -0.0273865 0.120942 0.14934 0.0715645 0.037698 0.0527215 0.0363454 0.0910079
internal_weight=28186.5 7900.32 20286.1 4214.1 19309.4 17760.5 17013.3 10966.4 6046.91 9765.1 8859.58 7890.85 1201.31 1321.68 1253.14 1548.89 2892.42 407.507 7774.16 3602 4172.16 4063.86 405.973 116.692 104.993 976.743 3475.87 1772.18 1241.26 530.92
internal_count=84321 7338 76983 4843 75675 62592 60878 43251 17627 36668 33626 28494 6583 2226 1920 13083 2617 3775 28064 11659 16405 15826 2461 430 360 1308 11026 5238 3638 1600
is_linear=0
shrinkage=0.1


Tree=15
num_leaves=31
num_cat=0
split_feature=189 193 214 31 35 193 124 130 32 30 121 139 131 2 191 164 30 63 30 24 144 116 77 33 25 91 27 16 61 34
split_gain=2664.1 301.507 165.379 147.69 140.521 164.842 144.261 104.348 101.483 109.541 100.422 93.3882 93.0003 88.3285 86.901 83.008 82.3382 114.55 92.0862 83.4921 81.7324 79.475 88.5521 80.069 79.8538 98.8929 87.7135 78.6811 81.1706 108.823
threshold=1.0000000180025095e-35 5.5000000000000009 1.0000000180025095e-35 50.500000000000007 23.500000000000004 1.0000000180025095e-35 3.5000000000000004 1.0000000180025095e-35 30.500000000000004 249.50000000000003 5.5000000000000009 2.5000000000000004 27.500000000000004 61.500000000000007 1.0000000180025095e-35 1.0000000180025095e-35 53.500000000000007 16.500000000000004 48.500000000000007 38.500000000000007 8.5000000000000018 1.0000000180025095e-35 1.0000000180025095e-35 23.500000000000004 95.500000000000014 22.500000000000004 10.500000000000002 3.5000000000000004 3.5000000000000004 68.500000000000014
decision_type=2 2 2 2 2 2 2 2 2 2 2 2 2 2 2 2 2 2 2 2 2 2 2 2 2 2 2 2 2 2
left_child=1 4 3 -2 5 11 7 -6 10 15 -9 12 16 14 -5 21 18 -18 19 20 -1 22 -10 27 25 -23 -26 -24 29 -29
right_child=2 -3 -4 13 6 -7 -8 8 9 -11 -12 -13 -14 -15 -16 -17 17 -19 -20 -21 -22 24 23 -25 26 -27 -28 28 -30 -31
leaf_value=0.024604983531524974 0.09909981070294227 0.082744398321190377 0.11616910220218707 0.028299647031109706 -0.032784122709252649 0.066530432142243287 0.055671702441374232 -0.035951110653739633 -2.4914312058980036e-06 -0.020068195616865001 0.095991582746072696 0.043068401788733023 0.18157638269553053 -0.15198877077665671 0.08640618727820551 0.11172609454712015 -0.013397696160811372 0.1993499754406973 0.073458170121971172 -0.061779587112950778 -0.086010045476251906 0.03305559124822461 -0.14477619080464607 -0.097781117655803648 -0.13477535952966155 -0.088295422060053808 0.15315453240980781 0.06613112377605683 -0.015289885363853069 0.47049427470394956
leaf_weight=6750.5839244574308 2135.1052997410297 916.09615892916918 3206.7756176441908 514.07974702119827 529.78473149240017 1177.7754927426577 761.53141229599714 614.68534298241138 2375.8990576043725 706.05422960221767 63.658431962132454 2766.3304041065276 36.285652749240398 20.550085358321667 515.44204296171665 100.56963156536222 881.0193235501647 26.056976370513439 367.24639499932528 116.740638487041 67.465954095125198 2350.4023520760238 20.592188742011786 39.987154949456453 11.975975375622509 69.1301349401474 90.777808200567961 527.60849308222532 136.03329648077488 6.7404708564281455
leaf_count=21512 1833 1023 2290 936 4100 1543 2269 2967 12174 6506 183 7599 84 128 537 260 3811 60 1044 484 294 8806 122 313 80 409 395 1836 700 23
internal_value=0.0434538 0.0266102 0.100138 0.0839987 0.0241132 0.0309725 0.014166 0.0100309 0.0132193 0.0170969 -0.0235691 0.0271693 0.0218352 0.0532938 0.0573914 0.0216766 0.0211291 -0.00728624 0.0246589 0.0220746 0.0235104 0.0200678 0.00936173 0.039799 0.0332552 0.0295884 0.119596 0.0477608 0.053675 0.0712319
internal_weight=27903 21511 6391.95 3185.18 20594.9 12189.5 8405.43 7643.9 7114.11 6435.77 678.344 11011.7 8245.4 1050.07 1029.52 5729.72 8209.11 907.076 7302.04 6934.79 6818.05 5629.15 3106.86 730.962 2522.29 2419.53 102.754 690.974 670.382 534.349
internal_count=84321 78597 5724 3434 77574 36431 41143 38874 34774 31624 3150 34888 27289 1601 1473 25118 27205 3871 23334 22290 21806 24858 15168 2994 9690 9215 475 2681 2559 1859
is_linear=0
shrinkage=0.1


Tree=16
num_leaves=31
num_cat=0
split_feature=186 196 191 30 30 116 32 9 146 136 16 34 31 56 32 63 30 58 62 228 24 2 165 160 20 77 132 127 58 26
split_gain=2456.39 258.482 221.42 192.61 138.774 111.656 110.044 128.772 99.7161 132.123 94.5082 93.8995 102.532 84.1636 84.5725 85.3599 94.1944 91.5333 91.4951 79.5688 84.5962 79.4122 76.5122 73.3373 71.3611 90.6801 77.2933 69.4414 81.9698 68.3566
threshold=1.5000000000000002 2.5000000000000004 1.0000000180025095e-35 131.50000000000003 88.500000000000014 1.0000000180025095e-35 46.500000000000007 5.5000000000000009 15.500000000000002 1.0000000180025095e-35 19.500000000000004 36.500000000000007 83.500000000000014 37.500000000000007 445.50000000000006 18.500000000000004 249.50000000000003 7.5000000000000009 21.500000000000004 1.0000000180025095e-35 321.50000000000006 4.5000000000000009 1.5000000000000002 4.5000000000000009 8.5000000000000018 1.0000000180025095e-35 13.500000000000002 20404.000000000004 23.500000000000004 97.500000000000014
decision_type=2 2 2 2 2 2 2 2 2 2 2 2 2 2 2 2 2 2 2 2 2 2 2 2 2 2 2 2 2 2
left_child=2 3 4 -2 5 11 7 23 9 13 24 -1 -13 14 15 16 22 -17 21 20 -5 -19 29 -6 -11 26 -26 -28 -29 -8
right_child=1 -3 -4 19 6 -7 8 -9 -10 10 -12 12 -14 -15 -16 17 -18 18 -20 -21 -22 -23 -24 -25 25 -27 27 28 -30 -31
leaf_value=0.021676641462281824 0.085750654807295948 0.10792242799431651 0.092210073301696088 0.031401161398351855 -0.047111609221182738 0.039546552648745466 -0.0045475585062115971 0.081520441640184516 -0.074876187879936648 0.18125409636408285 -0.0033361407999717868 -0.046668074028834119 0.53800045506340666 -0.1051447153158007 0.19855967446513381 0.25832394519483415 -0.043558669366453327 0.18498832313072977 -0.017616421043117093 0.10347244363341282 -0.072311380111167597 -0.062210236451114245 0.043338869102352746 0.10121447999984029 -0.029926559764097166 0.090673074255910091 0.16561430992607018 0.0034077256644984124 0.38584857221535729 0.057460518425862354
leaf_weight=10391.031470187008 2177.5289546698332 3881.9859445765615 441.63882485032082 735.36242471635342 717.09038571640849 4147.2380545437336 1964.9812663458288 98.242054838687181 125.34612657502294 49.641378983855247 272.875831913203 252.22398549318314 3.0355493873357764 66.767176371067762 23.189531330019236 23.01348651945591 383.02606204152107 57.817986991256475 97.816610272973776 133.73230269551277 88.067012377083302 16.763438556343317 533.88028617948294 34.959263641387224 163.59500091895461 375.19723716005683 49.932351164519787 105.55992425233126 5.9185809195041648 195.46503015235066
leaf_count=33645 2202 3175 430 1322 4389 11110 10976 378 1285 62 1701 1619 4 648 69 70 3624 183 654 117 389 142 1915 132 785 1248 189 620 28 1210
internal_value=0.0395752 0.0906752 0.0221666 0.0693163 0.0206318 0.025627 0.00684774 -0.0261512 0.0130681 0.0155818 0.0470556 0.0202047 -0.0397152 0.00600947 0.00826115 0.00691277 0.00284313 0.0710017 0.045996 0.0319284 0.0203089 0.129426 0.00943962 -0.0402166 0.0653936 0.0571796 0.0185137 0.0676095 0.0237122 0.00106258
internal_weight=27612.9 7016.68 20596.2 3134.69 20154.6 14793.5 5361.08 850.292 4510.79 4385.44 1022.72 10646.3 255.26 3362.72 3295.95 3272.76 3077.35 195.412 172.398 957.162 823.429 74.5814 2694.33 752.05 749.844 700.203 325.006 161.411 111.479 2160.45
internal_count=84321 7205 77116 4030 76686 46378 30308 4899 25409 24124 4633 35268 1623 19491 18843 18774 17725 1049 979 1828 1711 325 14101 4521 2932 2870 1622 837 648 12186
is_linear=0
shrinkage=0.1


Tree=17
num_leaves=31
num_cat=0
split_feature=189 221 221 31 179 35 186 138 86 121 92 29 146 31 0 18 18 32 14 30 27 77 27 31 0 91 26 20 126 186
split_gain=2246.51 246.889 183.024 144.458 106.464 139.189 144.318 127.791 98.9258 97.549 91.9917 91.1912 88.9737 83.0952 78.9324 82.5716 77.6065 76.6691 76.4241 76.1004 71.9153 70.482 165.098 83.3938 82.0329 71.2712 75.1794 92.0789 94.0504 69.7825
threshold=1.0000000180025095e-35 1.0000000180025095e-35 1.0000000180025095e-35 54.500000000000007 1.0000000180025095e-35 23.500000000000004 1.0000000180025095e-35 89.500000000000014 16.500000000000004 1.0000000180025095e-35 24.500000000000004 41.500000000000007 11.500000000000002 33.500000000000007 1.0000000180025095e-35 19.500000000000004 8.5000000000000018 32.500000000000007 4.5000000000000009 502.50000000000006 8.5000000000000018 1.0000000180025095e-35 15.500000000000002 33.500000000000007 11.500000000000002 12.500000000000002 25.500000000000004 10.500000000000002 351797.50000000006 7.5000000000000009
decision_type=2 2 2 2 2 2 2 2 2 2 2 2 2 2 2 2 2 2 2 2 2 2 2 2 2 2 2 2 2 2
left_child=1 4 3 -2 5 6 -1 -6 9 12 -9 -12 17 -11 -15 16 -16 20 -18 29 -7 23 25 24 -19 26 -23 -28 -29 -5
right_child=2 -3 -4 19 7 8 -8 10 -10 13 11 -13 -14 14 15 -17 18 21 -20 -21 -22 22 -24 -25 -26 -27 27 28 -30 -31
leaf_value=0.020356121376750802 0.089314433362961881 0.086971545636878367 0.11018655370641597 0.0300422010170192 0.05101844937353596 -0.013297559022983305 0.05755924905652933 -0.061110011914015938 -0.052706119658801003 -0.011524944426238304 0.18872553097801059 -0.12084781361741033 -0.091900449085878827 -0.0075807320680772493 -0.078005840369957904 0.026736799706916916 0.14400980145644129 0.029575161659036026 0.050696825462608786 -0.051980926418530297 -0.10415984591201054 -0.048671978856322996 -0.083144771918641891 -0.01084392335167484 0.20968780136721732 -0.067352862456091123 0.21728206838853539 0.10218479771258092 0.00093512805330021745 0.091979815665671788
leaf_weight=10682.428830061108 2007.7989531755447 557.86002487689257 2787.2266632765532 557.94037207961082 1731.0578021928668 285.69082734361291 1155.4940900951624 180.17264570295811 272.44041746482253 683.72070560604334 32.32406435161829 13.485019404441116 110.568563926965 538.06942563131452 29.881231244653463 2067.1295311488211 150.78085822239518 250.41361401230097 210.02832400426269 79.862778194248676 125.31610126048326 50.045556057244539 100.27264490351081 1891.6844981387258 28.127487033605576 42.607203904539347 44.368024293333292 252.3507942147553 144.14900372177362 269.89398396015167
leaf_count=33777 1934 567 2290 953 4607 1412 1554 1495 1930 2881 85 120 1056 2601 168 9823 290 1124 684 295 762 230 755 10890 82 262 76 730 636 252
internal_value=0.0360298 0.0213095 0.0918641 0.0743478 0.0195712 0.0172969 0.0239875 0.0417857 0.00641383 0.00871307 -0.0289387 0.0975951 -0.00369966 0.0199316 0.0271106 0.0347052 0.0768659 -0.000666326 0.089692 0.041242 -0.0410015 0.00524591 0.0345837 -0.0033219 0.0477632 0.0567102 0.0674778 0.0806627 0.0653751 0.0502354
internal_weight=27333.2 21630.5 5702.72 2915.5 21072.6 19115.6 11837.9 1957.04 7277.64 7005.2 225.982 45.8091 3325.59 3679.61 2995.89 2457.82 390.69 3215.03 360.809 907.697 411.007 2804.02 633.793 2170.23 278.541 533.521 490.913 440.868 396.5 827.834
internal_count=84321 78597 5724 3434 78030 71723 35331 6307 36392 34462 1700 205 18015 16447 13566 10965 1142 16959 974 1500 2174 14785 2689 12096 1206 1934 1672 1442 1366 1205
is_linear=0
shrinkage=0.1


Tree=18
num_leaves=31
num_cat=0
split_feature=193 191 191 31 30 116 34 31 32 137 130 149 155 9 8 131 32 140 30 89 137 131 138 113 13 137 14 8 62 29
split_gain=2071 214.404 209.467 166.716 109.119 105.742 120.205 100.912 93.3758 90.6232 87.115 94.0721 82.5831 78.7708 72.8584 88.9037 91.7771 82.7566 73.5961 71.5343 83.233 100.114 72.6011 67.5596 65.0813 64.8944 65.9525 83.5376 72.5057 66.5154
threshold=2.5000000000000004 1.0000000180025095e-35 1.0000000180025095e-35 45.500000000000007 101.50000000000001 1.0000000180025095e-35 36.500000000000007 47.500000000000007 196.50000000000003 17.500000000000004 12.500000000000002 1.5000000000000002 1.0000000180025095e-35 7.5000000000000009 8.5000000000000018 1.5000000000000002 23.500000000000004 11.500000000000002 13.500000000000002 1.5000000000000002 20.500000000000004 15.500000000000002 12.500000000000002 1.5000000000000002 2.5000000000000004 2.5000000000000004 6.5000000000000009 7.5000000000000009 4.5000000000000009 10.500000000000002
decision_type=2 2 2 2 2 2 2 2 2 2 2 2 2 2 2 2 2 2 2 2 2 2 2 2 2 2 2 2 2 2
left_child=2 3 4 -2 5 6 14 13 -5 10 11 -9 19 -6 17 16 -16 18 24 20 -11 23 -21 -22 -1 26 29 28 -28 -20
right_child=1 -3 -4 8 7 -7 -8 9 -10 12 -12 -13 -14 -15 15 -17 -18 -19 25 22 21 -23 -24 -25 -26 -27 27 -29 -30 -31
leaf_value=0.023192819962317063 0.087937513603527737 0.10578122440173283 0.080260446088561935 0.047574522213163967 -0.035516012309459187 0.033494966046716833 -0.038853247493845174 -0.0092269407905596242 -0.049114092612845821 0.099534298095327517 -0.094111604383884745 0.1302135433278023 -0.039514038953117336 0.10326313884706542 0.08481070066935624 0.061156165008489118 -0.055765893466868957 -0.068961761715512992 0.0024194416950598903 0.097463030688203778 -0.07817758243544487 0.015070755015494137 0.031967424075638136 0.16361968589156964 0.065209215864643649 0.018274273180498582 0.043806420529005782 -0.1024861780529373 -0.13565257047996587 -0.036396080927592375
leaf_weight=1616.3154925256968 1611.5698342248797 2862.538706086576 536.4137756600976 1092.7383033707738 779.81821781396866 4705.6819797977805 390.3543474599719 1119.6241260394454 109.92917601019144 88.911019925028086 115.84096209332347 50.567079842090607 207.00013683363795 43.163168113678694 67.487132459878922 720.89572598785162 148.92622008174658 115.67225223779678 1434.0370626747608 199.07603810355067 192.46907892078161 764.61516587808728 1129.4999729506671 12.293443039059637 477.58214668929577 5162.4028331041336 581.60490860044956 46.315741129219532 23.42001236975193 637.84726907685399
leaf_count=4405 1604 2579 582 1583 4862 12634 2460 7290 396 382 765 114 1447 158 148 1700 642 487 5215 615 1265 4659 5512 31 1012 16372 2021 220 136 3025
internal_value=0.0328235 0.0865117 0.0185602 0.0669115 0.0169714 0.0208795 0.0156826 0.00356824 0.0387368 0.0103147 -0.0113902 -0.00320135 0.0210759 -0.0282374 0.0176122 0.0442819 -0.011928 0.015136 0.0161107 0.0263306 0.00693356 -0.00155975 0.0417814 -0.0636607 0.032776 0.0116856 -0.000804653 0.0269511 0.0368597 -0.00953025
internal_weight=27044.6 5676.78 21367.8 2814.24 20831.4 16128.5 11422.9 4702.88 1202.67 3879.9 1286.03 1170.19 2593.86 822.981 11032.5 937.309 216.413 10095.2 9979.53 2386.86 1058.29 969.378 1328.58 204.763 2093.9 7885.63 2723.22 651.341 605.025 2071.88
internal_count=84321 6162 78159 3583 77577 50477 37843 27100 1979 22080 8169 7404 13911 5020 35383 2490 790 32893 32406 12464 6337 5955 6127 1296 5417 26989 10617 2377 2157 8240
is_linear=0
shrinkage=0.1


Tree=19
num_leaves=31
num_cat=0
split_feature=187 214 196 30 191 30 172 134 138 25 30 31 32 186 61 30 161 24 126 6 32 146 51 89 137 93 81 160 71 29
split_gain=1881.75 212.079 188.699 135.173 118.813 102.315 100.654 78.6311 78.0114 80.37 75.2069 110.563 115.035 79.4536 69.8824 100.407 79.9131 77.4443 85.9667 122.609 80.2297 73.9731 74.8663 73.5567 71.6667 70.5817 83.7647 75.9399 70.8982 67.6533
threshold=1.5000000000000002 1.0000000180025095e-35 3.5000000000000004 139.50000000000003 1.0000000180025095e-35 249.50000000000003 1.0000000180025095e-35 21.500000000000004 92.500000000000014 107.50000000000001 34.500000000000007 17.500000000000004 57.500000000000007 1.0000000180025095e-35 1.0000000180025095e-35 185.50000000000003 1.0000000180025095e-35 118.50000000000001 310326.00000000006 17.500000000000004 113.50000000000001 5.5000000000000009 1.5000000000000002 4.5000000000000009 53.500000000000007 1.5000000000000002 5.5000000000000009 1.5000000000000002 1.0000000180025095e-35 16.500000000000004
decision_type=2 2 2 2 2 2 2 2 2 2 2 2 2 2 2 2 2 2 2 2 2 2 2 2 2 2 2 2 2 2
left_child=1 4 3 -2 5 6 10 -5 9 -8 13 12 -12 -1 16 17 24 18 19 29 21 23 -23 25 -13 28 -27 -28 -20 -16
right_child=2 -3 -4 7 -6 -7 8 -9 -10 -11 11 14 -14 -15 15 -17 -18 -19 20 -21 -22 22 -24 -25 -26 26 27 -29 -30 -31
leaf_value=0.018911466358215497 0.078310921070781345 0.092137119295513312 0.10088242479850416 0.034171627529584046 0.073214577525700542 -0.018290853685055806 0.040621880298199992 -0.11679984771299473 -0.085164040710440037 0.20534631323371424 -0.036095505152362171 0.0024153451122522949 0.42116782792420548 0.05990066091570867 0.0050475006459770348 -0.035565972840964133 0.049474519592197896 0.073230743219810809 0.025353092984375415 0.078124461456139369 -0.12260644888856853 0.035383566028849345 -0.058239187004886284 -0.049662905614393633 -0.057463732578857021 0.058311988734670375 -0.088200283519785455 0.10890275547367717 -0.08934568381523357 -0.058959809132549168
leaf_weight=6739.7871491536498 1691.670805208385 367.00112360715866 2853.183056101203 682.02427081763744 350.32581062614918 910.4750125259161 1534.517605766654 36.336886435747147 48.353608895093203 30.20247395336628 622.92436872422695 4773.1563193723559 5.5507160164415827 508.59167581796646 324.39285746216774 310.26055229082704 347.98658232390881 289.93547004833817 1696.6830329820514 131.71888303011656 35.80779667198658 154.96713409200311 190.30015263706446 105.61899600178003 208.61505425348878 1329.2511432208121 74.192187204957008 26.539386279881001 55.659047342836857 336.34977085888386
leaf_count=19957 1852 373 2805 1163 402 8002 3813 164 388 49 2676 19514 22 640 1166 2485 934 1263 6492 398 284 572 882 426 1315 3903 355 41 252 1733
internal_value=0.0298852 0.0167707 0.0834802 0.062878 0.0154624 0.0144894 0.0159905 0.026535 0.0399355 0.0438014 0.0138762 0.00867252 -0.0320569 0.0217875 0.0111358 0.0195508 0.00314414 0.0231499 0.0198953 -0.00997308 0.0263465 0.0278145 -0.0162183 0.0324384 -9.21319e-05 0.0351633 0.0516494 -0.0362703 0.02171 -0.0275353
internal_weight=26772.4 21509.2 5263.22 2410.03 21142.2 20791.8 19881.4 718.361 1613.07 1564.72 18268.3 11019.9 628.475 7248.38 10391.4 5061.68 5329.76 4751.42 4461.48 792.462 3669.02 3633.21 345.267 3287.94 4981.77 3182.32 1429.98 100.732 1752.34 660.743
internal_count=84321 78337 5984 3179 77964 77562 69560 1327 4250 3862 65310 44713 2698 20597 42015 20252 21763 17767 16504 3297 13207 12923 1454 11469 20829 11043 4299 396 6744 2899
is_linear=0
shrinkage=0.1


Tree=20
num_leaves=31
num_cat=0
split_feature=193 191 31 119 30 186 32 94 196 31 34 35 117 126 65 33 34 76 95 34 91 148 129 77 126 23 146 82 95 3
split_gain=1703.2 279.438 133.049 112.17 120.734 112.58 89.9121 87.1953 80.8985 73.7073 100.51 104.557 90.1984 88.5859 98.8358 83.0371 80.0411 77.5791 74.1589 71.2847 69.3334 68.8926 67.2803 72.4417 75.6084 70.3056 66.9578 70.4751 66.3448 90.4925
threshold=4.5000000000000009 1.0000000180025095e-35 96.500000000000014 6.5000000000000009 113.50000000000001 1.0000000180025095e-35 16.500000000000004 3.5000000000000004 1.5000000000000002 68.500000000000014 58.500000000000007 62.500000000000007 1.5000000000000002 302144.00000000006 4.5000000000000009 15.500000000000002 90.500000000000014 24.500000000000004 7.5000000000000009 42.500000000000007 12.500000000000002 5.5000000000000009 5621.0000000000009 1.5000000000000002 359125.50000000006 7.5000000000000009 9.5000000000000018 5.5000000000000009 5.5000000000000009 2.5000000000000004
decision_type=2 2 2 2 2 2 2 2 2 2 2 2 2 2 2 2 2 2 2 2 2 2 2 2 2 2 2 2 2 2
left_child=1 3 8 4 5 7 -7 20 -2 17 11 12 15 14 16 -11 -12 -6 -17 -8 26 -22 28 -24 -25 -26 27 -1 -9 -30
right_child=2 -3 -4 -5 9 6 19 22 -10 10 13 -13 -14 -15 -16 18 -18 -19 -20 -21 21 -23 23 24 25 -27 -28 -29 29 -31
leaf_value=0.012658049944676748 0.068754775825437223 0.076417438044893204 0.043302739034458811 0.10044285844361195 -0.021923057137741717 0.078001906317422764 0.031562912850514872 0.052753987129169011 0.10323059547190315 -0.0097132286159877096 0.025710841067336898 -0.082223985921503193 0.067660711778394264 -0.027154306096466616 -0.11815032736129281 0.060024702065292306 0.22595430999295393 0.15089719148054515 -0.065831254652610749 -0.093287552582311736 -0.094483297533002747 0.22256598378809089 0.079792979752046439 -0.12145439071833304 -0.14391808211891929 0.060114584806639774 -0.082160049078568304 0.13273588272013456 -0.044964248785981965 0.068781516830568684
leaf_weight=13638.834306009114 927.27340866625309 749.39730762690306 606.23258881270885 150.13139809295535 1515.5438768416643 458.3197910785675 1666.1963481158018 259.70488797128201 2558.8763724714518 619.06792917847633 41.140325285494328 87.935708958655596 448.15750213339925 869.11829520761967 21.615870624780655 419.26567432656884 38.776168778538704 26.427934914827347 52.703551027923822 47.022170037031174 92.563576877117157 7.4016354084014884 510.50261744856834 36.25990703701973 18.994256779551506 152.33554774522781 74.205113902688026 49.053426668047905 255.85969209671021 96.255311839282513
leaf_count=46450 1095 867 1032 207 8834 496 2645 624 2541 3581 246 858 1537 6737 225 1941 146 62 358 143 446 3 1056 147 74 331 414 78 927 220
internal_value=0.0272198 0.0163833 0.0865414 0.0143056 0.0137042 0.0173629 0.0386607 0.0143186 0.0940604 -0.00164175 0.00863853 0.0238308 0.0298898 -0.0168287 0.0715582 0.014375 0.122871 -0.0189611 0.0459707 0.0281362 0.011972 -0.0710083 0.0387778 0.0595391 0.00973096 0.0374948 0.0125748 0.0130884 0.0144103 -0.0138703
internal_weight=26495.2 22402.8 4092.38 21653.4 21503.3 17363.5 2171.54 15192 3486.15 4139.75 2597.78 1627.13 1539.19 970.651 101.532 1091.04 79.9165 1541.97 471.969 1713.22 13862.1 99.9652 1329.91 718.092 207.59 171.33 13762.1 13687.9 611.82 352.115
internal_count=84321 79653 4668 78786 78579 54054 3284 50770 3636 24525 15629 8275 7417 7354 617 5880 392 8896 2299 2788 47391 449 3379 1608 552 405 46942 46528 1771 1147
is_linear=0
shrinkage=0.1


Tree=21
num_leaves=31
num_cat=0
split_feature=190 193 214 32 113 18 91 94 32 18 35 1 34 35 10 27 0 34 25 2 24 12 144 137 137 188 130 88 131 16
split_gain=1539.71 275.147 122.69 105.621 86.9604 91.5767 83.535 121.518 103.934 94.683 97.7398 93.0387 86.4586 84.7539 75.852 72.3943 85.0114 71.5862 70.1633 67.4984 63.0939 135.12 75.227 71.7836 65.8155 62.4296 65.6666 60.3197 71.7336 66.8737
threshold=1.0000000180025095e-35 5.5000000000000009 1.0000000180025095e-35 53.500000000000007 4.5000000000000009 81.500000000000014 17.500000000000004 4.5000000000000009 70.500000000000014 76.500000000000014 44.500000000000007 1.0000000180025095e-35 33.500000000000007 3.5000000000000004 2.5000000000000004 6.5000000000000009 1.5000000000000002 16.500000000000004 27.500000000000004 61.500000000000007 121.50000000000001 46.500000000000007 23.500000000000004 17.500000000000004 6.5000000000000009 3.5000000000000004 72.500000000000014 2.5000000000000004 16.500000000000004 6.5000000000000009
decision_type=2 2 2 2 2 2 2 2 2 2 2 2 2 2 2 2 2 2 2 2 2 2 2 2 2 2 2 2 2 2
left_child=1 4 3 -2 5 6 7 9 -8 10 11 12 27 -13 -7 -11 -17 -9 -3 25 -15 23 24 -22 -23 26 -5 28 29 -1
right_child=2 18 -4 19 -6 14 8 17 -10 15 -12 13 -14 20 -16 16 -18 -19 -20 -21 21 22 -24 -25 -26 -27 -28 -29 -30 -31
leaf_value=0.0039555621839189583 0.084104424174816908 0.086134091063025525 0.10287441794887059 0.02814075648286455 0.075973113511536086 -0.1115920676129024 -0.075258647580913607 -0.14209536304770229 0.022199716304754515 -0.1443472470267797 -0.022833808299676756 0.095635625839032082 -0.037815956798737185 0.017708091501225237 -0.0071471605543038377 0.24017370217467732 0.065449376571082865 0.051934643922804981 0.036218988884109536 -0.15824938966365221 -0.12388882989496844 0.33219935187452804 0.50367500337065396 0.061202642924850031 0.064217688203636311 0.073405652975915725 -0.096765242514692873 0.036289394903378347 -0.044055375499045563 0.040762545127397971
leaf_weight=5648.0082779340446 1169.8293654173613 608.92381715029478 1863.7670929804444 282.7932066693902 213.56051167473197 73.235227648168802 233.04783548042178 19.384103566408157 206.2862928584218 13.176266629248856 771.88010128960013 145.92490877211094 439.52362474426627 9416.9567613191903 1375.5396634228528 34.315375570207834 147.71699057891965 998.02771179005504 523.89393901079893 17.855446927249432 25.681928273290396 14.787703875452278 7.9520069062709799 113.80072012543678 24.101809863001108 283.9660492837429 49.449854373931885 676.59507717564702 285.97580190747976 540.89517606794834
leaf_count=18575 1297 645 2022 450 418 612 1191 74 1001 91 5068 200 2644 29862 9779 104 633 2680 845 107 224 18 22 504 107 339 164 1699 1318 1628
internal_value=0.0247892 0.0150196 0.0848808 0.0662899 0.0124802 0.011841 0.0136199 0.0146002 -0.0294977 0.0127308 0.0119842 0.0135341 0.00523288 0.0199976 -0.0124268 0.0820029 0.0983871 0.0482379 0.0630499 0.0334226 0.0188482 0.0764724 0.223423 0.0271231 0.166117 0.0389765 0.0095502 0.00787862 0.00490983 0.0071724
internal_weight=26226.9 22559.2 3667.66 1803.89 21426.4 21212.8 19764 19324.7 439.334 18307.3 18112.1 17340.2 7591 9749.21 1448.77 195.209 182.032 1017.41 1132.82 634.065 9603.28 186.324 46.8415 139.483 38.8895 616.209 332.243 7151.47 6474.88 6188.9
internal_count=84321 79942 4379 2357 78452 78034 67643 65451 2192 62697 61869 56801 25864 30937 10391 828 737 2754 1490 1060 30737 875 147 728 125 953 614 23220 21521 20203
is_linear=0
shrinkage=0.1


Tree=22
num_leaves=31
num_cat=0
split_feature=195 214 19 191 111 144 121 30 30 198 119 91 167 147 23 31 80 29 96 27 19 30 137 30 17 25 29 24 27 27
split_gain=1409.73 229.34 101.529 94.4677 86.5111 79.5319 78.5199 115.022 74.5384 71.651 63.4594 68.4806 86.3655 64.8112 63.0943 79.2358 81.8471 96.2093 79.4175 73.7876 62.4997 90.101 81.8526 82.1725 68.2152 111.581 80.0741 73.9709 89.4852 62.2356
threshold=2.5000000000000004 1.0000000180025095e-35 75.500000000000014 1.0000000180025095e-35 2.5000000000000004 51.500000000000007 1.0000000180025095e-35 144.50000000000003 13.500000000000002 1.5000000000000002 6.5000000000000009 16.500000000000004 6.5000000000000009 5.5000000000000009 18.500000000000004 77.500000000000014 1.5000000000000002 25.500000000000004 1.0000000180025095e-35 9.5000000000000018 3.5000000000000004 57.500000000000007 2.5000000000000004 24.500000000000004 9.5000000000000018 66.500000000000014 24.500000000000004 95.500000000000014 8.5000000000000018 6.5000000000000009
decision_type=2 2 2 2 2 2 2 2 2 2 2 2 2 2 2 2 2 2 2 2 2 2 2 2 2 2 2 2 2 2
left_child=1 3 9 5 -4 6 7 8 -1 -2 11 -8 14 -14 15 16 -13 18 19 -18 21 -10 24 -24 25 26 27 29 -29 -22
right_child=2 -3 4 -5 -6 -7 10 -9 20 -11 -12 12 13 -15 -16 -17 17 -19 -20 -21 22 -23 23 -25 -26 -27 -28 28 -30 -31
leaf_value=0.025863875197879062 0.071724835424005109 0.075712978072258449 -0.045091257428025701 0.056691650469737079 0.092972647533796277 -0.10301699710093495 0.019944377932570898 -0.030940643819974162 -0.0058034115606964516 0.10261488176660725 0.087714003245920477 -0.10450613422979696 -0.073496827297301129 0.12721060660684799 -0.078209868385968953 0.03980812917337799 -0.044266604705783932 -0.13052997126136948 -0.16055480852978138 0.10892716627550308 0.016824196619267717 -0.090033480894817719 0.04784650010658667 0.010491855665498999 -0.10095770761752126 0.2627020433011053 -0.12260247585671667 0.34786832268378454 -0.12071757595666699 -0.019627269757316199
leaf_weight=2075.9139418900013 1356.7892743200064 582.61999788880348 108.2586290165782 466.2367510125041 78.14570801705122 60.796286996454 8607.0885585807264 780.95135876536369 1432.6354659423232 1681.545757651329 129.94748168811202 117.57893335819244 20.896039854735136 69.934296533465385 158.06950617209077 220.55030021816492 46.101874895393848 44.456203211098909 18.358401175588369 98.871230941265821 776.7032585516572 139.35040735080838 669.24720391631126 4904.7962513044477 76.256148107349873 15.494695313274859 57.88136588409543 12.524573065340521 6.0411977395415297 1179.9756637588143
leaf_count=5247 1739 692 317 625 93 731 29231 6408 4960 1905 190 700 128 238 1294 1014 200 339 96 222 2629 845 1560 16636 583 64 522 23 48 5042
internal_value=0.0225445 0.0137804 0.0844257 0.0121541 0.0127888 0.0111981 0.0115187 0.00618085 0.00873576 0.0888207 0.0183102 0.0173509 -0.0107338 0.0810367 -0.0225743 -0.00646514 -0.0378316 -0.000103023 0.0353971 0.0602111 0.00490049 -0.0132701 0.0086106 0.0149768 -0.00808952 -0.00463267 -0.00667006 -0.00327284 0.195393 -0.00515787
internal_weight=25994 22769.3 3224.74 22186.7 186.404 21720.4 21659.6 12127.8 11346.8 3038.34 9531.85 9401.91 794.817 90.8303 703.986 545.917 325.367 207.788 163.332 144.973 9270.91 1571.99 7698.92 5574.04 2124.88 2048.62 2033.13 1975.24 18.5658 1956.68
internal_count=84321 80267 4054 79575 410 78950 78219 44567 38159 3644 33652 33462 4231 366 3865 2571 1557 857 518 422 32912 5805 27107 18196 8911 8328 8264 7742 71 7671
is_linear=0
shrinkage=0.1


Tree=23
num_leaves=31
num_cat=0
split_feature=195 221 25 186 32 121 198 145 0 126 130 28 25 64 12 30 8 52 1 1 13 121 117 28 33 20 24 95 31 15
split_gain=1268.59 199.703 101.357 87.4004 134.624 98.3693 75.1533 68.3106 63.292 61.42 56.4994 96.609 64.9583 61.5126 64.9821 97.5498 74.8186 89.2459 74.1992 76.5498 94.2081 69.7411 68.8819 81.3069 78.3588 63.5171 54.4595 104.461 82.4488 57.6715
threshold=2.5000000000000004 1.0000000180025095e-35 49.500000000000007 1.0000000180025095e-35 16.500000000000004 1.0000000180025095e-35 3.5000000000000004 26.500000000000004 30.500000000000004 302144.00000000006 1.0000000180025095e-35 22.500000000000004 27.500000000000004 7.5000000000000009 10.500000000000002 54.500000000000007 7.5000000000000009 1.5000000000000002 2.5000000000000004 1.0000000180025095e-35 1.5000000000000002 3.5000000000000004 1.0000000180025095e-35 11.500000000000002 14.500000000000002 5.5000000000000009 56.500000000000007 5.5000000000000009 72.500000000000014 16.500000000000004
decision_type=2 2 2 2 2 2 2 2 2 2 2 2 2 2 2 2 2 2 2 2 2 2 2 2 2 2 2 2 2 2
left_child=1 3 -2 10 -5 8 -4 -7 -6 -9 11 13 -13 14 15 18 -16 -18 19 21 -21 22 23 25 -24 -1 27 28 -14 -28
right_child=2 -3 6 4 5 7 -8 9 -10 -11 -12 12 26 -15 16 -17 17 -19 -20 20 -22 -23 24 -25 -26 -27 29 -29 -30 -31
leaf_value=-0.017552192094482756 0.091850271442740467 0.071606027137139969 0.025041575792435784 0.073318116947298936 0.0021840546601414349 0.037702731299196129 0.090576128096362604 0.12930171464152201 -0.12290260882802354 -0.14626314283813313 0.010757387199071896 -0.1186450499510634 -0.06849855796547058 0.24856088413033395 0.056915755985012577 -0.09136106505900278 -0.081388013274310722 0.091374907055203181 -0.077785336279015696 0.084418735584498417 0.0062599719449333586 -0.15472239074166785 0.023473182400404424 -0.094626967826732716 0.20985208898489907 0.047777001100055498 -0.071975234686109599 0.19824423048517825 0.41434882135620549 0.10047370230530819
leaf_weight=937.72094464302063 2274.9212957471609 555.85142095386982 470.11159560829401 499.82426704466343 1432.1341464109719 1599.1716359853745 278.74284216016531 10.403807282447813 41.626515407115221 36.343316342681646 15179.497112140059 102.26833182200789 53.522729638963938 10.133642643690107 380.19759681075811 124.23533895984292 97.569282539188862 43.113731183111668 117.76673166453838 223.23781874775887 498.794936388731 32.223346367478371 213.32012182474136 117.54911825805902 25.225104123353958 176.90091252326965 184.59477289766073 28.292242556810379 3.7866213098168364 21.669281430542469
leaf_count=3325 2842 692 843 570 3068 2938 369 27 214 254 58434 733 363 15 1309 889 500 110 471 501 1715 151 591 668 39 619 1837 61 20 153
internal_value=0.0204928 0.0124035 0.081346 0.0109206 0.0251362 0.0174167 0.0494352 0.0342196 -0.00134903 -0.0849348 0.00815001 -0.00351782 -0.0500621 0.00260117 0.00176698 -0.0050095 0.0338615 -0.0284431 -0.000430282 0.00366408 0.0304251 -0.00919226 -0.0060037 -0.0155259 0.0431819 -0.00718384 -0.0260309 0.0410217 -0.0365952 -0.0538584
internal_weight=25770.8 22747 3023.78 22191.1 3619.5 3119.68 748.854 1645.92 1473.76 46.7471 18571.6 3392.12 394.134 2997.99 2987.85 2466.97 520.881 140.683 2342.74 2224.97 722.033 1502.94 1470.72 1232.17 238.545 1114.62 291.866 85.6016 57.3094 206.264
internal_count=84321 80267 4054 79575 7071 6501 1212 3219 3282 281 72504 14070 3167 10903 10888 8969 1919 610 8080 7609 2216 5393 5242 4612 630 3944 2434 444 383 1990
is_linear=0
shrinkage=0.1


end of trees

feature_importances:
click_item_num_90d=66
click_cate2_num_90d=28
click_brand_num_90d=26
click_seller_num_90d=24
cb_clk_item_90d=23
c2_clk_num_90d=23
click_cnt_days_90d=22
cb_clk_num_90d=19
click_cnt_days_60d=16
click_brand_num_60d=15
click_item_num_60d=14
c2_clk_item_90d=14
click_cate1_num_60d=13
click_seller_num_30d=12
cb_clk_day_90d=12
c2_clk_item_3d=12
click_brand_num_3d=10
pay_item_num_90d=10
c2_cart_item_90d=10
click_cnt_days_30d=9
click_seller_num_60d=9
cb_clk_num_60d=9
cart_brand_num_15d=8
pay_brand_num_60d=8
c2_clk_item_60d=8
click_item_num_3d=7
click_seller_num_7d=7
click_item_num_30d=7
click_brand_num_30d=7
cart_cate1_num_90d=7
pay_item_num_60d=7
pay_brand_num_90d=7
pay_seller_num_90d=7
brand_click_num=7
cb_clk_item_60d=7
cart_item_num_90d=6
cb_clk_item_30d=6
cb_clk_day_30d=6
c2_cart_num_90d=6
click_seller_num_15d=5
clt_brand_num_90d=5
cart_item_num_30d=5
cb_clk_day_60d=5
c2_clk_item_30d=5
c2_clk_item_7d=5
click_seller_num_3d=4
click_brand_num_15d=4
click_cate1_num_90d=4
clt_item_num_90d=4
cart_brand_num_90d=4
cart_cate2_num_90d=4
pay_cate1_num_60d=4
pay_cate1_num_90d=4
brand_collect_num=4
cb_clk_num_30d=4
cb_clk_day_15d=4
cb_cart_num_90d=4
cb_pay_item_90d=4
c2_clk_item_15d=4
click_cate2_num_3d=3
click_cate2_num_15d=3
clt_item_num_60d=3
cart_seller_num_60d=3
cart_seller_num_90d=3
pay_seller_num_30d=3
cb_clk_item_1d=3
cb_cart_item_30d=3
c2_clk_num_60d=3
c2_clk_num_30d=3
c2_clk_num_15d=3
click_item_num_7d=2
click_cate1_num_7d=2
click_cate2_num_7d=2
click_item_num_15d=2
click_cate1_num_15d=2
click_cnt_days_15d=2
click_cate2_num_60d=2
clt_seller_num_15d=2
clt_item_num_30d=2
clt_seller_num_60d=2
clt_seller_num_90d=2
cart_item_num_7d=2
cart_brand_num_30d=2
cart_item_num_60d=2
cart_brand_num_60d=2
cart_cate1_num_60d=2
pay_item_num_30d=2
brand_alipay_num=2
cb_clk_item_3d=2
cb_clk_num_15d=2
cb_clk_day_3d=2
cb_cart_item_90d=2
cb_cart_item_15d=2
cb_pay_num_90d=2
c2_clk_num_3d=2
click_cate1_num_3d=1
click_cnt_days_3d=1
click_cnt_days_7d=1
clt_item_num_3d=1
clt_brand_num_3d=1
clt_cate2_num_15d=1
clt_brand_num_30d=1
clt_brand_num_60d=1
clt_cate1_num_60d=1
clt_cate1_num_90d=1
clt_cate2_num_90d=1
cart_brand_num_3d=1
cart_cate2_num_7d=1
cart_item_num_15d=1
cart_cate1_num_15d=1
cart_cate2_num_15d=1
cart_cate2_num_30d=1
pay_item_num_3d=1
pay_item_num_7d=1
pay_brand_num_15d=1
pay_brand_num_30d=1
pay_cate2_num_30d=1
pay_seller_num_60d=1
pay_cate2_num_60d=1
pay_cate2_num_90d=1
cb_clk_item_15d=1
cb_clk_item_7d=1
cb_clk_num_7d=1
cb_clk_num_3d=1
cb_clk_day_7d=1
cb_clt_item_90d=1
cb_clt_item_7d=1
cb_cart_item_1d=1
cb_cart_num_30d=1
cb_cart_num_15d=1
c2_clk_day_90d=1
c2_pay_item_90d=1

parameters:
[boosting: gbdt]
[objective: binary]
[metric: auc]
[tree_learner: serial]
[device_type: cpu]
[data_sample_strategy: bagging]
[data: ]
[valid: ]
[num_iterations: 3]
[learning_rate: 0.1]
[num_leaves: 31]
[num_threads: -1]
[seed: 42]
[deterministic: 0]
[force_col_wise: 0]
[force_row_wise: 0]
[histogram_pool_size: -1]
[max_depth: -1]
[min_data_in_leaf: 20]
[min_sum_hessian_in_leaf: 0.001]
[bagging_fraction: 0.8]
[pos_bagging_fraction: 1]
[neg_bagging_fraction: 1]
[bagging_freq: 5]
[bagging_seed: 400]
[bagging_by_query: 0]
[feature_fraction: 0.9]
[feature_fraction_bynode: 1]
[feature_fraction_seed: 30056]
[extra_trees: 0]
[extra_seed: 12879]
[early_stopping_round: 0]
[early_stopping_min_delta: 0]
[first_metric_only: 0]
[max_delta_step: 0]
[lambda_l1: 0]
[lambda_l2: 0]
[linear_lambda: 0]
[min_gain_to_split: 0]
[drop_rate: 0.1]
[max_drop: 50]
[skip_drop: 0.5]
[xgboost_dart_mode: 0]
[uniform_drop: 0]
[drop_seed: 17869]
[top_rate: 0.2]
[other_rate: 0.1]
[min_data_per_group: 100]
[max_cat_threshold: 32]
[cat_l2: 10]
[cat_smooth: 10]
[max_cat_to_onehot: 4]
[top_k: 20]
[monotone_constraints: ]
[monotone_constraints_method: basic]
[monotone_penalty: 0]
[feature_contri: ]
[forcedsplits_filename: ]
[refit_decay_rate: 0.9]
[cegb_tradeoff: 1]
[cegb_penalty_split: 0]
[cegb_penalty_feature_lazy: ]
[cegb_penalty_feature_coupled: ]
[path_smooth: 0]
[interaction_constraints: ]
[verbosity: -1]
[saved_feature_importance_type: 0]
[use_quantized_grad: 0]
[num_grad_quant_bins: 4]
[quant_train_renew_leaf: 0]
[stochastic_rounding: 1]
[linear_tree: 0]
[max_bin: 255]
[max_bin_by_feature: ]
[min_data_in_bin: 3]
[bin_construct_sample_cnt: 200000]
[data_random_seed: 175]
[is_enable_sparse: 1]
[enable_bundle: 1]
[use_missing: 1]
[zero_as_missing: 0]
[feature_pre_filter: 1]
[pre_partition: 0]
[two_round: 0]
[header: 0]
[label_column: ]
[weight_column: ]
[group_column: ]
[ignore_column: ]
[categorical_feature: ]
[forcedbins_filename: ]
[precise_float_parser: 0]
[parser_config_file: ]
[objective_seed: 16083]
[num_class: 1]
[is_unbalance: 0]
[scale_pos_weight: 9.98563]
[sigmoid: 1]
[boost_from_average: 1]
[reg_sqrt: 0]
[alpha: 0.9]
[fair_c: 1]
[poisson_max_delta_step: 0.7]
[tweedie_variance_power: 1.5]
[lambdarank_truncation_level: 30]
[lambdarank_norm: 1]
[label_gain: ]
[lambdarank_position_bias_regularization: 0]
[eval_at: ]
[multi_error_top_k: 1]
[auc_mu_weights: ]
[num_machines: 1]
[local_listen_port: 12400]
[time_out: 120]
[machine_list_filename: ]
[machines: ]
[gpu_platform_id: -1]
[gpu_device_id: -1]
[gpu_use_dp: 0]
[num_gpu: 1]

end of parameters

pandas_categorical:[]
