tree
version=v4
num_class=1
num_tree_per_iteration=1
label_index=0
max_feature_idx=241
objective=binary sigmoid:1
feature_names=click_item_num_3d click_brand_num_3d click_seller_num_3d click_cate1_num_3d click_cate2_num_3d click_cnt_days_3d click_item_num_7d click_brand_num_7d click_seller_num_7d click_cate1_num_7d click_cate2_num_7d click_cnt_days_7d click_item_num_15d click_brand_num_15d click_seller_num_15d click_cate1_num_15d click_cate2_num_15d click_cnt_days_15d click_item_num_30d click_brand_num_30d click_seller_num_30d click_cate1_num_30d click_cate2_num_30d click_cnt_days_30d click_item_num_60d click_brand_num_60d click_seller_num_60d click_cate1_num_60d click_cate2_num_60d click_cnt_days_60d click_item_num_90d click_brand_num_90d click_seller_num_90d click_cate1_num_90d click_cate2_num_90d click_cnt_days_90d clt_item_num_3d clt_brand_num_3d clt_seller_num_3d clt_cate1_num_3d clt_cate2_num_3d clt_item_num_7d clt_brand_num_7d clt_seller_num_7d clt_cate1_num_7d clt_cate2_num_7d clt_item_num_15d clt_brand_num_15d clt_seller_num_15d clt_cate1_num_15d clt_cate2_num_15d clt_item_num_30d clt_brand_num_30d clt_seller_num_30d clt_cate1_num_30d clt_cate2_num_30d clt_item_num_60d clt_brand_num_60d clt_seller_num_60d clt_cate1_num_60d clt_cate2_num_60d clt_item_num_90d clt_brand_num_90d clt_seller_num_90d clt_cate1_num_90d clt_cate2_num_90d cart_item_num_3d cart_brand_num_3d cart_seller_num_3d cart_cate1_num_3d cart_cate2_num_3d cart_item_num_7d cart_brand_num_7d cart_seller_num_7d cart_cate1_num_7d cart_cate2_num_7d cart_item_num_15d cart_brand_num_15d cart_seller_num_15d cart_cate1_num_15d cart_cate2_num_15d cart_item_num_30d cart_brand_num_30d cart_seller_num_30d cart_cate1_num_30d cart_cate2_num_30d cart_item_num_60d cart_brand_num_60d cart_seller_num_60d cart_cate1_num_60d cart_cate2_num_60d cart_item_num_90d cart_brand_num_90d cart_seller_num_90d cart_cate1_num_90d cart_cate2_num_90d pay_item_num_3d pay_brand_num_3d pay_seller_num_3d pay_cate1_num_3d pay_cate2_num_3d pay_item_num_7d pay_brand_num_7d pay_seller_num_7d pay_cate1_num_7d pay_cate2_num_7d pay_item_num_15d pay_brand_num_15d pay_seller_num_15d pay_cate1_num_15d pay_cate2_num_15d pay_item_num_30d pay_brand_num_30d pay_seller_num_30d pay_cate1_num_30d pay_cate2_num_30d pay_item_num_60d pay_brand_num_60d pay_seller_num_60d pay_cate1_num_60d pay_cate2_num_60d pay_item_num_90d pay_brand_num_90d pay_seller_num_90d pay_cate1_num_90d pay_cate2_num_90d brand_click_num brand_collect_num brand_cart_num brand_alipay_num cb_clk_item_90d cb_clk_item_60d cb_clk_item_30d cb_clk_item_15d cb_clk_item_7d cb_clk_item_3d cb_clk_item_1d cb_clk_num_90d cb_clk_num_60d cb_clk_num_30d cb_clk_num_15d cb_clk_num_7d cb_clk_num_3d cb_clk_num_1d cb_clk_day_90d cb_clk_day_60d cb_clk_day_30d cb_clk_day_15d cb_clk_day_7d cb_clk_day_3d cb_clk_day_1d cb_clt_item_90d cb_clt_item_60d cb_clt_item_30d cb_clt_item_15d cb_clt_item_7d cb_clt_item_3d cb_clt_item_1d cb_cart_item_90d cb_cart_item_60d cb_cart_item_30d cb_cart_item_15d cb_cart_item_7d cb_cart_item_3d cb_cart_item_1d cb_cart_num_90d cb_cart_num_60d cb_cart_num_30d cb_cart_num_15d cb_cart_num_7d cb_cart_num_3d cb_cart_num_1d cb_pay_item_90d cb_pay_item_60d cb_pay_item_30d cb_pay_item_15d cb_pay_item_7d cb_pay_item_3d cb_pay_item_1d cb_pay_num_90d cb_pay_num_60d cb_pay_num_30d cb_pay_num_15d cb_pay_num_7d cb_pay_num_3d cb_pay_num_1d c2_clk_item_90d c2_clk_item_60d c2_clk_item_30d c2_clk_item_15d c2_clk_item_7d c2_clk_item_3d c2_clk_item_1d c2_clk_num_90d c2_clk_num_60d c2_clk_num_30d c2_clk_num_15d c2_clk_num_7d c2_clk_num_3d c2_clk_num_1d c2_clk_day_90d c2_clk_day_60d c2_clk_day_30d c2_clk_day_15d c2_clk_day_7d c2_clk_day_3d c2_clk_day_1d c2_clt_item_90d c2_clt_item_60d c2_clt_item_30d c2_clt_item_15d c2_clt_item_7d c2_clt_item_3d c2_clt_item_1d c2_cart_item_90d c2_cart_item_60d c2_cart_item_30d c2_cart_item_15d c2_cart_item_7d c2_cart_item_3d c2_cart_item_1d c2_cart_num_90d c2_cart_num_60d c2_cart_num_30d c2_cart_num_15d c2_cart_num_7d c2_cart_num_3d c2_cart_num_1d c2_pay_item_90d c2_pay_item_60d c2_pay_item_30d c2_pay_item_15d c2_pay_item_7d c2_pay_item_3d c2_pay_item_1d c2_pay_num_90d c2_pay_num_60d c2_pay_num_30d c2_pay_num_15d c2_pay_num_7d c2_pay_num_3d c2_pay_num_1d
feature_infos=[0:10368] [0:3002] [0:3168] [0:83] [0:1378] [0:4] [0:14154] [0:5052] [0:5698] [0:86] [0:1651] [0:8] [0:25483] [0:8237] [0:9353] [0:86] [0:2301] [0:16] [0:64968] [0:16398] [0:19553] [0:87] [0:3369] [0:31] [0:85166] [0:19814] [0:23730] [0:87] [0:3712] [0:61] [1:120679] [0:24008] [1:28816] [1:87] [1:4024] [1:91] [0:80] [0:52] [0:52] [0:14] [0:26] [0:123] [0:54] [0:54] [0:16] [0:39] [0:207] [0:87] [0:87] [0:26] [0:59] [0:316] [0:274] [0:280] [0:43] [0:156] [0:480] [0:408] [0:421] [0:49] [0:213] [0:705] [0:410] [0:424] [0:49] [0:213] [0:126] [0:62] [0:60] [0:10] [0:23] [0:127] [0:63] [0:61] [0:17] [0:31] [0:167] [0:80] [0:80] [0:22] [0:61] [0:228] [0:112] [0:110] [0:31] [0:90] [0:354] [0:183] [0:180] [0:43] [0:125] [0:485] [0:294] [0:290] [0:48] [0:172] [0:137] [0:26] [0:79] [0:14] [0:80] [0:260] [0:42] [0:133] [0:19] [0:109] [0:449] [0:66] [0:183] [0:29] [0:151] [0:712] [0:149] [0:246] [0:35] [0:180] [0:1051] [0:240] [0:304] [0:43] [0:212] [0:1490] [0:315] [0:375] [0:48] [0:239] [463831:551775] [9774:16559] [10774:12182] [4413:5636] [0:745] [0:619] [0:477] [0:250] [0:221] [0:84] [0:42] [0:1110] [0:1095] [0:930] [0:604] [0:264] [0:132] [0:71] [0:91] [0:61] [0:31] [0:16] [0:8] [0:4] [0:2] [0:11] [0:9] [0:9] [0:9] [0:6] [0:4] [0:2] [0:23] [0:22] [0:15] [0:11] [0:11] [0:11] [0:5] [0:33] [0:31] [0:23] [0:20] [0:20] [0:20] [0:10] [0:51] [0:33] [0:19] [0:12] [0:8] [0:6] [0:4] [0:57] [0:35] [0:21] [0:12] [0:9] [0:6] [0:4] [0:317] [0:311] [0:290] [0:281] [0:279] [0:278] [0:278] [0:948] [0:826] [0:601] [0:361] [0:349] [0:346] [0:346] [0:85] [0:60] [0:31] [0:16] [0:8] [0:4] [0:2] [0:8] [0:7] [0:5] [0:4] [0:4] [0:4] [0:4] [0:32] [0:31] [0:19] [0:10] [0:7] [0:7] [0:4] [0:52] [0:44] [0:25] [0:13] [0:12] [0:12] [0:10] [0:23] [0:21] [0:15] [0:10] [0:5] [0:5] [0:5] [0:51] [0:47] [0:30] [0:19] [0:13] [0:5] [0:5]
tree_sizes=3393 3422 3408 3416 3404 3444 3435 3434 3454 3455 3449 3461 3455 3449 3444 3441 3451 3474 3458 3440 3456

Tree=0
num_leaves=31
num_cat=0
split_feature=187 30 116 195 31 124 30 30 30 33 123 130 30 121 121 33 33 190 122 193 130 193 116 31 24 18 116 94 31 30
split_gain=42230 10293.2 4310.5 4007.35 2355.97 2284.85 2187 1172.91 1117.39 1074.51 979.84 966.786 943.569 825.768 800.58 657.804 646.392 597.255 585.398 564.357 559.176 423.687 420.317 409.237 402.948 397.401 386.729 374.991 371.075 362.972
threshold=1.0000000180025095e-35 84.500000000000014 1.0000000180025095e-35 1.5000000000000002 75.500000000000014 2.5000000000000004 34.500000000000007 156.50000000000003 280.50000000000006 45.500000000000007 2.5000000000000004 1.0000000180025095e-35 31.500000000000004 1.0000000180025095e-35 4.5000000000000009 6.5000000000000009 8.5000000000000018 1.0000000180025095e-35 1.0000000180025095e-35 1.0000000180025095e-35 1.0000000180025095e-35 2.5000000000000004 10.500000000000002 18.500000000000004 70.500000000000014 67.500000000000014 1.5000000000000002 5.5000000000000009 140.50000000000003 226.50000000000003
decision_type=2 2 2 2 2 2 2 2 2 2 2 2 2 2 2 2 2 2 2 2 2 2 2 2 2 2 2 2 2 2
left_child=1 2 6 4 18 7 19 13 20 17 12 15 -4 -3 28 -8 -14 25 24 23 22 -9 -7 -1 -2 -5 -27 -11 -6 -20
right_child=3 5 10 9 14 8 11 21 -10 27 -12 -13 16 -15 -16 -17 -18 -19 29 -21 -22 -23 -24 -25 -26 26 -28 -29 -30 -31
leaf_value=-1.8201455447301977 -1.5478105266607636 -2.1682048153560824 -1.6082790165447916 -1.3550734120194576 -1.8774450431532341 -1.9225959625491797 -2.2114058666269893 -2.243055054221835 -2.1487234629243712 -2.336956612468728 -1.5210550942721928 -1.812511482318609 -1.9913699416976314 -1.9926169073405515 -1.5482595488373516 -2.0033877289998121 -1.7539782076789387 -1.2462979483774614 -1.4026516433564824 -1.5155839138971574 -1.5464407704469181 -1.7228062234951649 -1.517489001065051 -1.9479942076500749 -1.8653034025825723 -2.050909309166189 -1.4759604129693493 -1.2710843732983228 -2.2048781744080879 -2.1272903429634153
leaf_weight=1471.271455898881 318.05245237052441 509.10277542471886 384.2792429998517 284.61075733602047 99.131585918366909 169.58062412589788 179.71466507762671 830.20126761496067 110.23750237375498 13.399482786655428 270.35458882898092 233.47055327892303 145.03309565782547 565.16666167229414 55.54348611831665 986.38458702713251 548.42841255664825 848.70797566324472 415.86027956008911 54.632681466639042 78.521168485283852 15.954734124243258 30.167871423065662 301.71325349062681 45.72073919326067 16.620991431176662 39.506033569574356 4.3795665875077239 53.178025148808956 7.0292621180415145
leaf_count=9957 1373 5040 1868 735 722 1304 1849 8778 1072 153 1102 1564 1205 4702 240 8302 3385 1361 1252 220 338 94 122 2389 328 147 145 8 544 67
internal_value=-1.8064 -1.92832 -1.84145 -1.42518 -1.57382 -2.10045 -1.90419 -2.14519 -1.87928 -1.30273 -1.69127 -1.99826 -1.73397 -2.07583 -1.87325 -2.03545 -1.80363 -1.2912 -1.4947 -1.83215 -1.77254 -2.23325 -1.86141 -1.8419 -1.58771 -1.40303 -1.64622 -2.0744 -1.99177 -1.4147
internal_weight=9085.96 6884.22 4575.28 2201.74 994.516 2308.93 3227.19 1920.43 388.507 1207.22 1348.1 1399.57 1077.74 1074.27 207.853 1166.1 693.462 1189.45 786.663 1827.62 278.27 846.156 199.748 1772.98 363.773 340.738 56.127 17.779 152.31 422.89
internal_count=60366 53291 31841 7075 4526 21450 24281 18614 2836 2549 7560 11715 6458 9742 1506 10151 4590 2388 3020 12566 1764 8872 1426 12346 1701 1027 292 161 1266 1319
is_linear=0
shrinkage=1


Tree=1
num_leaves=31
num_cat=0
split_feature=186 30 122 30 122 189 30 30 27 15 130 228 89 131 31 31 34 30 186 30 27 31 32 116 19 71 56 34 86 20
split_gain=7293.36 3555.3 1197.82 1064.46 905.686 679.037 666.502 590.906 459.086 356.406 327.841 316.993 277.641 268.534 257.298 243.029 240.402 240.009 216.41 205.343 313.143 200.194 236.093 197.557 195.184 189.749 187.29 186.173 182.122 179.293
threshold=1.0000000180025095e-35 103.50000000000001 1.5000000000000002 39.500000000000007 1.5000000000000002 1.0000000180025095e-35 366.50000000000006 222.50000000000003 4.5000000000000009 5.5000000000000009 1.0000000180025095e-35 1.0000000180025095e-35 1.5000000000000002 1.0000000180025095e-35 45.500000000000007 131.50000000000003 23.500000000000004 256.50000000000006 1.5000000000000002 21.500000000000004 3.5000000000000004 35.500000000000007 36.500000000000007 1.0000000180025095e-35 6.5000000000000009 5.5000000000000009 7.5000000000000009 185.50000000000003 1.0000000180025095e-35 18.500000000000004
decision_type=2 2 2 2 2 2 2 2 2 2 2 2 2 2 2 2 2 2 2 2 2 2 2 2 2 2 2 2 2 2
left_child=1 2 3 10 17 7 9 11 16 26 19 14 13 21 -2 -7 -5 -3 25 -1 24 22 -10 -16 -21 -9 -6 -8 -20 -23
right_child=5 4 -4 8 6 15 27 18 12 -11 -12 -13 -14 -15 23 -17 -18 -19 28 20 -22 29 -24 -25 -26 -27 -28 -29 -30 -31
leaf_value=0.3017632018163845 0.37755363508233603 0.087299377017360957 0.37101114604253138 0.029247262893039073 0.19882488825809541 0.43069279416252293 -0.025655120966626574 -0.012828969980245703 0.18525860199471483 0.31078574068733267 0.3775844478666317 0.50246473325233376 0.27988704308124018 0.29637198498774103 0.21861423542408703 0.30262056361702361 0.31231592868215396 -0.026794350974858064 -0.046458413002261861 0.055489408463306057 0.26810964090230277 0.078728287252974233 0.3253355777963165 0.34791122805121233 0.28163218639530518 0.39592512141644387 -0.013202867654166273 0.53706775445942834 0.33305319204665124 0.19214346753882694
leaf_weight=1689.8407936841249 1059.6651771366596 993.51332229375839 1025.6293675377965 204.65522906184196 252.45893879979849 2600.9263997450471 128.47538856416941 69.248073361814022 650.66892541199923 363.43891379982233 373.91366333514452 149.8862447142601 523.69120518863201 227.77835514396429 216.82822642475367 157.11652681976557 35.156133212149143 226.38902816176414 14.956011928617952 122.49663266539574 1199.2750954926014 290.70538640767336 147.62153209745884 259.72192630916834 55.439511455595493 13.584664955735205 49.89447857439518 6.1612643077969542 81.824351198971272 267.7828676700592
leaf_count=7444 2517 8861 3332 1864 1739 2668 1324 622 4321 1939 1418 127 2846 1104 1134 528 198 2437 142 869 6149 2270 768 775 303 43 452 31 322 1819
internal_value=0.29012 0.236866 0.271406 0.253759 0.120361 0.391878 0.203017 0.345284 0.20185 0.244052 0.289182 0.363652 0.216763 0.1959 0.350109 0.423397 0.0707449 0.0661259 0.172856 0.278404 0.249742 0.179033 0.211162 0.289082 0.125949 0.0542072 0.163836 9.62944e-05 0.274405 0.133108
internal_weight=13458.7 8834.99 6814.65 5789.03 2020.33 4623.76 800.429 1865.71 2348.06 665.792 3440.97 1686.1 2108.25 1584.56 1536.22 2758.04 239.811 1219.9 179.613 3067.05 1377.21 1356.78 798.29 476.55 177.936 82.8327 302.353 134.637 96.7804 558.488
internal_count=60366 51488 34705 31373 16783 8878 5485 5682 15190 4130 16183 4553 13128 10282 4426 3196 2062 11298 1129 14765 7321 9178 5089 1909 1172 665 2191 1355 464 4089
is_linear=0
shrinkage=0.1


Tree=2
num_leaves=31
num_cat=0
split_feature=186 30 122 30 124 193 31 30 124 30 122 30 121 191 33 62 27 35 28 33 136 42 130 30 31 9 6 13 29 13
split_gain=3960.23 1911.52 734.558 605.517 532.679 421.959 388.556 365.117 367.646 317.532 330.438 222.027 198.327 194.488 163.653 161.919 161.501 195.275 165.478 152.052 150.386 134.992 134.269 157.174 142.413 131.116 126.043 145.577 125.478 140.727
threshold=1.0000000180025095e-35 122.50000000000001 1.0000000180025095e-35 39.500000000000007 6.5000000000000009 2.5000000000000004 42.500000000000007 320.50000000000006 1.5000000000000002 51.500000000000007 2.5000000000000004 361.50000000000006 4.5000000000000009 1.0000000180025095e-35 45.500000000000007 2.5000000000000004 6.5000000000000009 38.500000000000007 18.500000000000004 8.5000000000000018 1.5000000000000002 1.5000000000000002 1.0000000180025095e-35 118.50000000000001 57.500000000000007 4.5000000000000009 14.500000000000002 17.500000000000004 35.500000000000007 20.500000000000004
decision_type=2 2 2 2 2 2 2 2 2 2 2 2 2 2 2 2 2 2 2 2 2 2 2 2 2 2 2 2 2 2
left_child=1 2 3 25 7 6 -2 8 20 15 19 12 13 21 -7 -4 18 22 26 -11 -3 -8 24 -24 -18 -1 -5 -28 -10 -30
right_child=5 4 9 16 -6 14 11 -9 28 10 -12 -13 -14 -15 -16 -17 17 -19 -20 -21 -22 -23 23 -25 -26 -27 27 -29 29 -31
leaf_value=0.20337674822428858 0.28015810096632521 0.052437859360990005 0.27383747336160363 0.077272076729170885 0.36998239012612999 0.3076340843139227 0.16813361254172465 -0.027213977386299184 0.18746780010873135 0.091634552738403999 0.27326183587699232 0.0037167751438424261 0.30215926410883781 0.2983702220426877 0.085950986387860889 0.16567784625675103 0.15270670914815621 0.026255560082249458 -0.11508490151958217 0.19011045953483516 0.68684582921362969 -0.053616307548525102 0.21076544387828805 0.73207605736795722 0.003250784579648672 0.051771455705805838 0.29048488543638262 -0.050387375928811311 -0.057516406990274452 0.15916316185820809
leaf_weight=3255.4614527598023 1540.5648381188512 878.47639822214842 1577.1564219370484 410.95272520929575 62.8272360637784 3277.233722910285 466.67544511705637 297.35153900831938 405.6411065980792 186.52128067612648 475.6509753242135 56.150941103696823 178.81318862736225 117.11112813651562 33.642982736229897 151.72538948059082 975.89691750705242 120.72914732992649 38.990877509117126 983.83911395072937 3.752512775361537 29.168229311704636 262.36773727089167 5.9138027578592292 68.21253027766943 58.063590034842491 59.110813312232494 15.898503616452215 49.79705572873354 75.295383028686047
leaf_count=13183 2522 7725 4378 3057 167 3167 1948 3106 2182 1170 1157 394 277 159 211 607 5764 962 350 4388 13 200 1113 15 571 328 316 148 386 402
internal_value=0.215251 0.178592 0.197988 0.174667 0.0840093 0.282271 0.250235 0.0735043 0.0947 0.234416 0.20298 0.195869 0.209496 0.182464 0.305381 0.264345 0.130579 0.14796 0.0831267 0.174416 0.0551363 0.155089 0.159156 0.222257 0.142943 0.20072 0.0990301 0.218236 0.160466 0.0729069
internal_weight=16119 10419.6 8646.49 5271.6 1773.14 5699.36 2388.48 1710.31 1412.96 3374.89 1646.01 847.919 791.768 612.955 3310.88 1728.88 1958.07 1433.12 524.953 1170.36 882.229 495.844 1312.39 268.282 1044.11 3313.53 485.962 75.0093 530.734 125.092
internal_count=60366 51488 37507 25807 13981 8878 5500 13814 10708 11700 6715 2978 2584 2307 3378 4985 12296 8425 3871 5558 7738 2148 7463 1128 6335 13511 3521 464 2970 788
is_linear=0
shrinkage=0.1


Tree=3
num_leaves=31
num_cat=0
split_feature=193 30 121 124 31 24 137 115 30 121 33 24 33 35 33 214 61 31 0 30 27 18 32 29 19 9 33 31 26 25
split_gain=2828.47 1333.15 555.18 396.698 389.936 308.19 211.455 201.322 266.072 193.803 162.379 162.105 153.251 140.409 157.242 130.783 121.168 110.317 109.897 100.895 280.056 103.201 100.093 124.552 97.3997 93.7573 91.2399 116.323 101.512 183.805
threshold=1.5000000000000002 122.50000000000001 1.0000000180025095e-35 3.5000000000000004 19.500000000000004 196.50000000000003 1.5000000000000002 1.5000000000000002 54.500000000000007 1.0000000180025095e-35 13.500000000000002 345.50000000000006 45.500000000000007 38.500000000000007 6.5000000000000009 1.0000000180025095e-35 1.5000000000000002 54.500000000000007 3.5000000000000004 12.500000000000002 2.5000000000000004 9.5000000000000018 67.500000000000014 21.500000000000004 20.500000000000004 10.500000000000002 10.500000000000002 113.50000000000001 61.500000000000007 63.500000000000007
decision_type=2 2 2 2 2 2 2 2 2 2 2 2 2 2 2 2 2 2 2 2 2 2 2 2 2 2 2 2 2 2
left_child=1 2 4 5 19 9 13 8 -4 26 -10 18 15 14 -6 17 -8 -2 -5 21 -21 -1 23 24 -11 -15 -3 28 -28 -30
right_child=12 3 7 11 6 -7 16 -9 10 22 -12 -13 -14 25 -16 -17 -18 -19 -20 20 -22 -23 -24 -25 -26 -27 27 -29 29 -31
leaf_value=0.1928064019886005 0.2419830573654625 -0.041006458828386591 0.19942538050950864 0.095848041424712538 0.037767259031283279 -0.016692935530110007 0.21592903727810994 0.22845675316072592 0.1139583241242413 0.078176982430799388 0.17644332440660979 -0.045997210946484651 0.04714921577986958 -0.017384246820840131 0.11958381669359459 0.26662197647724212 0.069911431754254016 0.20177644116345783 0.23828905332257611 0.032761514205711537 0.16374739730647414 -0.12700750541802039 0.1308234479676946 0.010758555312197174 0.27463050025679225 0.38944159810947421 0.041966297336640611 -0.036252977417807267 0.32298423165815493 0.065936468756991259
leaf_weight=1124.148527443409 2259.3531273901463 124.9609547033906 2340.0377171337605 71.886593990027905 265.11973030865192 406.10831262171268 286.81218406558037 968.87026476114988 782.33432622998953 75.843596637248993 887.89204112440348 28.677437037229538 41.221554927527905 119.94530340284109 2060.9166435748339 1378.1626563668251 70.872962526977062 977.73004034161568 219.71170061826706 177.41845265030861 2040.8303475603461 10.181308001279829 650.78010392934084 186.59468775987625 37.822459615767002 5.9456468597054473 197.19694417715073 102.63629815727472 43.44051419198513 77.353280760347843
leaf_count=3387 2124 1168 5918 325 1917 3974 842 1935 3401 470 2919 252 265 929 10260 765 316 1750 628 891 7185 61 3811 1349 151 28 1578 920 247 600
internal_value=0.171991 0.148606 0.162714 0.0778986 0.142648 0.0605673 0.115169 0.187547 0.177664 0.0815317 0.147175 0.180863 0.239108 0.104691 0.110258 0.240823 0.186997 0.229839 0.203174 0.165676 0.153271 0.189936 0.108787 0.0610267 0.143547 0.00182955 0.0340212 0.0563106 0.0861869 0.158377
internal_weight=18020.8 13364.3 11141.3 2223.01 6162.19 1902.74 2809.61 4979.13 4010.26 1496.63 1670.23 320.276 4656.47 2451.93 2326.04 4615.25 357.685 3237.08 291.598 3352.58 2218.25 1134.33 951.041 300.261 113.666 125.891 545.588 420.627 317.991 120.794
internal_count=60366 55462 39989 15473 25816 14268 14292 14173 12238 10294 6320 1205 4904 13134 12177 4639 1158 3874 953 11524 8076 3448 5781 1970 621 957 4513 3345 2425 847
is_linear=0
shrinkage=0.1


Tree=4
num_leaves=31
num_cat=0
split_feature=186 24 189 122 109 30 18 24 15 29 137 117 27 30 3 89 85 26 57 30 18 31 30 27 27 3 24 6 30 147
split_gain=2387.72 803.319 392.191 370.913 298.387 281.867 242.414 195.275 176.36 159.115 146.096 144.762 141.678 141.568 146.78 156.121 153.541 136.299 148.381 135.61 122.552 114.08 112.309 110.73 106.811 159.331 122.632 106.12 104.901 117.865
threshold=1.0000000180025095e-35 76.500000000000014 1.0000000180025095e-35 1.5000000000000002 1.5000000000000002 35.500000000000007 80.500000000000014 166.50000000000003 3.5000000000000004 33.500000000000007 1.5000000000000002 1.0000000180025095e-35 4.5000000000000009 494.50000000000006 10.500000000000002 6.5000000000000009 8.5000000000000018 60.500000000000007 4.5000000000000009 81.500000000000014 41.500000000000007 66.500000000000014 430.50000000000006 11.500000000000002 12.500000000000002 3.5000000000000004 32.500000000000007 33.500000000000007 59.500000000000007 1.5000000000000002
decision_type=2 2 2 2 2 2 2 2 2 2 2 2 2 2 2 2 2 2 2 2 2 2 2 2 2 2 2 2 2 2
left_child=1 3 7 5 6 -1 8 11 -3 10 17 19 -7 14 15 -8 -17 18 20 -2 -10 24 -6 -19 28 26 -26 -11 -14 -30
right_child=2 4 -4 -5 22 12 13 -9 9 27 -12 -13 21 -15 -16 16 -18 23 -20 -21 -22 -23 -24 -25 25 -27 -28 -29 29 -31
leaf_value=0.13680922400630005 0.16634585612976732 0.019708698032425951 0.21090167269993754 0.17157652952511204 0.1924698816236261 0.043280900840511283 -0.001565127051871569 0.069923523248928268 -0.0020814811426902351 0.016486371085493046 0.24815881233981127 0.1948210606766716 0.1184280040791276 -0.11048941210035446 0.29133356839306229 0.3147164152900751 -0.061273321513252516 0.020025026363071588 -0.06065599363055825 0.09523784341390934 0.13690192322597614 0.016575719294049465 -0.060591501988364764 0.21273448299517084 0.029339366588943691 0.022289267712006695 0.17538255284000856 0.26718012363661814 0.073826223322913637 0.36410205432478332
leaf_weight=4797.7002096623182 1006.0881270989776 384.74871031194925 3989.936082303524 1714.1897509470582 211.38390181213617 389.50715915858746 563.1628537401557 212.54299737513065 84.775227971374989 244.40227624773979 84.88981431722641 1212.0370866805315 1460.328657194972 92.701936565339565 19.584997534751892 31.703368544578552 16.520837232470512 36.709942176938057 67.351609222590923 365.67639497667551 252.15224834531546 134.35867075622082 19.123975396156311 158.78598986566067 63.673618704080582 94.431120105087757 592.67709058523178 18.138504341244698 1087.8031678125262 14.170518532395361
leaf_count=14530 1720 2750 3196 3751 619 2598 4745 987 566 1764 266 1629 5901 1095 109 91 126 281 487 1346 1327 958 191 744 299 479 2124 84 5583 20
internal_value=0.142933 0.117236 0.190776 0.129087 0.0635879 0.120652 0.0514901 0.16206 0.0768025 0.0999936 0.125374 0.16964 0.100448 0.00490144 0.0218546 0.0132222 0.185908 0.107995 0.0748453 0.14739 0.101932 0.106907 0.171475 0.176548 0.110571 0.143741 0.161215 0.0338064 0.100851 0.0775589
internal_weight=19421.3 12635 6786.28 10348.8 2286.14 8634.65 2055.63 2796.34 1331.95 947.206 684.665 2583.8 3836.95 723.674 630.972 611.387 48.2242 599.775 404.279 1371.76 336.927 3447.44 230.508 195.496 3313.08 750.782 656.351 262.541 2562.3 1101.97
internal_count=60366 51488 8878 36243 15245 32492 14435 5682 8269 5519 3671 4695 17962 6166 5071 4962 217 3405 2380 3066 1893 15364 810 1025 14406 2902 2423 1848 11504 5603
is_linear=0
shrinkage=0.1


Tree=5
num_leaves=31
num_cat=0
split_feature=188 30 130 122 56 121 124 31 89 30 33 30 130 122 35 191 138 123 31 31 31 18 122 30 23 33 6 193 18 18
split_gain=2047.63 581.853 373.819 347.918 310.216 303.948 187.509 174.234 154.988 151.44 219.948 138.858 135.004 127.069 153.29 118.591 114.842 96.7523 119.556 93.7169 93.4404 91.1321 87.6797 87.1568 85.8885 83.8143 83.3981 81.6794 113.911 81.1559
threshold=1.0000000180025095e-35 81.500000000000014 1.0000000180025095e-35 1.0000000180025095e-35 13.500000000000002 1.0000000180025095e-35 4.5000000000000009 131.50000000000003 5.5000000000000009 21.500000000000004 4.5000000000000009 494.50000000000006 1.0000000180025095e-35 2.5000000000000004 62.500000000000007 1.0000000180025095e-35 1.5000000000000002 1.5000000000000002 63.500000000000007 28.500000000000004 59.500000000000007 74.500000000000014 3.5000000000000004 51.500000000000007 1.5000000000000002 26.500000000000004 35.500000000000007 5.5000000000000009 231.50000000000003 13.500000000000002
decision_type=2 2 2 2 2 2 2 2 2 2 2 2 2 2 2 2 2 2 2 2 2 2 2 2 2 2 2 2 2 2
left_child=1 3 4 9 5 21 11 15 27 -1 -11 19 22 14 -4 17 20 18 -2 -7 24 -3 23 -5 -12 -6 -15 -9 -29 -26
right_child=7 2 13 12 25 6 -8 8 -10 10 16 -13 -14 26 -16 -17 -18 -19 -20 -21 -22 -23 -24 -25 29 -27 -28 28 -30 -31
leaf_value=0.12070368212281223 0.16062901498898835 0.0319656709102943 0.11328640853821162 0.13558959880740393 -0.070033479883546912 -0.0019748246823363736 0.17761278706599834 -0.017688397711017458 0.19742287974672845 -0.0099124174648560475 0.023195068467619546 -0.11047123621706612 0.1730808862804547 0.18217759148165574 -0.011691615178888866 0.19774384862531547 0.14962289290804051 0.18929953679571762 0.075423704832759855 0.086607213886350717 -0.12409081309625165 -0.047335172124220566 0.1807765461171017 0.098056934837485774 0.11072243283707246 0.090926699891214158 0.024885337088821263 0.19089546020671244 -0.082918293638122614 0.079803108405647916
leaf_weight=2701.5190741568804 1187.3856929764152 715.74363593012094 805.73987235873938 2020.8875341415405 233.85313461720943 129.13083141297102 201.25283845514059 97.564636886119843 103.91165643185377 208.08179859817028 175.52090488374233 39.165040731430054 907.86483566462994 343.80322819948196 111.75186914205551 2341.5075852870941 357.52217525243759 1032.1070266887546 191.19563399255276 1590.4224683046341 20.234814584255219 181.70557744055986 301.16736173629761 891.70224026590586 1662.2371570765972 37.544269151985645 37.372954554855824 58.078578881919384 20.57614828646183 1734.9456935226917
leaf_count=7286 1351 5021 3340 4481 2041 726 453 469 108 1211 808 487 1373 599 858 1267 743 800 484 7818 136 1738 362 2814 5839 247 183 61 131 7131
internal_value=0.121815 0.103728 0.0731241 0.116066 0.0544039 0.0641081 0.0861776 0.177197 0.100559 0.10227 0.0902942 0.0757145 0.139029 0.118226 0.0980639 0.181715 0.0955723 0.166146 0.148812 0.0799551 0.0901939 0.0159097 0.12941 0.124099 0.0914076 -0.0477668 0.166756 0.0434404 0.119266 0.0949319
internal_weight=20441.5 15409.2 4427.49 10981.7 3128.82 2857.42 1959.97 5032.33 280.131 6860.06 4158.54 1758.72 4121.62 1298.67 917.492 4752.2 3950.46 2410.69 1378.58 1719.55 3592.94 897.449 3213.76 2912.59 3572.7 271.397 381.176 176.219 78.6547 3397.18
internal_count=60366 55695 23511 32184 18531 16243 9484 4671 769 23154 15868 9031 9030 4980 4198 3902 14657 2635 1835 8544 13914 6759 7657 7295 13778 2288 782 661 192 12970
is_linear=0
shrinkage=0.1


Tree=6
num_leaves=31
num_cat=0
split_feature=193 30 125 30 124 35 27 24 130 187 191 228 30 86 18 9 9 17 123 24 1 61 92 64 31 33 12 26 94 33
split_gain=1864.6 543.019 334.175 257.045 192.821 152.228 189.362 145.947 141.087 129.758 128.612 146.136 128.036 147.075 127.463 114.836 108.421 116.754 102.731 140.127 102.218 114.132 97.0507 95.6877 92.5845 133.501 97.8987 89.948 88.4579 89.5916
threshold=1.5000000000000002 156.50000000000003 1.5000000000000002 59.500000000000007 6.5000000000000009 45.500000000000007 12.500000000000002 7.5000000000000009 1.0000000180025095e-35 1.0000000180025095e-35 1.0000000180025095e-35 1.0000000180025095e-35 222.50000000000003 1.0000000180025095e-35 91.500000000000014 2.5000000000000004 4.5000000000000009 3.5000000000000004 5.5000000000000009 45.500000000000007 1.5000000000000002 13.500000000000002 1.0000000180025095e-35 7.5000000000000009 9.5000000000000018 5.5000000000000009 8.5000000000000018 2.5000000000000004 1.5000000000000002 19.500000000000004
decision_type=2 2 2 2 2 2 2 2 2 2 2 2 2 2 2 2 2 2 2 2 2 2 2 2 2 2 2 2 2 2
left_child=1 2 3 8 14 6 7 -5 9 24 11 12 -2 -14 16 -9 -3 -18 19 -4 22 23 -17 -22 26 -26 -1 -27 29 -8
right_child=10 4 18 5 -6 -7 28 15 -10 -11 -12 -13 13 -15 -16 20 17 -19 -20 -21 21 -23 -24 -25 25 27 -28 -29 -30 -31
leaf_value=0.11070329392783054 0.14252391008288173 0.025145972985135424 0.13494367152472972 0.3126829049428434 0.17398469199864189 -0.020516343241816767 0.11419209392141878 0.024249547819434281 0.12490589580475614 0.15991801690238083 0.1766923944417671 0.1915401947396872 -0.10592275407274242 0.10035680314819861 -0.0059262369512193226 0.080413287103356698 0.41688960480398118 0.085500537813824662 0.17806868754738037 0.09141133643614141 0.10089848131931989 -0.12121651767134954 -0.084291403443674598 0.48508182760608998 0.037936974455724221 -0.13267077897424548 -0.014538161757837337 0.087587515372552285 0.14019566652026288 0.034641157736861244
leaf_weight=1745.9320193603635 2167.8630232289433 584.57553371787071 1814.1621381640434 20.63095710426569 94.62677089869976 210.66310927271843 314.66141496598721 1049.1270963996649 1391.7675195485353 254.41244970262051 2148.6478611826897 543.69257712364197 40.242938756942749 244.94106964021921 675.79764724522829 74.56614451110363 10.988032773137091 327.6698225364089 304.88698336482048 1248.1679948344827 522.85463681071997 23.142023138701916 68.770564056932926 6.5644417181611052 660.84257794171572 18.629593811929226 64.727730982005596 3887.2074310481548 389.30100072175264 257.3648783788085
leaf_count=4365 2647 3898 3285 64 173 1331 1158 5615 2835 284 1153 268 271 565 5611 315 23 1685 338 3602 2203 175 410 7 2705 105 265 12615 1237 1158
internal_value=0.105648 0.0888286 0.095158 0.0866936 0.0352817 0.0613855 0.0677126 0.0482685 0.0959597 0.0898849 0.158021 0.144634 0.134238 0.0712482 0.0270736 0.0451424 0.0512292 0.0962527 0.122712 0.1172 0.0766401 0.0961601 0.00139072 0.105662 0.087091 0.0795041 0.106226 0.086537 0.103425 0.0784007
internal_weight=21167.4 16022 14328.4 10961.2 1693.66 2937.65 2726.98 1765.66 8023.52 6631.75 5145.39 2996.74 2453.05 285.184 1599.03 1745.02 923.233 338.658 3367.22 3062.33 695.898 552.561 143.337 529.419 6377.34 4566.68 1810.66 3905.84 961.327 572.026
internal_count=60366 55462 44072 36847 11390 13673 12342 8789 23174 20339 4904 3751 3483 836 11217 8725 5606 1708 7225 6887 3110 2385 725 2210 20055 15425 4630 12720 3553 2316
is_linear=0
shrinkage=0.1


Tree=7
num_leaves=31
num_cat=0
split_feature=188 56 121 30 172 24 191 25 115 30 122 18 14 27 85 93 135 73 86 131 34 27 24 23 0 12 2 66 26 14
split_gain=1712.16 345.498 275.482 259.828 174.645 171.9 151.763 140.115 138.679 140.209 132.731 129.724 125.094 120.94 108.712 110.266 90.4407 88.8687 81.8113 85.9871 99.3641 83.2915 80.6856 103.4 87.7269 87.3081 116.713 108.538 84.0934 79.8356
threshold=1.0000000180025095e-35 13.500000000000002 1.0000000180025095e-35 34.500000000000007 1.0000000180025095e-35 131.50000000000003 1.0000000180025095e-35 45.500000000000007 1.5000000000000002 54.500000000000007 1.0000000180025095e-35 74.500000000000014 156.50000000000003 10.500000000000002 8.5000000000000018 11.500000000000002 1.5000000000000002 6.5000000000000009 1.0000000180025095e-35 1.5000000000000002 45.500000000000007 11.500000000000002 162.50000000000003 10.500000000000002 2.5000000000000004 3.5000000000000004 7.5000000000000009 1.5000000000000002 40.500000000000007 1.5000000000000002
decision_type=2 2 2 2 2 2 2 2 2 2 2 2 2 2 2 2 2 2 2 2 2 2 2 2 2 2 2 2 2 2
left_child=1 2 3 -1 5 8 7 -2 9 -4 -9 18 16 -7 15 -15 17 -13 19 20 21 -5 25 -24 -25 29 -27 28 -28 -20
right_child=6 -3 4 11 -6 13 -8 10 -10 -11 -12 12 -14 14 -16 -17 -18 -19 22 -21 -22 -23 23 24 -26 26 27 -29 -30 -31
leaf_value=0.083361971559084869 0.14001852930602995 -0.011682122333203841 0.10386111921930846 0.028469447922004433 0.18463867615619756 -0.031311967624386608 0.16174421625001115 0.010596854122688265 0.12425194666268416 0.072142615884469269 0.11388302841067288 -0.044591399992058404 0.68267755491319315 0.050912629159100053 -0.056833792515596608 0.14879755586649851 0.34602683110301158 0.32779747240866075 0.068863387833113202 0.098710304215165412 -0.045498665321886698 0.078198583776847394 -0.11571815715988283 0.61195316348721385 0.17183396566755638 0.044653235045011799 0.25985019675967858 -0.0736337647437421 0.075040122520543082 0.17760051405155861
leaf_weight=4432.3587397485971 1995.9347605109215 426.16878999769688 2881.3222032338381 1392.7081980481744 202.21069073677063 161.30468376725912 2421.4646486490965 170.56168600916862 1348.6222933232784 2699.1792593151331 459.9044182151556 251.9834365695715 2.5148470327258101 379.54417429864407 64.363411985337734 165.16294082254171 6.3791436776518813 6.5757235065102568 145.10060539096594 230.7131867185235 144.97021685540676 444.23729030042887 5.7718844190239933 8.2283822819590586 10.073151156306265 980.36906649917364 63.498089611530304 18.68559493124485 40.214275792241096 126.28878588974476
leaf_count=11859 1867 3060 5878 6819 188 1287 1438 616 2439 9140 750 2265 10 2177 418 592 20 21 630 607 1004 1736 55 18 47 4517 150 115 217 426
internal_value=0.0926731 0.0771965 0.0795328 0.0668222 0.0929013 0.090492 0.143686 0.127037 0.0954741 0.0885195 0.0859407 0.0479197 -0.0192804 0.0456799 0.0660702 0.0805927 -0.0259435 -0.0351207 0.0528971 0.0409315 0.0342055 0.0404957 0.0718322 0.253324 0.369712 0.0686527 0.0561482 0.14822 0.18819 0.119463
internal_weight=21686.4 16638.5 16212.4 8310.67 7901.71 7699.5 5047.87 2626.4 6929.12 5580.5 630.466 3878.31 267.453 770.375 609.071 544.707 264.938 258.559 3610.86 2212.63 1981.92 1836.95 1398.23 24.0734 18.3015 1374.16 1102.77 122.398 103.712 271.389
internal_count=60366 55695 52635 30516 22119 21931 4671 3233 17457 15018 1366 18657 2316 4474 3187 2769 2306 2286 16341 10166 9559 8555 6175 120 65 6055 4999 482 367 1056
is_linear=0
shrinkage=0.1


Tree=8
num_leaves=31
num_cat=0
split_feature=193 30 122 29 130 187 221 12 124 30 33 193 30 30 33 35 24 118 33 111 18 17 27 92 56 33 32 26 33 87
split_gain=1605.81 339.879 226.318 179.075 134.688 134.08 132.6 136.617 131.309 117.447 119.871 110.361 130.029 101.739 91.1995 93.7191 79.7498 129.444 87.4128 76.6385 97.6529 95.323 91.3282 87.9172 82.093 76.0241 129.815 81.3815 80.256 75.3699
threshold=1.5000000000000002 156.50000000000003 1.5000000000000002 24.500000000000004 1.0000000180025095e-35 1.0000000180025095e-35 1.0000000180025095e-35 117.50000000000001 6.5000000000000009 28.500000000000004 4.5000000000000009 5.5000000000000009 52.500000000000007 494.50000000000006 13.500000000000002 45.500000000000007 43.500000000000007 3.5000000000000004 6.5000000000000009 1.0000000180025095e-35 327.50000000000006 9.5000000000000018 28.500000000000004 1.0000000180025095e-35 21.500000000000004 5.5000000000000009 6.5000000000000009 2.5000000000000004 2.5000000000000004 5.5000000000000009
decision_type=2 2 2 2 2 2 2 2 2 2 2 2 2 2 2 2 2 2 2 2 2 2 2 2 2 2 2 2 2 2
left_child=1 2 3 4 5 9 7 11 13 25 -11 12 -2 19 -5 29 -4 18 -18 20 21 23 24 -3 -21 26 -1 -27 -28 -16
right_child=6 8 16 14 -6 -7 -8 -9 -10 10 -12 -13 -14 -15 15 -17 17 -19 -20 22 -22 -23 -24 -25 -26 27 28 -29 -30 -31
leaf_value=0.086886278817702112 0.13844638687329433 -0.046047796272506082 0.11422344758134931 -0.018483291871221923 0.092710474893934497 0.12224081252466111 0.15710007715490321 -0.010345938321365942 0.13620793955645114 -0.025945736396141724 0.054667700165572687 0.1460490207883744 0.088735598917294711 -0.070113989788137945 0.07633261795088242 -0.015116506482990092 -0.10743970579505431 0.13374641322019673 0.067357449418942728 0.049331181109368828 0.42661122533929935 -0.04273162899034931 0.16577440632853149 0.048277613399402342 -0.095224292735372695 -0.062439410483327108 -0.078470036554560016 0.08803977070717231 0.040588629166875445 -0.13252823877048303
leaf_weight=850.18213738501072 916.03478783369064 127.00126575678587 1436.2772894650698 318.72309578210115 2098.9069830328226 387.9343454092741 1437.8218678683043 77.261414147913456 101.29142439365387 192.24000567942858 4557.1236841082573 1388.8376347795129 1236.3953776881099 119.11357694864273 479.51599759608507 181.65644817054272 29.478099875152111 338.51793879270554 970.63458494096994 567.15613580495119 5.4911462217569342 293.80182155221701 63.01769145578146 445.20846695452929 42.209715336561203 36.484904393553734 60.550332635641098 2404.5119699686766 871.84144684672356 17.923429660499096
leaf_count=1946 755 1055 2168 1829 4472 473 769 313 173 1177 17397 1005 2062 1405 1762 1036 143 447 2540 2860 20 2459 221 2834 363 149 254 5629 2541 109
internal_value=0.0819359 0.067218 0.0720306 0.0662777 0.0698156 0.0646821 0.13141 0.121202 0.0256672 0.0621936 0.0514047 0.124072 0.109892 0.0189343 0.0256462 0.0463577 0.0978571 0.0802969 0.0622053 0.0258045 0.00623455 0.00356906 0.0511699 0.0273422 0.0393181 0.0743255 0.0586257 0.0857906 0.0328569 0.0688071
internal_weight=22053.1 16996.8 15232.5 12457.6 11459.8 9360.87 5056.35 3618.53 1764.29 8972.93 4749.36 3541.27 2152.43 1663 997.819 679.096 2774.91 1338.63 1000.11 1543.89 871.503 866.012 672.384 572.21 609.366 4223.57 1782.57 2441 932.392 497.439
internal_count=60366 55462 44072 38774 34038 29566 4904 4135 11390 29093 18574 3822 2817 11217 4736 2907 5298 3130 2683 9812 6368 6348 3444 3889 3223 10519 4741 5778 2795 1871
is_linear=0
shrinkage=0.1


Tree=9
num_leaves=31
num_cat=0
split_feature=189 130 30 56 122 172 116 35 16 30 33 24 128 35 23 122 214 128 13 24 34 91 0 25 8 26 35 6 126 29
split_gain=1509.04 268.041 307.778 163.771 149.322 135.76 132.958 110.436 92.361 91.8054 88.4565 94.4498 85.0325 80.6464 84.0025 80.6339 74.9052 70.5146 90.4479 66.4395 74.4162 84.6319 73.4896 71.9974 82.5634 70.5271 70.3496 82.128 98.811 88.151
threshold=1.0000000180025095e-35 1.0000000180025095e-35 81.500000000000014 13.500000000000002 1.5000000000000002 1.0000000180025095e-35 1.0000000180025095e-35 63.500000000000007 19.500000000000004 160.50000000000003 14.500000000000002 345.50000000000006 12127.500000000002 45.500000000000007 21.500000000000004 1.0000000180025095e-35 1.0000000180025095e-35 11431.500000000002 5.5000000000000009 18.500000000000004 31.500000000000004 1.0000000180025095e-35 14.500000000000002 49.500000000000007 10.500000000000002 70.500000000000014 33.500000000000007 1.0000000180025095e-35 517952.00000000006 14.500000000000002
decision_type=2 2 2 2 2 2 2 2 2 2 2 2 2 2 2 2 2 2 2 2 2 2 2 2 2 2 2 2 2 2
left_child=1 2 6 4 9 7 17 15 -2 13 12 -12 -6 14 19 -3 -10 18 -1 -4 26 -22 23 24 -23 -25 -21 -28 -29 -30
right_child=8 5 3 -5 10 -7 -8 -9 16 -11 11 -13 -14 -15 -16 -17 -18 -19 -20 20 21 22 -24 25 -26 -27 27 28 29 -31
leaf_value=0.053676016151591135 0.13500392592552557 0.067533211441999239 0.18304784644720773 -0.045983803040261895 0.010922094566004209 0.14987249196489516 0.079433427892256214 0.0048028112788733443 0.06213069235154315 -0.018435716117447643 0.086826728509311266 -0.1161541493998068 0.12480346682246449 -0.046045940949432471 0.2044663683260789 0.095887073141550705 0.15121622289234771 0.065612973944610686 0.015298784434603358 -0.019966596726278013 -0.011197049118565913 0.050266258215626303 0.16721014710459206 0.16998103983029358 -0.13264632139700297 -0.062177545928917638 0.23640842797703346 -0.084131387831368351 0.49815201847453849 0.062804961109241872
leaf_weight=2882.8266385272145 3447.3081468343735 2062.8223923146725 29.186738856136799 270.29144374281168 434.42598761618137 278.02108357846737 3297.090680629015 197.92456524074078 331.84019587188959 522.43189273029566 802.13474097847939 23.598446741700172 77.220795065164566 126.01278188824654 29.518156215548515 1952.1568632870913 131.89945101737976 3326.0144477933645 780.35208732634783 393.50847634673119 158.58628233522177 331.38781322538853 70.422903805971146 82.745820082724094 26.662981942296028 15.54342184960842 21.803593002259731 52.439297027885914 4.8458770364522925 115.7167327105999
leaf_count=8556 2435 5334 108 2310 1893 243 6532 1158 689 4310 2366 255 241 857 99 3658 72 9921 3017 2224 912 1388 227 283 159 91 67 363 8 590
internal_value=0.0729673 0.0609566 0.0540835 0.0288673 0.0349645 0.0821911 0.0628804 0.0777246 0.129368 0.0175337 0.0607815 0.0810258 0.0281098 0.0304189 0.0376508 0.0813194 0.0874689 0.0550717 0.0455007 0.0338713 0.0304529 0.0528481 0.0721294 0.0574564 0.0366453 0.133268 0.00436384 0.0535115 0.0304608 0.0803032
internal_weight=22276.7 18365.7 13874.8 3588.48 3318.19 4490.92 10286.3 4212.9 3911.05 1980.81 1337.38 825.733 511.647 1458.38 1332.37 4014.98 463.74 6989.19 3663.18 1302.85 1273.66 685.349 526.763 456.34 358.051 98.2892 588.314 194.805 173.002 120.563
internal_count=60366 57170 46777 18751 16441 10393 28026 10150 3196 11686 4755 2621 2134 7376 6519 8992 761 21494 11573 6420 6312 3060 2148 1921 1547 374 3252 1028 961 598
is_linear=0
shrinkage=0.1


Tree=10
num_leaves=31
num_cat=0
split_feature=189 200 30 123 122 30 134 214 16 122 65 63 12 128 58 186 63 27 126 32 80 16 11 30 25 17 27 27 23 106
split_gain=1387.12 239.473 246.246 168.573 154.574 135.39 103.137 99.2761 109.975 91.5098 90.2567 77.3001 74.7345 74.2276 76.0033 75.1916 67.6366 76.9688 67.8626 66.1323 65.0795 67.2659 77.277 69.0337 66.9027 63.993 62.8234 60.3439 97.5352 68.8785
threshold=1.0000000180025095e-35 1.5000000000000002 79.500000000000014 5.5000000000000009 1.0000000180025095e-35 320.50000000000006 1.0000000180025095e-35 1.0000000180025095e-35 19.500000000000004 1.5000000000000002 13.500000000000002 1.5000000000000002 86.500000000000014 11276.000000000002 4.5000000000000009 1.0000000180025095e-35 12.500000000000002 22.500000000000004 521549.00000000006 39.500000000000007 4.5000000000000009 10.500000000000002 3.5000000000000004 48.500000000000007 30.500000000000004 6.5000000000000009 4.5000000000000009 23.500000000000004 22.500000000000004 1.5000000000000002
decision_type=2 2 2 2 2 2 2 2 2 2 2 2 2 2 2 2 2 2 2 2 2 2 2 2 2 2 2 2 2 2
left_child=1 2 4 5 13 6 9 8 -2 19 12 -6 -5 14 15 20 18 -18 -11 25 21 22 23 -1 -24 -4 -13 -21 -29 -30
right_child=7 -3 3 10 11 -7 -8 -9 -10 16 -12 26 -14 -15 -16 -17 17 -19 -20 27 -22 -23 24 -25 -26 -27 -28 28 29 -31
leaf_value=0.037979934343672896 0.11743400438694246 0.097679238073989247 0.0060763070525788488 0.11818151423783135 0.080178095034560817 -0.036472083659394833 0.10095172329149829 0.14492588514625218 0.055884664153715707 0.032736698064796829 -0.088912606576928468 -0.031470791322060446 -0.043188104638821903 0.057372412557375789 -0.080751097976138497 0.091042359797417469 -0.063468807950805506 0.17330985091867634 0.078495144686285379 0.028230113275240928 0.23851689480200344 -0.048152920352919883 0.10876392020540152 -0.012746606234961908 -0.13333315370064891 -0.083195856785311481 0.056367763299131547 -0.096958265472389726 0.0183779341929803 0.31750788330157337
leaf_weight=1877.3909570947289 2310.2686061710119 1175.9440548941493 255.92540517449379 358.58226012438536 3550.052163079381 314.89837760478258 203.4676239490509 1147.5033681690693 332.02159897238016 667.24041164666414 25.503626547753811 89.970614232122898 31.196577563881874 5133.4738593921065 53.60838757455349 256.46916991472244 90.930428549647331 16.170059204101562 630.24052301049232 2113.3994509130716 15.493285328149794 98.284035593271255 195.20165151357651 313.0109341442585 12.123655088245867 117.00916957110167 857.12728278338909 101.54436913132668 72.064734078943729 8.6183323711156827
leaf_count=5397 1931 1647 1317 599 6587 3117 632 576 689 2229 198 310 195 14398 270 388 502 44 1774 11246 18 423 537 1407 71 789 1877 690 498 10
internal_value=0.0652154 0.0539994 0.0510574 0.0323282 0.058588 0.0268099 0.0314695 0.120366 0.1097 0.0279986 0.093341 0.0734063 0.105266 0.050211 0.0371817 0.0394657 0.0486588 -0.0277199 0.0549635 0.0171243 0.0341988 0.0329306 0.0362542 0.0307311 0.0946069 -0.0219331 0.0480234 0.0234693 -0.0317448 0.0503301
internal_weight=22424.7 18634.9 17459 5006.79 12452.2 4591.51 4276.61 3789.79 2642.29 4073.14 415.282 4497.15 389.779 7955.06 2821.58 2767.97 1404.58 107.1 1297.48 2668.56 2511.5 2496.01 2397.73 2190.4 207.325 372.935 947.098 2295.63 182.227 80.6831
internal_count=60366 57170 55523 23840 31683 22848 19731 3196 2620 19099 992 8774 794 22909 8511 8241 4549 546 4003 14550 7853 7835 7412 6804 608 2106 2187 12444 1198 508
is_linear=0
shrinkage=0.1


Tree=11
num_leaves=31
num_cat=0
split_feature=189 130 30 186 61 179 194 29 190 123 125 35 30 27 124 30 24 52 92 33 29 33 134 30 24 32 42 25 3 7
split_gain=1275.02 204.687 196.734 134.914 117.956 116.338 103.888 101.92 109.455 99.0321 94.755 83.5356 77.9229 100.174 76.791 80.8023 76.3615 97.6955 67.7636 67.657 65.7866 74.0651 63.2996 61.7504 61.6699 60.6855 75.861 62.9243 69.5732 67.7949
threshold=1.0000000180025095e-35 1.0000000180025095e-35 82.500000000000014 1.0000000180025095e-35 18.500000000000004 1.0000000180025095e-35 3.5000000000000004 16.500000000000004 1.0000000180025095e-35 4.5000000000000009 1.5000000000000002 75.500000000000014 25.500000000000004 4.5000000000000009 2.5000000000000004 64.500000000000014 31.500000000000004 3.5000000000000004 1.0000000180025095e-35 27.500000000000004 49.500000000000007 37.500000000000007 1.0000000180025095e-35 678.50000000000011 11.500000000000002 48.500000000000007 2.5000000000000004 93.500000000000014 11.500000000000002 45.500000000000007
decision_type=2 2 2 2 2 2 2 2 2 2 2 2 2 2 2 2 2 2 2 2 2 2 2 2 2 2 2 2 2 2
left_child=1 2 3 10 9 11 7 -2 -9 18 12 14 -1 16 15 -3 17 -14 -4 -6 21 25 -17 -8 -15 26 -20 -27 29 -29
right_child=6 5 4 -5 19 -7 23 8 -10 -11 -12 -13 13 24 -16 22 -18 -19 20 -21 -22 -23 -24 -25 -26 27 -28 28 -30 -31
leaf_value=0.052158561246111595 0.11879563224241092 0.07212114514189015 -0.0077667047308786069 0.095342151776952447 -0.056228001444225809 0.13002128314856057 0.12899626537539544 0.0073811933116151654 0.090844077731719597 0.07761825421900323 0.066991560162239158 -0.040938672778415279 0.0064725473875540023 -0.056945026325055208 0.097941194404666948 0.032917705623025588 -0.070931453089829108 0.2664814864571779 -0.0026672162123415073 0.080116842703854621 -0.11767345592294205 0.22619338455648591 0.08573417861949742 -0.014393093977375274 0.0406572378224382 0.045098532580667983 0.23625222906858256 -0.06790218893260995 0.39034691768219237 0.16918356045349794
leaf_weight=3833.4019609242678 759.91222830116749 2034.9191911965609 624.63001540675759 592.5440296381712 263.95810690149665 271.08026257902384 2088.7849298417568 219.02656947076321 555.97349826991558 351.62821634113789 1806.6672571599483 76.719196408987045 509.30079473555088 65.884300291538239 586.02201183885336 1315.1875260323286 133.24036782234907 14.873009890317915 596.9973947070539 42.215052150189877 30.044725138694048 19.328339472413063 274.22831748425961 30.471639856696129 3717.8921596258879 1534.6889159157872 13.592295348644255 108.63708557933569 3.8466228842735282 13.567339316010473
leaf_count=9040 595 3615 4022 762 2290 243 1312 491 674 894 3301 531 2081 255 822 4439 877 31 2849 235 307 53 743 124 11881 6869 37 900 6 87
internal_value=0.0585269 0.0480392 0.0421488 0.0489691 0.0219447 0.0664886 0.112585 0.0927726 0.0672562 0.0274584 0.0462435 0.0624713 0.0417134 0.0326976 0.0643556 0.0589251 -0.00333287 0.0138501 0.0214701 -0.0374288 0.0293393 0.0312675 0.0420303 0.126935 0.0389578 0.0296088 0.00265135 0.03952 -0.0283997 -0.0415805
internal_weight=22489.3 18835.1 14276.9 10673.8 3603.13 4558.16 3654.17 1534.91 775 3296.96 10081.3 4287.08 8274.59 4441.19 4210.36 3624.34 657.414 524.174 2945.33 306.173 2320.7 2290.66 1589.42 2119.26 3783.78 2271.33 610.59 1660.74 126.051 122.204
internal_count=60366 57170 46777 28228 18549 10393 3196 1760 1165 16024 27466 10150 24165 15125 9619 8797 2989 2112 15130 2525 11108 10801 5182 1436 12136 10748 2886 7862 993 987
is_linear=0
shrinkage=0.1


Tree=12
num_leaves=31
num_cat=0
split_feature=193 197 30 106 228 30 33 61 30 24 123 109 12 30 18 3 30 24 96 32 35 81 27 57 116 64 64 29 34 12
split_gain=1185.48 169.194 163.88 153.958 134.468 104.322 128.795 89.9979 88.9387 84.0199 81.9244 76.3207 76.8839 74.5464 72.7526 69.8535 69.7441 69.3648 67.3895 65.9724 65.3282 92.4762 81.1264 77.1496 63.113 61.2903 60.8456 62.6583 68.8251 70.8148
threshold=1.5000000000000002 1.5000000000000002 155.50000000000003 1.0000000180025095e-35 1.0000000180025095e-35 31.500000000000004 12.500000000000002 8.5000000000000018 45.500000000000007 142.50000000000003 2.5000000000000004 1.5000000000000002 57.500000000000007 361.50000000000006 49.500000000000007 3.5000000000000004 170.50000000000003 115.50000000000001 1.0000000180025095e-35 192.50000000000003 37.500000000000007 6.5000000000000009 22.500000000000004 5.5000000000000009 1.0000000180025095e-35 23.500000000000004 5.5000000000000009 19.500000000000004 24.500000000000004 27.500000000000004
decision_type=2 2 2 2 2 2 2 2 2 2 2 2 2 2 2 2 2 2 2 2 2 2 2 2 2 2 2 2 2 2
left_child=2 4 3 5 8 24 9 20 -2 17 13 12 15 -10 -9 16 -4 26 25 -17 22 -22 23 -8 -1 -18 27 -7 -29 -30
right_child=1 -3 11 -5 -6 6 7 14 10 -11 -12 -13 -14 -15 -16 19 18 -19 -20 -21 21 -23 -24 -25 -26 -27 -28 28 29 -31
leaf_value=0.045929839474117495 0.10456128720453009 0.12187868771564295 -0.057712565177950037 0.067750272544015555 0.13548823608901236 0.025275491794522549 0.05653470311133818 0.016290029812470214 0.052222293421725068 0.4058392686240021 0.095703743406636912 0.068029079964828321 -0.028354045491610094 -0.068991279164424199 -0.11294025238658019 0.075956010564642476 0.0077167886304609461 -0.12105056613400247 0.13678232437862975 -0.084791334038631219 0.0094665249301270436 0.19137704269250799 -0.062881156190554496 0.20073155117444785 0.074594949851448544 0.41468419574965598 0.11168535455336626 -0.036735370122185355 -0.0012837386345199656 0.10300139998747311
leaf_weight=4953.3597936183214 649.82787208259106 1823.7142121866345 147.22731429338455 2400.1609745323658 407.45181748270988 3167.4873873218894 2877.2834398150444 220.77943111211061 1129.3868447542191 5.6418699026107779 481.6139030456543 222.56271789222956 473.74098405987024 53.123436197638512 54.271919265389442 272.82629964873195 672.07931396737695 34.727984145283699 44.666309706866741 28.167342811822891 534.55338357388973 29.487209282815456 56.223043128848076 37.588852569460869 909.05082333087921 3.7210902571678153 72.467456214129925 379.21920815110207 258.8624579384923 86.998472645878792
leaf_count=11750 611 1236 898 4654 237 10871 7662 815 1992 16 551 713 4089 277 344 1249 4178 278 139 232 2266 62 240 69 1407 9 202 1869 1109 341
internal_value=0.0526909 0.0983099 0.0411353 0.0443902 0.0825156 0.0402911 0.0327274 0.0458893 0.0731879 0.020207 0.0609368 0.013075 0.00562828 0.0467769 -0.00920912 0.0194034 0.00500415 0.019663 0.0178203 0.0609131 0.0501762 0.0189765 0.0560993 0.0583942 0.0503748 0.00995763 0.0208955 0.0192052 -0.00731244 0.0249483
internal_weight=22488.3 4545.12 17943.2 16078.2 2721.4 13678 7815.59 3810.19 2313.95 4005.4 1664.12 1864.99 1642.43 1182.51 275.051 1168.69 867.694 3999.76 720.467 300.994 3535.14 564.041 2971.1 2914.87 5862.41 675.8 3965.03 3892.57 725.08 345.861
internal_count=60366 4904 55462 43955 3668 39301 26144 11458 3431 14686 2820 11507 10794 2269 1159 6705 5224 14670 4326 1481 10299 2328 7971 7731 13157 4187 14392 14190 3319 1450
is_linear=0
shrinkage=0.1


Tree=13
num_leaves=31
num_cat=0
split_feature=189 200 29 61 137 106 214 6 118 12 193 29 190 65 126 139 12 41 9 31 2 30 56 16 30 29 93 22 66 7
split_gain=1107.82 172.127 148.785 127.445 153.814 132.15 110.693 106.781 102.624 100.658 87.517 96.2799 84.1712 82.8646 75.5746 68.8428 63.8552 60.4211 59.6344 57.2819 58.695 64.7458 60.3698 56.0815 66.0171 55.4748 53.641 64.2402 58.2636 52.9797
threshold=1.0000000180025095e-35 1.5000000000000002 35.500000000000007 1.5000000000000002 1.5000000000000002 1.0000000180025095e-35 1.0000000180025095e-35 73.500000000000014 21.500000000000004 10.500000000000002 5.5000000000000009 16.500000000000004 1.0000000180025095e-35 1.5000000000000002 517952.00000000006 2.5000000000000004 11.500000000000002 6.5000000000000009 4.5000000000000009 32.500000000000007 2.5000000000000004 53.500000000000007 1.0000000180025095e-35 22.500000000000004 256.50000000000006 26.500000000000004 1.5000000000000002 25.500000000000004 1.5000000000000002 22.500000000000004
decision_type=2 2 2 2 2 2 2 2 2 2 2 2 2 2 2 2 2 2 2 2 2 2 2 2 2 2 2 2 2 2
left_child=1 2 3 4 5 9 7 10 15 19 11 -2 -13 -5 -11 -4 -16 18 -15 25 -21 -22 -23 24 26 -1 27 -20 -28 -18
right_child=6 -3 8 13 -6 -7 -8 -9 -10 14 -12 12 -14 17 16 -17 29 -19 23 20 21 22 -24 -25 -26 -27 28 -29 -30 -31
leaf_value=0.04346209567027938 0.10340724112194932 0.075880927837053302 -0.019768052097963482 -0.034971992886119983 0.074610414196341804 0.0656941933500403 0.12872448180284513 -0.054711554642354748 0.13225872276489664 -0.0075808818487063103 0.11642091785808224 0.00051898765365174595 0.073721826408359156 0.022411011423045649 -0.043848716137383004 0.078129266504265715 0.038628817250692754 -0.071179225595970216 0.038361198902582883 0.0087328847197184652 -0.10032210124996897 0.11665435271867371 -0.14978605393623221 -0.02049985435779585 0.19859902964075282 0.21126224510158359 0.097895061010538284 -0.13694032891504584 -0.044321189930736721 -0.092179546745845956
leaf_weight=6375.4485074356198 695.76467180252075 1137.6842629685998 807.33332347124815 233.48651693761349 1366.9235151261091 1606.0551145225763 977.18946744501591 50.762312106788158 52.949087858200073 829.84171056747437 896.81722067296505 224.62308726459742 522.33682805299759 3319.5765467211604 108.77297982573509 78.847234170883894 1373.6624485179782 62.597397558391094 186.52700415998697 885.58282850310206 18.498359717428684 128.14006009697914 9.1084074601531011 84.474359974265099 35.636783637106419 19.763095088303089 288.9143728017807 23.542761325836182 31.997445374727249 31.676685106009245
leaf_count=15421 601 1647 5693 883 2513 3264 576 201 51 3561 644 504 670 11609 424 304 5071 435 648 3389 80 354 48 426 131 55 660 141 120 242
internal_value=0.0474857 0.0381606 0.0357711 0.0379091 0.0429142 0.0391091 0.100369 0.0887763 -0.00297739 0.0347436 0.0918896 0.0766406 0.0517085 0.0229487 0.0166738 -0.0110577 0.029967 0.0263017 0.0278385 0.0404391 0.0186893 0.0753016 0.0989722 0.0555102 0.0668422 0.0439806 0.0579993 0.018715 0.083715 0.0356804
internal_weight=22464.5 19097 17959.4 17020.2 12753.5 11386.6 3367.49 2390.3 939.13 9780.5 2339.54 1442.72 746.96 4266.75 2343.95 886.181 1514.11 4033.27 3970.67 7436.54 1041.33 155.747 137.248 651.093 566.618 6395.21 530.982 210.07 320.912 1405.34
internal_count=60366 57170 55523 49475 34422 31909 3196 2620 6048 28645 2419 1775 1174 15053 9298 5997 5737 14170 13735 19347 3871 482 402 2126 1700 15476 1569 789 780 5313
is_linear=0
shrinkage=0.1


Tree=14
num_leaves=31
num_cat=0
split_feature=189 228 124 30 186 221 16 30 33 26 191 32 36 126 3 14 29 125 0 24 6 17 20 91 25 15 15 32 26 54
split_gain=1014.49 166.586 135.254 168.24 119.632 110.352 101.665 92.4762 74.0433 80.7503 62.4817 61.3128 60.6983 59.9976 82.7966 76.162 71.576 63.9448 74.1726 65.6793 62.7348 59.8968 58.1486 57.106 60.6387 65.1542 67.7238 68.039 67.9902 61.0813
threshold=1.0000000180025095e-35 1.0000000180025095e-35 3.5000000000000004 81.500000000000014 1.0000000180025095e-35 1.0000000180025095e-35 19.500000000000004 320.50000000000006 8.5000000000000018 6.5000000000000009 1.0000000180025095e-35 39.500000000000007 4.5000000000000009 522962.50000000006 2.5000000000000004 38.500000000000007 36.500000000000007 1.5000000000000002 4.5000000000000009 156.50000000000003 24.500000000000004 4.5000000000000009 42.500000000000007 1.0000000180025095e-35 45.500000000000007 1.5000000000000002 2.5000000000000004 69.500000000000014 63.500000000000007 3.5000000000000004
decision_type=2 2 2 2 2 2 2 2 2 2 2 2 2 2 2 2 2 2 2 2 2 2 2 2 2 2 2 2 2 2
left_child=1 2 3 4 -1 6 10 8 9 -5 -2 -10 13 23 17 16 -16 19 -19 -15 21 -21 -11 24 25 -13 27 -27 -28 -26
right_child=5 -3 -4 7 -6 -7 -8 -9 11 22 -12 12 -14 14 15 -17 -18 18 -20 20 -22 -23 -24 -25 29 26 28 -29 -30 -31
leaf_value=0.033508348109094428 0.07272328858727363 0.12323317363763123 0.06912860598596314 0.16270745822283905 0.062743983249240243 0.12422112081274979 0.030542951973621942 -0.035892768617342273 -0.015117508347654286 -0.041260599982633969 0.10826632245634629 -0.11482369091439158 -0.12170828070164939 -0.013101680696374574 0.10258968763503123 -0.023461582481594207 0.0051136425146270769 0.07887214949966681 -0.03517809642171494 -0.13032657648995555 -0.11500655302779571 0.20979994883486963 0.060258590333133938 0.026778636381060268 -0.067128580815728381 0.2248309949471147 0.0018615171499789516 -0.14444024165942165 0.27544766739254156 0.09455933283209722
leaf_weight=11590.182276375592 933.53810283541679 207.65805332362652 991.84247536584735 23.593108773231506 1591.9062080383301 914.58492267131805 316.68524016439915 330.04441041126847 373.59222364425659 399.63291903585196 1051.8684383034706 30.606134481728077 27.084304936230183 422.8243847116828 438.33735498040915 72.483709461987019 90.963103219866753 284.52938836067915 71.315667562186718 6.0558161437511435 10.307492874562739 35.69929351657629 65.696529857814312 1675.3243926353753 207.11968420445919 30.744494572281837 174.30042339116335 5.9562783390283576 9.5830129012465459 26.335061728954315
leaf_count=30048 1102 141 1898 76 2299 576 689 3220 1671 2493 829 173 229 2057 1249 436 476 716 283 45 98 160 430 6530 1354 80 827 37 22 122
internal_value=0.0428628 0.0341526 0.0331783 0.0311968 0.0370389 0.0948355 0.0831611 0.015193 0.0189548 -0.0177769 0.091554 0.0234522 0.0274332 0.0285576 0.0444264 0.072673 0.0858379 0.0239644 0.0560151 -5.19348e-05 0.105931 0.160471 -0.0269278 0.0180332 -0.0121979 0.0219028 0.0408736 0.164901 0.0161194 -0.0488892
internal_weight=22410.4 19193.7 18986.1 17994.2 13182.1 3216.68 2302.09 4812.13 4482.08 488.923 1985.41 3993.16 3619.57 3592.49 1432.52 601.784 529.3 830.732 355.845 474.887 52.0626 41.7551 465.329 2159.97 484.645 251.19 220.584 36.7008 183.883 233.455
internal_count=60366 57170 57029 55131 32347 3196 2620 22784 19564 2999 1931 16565 14894 14665 5520 2161 1725 3359 999 2360 303 205 2923 9145 2615 1139 966 117 849 1476
is_linear=0
shrinkage=0.1


Tree=15
num_leaves=31
num_cat=0
split_feature=189 228 61 137 214 35 106 31 41 12 33 126 33 35 33 48 121 30 9 193 30 32 28 128 63 29 0 29 35 33
split_gain=921.162 149.439 127.111 128.923 111.407 107.769 110.819 93.2141 83.1487 80.1852 73.6845 86.356 70.546 75.8816 77.1868 69.3586 64.9584 67.5673 62.9483 62.2186 61.1085 65.1869 57.8655 55.8348 55.5591 55.4065 63.2371 53.6532 51.682 50.2582
threshold=1.0000000180025095e-35 1.0000000180025095e-35 1.5000000000000002 1.5000000000000002 1.0000000180025095e-35 53.500000000000007 1.0000000180025095e-35 68.500000000000014 7.5000000000000009 8.5000000000000018 12.500000000000002 515745.50000000006 6.5000000000000009 29.500000000000004 22.500000000000004 3.5000000000000004 2.5000000000000004 356.50000000000006 7.5000000000000009 3.5000000000000004 174.50000000000003 88.500000000000014 103.50000000000001 11968.500000000002 2.5000000000000004 36.500000000000007 76.500000000000014 38.500000000000007 22.500000000000004 13.500000000000002
decision_type=2 2 2 2 2 2 2 2 2 2 2 2 2 2 2 2 2 2 2 2 2 2 2 2 2 2 2 2 2 2
left_child=1 2 3 5 7 6 9 19 12 -1 -11 -12 -4 15 25 20 17 -9 23 28 21 -14 -7 -13 -10 -15 -27 29 -2 -20
right_child=4 -3 8 -5 -6 22 -8 16 24 10 11 18 13 14 -16 -17 -18 -19 27 -21 -22 -23 -24 -25 -26 26 -28 -29 -30 -31
leaf_value=0.03409793650107968 0.091380602264790486 0.11727381212105503 -0.015694010841460337 0.05848074060437905 0.12027056957825961 -0.045001381299412752 0.055894299091540256 0.028761269184386436 0.23730680742451643 -0.00018869245510915903 -0.020740402190008039 0.033770164001408934 0.029782891111192911 0.0030509421928267616 0.039447618256923868 0.099905927336970887 0.079874979983369954 -0.11036646982806726 0.15172270342131933 0.10924115793176639 -0.12752422693518178 0.19829931716846128 0.11516418677461034 0.082364326675613386 -0.10145783583922552 -0.067084221371721972 0.30200924264916029 0.27755477434909182 0.042412269187482102 -0.0892026320474818
leaf_weight=7059.1599345169961 514.61153356730938 196.9467571824789 558.36283271387219 1948.3248100504279 853.32473167777061 253.51648234575987 1692.2936059348285 249.40132950246334 5.1485321745276442 1591.0404258035123 264.64369793236256 764.43164760991931 2146.1410374194384 1308.7208467572927 564.483083948493 150.89142166078091 236.86729404330254 40.587428793311119 9.8623237237334234 808.50009147822857 24.410062279552221 23.203098073601723 24.76007679477334 342.33837465196848 81.120231848210096 169.47668534517288 4.7726597078144541 5.0066537857055655 370.85105447471142 70.934019554406404
leaf_count=17699 486 141 2311 3839 576 1810 3434 482 7 6311 1084 2626 5833 5574 2245 376 286 213 20 615 188 64 102 942 746 1387 34 22 538 375
internal_value=0.0387261 0.0306124 0.0297171 0.0346104 0.0895595 0.0307598 0.0322104 0.0777592 0.0160903 0.028245 0.0146906 0.0309364 0.0177864 0.0220428 0.00797699 0.0343257 0.0410233 0.00928866 0.042404 0.0891847 0.0298149 0.0315853 -0.0307504 0.048801 -0.0812403 -0.0040021 -0.0569748 -0.0401098 0.0708716 -0.0597943
internal_weight=22334.1 19260 19063 14026.3 3074.14 12078 11799.7 2220.82 5036.73 10107.4 3048.26 1457.22 4950.46 4392.1 2047.45 2344.65 526.856 289.989 1192.57 1693.96 2193.75 2169.34 278.277 1106.77 86.2688 1482.97 174.249 85.803 885.463 80.7963
internal_count=60366 57170 57029 38264 3196 34425 32513 2620 18765 29079 11380 5069 18012 15701 9240 6461 981 695 3985 1639 6085 5897 1912 3568 753 6995 1421 417 1024 395
is_linear=0
shrinkage=0.1


Tree=16
num_leaves=31
num_cat=0
split_feature=190 228 123 30 200 30 81 86 13 14 122 9 134 30 19 19 22 18 31 34 62 89 75 38 57 95 78 131 197 56
split_gain=855.132 231.851 134.392 152.156 110.351 106.188 99.7949 67.9275 66.1315 66.909 61.2349 77.1244 58.8004 56.4124 69.6976 58.1803 76.9653 56.3801 56.1204 106.254 54.5797 53.4127 52.9414 65.9535 92.2344 52.2303 83.6185 51.6876 51.49 48.4292
threshold=1.0000000180025095e-35 1.0000000180025095e-35 5.5000000000000009 320.50000000000006 1.5000000000000002 51.500000000000007 1.0000000180025095e-35 5.5000000000000009 57.500000000000007 65.500000000000014 1.0000000180025095e-35 4.5000000000000009 1.0000000180025095e-35 204.50000000000003 23.500000000000004 33.500000000000007 65.500000000000014 227.50000000000003 29.500000000000004 29.500000000000004 2.5000000000000004 3.5000000000000004 5.5000000000000009 2.5000000000000004 7.5000000000000009 12.500000000000002 7.5000000000000009 1.0000000180025095e-35 2.5000000000000004 1.0000000180025095e-35
decision_type=2 2 2 2 2 2 2 2 2 2 2 2 2 2 2 2 2 2 2 2 2 2 2 2 2 2 2 2 2 2
left_child=1 2 3 4 5 6 7 10 9 12 11 18 21 -4 -15 -16 27 28 19 -1 -12 -7 23 24 -23 26 -5 -17 -2 -8
right_child=17 -3 13 25 -6 8 29 -9 -10 -11 20 -13 -14 14 15 16 -18 -19 -20 -21 -22 22 -24 -25 -26 -27 -28 -29 -30 -31
leaf_value=0.024477378558296022 0.081407670472824281 0.11506938764478039 0.093159374020848562 -0.030321416295016376 0.056925864918448858 0.011425326079963525 0.057445319711469822 -0.14520870935244706 -0.1214996751610084 0.28457534020080216 0.049322205411011087 -0.055636382770564756 0.057442320452027365 -0.1534929244556324 0.15310190181960104 -0.097430974885070173 0.1130189322233885 -0.01193463569460324 -0.017937899583764055 0.16612588830655869 -0.014778347747133517 0.043873191989046968 -0.15000326662914115 0.21574736576181897 -0.11045547126686917 -0.11680316505776656 0.25980447996587386 0.049927438256375391 0.11240163632882855 0.024554856443231157
leaf_weight=5299.0004153773189 1084.9255955815315 304.88802915811539 428.02201329171658 282.15839793533087 1150.6247719749808 6444.5777767375112 1836.4938848987222 23.078445091843605 34.73870937153697 9.3190473988652212 1499.3695351779461 125.8870600014925 334.81459849327803 18.829285267740488 41.445842243731022 55.506744224578142 55.913817368447781 48.843770205974579 308.98275586217642 53.491420850157738 145.74538061022758 808.47797232866287 14.78698745369911 21.031261220574379 40.674022294580936 69.048786625266075 10.296642284840344 41.675021462142467 1059.3986190855503 591.98756088316441
leaf_count=13212 1185 221 492 2682 1679 24937 3529 88 290 14 2691 458 830 112 82 357 95 161 1099 91 390 2323 83 39 265 676 43 81 802 1359
internal_value=0.0350159 0.0285314 0.0271952 0.0256836 0.026923 0.0249607 0.0318217 0.026087 0.0161631 0.0167863 0.0266188 0.0217794 0.0164607 0.0722202 0.0302162 0.047997 0.0195432 0.0943003 0.0235008 0.025893 0.0436434 0.0145887 0.0376252 0.0408136 0.0364809 -0.0385762 -0.0201068 -0.0342384 0.0967202 0.0494277
internal_weight=22244 20050.9 19746 19104.6 18743.1 17592.5 9884.04 7455.56 7708.42 7673.68 7432.48 5787.36 7664.36 641.393 213.371 194.541 153.096 2193.17 5661.47 5352.49 1645.11 7329.55 884.97 870.183 849.152 361.504 292.455 97.1818 2144.32 2428.48
internal_count=60366 58218 57997 56778 53377 51698 22917 18029 28781 28491 17941 14860 28477 1219 727 615 533 2148 14402 13303 3081 27647 2710 2627 2588 3401 2725 438 1987 4888
is_linear=0
shrinkage=0.1


Tree=17
num_leaves=31
num_cat=0
split_feature=190 228 123 29 130 61 186 13 122 30 111 15 221 16 135 52 63 30 24 64 81 47 122 30 33 34 89 29 24 30
split_gain=773.881 209.57 113.91 124.62 105.939 71.1038 60.9608 60.808 59.7475 62.5583 58.9667 59.296 58.0388 55.304 53.3313 50.2521 51.0161 50.1733 74.156 50.1642 72.2292 48.9005 48.4684 70.057 62.9165 75.3393 59.1926 54.5016 59.1002 54.8255
threshold=1.0000000180025095e-35 1.0000000180025095e-35 5.5000000000000009 35.500000000000007 1.0000000180025095e-35 9.5000000000000018 1.0000000180025095e-35 20.500000000000004 1.0000000180025095e-35 59.500000000000007 1.0000000180025095e-35 7.5000000000000009 1.0000000180025095e-35 19.500000000000004 1.5000000000000002 1.0000000180025095e-35 17.500000000000004 299.50000000000006 247.50000000000003 5.5000000000000009 1.5000000000000002 3.5000000000000004 1.5000000000000002 28.500000000000004 12.500000000000002 56.500000000000007 3.5000000000000004 34.500000000000007 148.50000000000003 153.50000000000003
decision_type=2 2 2 2 2 2 2 2 2 2 2 2 2 2 2 2 2 2 2 2 2 2 2 2 2 2 2 2 2 2
left_child=1 2 3 4 5 6 21 -8 15 -10 14 -12 13 -2 17 16 -6 18 -5 -7 -21 22 23 -1 26 27 -25 29 -29 -26
right_child=12 -3 -4 10 8 19 7 -9 9 -11 11 -13 -14 -15 -16 -17 -18 -19 -20 20 -22 -23 -24 24 25 -27 -28 28 -30 -31
leaf_value=0.026795957918869486 0.086806699708658161 0.11059589570979347 0.066322720359663301 -0.027957316736238497 0.033490654480382458 -0.030961545469195214 0.055246596039387287 -0.081534182165341584 0.072893272846742033 0.036325489580276323 -0.034884544545395302 0.042944262049967166 0.11574360168705947 0.030775240658323412 0.16992388616051421 -0.005477084333384257 0.27479283190874598 -0.097155266567657869 0.2954148187958302 0.055898005119111464 -0.053865146108724386 0.097979368968375002 0.034704407277653337 -0.00021235236984880383 0.02993529555149449 -0.055803214100763991 0.074199361466771654 0.04991213367398236 0.41573897846542363 -0.038924490372091294
leaf_weight=4596.0593671947718 1267.4800586551428 286.4559126496315 628.85432579368353 410.48762815073133 1839.7318685650826 438.57930262386799 757.1065140068531 33.959934547543526 817.73887231945992 1093.3195766434073 150.10864360630512 281.40875179693103 608.12083573639393 204.58752577751875 12.575229588896034 375.71107040345669 8.8035604804754239 114.24959251657128 7.2162157930433741 199.50731336697936 85.705881372094154 81.454714231193066 1953.6044329889119 3484.6286358200014 2027.6629409715533 114.37539169192314 110.28500450029969 10.803857184946539 7.4690759629011145 122.61702474206686
leaf_count=10437 1265 221 1219 2483 3999 2402 1214 123 1044 2332 991 1179 466 417 34 1116 10 1383 41 811 467 206 4518 13566 6405 748 330 50 21 868
internal_value=0.0316989 0.0256756 0.0244448 0.0230685 0.0249395 0.0207919 0.022453 0.0493747 0.0390052 0.0519728 -0.0117403 0.0158706 0.0897554 0.0790195 -0.0336208 0.0278634 0.0346398 -0.0384325 -0.0223708 -0.00973151 0.0229144 0.0207504 0.0202442 0.0175471 0.0103152 0.0232981 0.00207046 0.0274701 0.199444 0.0260087
internal_weight=22130.7 20050.5 19764 19135.2 18159.1 14023.8 13300 791.066 4135.3 1911.06 976.046 431.517 2080.19 1472.07 544.529 2224.25 1848.54 531.953 417.704 723.792 285.213 12509 12427.5 10473.9 5877.84 2282.93 3594.91 2168.55 18.2729 2150.28
internal_count=60366 58218 57997 56778 50667 42166 38486 1337 8501 3376 6111 2170 2148 1682 3941 5125 4009 3907 2524 3680 1278 37149 36943 32425 21988 8092 13896 7344 71 7273
is_linear=0
shrinkage=0.1


Tree=18
num_leaves=31
num_cat=0
split_feature=190 228 124 30 193 30 81 197 86 200 13 32 24 121 20 29 33 34 24 31 92 50 64 61 29 82 81 61 17 26
split_gain=697.404 189.22 97.6415 108.976 98.3206 77.569 70.0614 62.9945 61.5368 58.356 53.113 56.4398 58.8076 51.2313 58.653 83.7417 73.2307 62.7537 71.4579 62.4309 60.5047 55.9746 61.4364 69.5647 57.5954 54.5659 60.5138 60.6769 53.4814 53.2165
threshold=1.0000000180025095e-35 1.0000000180025095e-35 3.5000000000000004 51.500000000000007 1.5000000000000002 320.50000000000006 1.0000000180025095e-35 2.5000000000000004 3.5000000000000004 5.5000000000000009 57.500000000000007 34.500000000000007 4.5000000000000009 1.0000000180025095e-35 49.500000000000007 36.500000000000007 8.5000000000000018 35.500000000000007 129.50000000000003 69.500000000000014 1.5000000000000002 4.5000000000000009 7.5000000000000009 8.5000000000000018 21.500000000000004 1.0000000180025095e-35 1.5000000000000002 18.500000000000004 9.5000000000000018 81.500000000000014
decision_type=2 2 2 2 2 2 2 2 2 2 2 2 2 2 2 2 2 2 2 2 2 2 2 2 2 2 2 2 2 2
left_child=1 2 3 4 6 9 8 -2 -1 10 11 -5 -13 21 15 16 19 18 -18 -15 -21 22 23 -14 -24 29 27 -27 -22 -25
right_child=7 -3 -4 5 -6 -7 -8 -9 -10 -11 -12 12 13 14 -16 -17 17 -19 -20 20 28 -23 24 25 -26 26 -28 -29 -30 -31
leaf_value=0.021153827582454904 0.068213387159022462 0.10647839957670112 0.052040579416249649 -0.0042001244042110981 0.068494082583951829 -0.035550911802805778 0.040135423717375628 0.10397513990705132 -0.067148071496470715 0.09010760005781876 -0.10441732371146557 0.20373775127507404 0.010908452122829128 -0.053658339318770933 0.06025898417750139 -0.044687309133678486 0.046562383263635036 0.014250767226818624 -0.088342828326476219 -0.13159602580003724 0.081491298798371331 -0.098113483621149133 0.19672582737499866 -0.10765549215349671 0.00061705956743179577 0.020621938598051184 -0.066933220808125929 0.30958471451575686 0.41692283025221039 0.068202446597967759
leaf_weight=7248.3941205590963 1022.4901699870825 268.702392116189 1025.3794678784907 1466.0158570073545 548.96761164069176 329.59620357677341 2318.9967366456985 950.41044400632381 79.790233328938484 99.333233684301376 38.347102221101522 16.909573219716549 2359.2233582958579 198.80043673142791 406.61301471665502 188.56313548609614 1439.5897463858128 1585.5865573547781 40.364761218428612 11.644484065473078 34.988060191273689 50.323261316865683 33.101916573941708 124.63986403867602 27.349210187792778 19.697616584599022 33.050584390759468 11.514670372009276 5.5005724132060996 19.963858559727669
leaf_count=17565 1269 221 1970 5266 643 3329 4765 879 250 105 310 27 9893 877 1440 979 3429 4731 253 81 135 394 58 861 134 98 232 42 8 122
internal_value=0.0287138 0.0231266 0.0219933 0.020349 0.0273288 0.0120162 0.0249863 0.085441 0.0201924 0.0139256 0.0129927 0.0135504 0.0174887 0.0170109 0.0243072 0.0201365 0.0238221 0.0280735 0.0428829 -0.0281155 0.0692874 0.00635686 0.00835694 0.00601135 0.108003 -0.0493032 0.0273686 0.127225 0.127061 -0.0833767
internal_weight=22003.8 20030.9 19762.2 18736.9 10196.1 8540.72 9647.18 1972.9 7328.18 8211.12 8111.79 8073.44 6607.42 6590.52 3911.65 3505.04 3316.47 3065.54 1479.95 250.934 52.1331 2678.86 2628.54 2568.09 60.4511 208.867 64.2629 31.2123 40.4886 144.604
internal_count=60366 58218 57997 56027 23223 32804 22580 2148 17815 29475 29370 29060 23794 23767 11933 10493 9514 8413 3682 1101 224 11834 11440 11248 192 1355 372 140 143 983
is_linear=0
shrinkage=0.1


Tree=19
num_leaves=31
num_cat=0
split_feature=190 228 51 123 140 29 9 214 14 31 122 52 200 30 27 18 122 27 30 34 125 89 32 25 31 61 24 29 121 7
split_gain=624.228 170.669 88.4227 99.8322 76.1983 77.4733 67.9398 65.927 60.5139 60.1286 59.0666 62.1376 57.8512 52.6055 108.913 57.5491 54.8021 70.7598 59.1732 57.5236 63.0463 56.3101 66.9993 65.553 63.3708 52.4179 58.0876 57.0495 52.0691 49.9498
threshold=1.0000000180025095e-35 1.0000000180025095e-35 12.500000000000002 5.5000000000000009 1.5000000000000002 32.500000000000007 10.500000000000002 1.0000000180025095e-35 15.500000000000002 45.500000000000007 1.0000000180025095e-35 1.0000000180025095e-35 1.5000000000000002 19.500000000000004 3.5000000000000004 8.5000000000000018 1.5000000000000002 23.500000000000004 38.500000000000007 73.500000000000014 4.5000000000000009 3.5000000000000004 115.50000000000001 81.500000000000014 70.500000000000014 1.5000000000000002 166.50000000000003 45.500000000000007 1.5000000000000002 49.500000000000007
decision_type=2 2 2 2 2 2 2 2 2 2 2 2 2 2 2 2 2 2 2 2 2 2 2 2 2 2 2 2 2 2
left_child=1 2 3 4 5 6 12 9 -7 -2 11 -10 13 15 -15 -1 17 21 -18 -20 -21 29 24 -24 -23 27 -27 -13 -11 -16
right_child=7 -3 -4 -5 -6 8 -8 -9 10 28 -12 25 -14 14 16 -17 18 -19 19 20 -22 22 23 -25 -26 26 -28 -29 -30 -31
leaf_value=0.034124102724398496 0.086427102764672872 0.1026378908214709 -0.041788143982842016 0.060837034342951062 0.053690271230867663 -0.043664691327887459 -0.093431269420777896 0.11116329217533186 -0.068103629993228595 0.011396368033487281 0.026347954676790537 0.0025909918129220768 0.046882418126647306 -0.020521626466158169 0.013494281155398753 -0.0057682813414892987 0.067124560873575434 -0.10046703009537755 0.021710424675550642 0.16022326938642428 -0.082352255105153427 0.053757153077570688 0.3434763577987705 -0.0066435193005105649 -0.096172547727304492 0.055995770100935718 -0.11978451930079402 0.3918429664146274 0.07413903247715789 0.2670417699147975
leaf_weight=3163.9252836555243 818.56836850941181 251.76176638901234 230.54088082909584 595.08884579688311 620.98503474518657 324.85725450888276 52.875091556459665 526.87308660149574 168.59095445647836 261.15610011667013 544.82085928693414 7.318370293825863 770.10225360095501 773.95225165784359 9025.3637227490544 408.29101806879044 389.73964165151119 53.047728177160025 2056.0051813907921 56.392518315464258 13.227526169270275 352.805689137429 14.791564751416447 8.3756586946547014 30.639509182423353 60.014974571764469 27.374141279608011 7.7551676221191883 268.00367081910372 7.7765865623950949
leaf_count=6432 835 221 1780 1062 1184 1926 273 466 1346 532 2652 43 1133 3137 28190 983 517 312 4961 98 60 905 35 59 194 323 324 26 315 42
internal_value=0.0259905 0.0208227 0.0197806 0.0205072 0.01924 0.0180721 0.019748 0.0811699 -0.00716398 0.0694445 0.00736953 -0.0307773 0.0200975 0.0188362 0.015838 0.0295646 0.0181815 0.014704 0.0313052 0.0247376 0.114135 0.0153512 0.0517546 0.216897 0.0417769 0.030639 0.000933599 0.202857 0.0431737 0.0137126
internal_weight=21891 20016.4 19764.7 19534.1 18939 18318 17177.3 1874.6 1140.73 1347.73 815.874 271.054 17124.4 16354.3 12782.1 3572.22 12008.2 9492.8 2515.36 2125.63 69.62 9439.75 406.612 23.1672 383.445 102.463 87.3891 15.0735 529.16 9033.14
internal_count=60366 58218 57997 56217 55155 53971 47331 2148 6640 1682 4714 2062 47058 45925 38510 7415 35373 29737 5636 5119 158 29425 1193 94 1099 716 647 69 847 28232
is_linear=0
shrinkage=0.1


Tree=20
num_leaves=31
num_cat=0
split_feature=194 191 197 30 123 30 122 186 9 25 112 121 33 30 22 30 128 25 18 30 128 30 18 22 14 15 26 24 11 17
split_gain=564.681 111.077 87.9866 81.2021 81.801 82.425 88.948 68.2398 57.1395 54.0343 61.5228 50.9046 50.6137 69.4486 55.9401 54.4206 49.5946 52.5073 63.9872 53.7036 45.0625 44.9575 44.5504 67.2613 47.8131 46.1896 42.5778 43.5707 48.2646 43.5681
threshold=2.5000000000000004 1.0000000180025095e-35 1.5000000000000002 494.50000000000006 5.5000000000000009 51.500000000000007 1.0000000180025095e-35 1.0000000180025095e-35 4.5000000000000009 54.500000000000007 1.0000000180025095e-35 5.5000000000000009 9.5000000000000018 27.500000000000004 2.5000000000000004 29.500000000000004 11357.000000000002 17.500000000000004 33.500000000000007 48.500000000000007 12127.500000000002 47.500000000000007 18.500000000000004 7.5000000000000009 12.500000000000002 3.5000000000000004 21.500000000000004 31.500000000000004 3.5000000000000004 3.5000000000000004
decision_type=2 2 2 2 2 2 2 2 2 2 2 2 2 2 2 2 2 2 2 2 2 2 2 2 2 2 2 2 2 2
left_child=1 3 9 4 5 6 8 12 11 -2 -11 16 13 -8 15 -15 17 18 19 21 -16 26 23 -19 -24 -25 27 28 29 -1
right_child=2 -3 -4 -5 -6 -7 7 -9 -10 10 -12 -13 -14 14 20 -17 -18 22 -20 -21 -22 -23 24 25 -26 -27 -28 -29 -30 -31
leaf_value=0.014520989821716943 0.066058801816231791 0.068948114570712593 0.095053305887758122 -0.061531527048047652 0.056222401874351728 0.0092678765818601481 0.035693324066065103 0.073166994486287426 -0.038738232401524686 -0.042591163509150008 0.055736025247418733 -0.18726857275265557 0.045255841402475593 0.07762230179541435 0.0087931817910953287 -0.17466770801335585 0.025856503576218388 -0.055846429352374993 0.17282466097645208 -0.11985097966615202 -0.098899894106687161 0.13818907175154047 -0.12326791067370622 0.091297086638018887 0.0091053758584761085 -0.026136268589275615 0.11926190161337596 -0.1024669135629343 0.074365510423856834 -0.025517598824333989
leaf_weight=2101.6700985133648 849.02192554622889 423.66604636609554 971.28673743456602 130.16519954428077 536.34091977402568 8392.3092343732715 826.73440793156624 443.48734186589718 182.30107861757278 110.57936918735504 149.889084815979 12.063192993402479 1255.5191270858049 11.226522639393805 452.43029673397541 35.861349999904633 3874.6561776474118 126.22479254007339 25.065529599785805 30.400322616100311 42.504580810666084 28.750727772712708 77.11935705691576 84.607022635638714 42.227211616933346 55.441201150417328 36.794669643044472 33.447221115231514 119.82522292435169 312.14004814624786
leaf_count=5050 1042 502 1049 1553 912 31513 1431 501 606 338 227 51 2154 21 1040 158 9227 470 28 141 141 53 339 176 135 166 62 148 235 897
internal_value=0.0235331 0.0182984 0.0730755 0.0171847 0.0177201 0.01661 0.0226448 0.0368866 0.016528 0.0538354 0.0139922 0.0179754 0.0307554 0.0174546 -0.0103645 -0.114518 0.0183318 0.00884626 0.0137966 0.0122998 -0.000455407 0.0138258 -0.0256618 -0.00290625 -0.0764316 0.0448085 0.0124526 0.0109217 0.0124186 0.00934343
internal_weight=21773.8 19693 2080.78 19269.3 19139.1 18602.8 10210.5 3067.76 7142.73 1109.49 260.468 6960.43 2624.28 1368.76 542.023 47.0879 6948.37 3073.71 2688.09 2663.03 494.935 2632.63 385.62 266.273 119.347 140.048 2603.88 2567.08 2533.64 2413.81
internal_count=60366 57710 2656 57208 55655 54743 23230 5446 17784 1607 565 17178 4945 2791 1360 179 17127 7900 6614 6586 1181 6445 1286 812 474 342 6392 6330 6182 5947
is_linear=0
shrinkage=0.1


end of trees

feature_importances:
click_item_num_90d=76
click_cate1_num_90d=30
click_item_num_60d=24
click_brand_num_90d=23
pay_brand_num_90d=21
click_cnt_days_60d=20
click_cate1_num_60d=18
click_item_num_30d=15
click_cnt_days_90d=13
c2_clk_num_90d=12
click_seller_num_90d=11
pay_item_num_90d=11
cb_clk_item_90d=11
click_seller_num_60d=10
clt_item_num_90d=10
pay_seller_num_90d=10
pay_cate1_num_90d=10
click_cate1_num_7d=9
click_item_num_15d=9
click_brand_num_60d=9
click_cate2_num_90d=9
c2_clk_item_90d=9
c2_pay_item_90d=9
c2_clk_item_15d=8
clt_item_num_60d=7
c2_clk_item_7d=7
click_item_num_7d=6
click_brand_num_15d=6
click_seller_num_15d=6
click_cate1_num_15d=6
click_cate2_num_15d=6
click_cnt_days_15d=6
cart_cate1_num_60d=6
pay_item_num_60d=6
brand_cart_num=6
c2_clk_item_3d=6
c2_cart_item_90d=6
click_item_num_3d=5
click_cate1_num_3d=5
clt_cate1_num_90d=5
cart_item_num_30d=5
cart_item_num_60d=5
brand_click_num=5
c2_clk_day_90d=5
click_brand_num_30d=4
click_cate2_num_30d=4
click_cnt_days_30d=4
clt_seller_num_90d=4
cart_brand_num_90d=4
pay_item_num_15d=4
pay_cate2_num_90d=4
cb_clk_num_90d=4
c2_clk_num_7d=4
click_brand_num_7d=3
click_seller_num_30d=3
clt_brand_num_30d=3
clt_brand_num_60d=3
cb_clk_item_60d=3
cb_clk_item_7d=3
c2_clk_item_60d=3
c2_cart_num_90d=3
click_seller_num_3d=2
click_cnt_days_7d=2
click_cate2_num_60d=2
clt_item_num_7d=2
clt_brand_num_7d=2
clt_brand_num_90d=2
clt_cate2_num_90d=2
cart_item_num_3d=2
cart_cate2_num_30d=2
cart_item_num_90d=2
cart_seller_num_90d=2
cart_cate1_num_90d=2
pay_cate1_num_15d=2
pay_item_num_30d=2
pay_cate2_num_30d=2
pay_seller_num_60d=2
cb_clk_item_3d=2
cb_pay_item_90d=2
c2_clk_item_30d=2
c2_clk_num_60d=2
click_brand_num_3d=1
click_seller_num_7d=1
clt_item_num_3d=1
clt_seller_num_3d=1
clt_brand_num_15d=1
clt_seller_num_15d=1
clt_cate2_num_15d=1
clt_item_num_30d=1
clt_cate1_num_30d=1
clt_seller_num_60d=1
cart_item_num_7d=1
cart_seller_num_7d=1
cart_cate2_num_7d=1
cart_seller_num_15d=1
cart_cate2_num_15d=1
cart_brand_num_30d=1
cart_brand_num_60d=1
cart_cate2_num_90d=1
pay_item_num_3d=1
pay_brand_num_30d=1
pay_brand_num_60d=1
cb_clk_item_1d=1
cb_clk_num_60d=1
cb_clk_num_30d=1
cb_clk_num_15d=1
cb_clk_day_15d=1
cb_pay_num_90d=1
c2_clk_num_30d=1

parameters:
[boosting: gbdt]
[objective: binary]
[metric: auc]
[tree_learner: serial]
[device_type: cpu]
[data_sample_strategy: bagging]
[data: ]
[valid: ]
[num_iterations: 3]
[learning_rate: 0.1]
[num_leaves: 31]
[num_threads: -1]
[seed: 42]
[deterministic: 0]
[force_col_wise: 0]
[force_row_wise: 0]
[histogram_pool_size: -1]
[max_depth: -1]
[min_data_in_leaf: 20]
[min_sum_hessian_in_leaf: 0.001]
[bagging_fraction: 0.8]
[pos_bagging_fraction: 1]
[neg_bagging_fraction: 1]
[bagging_freq: 5]
[bagging_seed: 400]
[bagging_by_query: 0]
[feature_fraction: 0.9]
[feature_fraction_bynode: 1]
[feature_fraction_seed: 30056]
[extra_trees: 0]
[extra_seed: 12879]
[early_stopping_round: 0]
[early_stopping_min_delta: 0]
[first_metric_only: 0]
[max_delta_step: 0]
[lambda_l1: 0]
[lambda_l2: 0]
[linear_lambda: 0]
[min_gain_to_split: 0]
[drop_rate: 0.1]
[max_drop: 50]
[skip_drop: 0.5]
[xgboost_dart_mode: 0]
[uniform_drop: 0]
[drop_seed: 17869]
[top_rate: 0.2]
[other_rate: 0.1]
[min_data_per_group: 100]
[max_cat_threshold: 32]
[cat_l2: 10]
[cat_smooth: 10]
[max_cat_to_onehot: 4]
[top_k: 20]
[monotone_constraints: ]
[monotone_constraints_method: basic]
[monotone_penalty: 0]
[feature_contri: ]
[forcedsplits_filename: ]
[refit_decay_rate: 0.9]
[cegb_tradeoff: 1]
[cegb_penalty_split: 0]
[cegb_penalty_feature_lazy: ]
[cegb_penalty_feature_coupled: ]
[path_smooth: 0]
[interaction_constraints: ]
[verbosity: -1]
[saved_feature_importance_type: 0]
[use_quantized_grad: 0]
[num_grad_quant_bins: 4]
[quant_train_renew_leaf: 0]
[stochastic_rounding: 1]
[linear_tree: 0]
[max_bin: 255]
[max_bin_by_feature: ]
[min_data_in_bin: 3]
[bin_construct_sample_cnt: 200000]
[data_random_seed: 175]
[is_enable_sparse: 1]
[enable_bundle: 1]
[use_missing: 1]
[zero_as_missing: 0]
[feature_pre_filter: 1]
[pre_partition: 0]
[two_round: 0]
[header: 0]
[label_column: ]
[weight_column: ]
[group_column: ]
[ignore_column: ]
[categorical_feature: ]
[forcedbins_filename: ]
[precise_float_parser: 0]
[parser_config_file: ]
[objective_seed: 16083]
[num_class: 1]
[is_unbalance: 0]
[scale_pos_weight: 9.9891]
[sigmoid: 1]
[boost_from_average: 1]
[reg_sqrt: 0]
[alpha: 0.9]
[fair_c: 1]
[poisson_max_delta_step: 0.7]
[tweedie_variance_power: 1.5]
[lambdarank_truncation_level: 30]
[lambdarank_norm: 1]
[label_gain: ]
[lambdarank_position_bias_regularization: 0]
[eval_at: ]
[multi_error_top_k: 1]
[auc_mu_weights: ]
[num_machines: 1]
[local_listen_port: 12400]
[time_out: 120]
[machine_list_filename: ]
[machines: ]
[gpu_platform_id: -1]
[gpu_device_id: -1]
[gpu_use_dp: 0]
[num_gpu: 1]

end of parameters

pandas_categorical:[]
