tree
version=v4
num_class=1
num_tree_per_iteration=1
label_index=0
max_feature_idx=241
objective=binary sigmoid:1
feature_names=click_item_num_3d click_brand_num_3d click_seller_num_3d click_cate1_num_3d click_cate2_num_3d click_cnt_days_3d click_item_num_7d click_brand_num_7d click_seller_num_7d click_cate1_num_7d click_cate2_num_7d click_cnt_days_7d click_item_num_15d click_brand_num_15d click_seller_num_15d click_cate1_num_15d click_cate2_num_15d click_cnt_days_15d click_item_num_30d click_brand_num_30d click_seller_num_30d click_cate1_num_30d click_cate2_num_30d click_cnt_days_30d click_item_num_60d click_brand_num_60d click_seller_num_60d click_cate1_num_60d click_cate2_num_60d click_cnt_days_60d click_item_num_90d click_brand_num_90d click_seller_num_90d click_cate1_num_90d click_cate2_num_90d click_cnt_days_90d clt_item_num_3d clt_brand_num_3d clt_seller_num_3d clt_cate1_num_3d clt_cate2_num_3d clt_item_num_7d clt_brand_num_7d clt_seller_num_7d clt_cate1_num_7d clt_cate2_num_7d clt_item_num_15d clt_brand_num_15d clt_seller_num_15d clt_cate1_num_15d clt_cate2_num_15d clt_item_num_30d clt_brand_num_30d clt_seller_num_30d clt_cate1_num_30d clt_cate2_num_30d clt_item_num_60d clt_brand_num_60d clt_seller_num_60d clt_cate1_num_60d clt_cate2_num_60d clt_item_num_90d clt_brand_num_90d clt_seller_num_90d clt_cate1_num_90d clt_cate2_num_90d cart_item_num_3d cart_brand_num_3d cart_seller_num_3d cart_cate1_num_3d cart_cate2_num_3d cart_item_num_7d cart_brand_num_7d cart_seller_num_7d cart_cate1_num_7d cart_cate2_num_7d cart_item_num_15d cart_brand_num_15d cart_seller_num_15d cart_cate1_num_15d cart_cate2_num_15d cart_item_num_30d cart_brand_num_30d cart_seller_num_30d cart_cate1_num_30d cart_cate2_num_30d cart_item_num_60d cart_brand_num_60d cart_seller_num_60d cart_cate1_num_60d cart_cate2_num_60d cart_item_num_90d cart_brand_num_90d cart_seller_num_90d cart_cate1_num_90d cart_cate2_num_90d pay_item_num_3d pay_brand_num_3d pay_seller_num_3d pay_cate1_num_3d pay_cate2_num_3d pay_item_num_7d pay_brand_num_7d pay_seller_num_7d pay_cate1_num_7d pay_cate2_num_7d pay_item_num_15d pay_brand_num_15d pay_seller_num_15d pay_cate1_num_15d pay_cate2_num_15d pay_item_num_30d pay_brand_num_30d pay_seller_num_30d pay_cate1_num_30d pay_cate2_num_30d pay_item_num_60d pay_brand_num_60d pay_seller_num_60d pay_cate1_num_60d pay_cate2_num_60d pay_item_num_90d pay_brand_num_90d pay_seller_num_90d pay_cate1_num_90d pay_cate2_num_90d brand_click_num brand_collect_num brand_cart_num brand_alipay_num cb_clk_item_90d cb_clk_item_60d cb_clk_item_30d cb_clk_item_15d cb_clk_item_7d cb_clk_item_3d cb_clk_item_1d cb_clk_num_90d cb_clk_num_60d cb_clk_num_30d cb_clk_num_15d cb_clk_num_7d cb_clk_num_3d cb_clk_num_1d cb_clk_day_90d cb_clk_day_60d cb_clk_day_30d cb_clk_day_15d cb_clk_day_7d cb_clk_day_3d cb_clk_day_1d cb_clt_item_90d cb_clt_item_60d cb_clt_item_30d cb_clt_item_15d cb_clt_item_7d cb_clt_item_3d cb_clt_item_1d cb_cart_item_90d cb_cart_item_60d cb_cart_item_30d cb_cart_item_15d cb_cart_item_7d cb_cart_item_3d cb_cart_item_1d cb_cart_num_90d cb_cart_num_60d cb_cart_num_30d cb_cart_num_15d cb_cart_num_7d cb_cart_num_3d cb_cart_num_1d cb_pay_item_90d cb_pay_item_60d cb_pay_item_30d cb_pay_item_15d cb_pay_item_7d cb_pay_item_3d cb_pay_item_1d cb_pay_num_90d cb_pay_num_60d cb_pay_num_30d cb_pay_num_15d cb_pay_num_7d cb_pay_num_3d cb_pay_num_1d c2_clk_item_90d c2_clk_item_60d c2_clk_item_30d c2_clk_item_15d c2_clk_item_7d c2_clk_item_3d c2_clk_item_1d c2_clk_num_90d c2_clk_num_60d c2_clk_num_30d c2_clk_num_15d c2_clk_num_7d c2_clk_num_3d c2_clk_num_1d c2_clk_day_90d c2_clk_day_60d c2_clk_day_30d c2_clk_day_15d c2_clk_day_7d c2_clk_day_3d c2_clk_day_1d c2_clt_item_90d c2_clt_item_60d c2_clt_item_30d c2_clt_item_15d c2_clt_item_7d c2_clt_item_3d c2_clt_item_1d c2_cart_item_90d c2_cart_item_60d c2_cart_item_30d c2_cart_item_15d c2_cart_item_7d c2_cart_item_3d c2_cart_item_1d c2_cart_num_90d c2_cart_num_60d c2_cart_num_30d c2_cart_num_15d c2_cart_num_7d c2_cart_num_3d c2_cart_num_1d c2_pay_item_90d c2_pay_item_60d c2_pay_item_30d c2_pay_item_15d c2_pay_item_7d c2_pay_item_3d c2_pay_item_1d c2_pay_num_90d c2_pay_num_60d c2_pay_num_30d c2_pay_num_15d c2_pay_num_7d c2_pay_num_3d c2_pay_num_1d
feature_infos=[0:10368] [0:3002] [0:3168] [0:83] [0:1378] [0:4] [0:14154] [0:5052] [0:5698] [0:86] [0:1651] [0:8] [0:25483] [0:8237] [0:9353] [0:86] [0:2301] [0:16] [0:64968] [0:16398] [0:19553] [0:87] [0:3369] [0:31] [0:85166] [0:19814] [0:23730] [0:87] [0:3712] [0:61] [1:120679] [0:24008] [1:28816] [1:87] [1:4024] [1:91] [0:80] [0:52] [0:52] [0:14] [0:26] [0:123] [0:54] [0:54] [0:16] [0:39] [0:207] [0:87] [0:87] [0:26] [0:59] [0:316] [0:274] [0:280] [0:43] [0:156] [0:480] [0:408] [0:421] [0:49] [0:213] [0:705] [0:410] [0:424] [0:49] [0:213] [0:126] [0:62] [0:60] [0:10] [0:23] [0:127] [0:63] [0:61] [0:17] [0:31] [0:167] [0:80] [0:80] [0:22] [0:61] [0:228] [0:112] [0:110] [0:31] [0:90] [0:354] [0:183] [0:180] [0:43] [0:125] [0:485] [0:294] [0:290] [0:48] [0:172] [0:137] [0:26] [0:79] [0:14] [0:80] [0:260] [0:42] [0:133] [0:19] [0:109] [0:449] [0:66] [0:183] [0:29] [0:151] [0:712] [0:149] [0:246] [0:35] [0:180] [0:1051] [0:240] [0:304] [0:43] [0:212] [0:1490] [0:315] [0:375] [0:48] [0:239] [463831:551775] [9774:16559] [10774:12182] [4413:5636] [0:745] [0:619] [0:477] [0:250] [0:221] [0:84] [0:42] [0:1110] [0:1095] [0:930] [0:604] [0:264] [0:132] [0:71] [0:91] [0:61] [0:31] [0:16] [0:8] [0:4] [0:2] [0:11] [0:9] [0:9] [0:9] [0:6] [0:4] [0:2] [0:23] [0:22] [0:15] [0:11] [0:11] [0:11] [0:5] [0:33] [0:31] [0:23] [0:20] [0:20] [0:20] [0:10] [0:51] [0:33] [0:19] [0:12] [0:8] [0:6] [0:4] [0:57] [0:35] [0:21] [0:12] [0:9] [0:6] [0:4] [0:317] [0:311] [0:290] [0:281] [0:279] [0:278] [0:278] [0:948] [0:826] [0:601] [0:361] [0:349] [0:346] [0:346] [0:85] [0:60] [0:31] [0:16] [0:8] [0:4] [0:2] [0:8] [0:7] [0:5] [0:4] [0:4] [0:4] [0:4] [0:32] [0:31] [0:19] [0:10] [0:7] [0:7] [0:4] [0:52] [0:44] [0:25] [0:13] [0:12] [0:12] [0:10] [0:23] [0:21] [0:15] [0:10] [0:5] [0:5] [0:5] [0:51] [0:47] [0:30] [0:19] [0:13] [0:5] [0:5]
tree_sizes=3393 3422 3408

Tree=0
num_leaves=31
num_cat=0
split_feature=187 30 116 195 31 124 30 30 30 33 123 130 30 121 121 33 33 190 122 193 130 193 116 31 24 18 116 94 31 30
split_gain=42230 10293.2 4310.5 4007.35 2355.97 2284.85 2187 1172.91 1117.39 1074.51 979.84 966.786 943.569 825.768 800.58 657.804 646.392 597.255 585.398 564.357 559.176 423.687 420.317 409.237 402.948 397.401 386.729 374.991 371.075 362.972
threshold=1.0000000180025095e-35 84.500000000000014 1.0000000180025095e-35 1.5000000000000002 75.500000000000014 2.5000000000000004 34.500000000000007 156.50000000000003 280.50000000000006 45.500000000000007 2.5000000000000004 1.0000000180025095e-35 31.500000000000004 1.0000000180025095e-35 4.5000000000000009 6.5000000000000009 8.5000000000000018 1.0000000180025095e-35 1.0000000180025095e-35 1.0000000180025095e-35 1.0000000180025095e-35 2.5000000000000004 10.500000000000002 18.500000000000004 70.500000000000014 67.500000000000014 1.5000000000000002 5.5000000000000009 140.50000000000003 226.50000000000003
decision_type=2 2 2 2 2 2 2 2 2 2 2 2 2 2 2 2 2 2 2 2 2 2 2 2 2 2 2 2 2 2
left_child=1 2 6 4 18 7 19 13 20 17 12 15 -4 -3 28 -8 -14 25 24 23 22 -9 -7 -1 -2 -5 -27 -11 -6 -20
right_child=3 5 10 9 14 8 11 21 -10 27 -12 -13 16 -15 -16 -17 -18 -19 29 -21 -22 -23 -24 -25 -26 26 -28 -29 -30 -31
leaf_value=-1.8201455447301977 -1.5478105266607636 -2.1682048153560824 -1.6082790165447916 -1.3550734120194576 -1.8774450431532341 -1.9225959625491797 -2.2114058666269893 -2.243055054221835 -2.1487234629243712 -2.336956612468728 -1.5210550942721928 -1.812511482318609 -1.9913699416976314 -1.9926169073405515 -1.5482595488373516 -2.0033877289998121 -1.7539782076789387 -1.2462979483774614 -1.4026516433564824 -1.5155839138971574 -1.5464407704469181 -1.7228062234951649 -1.517489001065051 -1.9479942076500749 -1.8653034025825723 -2.050909309166189 -1.4759604129693493 -1.2710843732983228 -2.2048781744080879 -2.1272903429634153
leaf_weight=1471.271455898881 318.05245237052441 509.10277542471886 384.2792429998517 284.61075733602047 99.131585918366909 169.58062412589788 179.71466507762671 830.20126761496067 110.23750237375498 13.399482786655428 270.35458882898092 233.47055327892303 145.03309565782547 565.16666167229414 55.54348611831665 986.38458702713251 548.42841255664825 848.70797566324472 415.86027956008911 54.632681466639042 78.521168485283852 15.954734124243258 30.167871423065662 301.71325349062681 45.72073919326067 16.620991431176662 39.506033569574356 4.3795665875077239 53.178025148808956 7.0292621180415145
leaf_count=9957 1373 5040 1868 735 722 1304 1849 8778 1072 153 1102 1564 1205 4702 240 8302 3385 1361 1252 220 338 94 122 2389 328 147 145 8 544 67
internal_value=-1.8064 -1.92832 -1.84145 -1.42518 -1.57382 -2.10045 -1.90419 -2.14519 -1.87928 -1.30273 -1.69127 -1.99826 -1.73397 -2.07583 -1.87325 -2.03545 -1.80363 -1.2912 -1.4947 -1.83215 -1.77254 -2.23325 -1.86141 -1.8419 -1.58771 -1.40303 -1.64622 -2.0744 -1.99177 -1.4147
internal_weight=9085.96 6884.22 4575.28 2201.74 994.516 2308.93 3227.19 1920.43 388.507 1207.22 1348.1 1399.57 1077.74 1074.27 207.853 1166.1 693.462 1189.45 786.663 1827.62 278.27 846.156 199.748 1772.98 363.773 340.738 56.127 17.779 152.31 422.89
internal_count=60366 53291 31841 7075 4526 21450 24281 18614 2836 2549 7560 11715 6458 9742 1506 10151 4590 2388 3020 12566 1764 8872 1426 12346 1701 1027 292 161 1266 1319
is_linear=0
shrinkage=1


Tree=1
num_leaves=31
num_cat=0
split_feature=186 30 122 30 122 189 30 30 27 15 130 228 89 131 31 31 34 30 186 30 27 31 32 116 19 71 56 34 86 20
split_gain=7293.36 3555.3 1197.82 1064.46 905.686 679.037 666.502 590.906 459.086 356.406 327.841 316.993 277.641 268.534 257.298 243.029 240.402 240.009 216.41 205.343 313.143 200.194 236.093 197.557 195.184 189.749 187.29 186.173 182.122 179.293
threshold=1.0000000180025095e-35 103.50000000000001 1.5000000000000002 39.500000000000007 1.5000000000000002 1.0000000180025095e-35 366.50000000000006 222.50000000000003 4.5000000000000009 5.5000000000000009 1.0000000180025095e-35 1.0000000180025095e-35 1.5000000000000002 1.0000000180025095e-35 45.500000000000007 131.50000000000003 23.500000000000004 256.50000000000006 1.5000000000000002 21.500000000000004 3.5000000000000004 35.500000000000007 36.500000000000007 1.0000000180025095e-35 6.5000000000000009 5.5000000000000009 7.5000000000000009 185.50000000000003 1.0000000180025095e-35 18.500000000000004
decision_type=2 2 2 2 2 2 2 2 2 2 2 2 2 2 2 2 2 2 2 2 2 2 2 2 2 2 2 2 2 2
left_child=1 2 3 10 17 7 9 11 16 26 19 14 13 21 -2 -7 -5 -3 25 -1 24 22 -10 -16 -21 -9 -6 -8 -20 -23
right_child=5 4 -4 8 6 15 27 18 12 -11 -12 -13 -14 -15 23 -17 -18 -19 28 20 -22 29 -24 -25 -26 -27 -28 -29 -30 -31
leaf_value=0.3017632018163845 0.37755363508233603 0.087299377017360957 0.37101114604253138 0.029247262893039073 0.19882488825809541 0.43069279416252293 -0.025655120966626574 -0.012828969980245703 0.18525860199471483 0.31078574068733267 0.3775844478666317 0.50246473325233376 0.27988704308124018 0.29637198498774103 0.21861423542408703 0.30262056361702361 0.31231592868215396 -0.026794350974858064 -0.046458413002261861 0.055489408463306057 0.26810964090230277 0.078728287252974233 0.3253355777963165 0.34791122805121233 0.28163218639530518 0.39592512141644387 -0.013202867654166273 0.53706775445942834 0.33305319204665124 0.19214346753882694
leaf_weight=1689.8407936841249 1059.6651771366596 993.51332229375839 1025.6293675377965 204.65522906184196 252.45893879979849 2600.9263997450471 128.47538856416941 69.248073361814022 650.66892541199923 363.43891379982233 373.91366333514452 149.8862447142601 523.69120518863201 227.77835514396429 216.82822642475367 157.11652681976557 35.156133212149143 226.38902816176414 14.956011928617952 122.49663266539574 1199.2750954926014 290.70538640767336 147.62153209745884 259.72192630916834 55.439511455595493 13.584664955735205 49.89447857439518 6.1612643077969542 81.824351198971272 267.7828676700592
leaf_count=7444 2517 8861 3332 1864 1739 2668 1324 622 4321 1939 1418 127 2846 1104 1134 528 198 2437 142 869 6149 2270 768 775 303 43 452 31 322 1819
internal_value=0.29012 0.236866 0.271406 0.253759 0.120361 0.391878 0.203017 0.345284 0.20185 0.244052 0.289182 0.363652 0.216763 0.1959 0.350109 0.423397 0.0707449 0.0661259 0.172856 0.278404 0.249742 0.179033 0.211162 0.289082 0.125949 0.0542072 0.163836 9.62944e-05 0.274405 0.133108
internal_weight=13458.7 8834.99 6814.65 5789.03 2020.33 4623.76 800.429 1865.71 2348.06 665.792 3440.97 1686.1 2108.25 1584.56 1536.22 2758.04 239.811 1219.9 179.613 3067.05 1377.21 1356.78 798.29 476.55 177.936 82.8327 302.353 134.637 96.7804 558.488
internal_count=60366 51488 34705 31373 16783 8878 5485 5682 15190 4130 16183 4553 13128 10282 4426 3196 2062 11298 1129 14765 7321 9178 5089 1909 1172 665 2191 1355 464 4089
is_linear=0
shrinkage=0.1


Tree=2
num_leaves=31
num_cat=0
split_feature=186 30 122 30 124 193 31 30 124 30 122 30 121 191 33 62 27 35 28 33 136 42 130 30 31 9 6 13 29 13
split_gain=3960.23 1911.52 734.558 605.517 532.679 421.959 388.556 365.117 367.646 317.532 330.438 222.027 198.327 194.488 163.653 161.919 161.501 195.275 165.478 152.052 150.386 134.992 134.269 157.174 142.413 131.116 126.043 145.577 125.478 140.727
threshold=1.0000000180025095e-35 122.50000000000001 1.0000000180025095e-35 39.500000000000007 6.5000000000000009 2.5000000000000004 42.500000000000007 320.50000000000006 1.5000000000000002 51.500000000000007 2.5000000000000004 361.50000000000006 4.5000000000000009 1.0000000180025095e-35 45.500000000000007 2.5000000000000004 6.5000000000000009 38.500000000000007 18.500000000000004 8.5000000000000018 1.5000000000000002 1.5000000000000002 1.0000000180025095e-35 118.50000000000001 57.500000000000007 4.5000000000000009 14.500000000000002 17.500000000000004 35.500000000000007 20.500000000000004
decision_type=2 2 2 2 2 2 2 2 2 2 2 2 2 2 2 2 2 2 2 2 2 2 2 2 2 2 2 2 2 2
left_child=1 2 3 25 7 6 -2 8 20 15 19 12 13 21 -7 -4 18 22 26 -11 -3 -8 24 -24 -18 -1 -5 -28 -10 -30
right_child=5 4 9 16 -6 14 11 -9 28 10 -12 -13 -14 -15 -16 -17 17 -19 -20 -21 -22 -23 23 -25 -26 -27 27 -29 29 -31
leaf_value=0.20337674822428858 0.28015810096632521 0.052437859360990005 0.27383747336160363 0.077272076729170885 0.36998239012612999 0.3076340843139227 0.16813361254172465 -0.027213977386299184 0.18746780010873135 0.091634552738403999 0.27326183587699232 0.0037167751438424261 0.30215926410883781 0.2983702220426877 0.085950986387860889 0.16567784625675103 0.15270670914815621 0.026255560082249458 -0.11508490151958217 0.19011045953483516 0.68684582921362969 -0.053616307548525102 0.21076544387828805 0.73207605736795722 0.003250784579648672 0.051771455705805838 0.29048488543638262 -0.050387375928811311 -0.057516406990274452 0.15916316185820809
leaf_weight=3255.4614527598023 1540.5648381188512 878.47639822214842 1577.1564219370484 410.95272520929575 62.8272360637784 3277.233722910285 466.67544511705637 297.35153900831938 405.6411065980792 186.52128067612648 475.6509753242135 56.150941103696823 178.81318862736225 117.11112813651562 33.642982736229897 151.72538948059082 975.89691750705242 120.72914732992649 38.990877509117126 983.83911395072937 3.752512775361537 29.168229311704636 262.36773727089167 5.9138027578592292 68.21253027766943 58.063590034842491 59.110813312232494 15.898503616452215 49.79705572873354 75.295383028686047
leaf_count=13183 2522 7725 4378 3057 167 3167 1948 3106 2182 1170 1157 394 277 159 211 607 5764 962 350 4388 13 200 1113 15 571 328 316 148 386 402
internal_value=0.215251 0.178592 0.197988 0.174667 0.0840093 0.282271 0.250235 0.0735043 0.0947 0.234416 0.20298 0.195869 0.209496 0.182464 0.305381 0.264345 0.130579 0.14796 0.0831267 0.174416 0.0551363 0.155089 0.159156 0.222257 0.142943 0.20072 0.0990301 0.218236 0.160466 0.0729069
internal_weight=16119 10419.6 8646.49 5271.6 1773.14 5699.36 2388.48 1710.31 1412.96 3374.89 1646.01 847.919 791.768 612.955 3310.88 1728.88 1958.07 1433.12 524.953 1170.36 882.229 495.844 1312.39 268.282 1044.11 3313.53 485.962 75.0093 530.734 125.092
internal_count=60366 51488 37507 25807 13981 8878 5500 13814 10708 11700 6715 2978 2584 2307 3378 4985 12296 8425 3871 5558 7738 2148 7463 1128 6335 13511 3521 464 2970 788
is_linear=0
shrinkage=0.1


end of trees

feature_importances:
click_item_num_90d=18
click_brand_num_90d=8
click_cate1_num_90d=5
pay_brand_num_90d=5
pay_item_num_60d=4
cb_clk_item_90d=4
click_cate1_num_60d=3
pay_item_num_90d=3
pay_cate1_num_90d=3
c2_clk_item_90d=3
c2_clk_num_90d=3
click_brand_num_15d=2
click_cate2_num_90d=2
click_item_num_7d=1
click_cate1_num_7d=1
click_cate1_num_15d=1
click_item_num_30d=1
click_brand_num_30d=1
click_seller_num_30d=1
click_item_num_60d=1
click_cate2_num_60d=1
click_cnt_days_60d=1
click_seller_num_90d=1
click_cnt_days_90d=1
clt_brand_num_7d=1
clt_item_num_60d=1
clt_brand_num_90d=1
cart_item_num_7d=1
cart_item_num_60d=1
cart_cate1_num_60d=1
cart_cate1_num_90d=1
pay_seller_num_90d=1
cb_clk_item_60d=1
cb_clk_item_1d=1
c2_clk_item_60d=1
c2_clk_item_15d=1
c2_clk_item_7d=1
c2_clk_item_3d=1
c2_clk_num_30d=1
c2_pay_item_90d=1

parameters:
[boosting: gbdt]
[objective: binary]
[metric: auc]
[tree_learner: serial]
[device_type: cpu]
[data_sample_strategy: bagging]
[data: ]
[valid: ]
[num_iterations: 3]
[learning_rate: 0.1]
[num_leaves: 31]
[num_threads: -1]
[seed: 42]
[deterministic: 0]
[force_col_wise: 0]
[force_row_wise: 0]
[histogram_pool_size: -1]
[max_depth: -1]
[min_data_in_leaf: 20]
[min_sum_hessian_in_leaf: 0.001]
[bagging_fraction: 0.8]
[pos_bagging_fraction: 1]
[neg_bagging_fraction: 1]
[bagging_freq: 5]
[bagging_seed: 400]
[bagging_by_query: 0]
[feature_fraction: 0.9]
[feature_fraction_bynode: 1]
[feature_fraction_seed: 30056]
[extra_trees: 0]
[extra_seed: 12879]
[early_stopping_round: 0]
[early_stopping_min_delta: 0]
[first_metric_only: 0]
[max_delta_step: 0]
[lambda_l1: 0]
[lambda_l2: 0]
[linear_lambda: 0]
[min_gain_to_split: 0]
[drop_rate: 0.1]
[max_drop: 50]
[skip_drop: 0.5]
[xgboost_dart_mode: 0]
[uniform_drop: 0]
[drop_seed: 17869]
[top_rate: 0.2]
[other_rate: 0.1]
[min_data_per_group: 100]
[max_cat_threshold: 32]
[cat_l2: 10]
[cat_smooth: 10]
[max_cat_to_onehot: 4]
[top_k: 20]
[monotone_constraints: ]
[monotone_constraints_method: basic]
[monotone_penalty: 0]
[feature_contri: ]
[forcedsplits_filename: ]
[refit_decay_rate: 0.9]
[cegb_tradeoff: 1]
[cegb_penalty_split: 0]
[cegb_penalty_feature_lazy: ]
[cegb_penalty_feature_coupled: ]
[path_smooth: 0]
[interaction_constraints: ]
[verbosity: -1]
[saved_feature_importance_type: 0]
[use_quantized_grad: 0]
[num_grad_quant_bins: 4]
[quant_train_renew_leaf: 0]
[stochastic_rounding: 1]
[linear_tree: 0]
[max_bin: 255]
[max_bin_by_feature: ]
[min_data_in_bin: 3]
[bin_construct_sample_cnt: 200000]
[data_random_seed: 175]
[is_enable_sparse: 1]
[enable_bundle: 1]
[use_missing: 1]
[zero_as_missing: 0]
[feature_pre_filter: 1]
[pre_partition: 0]
[two_round: 0]
[header: 0]
[label_column: ]
[weight_column: ]
[group_column: ]
[ignore_column: ]
[categorical_feature: ]
[forcedbins_filename: ]
[precise_float_parser: 0]
[parser_config_file: ]
[objective_seed: 16083]
[num_class: 1]
[is_unbalance: 0]
[scale_pos_weight: 9.9891]
[sigmoid: 1]
[boost_from_average: 1]
[reg_sqrt: 0]
[alpha: 0.9]
[fair_c: 1]
[poisson_max_delta_step: 0.7]
[tweedie_variance_power: 1.5]
[lambdarank_truncation_level: 30]
[lambdarank_norm: 1]
[label_gain: ]
[lambdarank_position_bias_regularization: 0]
[eval_at: ]
[multi_error_top_k: 1]
[auc_mu_weights: ]
[num_machines: 1]
[local_listen_port: 12400]
[time_out: 120]
[machine_list_filename: ]
[machines: ]
[gpu_platform_id: -1]
[gpu_device_id: -1]
[gpu_use_dp: 0]
[num_gpu: 1]

end of parameters

pandas_categorical:[]
